tree
version=v4
num_class=1
num_tree_per_iteration=1
label_index=0
max_feature_idx=30
objective=regression
feature_names=total_actions num_passes num_successful_passes pass_success_rate num_carries carry_ratio num_recoveries num_tackles num_interceptions unique_players last_end_x last_end_y last_pass_end_x last_pass_end_y field_zone_x field_zone_y distance_to_goal distance_from_center avg_pass_distance max_pass_distance min_pass_distance avg_pass_dx avg_pass_dy avg_pass_forward forward_pass_ratio total_x_progress total_y_progress duration avg_action_interval is_home team_id
feature_infos=[1:269] [1:147] [0:134] [0:1] [0:68] [0:0.5] [0:20] [0:10] [0:12] [1:24] [0:105] [0:68] [0.036124094999999898:105] [0:68] [0:2] [0:2] [0.18974828064833804:109.51311153086641] [0.30556289912389728:62.547981582142199] [0:88.552441124848087] [0:92.863733358967437] [0:88.552441124848087] [-61.786063499999997:88.075364999999991] [-65.665471600000004:63.022242240000004] [-61.786063499999997:88.075364999999991] [0:1] [-96.894650999999996:95.518647000000001] [-67.050651999999999:66.895193800000001] [0:676.17299999999977] [0:52.013307692307677] [0:1] [316:4657]
tree_sizes=4367 3675 4815 3993 4718 4729 4464 4987 4633 4482 4799 4397 3993 4847 3925 4413 3735 4261 4349 4660 3585 4555 4343 3738 4570 4579 4246 4504 4942 3914 4170 4163 4003 4478 4075 4080 4163 4582 3759 4332 4006 3586 4082 4491 4435 4177 3766 4241 4728 4826 4574 3938 4502 3932 4256 4104 4407 4071 3927 4109 4440 4575 4419 3931 4415 4423 4523 4529 4672 4675 4686 3508 4524 4277 4533 4288 3612 4098 4684 3866 4160 4330 4608 3516 4939 4247 4516 4418 3939 4725 4033 3927 4110 4187 3086 4522 4327 4392 4343 3780 3606 4093 4364 4380 4180 4277 3115 3846 4541 4262 4129 4270 4207 3785 3915 3540 4877 3782 4376 4022 3794 4131 4107 4043 4463 4707 3274 3612 4293 4197 3854 3177 3699 3928 3794 3784 4207 3798 3260 3939 4524 4118 4213 4036 3753 3445 4363 2819 3782 4349 2825 3445 3712 2827 4116 3784 4101 3695 3691 3709 4213 3580 4018 3337 4411 4206 3892 3191 3354 2512 4040 3516 3763 3571 3687 3849 3600 2936 3880 3260 3259 3919 3761 3848 4331 3842 3786 2593 4032 2842 3183 3610 3507 3607 3615 4210 3088 2913 4045 3161 3619 3930 3617 4221 2734 3200 3896 3430 3287 3682 2937 3378 4125 2331 3542 3008 2075 3094 3541 2437 3601 3600 3264 3696 2403 3274 3444 3703 3596 3427 3118 2244 4045 3601 2928 3782 3531 3091 2064 3015 3179 2944 3029 3374 2995 2950 3016 4028 2153 2314 2925 3702 3187 3288 3113 3207 2744 1801 3370 3026 3793 2737 3608 3014 4075 3181 3489 3443 3601 2319 3092 3451 3961 3182 3529 3182 2517 2853 3376 3771 3271 3627 3036 2948 2489 3443 2377 2302 3222 3247 3273 3107 2148 3186 3625 3443 2056 2845 2317 3304 3170 3180 2947 1196 2936 2728 2396 2485 3616 3275 1780 2653 1812 1699 1983 3929 3539 2926 2845 2925 2056 3009 3011 2499 2842 2662 2659 2668 3466 3092 4294 3731 3754 2146 3616 2387 4214 2749 3281 2596 2581 2321 2501 2489 2745 2325 2126 3287 2053 2469 2917 2921 2121 1900 2076 1966 1901 3329 1635 3241 1805 1368 2056 1359 3037 1969 1810 2152 1821 3194 1800 3096 2653 2047 2791 2635 1656 3361 3707 3687 1544 2069 1471 1446 2232 2814 3329 3779 1869 2932 1867 1979 2048 1786 1979 2241 1740 2079 1988 2068 1689 1785 1196 1712 2860 2850 1369 861 3067 1373 3088 3011 2122 3293 2288 2064 1371 1540 1196 1288 1367 2046 1947 2128 3468 2823 4155 3430 2684 2280 2149 2238 2465 2228 1972 2074 1958 3340 3571 2147 2035 2386 1710 2060 2589 2922 3102 2956 2947 1210 2084 1293 1950 1300 1777 1713 1476 1372 1544 2859 3361 3457 1775 2047 1894 2338 1209 1904 2319 2402 2230 3269 1289 1376 1616 1618 1876 1604 1660 1542 1898 1283 1451 1979 1808 3292 3210 2684 2479 2220 2557 1891 2567 1999 2577 2308 1827 1552 1870 1729 1990 1293 2402 1304 1650 2080 1987 1628 2837 2155 2116 1962 3252 2397 2056 2227 2679 2318 3028 1981 2324 2570 2479 3102 2571 2469 1033 2424 1208 2236 1107 1467 1723 2425 1812 1956 3538 2311 3712 2302 2934 3100 4076 3987 2932 2564 2123 2323 1887 2363 2049 2506 1471 1692 2066 2300 1707 1550 1109 2061 2121 2220 2221 2145 1714 2561 1866 1622 1549 1871 1458 1869 2416 2236 3172 2577 1369 1374 1535 1370 1822 1305 1294 1821 1561 1635 1891 1205 2313 1714 1880 2749 1825 1288 1114 2251 3250 2060 1705 3074 1298 1897 1296 2162 925 1270 1435 853 2761 3267 2328 3015 2043 1706 2456 1785 2396 2239 2654 2158 1793 1386 2671 2668 1720 1642 1882 1810 1454 2409 2159 1619 2229 2945 1977 3466 2660 1802 2663 2587 2759 2853 2778 2500 1903 3102 2152 2320 1879 1958 2047 2484 1195 3097 1547 3349 3260 3099 3024 2753 2349 2584 776 3285 1636 3298 3463 3887 2936 1024 1449 1287 2061 2153 2684 2071

Tree=0
num_leaves=52
num_cat=0
split_feature=10 10 10 10 10 10 4 10 11 12 11 16 11 11 12 2 10 2 17 10 10 10 11 12 16 11 23 3 25 10 23 17 3 3 2 10 19 2 3 4 13 25 2 17 17 4 3 16 23 11 12
split_gain=2.69368e+06 406286 329730 63469.1 59581.5 42429.2 32432.3 30549.3 29168.9 25539.6 23124.4 18146.9 18140.2 31513.6 17820.5 17485.9 15019 14456 12892.8 11774.5 11551.1 9398.55 8432.86 8303.62 7665.06 7564.88 7318.05 6930.39 6762.79 5187.15 5025.88 5023.91 4910.61 4516.49 3964.38 3947.72 3625.77 3372.15 2939.62 2619.48 2344.08 2179.21 1808.79 1742.11 1571.53 1488.27 1378.94 1251.68 957.105 645.685 254.918
threshold=51.759487500000013 33.425700000000013 75.462397500000023 11.515455000000005 59.789310000000008 39.809069999999998 1.5000000000000002 91.065922500000013 48.907096000000003 52.504252500000014 14.905192000000001 78.657542951240558 53.207654000000012 18.706800000000005 33.25665 1.5000000000000002 24.293430000000004 1.5000000000000002 29.082458066122715 21.573772500000004 67.598685000000017 80.563770000000019 41.89901600000001 91.205415000000016 63.629157644583451 60.348946000000005 2.2958474999999976 0.34848484848484856 -0.93623249999999902 98.840017500000016 -0.96840406250000055 26.181904132250153 0.90219990435198483 0.89237451737451756 4.5000000000000009 69.781320000000008 10.686682517778207 1.5000000000000002 0.88303693570451447 1.0000000180025095e-35 51.144262000000005 10.427235000000001 1.5000000000000002 30.894978640432811 20.738213872799488 2.5000000000000004 0.9223227752639519 39.170720691309704 6.4902501217105284 8.4760299999999997 100.44651750000001
decision_type=2 2 2 2 2 2 2 2 2 2 2 2 2 2 2 2 2 2 2 2 2 2 2 2 2 2 2 2 2 2 2 2 2 2 2 2 2 2 2 2 2 2 2 2 2 2 2 2 2 2 2
left_child=1 3 4 12 17 14 27 11 10 26 19 21 13 28 -3 35 40 39 30 -5 31 37 -15 -12 -22 33 -8 -7 -1 47 -16 -17 -18 -19 -20 44 -29 -4 -14 -2 -10 -41 -23 -37 -6 50 -27 49 -11 -9 -31
right_child=2 5 7 8 15 6 9 29 16 48 23 -13 38 22 18 20 32 25 34 -21 24 42 -24 -25 -26 46 -28 36 -30 45 -32 -33 -34 -35 -36 43 -38 -39 -40 41 -42 -43 -44 -45 -46 -47 -48 -49 -50 -51 -52
leaf_value=67.99408702426507 68.383045984356343 68.480616656840823 68.703269120144824 68.049449284819701 68.594649136966638 68.235367393390334 68.545583781347062 68.839910923757657 68.082201403156702 68.316604652929115 68.25952152133182 68.58403706269317 67.805832596416778 68.183127618020805 68.438642136214668 68.665625427454245 68.104894252857505 68.535253524409498 68.156705273491497 68.199021550718328 68.716884347434075 68.790605468168636 68.011185369930288 68.417188312446299 68.586636920149388 68.420876745018063 68.469293051862479 68.284066376970571 67.820115359805612 68.960422713274909 68.312423668858102 68.600227135287497 68.222992792938939 68.603054585554986 68.262458267969379 68.672610801029492 68.39303618101529 68.77347494458941 67.937585372046982 68.541384105627145 67.9987609766454 68.419851838720021 68.827705547979662 68.582413928325607 68.513763415331795 68.904555904402216 68.504296688210403 68.806234002200483 68.384951579211474 68.883855173447728 69.001568756647501
leaf_weight=96 106 107 170 156 65 97 521 83 111 144 673 82 57 258 82 542 116 318 128 310 974 346 72 73 98 63 471 77 82 72 258 404 174 494 155 79 277 661 83 57 170 59 1067 91 173 89 103 58 57 379 61
leaf_count=96 106 107 170 156 65 97 521 83 111 144 673 82 57 258 82 542 116 318 128 310 974 346 72 73 98 63 471 77 82 72 258 404 174 494 155 79 277 661 83 57 170 59 1067 91 173 89 103 58 57 379 61
internal_value=68.5269 68.2718 68.7071 68.1443 68.6165 68.4023 68.4418 68.8141 68.1875 68.4801 68.2265 68.7891 68.0254 68.0644 68.3133 68.6565 68.1048 68.5357 68.2846 68.1489 68.6734 68.7966 68.1456 68.2749 68.705 68.5589 68.5094 68.3405 67.9139 68.8925 68.3428 68.6377 68.1757 68.5765 68.2146 68.5727 68.3693 68.7591 67.8839 68.4335 68.0317 68.4796 68.8186 68.6244 68.5358 68.9494 68.4726 68.8682 68.336 68.876 68.9793
internal_weight=0 4805 6694 2431 3626 2374 1644 3068 1783 1193 1212 2326 648 508 730 2426 571 1200 623 466 2018 2244 330 746 1072 978 992 451 178 742 340 946 290 812 283 408 354 831 140 222 281 116 1413 170 238 222 166 520 201 462 133
internal_count=11499 4805 6694 2431 3626 2374 1644 3068 1783 1193 1212 2326 648 508 730 2426 571 1200 623 466 2018 2244 330 746 1072 978 992 451 178 742 340 946 290 812 283 408 354 831 140 222 281 116 1413 170 238 222 166 520 201 462 133
is_linear=0
shrinkage=1


Tree=1
num_leaves=41
num_cat=0
split_feature=16 16 16 3 1 27 9 16 0 12 12 9 16 6 8 16 28 13 16 13 16 16 3 13 20 9 16 18 24 20 21 18 27 21 3 16 12 16 27 21
split_gain=1.29432e+06 218541 96358.6 84073.8 52202.6 37603.9 29068.4 26958.6 26076 26208.3 25841.4 23266.9 22883.7 21913.8 25493.2 23599.6 17682.4 14588.9 9697.79 8938.39 7390.56 6623.7 6521.01 6074.92 6775.55 5438.19 4947.68 4312.61 3553.54 3210.31 3655.82 3070.19 3034.86 2944.88 2778.89 2741.52 2499.71 1486.37 1043.18 850.733
threshold=72.394698886220368 50.300970646390404 83.32189900222086 0.92546296296296304 1.5000000000000002 3.8670000000000191 2.5000000000000004 102.06825350021768 12.500000000000002 87.178402500000018 84.838477500000025 2.5000000000000004 58.034849820550242 1.0000000180025095e-35 1.0000000180025095e-35 38.113973188010746 1.1809999999999914 47.173606000000007 57.805191752819177 65.064219000000023 95.995015173716595 68.168398985068194 0.84495192307692324 3.9266260000000064 10.924761232623739 2.5000000000000004 94.296726494595973 16.259209188515602 0.50308641975308654 4.8885191799143302 -1.1266718750000007 11.706343456413757 13.333500000000088 7.5255961153846149 0.90733452593917718 90.34710982982007 72.621990000000025 66.142040456419906 5.5505000000002847 2.9096719431818183
decision_type=2 2 2 2 2 2 2 2 2 2 2 2 2 2 2 2 2 2 2 2 2 2 2 2 2 2 2 2 2 2 2 2 2 2 2 2 2 2 2 2
left_child=1 3 11 6 18 35 10 17 16 -10 -1 -2 22 14 15 -5 -8 20 38 23 -7 27 32 -13 -25 37 -19 -14 -9 36 -31 -27 -6 -24 -23 -4 -15 -20 39 -3
right_child=2 4 5 13 12 7 8 28 9 -11 -12 19 21 29 -16 -17 -18 26 25 -21 -22 34 33 24 -26 31 -28 -29 -30 30 -32 -33 -34 -35 -36 -37 -38 -39 -40 -41
leaf_value=0.065895354738477518 -0.38569383263966173 -0.044902998618397284 -0.52157119342263225 0.29837880489325425 -0.078482850591432923 -0.25894458610531701 0.075054784222006538 -0.47323595484212355 0.11052112700579832 -0.017568872425038913 0.38407122773908087 -0.27383960479493641 -0.032422690636509377 0.12874041815600767 0.0097765162037239083 0.17622290129701629 -0.080662880439698617 -0.36393330634895621 -0.20574829622190335 -0.32452452949645877 -0.35519062387548317 -0.027564883921871397 0.088084737499991198 -0.16854401182587583 -0.06458884722803182 -0.20841632662838699 -0.47983632251416664 0.018172031564831423 -0.62735602036313665 0.19877341286464428 0.12086061218540287 -0.081114976237573425 0.027687380279797495 -0.01026439548994074 -0.094759009781024001 -0.64798100133554781 0.19947134030533667 -0.28810090915758707 -0.009407752960448169 -0.11983554837499678
leaf_weight=94 113 60 61 657 67 485 236 61 1618 390 108 85 610 147 102 592 366 212 104 71 233 217 748 660 152 59 111 726 58 137 893 102 253 65 275 78 301 75 57 60
leaf_count=94 113 60 61 657 67 485 236 61 1618 390 108 85 610 147 102 592 366 212 104 71 233 217 748 660 152 59 111 726 58 137 893 102 253 65 275 78 301 75 57 60
internal_value=0 0.0743126 -0.293029 0.128234 -0.0131413 -0.374457 0.0739125 -0.348318 0.0613622 0.0856399 0.236041 -0.195174 0.00956516 0.182227 0.223071 0.240485 -0.0196069 -0.325439 -0.1432 -0.172927 -0.290186 -0.0211333 0.0591001 -0.16092 -0.149092 -0.187043 -0.403783 -0.0049241 -0.548407 0.144889 0.13123 -0.127805 0.00543814 0.0802138 -0.0651355 -0.592552 0.176277 -0.240289 -0.0589449 -0.0824222
internal_weight=0 9119 2380 5641 3478 1299 2812 1160 2610 2008 202 1081 2961 2829 1351 1249 602 1041 517 968 718 1828 1133 897 812 340 323 1336 119 1478 1030 161 320 813 492 139 448 179 177 120
internal_count=11499 9119 2380 5641 3478 1299 2812 1160 2610 2008 202 1081 2961 2829 1351 1249 602 1041 517 968 718 1828 1133 897 812 340 323 1336 119 1478 1030 161 320 813 492 139 448 179 177 120
is_linear=0
shrinkage=0.0140275


Tree=2
num_leaves=55
num_cat=0
split_feature=10 10 10 10 10 10 10 5 5 21 21 13 13 5 1 14 17 17 17 10 7 10 17 21 13 21 13 17 10 17 24 1 1 5 21 5 10 1 1 0 5 10 19 21 14 17 1 9 28 10 10 5 19 10
split_gain=2.58018e+06 388770 317778 60411.3 57169.7 40559.9 29393.3 26929.8 23728.1 16988.3 15014 14218.2 13339.3 13317.9 13316.3 13069.8 11234.3 10584.4 10052.8 9701.92 9696.77 8695.7 7817.35 7085 6819.5 6652.08 6519.7 5338.88 5005.13 4990.89 4746.02 4727.04 4524.89 4490.01 4406.06 4210.23 3972.23 3070.23 2959.92 2750.88 2348.59 2281.39 2227.11 1773.26 1763.16 1626.7 1552.69 1216.96 907.944 672.976 455.66 410.717 248.8 243.554
threshold=51.759487500000013 33.425700000000013 75.462397500000023 11.515455000000005 60.47070750000001 39.809069999999998 91.065922500000013 1.0000000180025095e-35 0.067424242424242428 -0.30031049999999831 2.4002999999999983 49.325262000000009 18.554718000000012 0.17262664963814392 1.5000000000000002 1.0000000180025095e-35 49.465549974889939 29.830272000079415 42.33003696561606 67.598685000000017 1.0000000180025095e-35 80.563770000000019 52.803214976003567 1.7967435500000002 63.683917600000008 4.7413169999999996 61.302799000000007 41.56100982726813 98.840017500000016 26.181904132250153 0.63564213564213567 4.5000000000000009 1.5000000000000002 0.24502962475312709 12.436476500000003 0.23720076882753802 67.292190000000019 1.5000000000000002 1.5000000000000002 59.500000000000007 0.2251760563380282 57.527400000000007 9.5527031346470945 5.626344750000003 1.0000000180025095e-35 25.919395201340382 1.5000000000000002 6.5000000000000009 0.96000000000000807 56.081865000000008 95.377012500000021 0.25817133091219829 46.447892318524403 100.70959500000002
decision_type=2 2 2 2 2 2 2 2 2 2 2 2 2 2 2 2 2 2 2 2 2 2 2 2 2 2 2 2 2 2 2 2 2 2 2 2 2 2 2 2 2 2 2 2 2 2 2 2 2 2 2 2 2 2
left_child=1 3 4 9 13 17 15 42 27 16 26 12 -10 37 36 20 31 23 -13 29 -4 38 25 33 34 -11 -9 30 50 -16 -5 -1 -19 -3 -15 -34 48 49 -17 -12 -21 -39 -7 -44 -25 -38 -23 53 -6 -2 52 -52 -8 -30
right_child=2 5 6 8 14 7 28 10 11 22 39 18 -14 24 19 21 -18 32 -20 40 -22 46 -24 44 -26 -27 -28 -29 47 -31 -32 -33 35 -35 -36 -37 45 41 -40 -41 -42 -43 43 -45 -46 -47 -48 -49 -50 -51 51 -53 -54 -55
leaf_value=-0.38370209423094948 -0.14965564278063931 -0.17394887212603188 0.24792351100043444 -0.35271690034709902 -0.053018862529504121 -0.30552586861610748 0.33057842353704819 -0.00062632608135591177 -0.34329823679194743 -0.46173625827103887 -0.11425391477016157 -0.33276795399077408 -0.24463740189378372 0.062060883541976641 0.13687858026600835 0.17085708434437305 -0.50974379075955978 -0.37469392844025762 -0.47281107885234314 0.14617810298564954 0.00034023521047547644 0.25845345580341439 -0.65670860325413305 -0.1529265885408273 -0.07177144522179843 -0.58938545027205835 -0.13589614665515592 -0.56772659480458321 0.416987766695676 0.069781671555449482 -0.51693801263900008 -0.21116039675778966 -0.29730956996520219 -0.037284299709560251 -0.060759723336260625 -0.18198754672288806 0.14250689115233084 -0.064252177158172816 0.24079945498030805 -0.014294552164768548 0.18780162363130268 0.027353473399493268 -0.1526531691630113 -0.25434428540851733 -0.24088159404310164 0.058437018005151851 0.29410977118904985 0.3681312681353644 0.020504211881843357 -0.084194051862086949 0.36899733360031606 0.32229377074502275 0.29806501206685665 0.45544628365374334
leaf_weight=67 62 87 59 85 59 63 284 624 465 213 683 306 644 779 512 146 88 65 151 459 66 314 91 63 96 130 79 73 66 381 59 59 133 104 62 118 68 144 663 59 644 85 67 69 160 137 1078 76 75 63 116 59 61 80
leaf_count=67 62 87 59 85 59 63 284 624 465 213 683 306 644 779 512 146 88 65 151 459 66 314 91 63 96 130 79 73 66 381 59 59 133 104 62 118 68 144 663 59 644 85 67 69 160 137 1078 76 75 63 116 59 61 80
internal_value=0 -0.249705 0.176331 -0.374396 0.0874257 -0.122019 0.281404 -0.0833754 -0.332229 -0.490411 -0.0623007 -0.313168 -0.286011 0.0125118 0.128842 0.256871 -0.388022 -0.209036 -0.379054 0.142649 0.11725 0.264797 -0.540883 -0.162332 0.0402087 -0.510135 -0.0158364 -0.469756 0.3583 0.108259 -0.420046 -0.302959 -0.270204 -0.0995679 0.0529988 -0.24312 0.0475292 -0.0607811 0.228185 -0.106314 0.170486 -0.0302224 -0.236374 -0.204293 -0.216062 0.0863546 0.286071 0.414178 -0.0118205 -0.116714 0.334431 0.353288 0.324848 0.438104
internal_weight=0 4805 6694 2431 3626 2374 3068 1644 1783 648 1445 1566 1109 1291 2335 2326 214 730 457 1996 125 2201 434 414 937 343 703 217 742 893 144 126 316 191 841 251 339 354 809 742 1103 229 199 136 223 205 1392 222 134 125 520 175 345 146
internal_count=11499 4805 6694 2431 3626 2374 3068 1644 1783 648 1445 1566 1109 1291 2335 2326 214 730 457 1996 125 2201 434 414 937 343 703 217 742 893 144 126 316 191 841 251 339 354 809 742 1103 229 199 136 223 205 1392 222 134 125 520 175 345 146
is_linear=0
shrinkage=0.0140275


Tree=3
num_leaves=45
num_cat=0
split_feature=16 16 17 6 8 4 17 16 4 16 27 1 11 17 17 2 17 16 13 11 17 13 21 16 16 16 9 17 11 22 4 17 11 13 21 6 11 4 20 27 26 9 4 20
split_gain=1.22387e+06 206543 112266 77989.1 56424.2 52386.2 36109.2 35122.2 21315.2 20172.1 19401 16888.9 14059.1 13117.1 11085.8 10224 12628.4 9215.74 8144.44 10776.5 8124.73 7499.58 7309.2 6258.94 5647.18 4833.03 4730.98 4342.16 4254.02 4070.15 4062.01 4017.28 3908.41 4278.18 3197.97 3138.32 2994.43 2776.55 2677.56 2586.71 2210.26 1845.06 812.79 566.713
threshold=72.394698886220368 50.300970646390404 38.745454906269735 1.0000000180025095e-35 1.0000000180025095e-35 1.5000000000000002 50.107077432772819 37.947568401833429 1.0000000180025095e-35 58.034849820550242 4.7435000000000977 1.5000000000000002 67.25610380000002 27.636138966274373 31.204573004532065 1.0000000180025095e-35 36.116083216185324 58.034849820550242 48.064066000000011 42.556100000000008 43.235584760781457 3.729732000000006 -5.3677575000000077 84.282607123828214 34.876351460623532 64.794341458723508 6.5000000000000009 54.03057598745923 63.746562600000011 -2.0486728662365583 1.5000000000000002 44.022990178530492 57.040066000000003 57.166580000000003 5.1423435 1.0000000180025095e-35 2.0994999999999924 1.0000000180025095e-35 5.5874205294062955 4.6010000000000568 -17.881823999999998 2.5000000000000004 1.0000000180025095e-35 7.4779321183489618
decision_type=2 2 2 2 2 2 2 2 2 2 2 2 2 2 2 2 2 2 2 2 2 2 2 2 2 2 2 2 2 2 2 2 2 2 2 2 2 2 2 2 2 2 2 2
left_child=1 3 8 4 7 11 10 20 39 32 43 17 15 34 -6 16 -5 42 19 -12 -1 -17 -15 -24 -16 28 -27 35 -11 40 -9 -20 36 -34 38 -8 -7 -31 -10 -2 -13 -19 -3 -4
right_child=2 5 6 12 14 9 27 30 13 25 18 29 -14 22 24 21 -18 41 31 -21 -22 -23 23 -25 -26 26 -28 -29 -30 37 -32 -33 33 -35 -36 -37 -38 -39 -40 -41 -42 -43 -44 -45
leaf_value=0.2576223817427184 -0.39533012109235938 -0.110590339639188 -0.54880497154102548 -0.11040331744388564 0.10838378011618534 -0.003632957071161784 -0.58398800262648276 0.12362606584344826 0.0049035705150353541 0.023895488737330856 -0.31247415341438134 -0.032731995986548822 -0.088360928033647285 -0.064123648077771878 -0.19808456820366291 0.17178686066889767 0.11985335162165213 -0.2461316457186391 -0.34008046157186639 -0.10703280662753621 0.34890781041379854 0.094588384085819349 -0.19442875450008543 -0.29151450997514411 -0.0052786716849188694 0.01331739880853805 -0.060480707389268688 -0.6316047519382757 -0.073792800565446848 -0.1376073363404407 0.19342547980151534 -0.46160329771733227 -0.089181302618199579 0.052807009959753529 -0.16934441646357196 -0.4559338016485483 0.09117320981043818 -0.045368548979538535 -0.10335177963116893 -0.28355185911213843 0.075105013205333665 -0.17114305956821302 -0.04614789497137111 -0.48471534630426955
leaf_weight=397 94 92 58 103 91 72 60 293 79 713 430 88 84 70 57 267 86 171 128 57 373 3452 666 163 63 251 535 76 100 97 375 93 57 156 68 104 718 191 104 73 65 105 67 57
leaf_count=397 94 92 58 103 91 72 60 293 79 713 430 88 84 70 57 267 86 171 128 57 373 3452 666 163 63 251 535 76 100 97 375 93 57 156 68 104 718 191 104 73 65 105 67 57
internal_value=0 0.0722621 -0.284942 0.124683 0.205839 -0.0127571 -0.392185 0.23727 -0.198378 0.0188289 -0.348014 -0.106585 0.0911572 -0.176862 -0.00834338 0.0950175 -0.00559684 -0.168606 -0.320541 -0.288442 0.301851 0.100132 -0.2019 -0.213526 -0.0969144 -0.0121013 -0.0369061 -0.543629 0.0118719 -0.0453928 0.162819 -0.391248 0.0681446 0.0147803 -0.0871579 -0.502822 0.0825246 -0.0764571 -0.0565839 -0.346507 0.0130396 -0.217626 -0.0834753 -0.517094
internal_weight=0 9119 2380 5641 1649 3478 1063 1438 1317 2602 823 876 3992 1150 211 3908 189 435 708 487 770 3719 899 829 120 1599 786 240 813 441 668 221 1003 213 251 164 790 288 183 167 153 276 159 115
internal_count=11499 9119 2380 5641 1649 3478 1063 1438 1317 2602 823 876 3992 1150 211 3908 189 435 708 487 770 3719 899 829 120 1599 786 240 813 441 668 221 1003 213 251 164 790 288 183 167 153 276 159 115
is_linear=0
shrinkage=0.0140275


Tree=4
num_leaves=54
num_cat=0
split_feature=10 10 10 10 10 4 11 10 10 12 21 4 12 4 11 12 11 11 10 4 10 11 10 10 21 21 11 25 13 12 10 21 10 9 10 21 4 12 12 11 1 18 19 21 9 11 1 4 21 30 11 21 10
split_gain=2.44438e+06 367701 297258 55152.3 46944.9 40100.2 33401.5 31257.1 27010.6 23994.8 19335 18472.1 15225.5 13494.6 12882.1 12802.7 12142.6 23978.6 11563.4 10987.7 9018.47 8212.87 8164.49 7938.59 7697.14 7626.44 7100.11 6151.58 5857.69 5450.7 5215.82 5115.8 4234.51 3685.97 3170.54 2907.79 2890.99 2874.31 2580.43 2481.33 2421.62 2123.07 1979.33 1887.22 1814.22 1698.19 1391.05 1235.98 1153.51 1023.61 612.292 559.579 269.465
threshold=51.759487500000013 32.963805000000001 75.462397500000023 59.789310000000008 11.515455000000005 1.5000000000000002 48.907096000000003 40.174207500000016 91.065922500000013 52.504252500000014 -0.30031049999999831 1.0000000180025095e-35 28.261222500000006 1.5000000000000002 18.189354000000005 33.25665 18.189354000000005 38.152080000000005 24.293430000000004 1.0000000180025095e-35 80.563770000000019 40.013784000000008 44.763757500000004 67.598685000000017 2.4002999999999983 1.4577599999999984 60.04111000000001 -6.3636825000000021 30.016356000000005 41.400502500000009 98.840017500000016 10.229864166666671 67.292190000000019 2.5000000000000004 38.287882500000009 9.3825430384615398 1.5000000000000002 25.767787500000008 75.84717000000002 57.040066000000003 1.5000000000000002 19.039912842060993 15.309250993827279 1.7967435500000002 9.5000000000000018 54.148570000000007 1.5000000000000002 2.5000000000000004 10.863006954545456 4643.5000000000009 8.4760299999999997 4.509554921052632 100.70959500000002
decision_type=2 2 2 2 2 2 2 2 2 2 2 2 2 2 2 2 2 2 2 2 2 2 2 2 2 2 2 2 2 2 2 2 2 2 2 2 2 2 2 2 2 2 2 2 2 2 2 2 2 2 2 2 2
left_child=1 4 3 19 10 22 11 15 12 24 21 -6 -4 32 -13 43 44 -18 41 51 36 28 27 35 -9 -17 31 34 -1 -25 38 -21 40 -24 -3 -15 -14 -20 -10 -29 -5 -8 -35 -7 -12 -11 -22 52 -34 -28 -40 -2 -32
right_child=2 5 8 13 6 7 18 9 30 45 16 14 20 23 -16 25 17 -19 37 26 46 -23 33 29 -26 -27 49 39 -30 -31 47 -33 48 42 -36 -37 -38 -39 50 -41 -42 -43 -44 -45 -46 -47 -48 -49 -50 -51 -52 -53 -54
leaf_value=-0.37605776779989902 -0.076050180467766598 -0.23944860835482404 0.061364611320053088 -0.020276210643704981 -0.45767919365766213 0.02006984039126879 -0.46108971175016378 0.024728341350989964 0.23382386062055263 -0.15500566047464845 -0.6901356581267627 -0.32491982210966569 0.17536407742346433 0.11986411438239755 -0.22550415252141284 -0.12915970679810518 -0.34651337192223025 -0.59549349233842497 -0.26851559109824008 0.051889919820231181 0.25308264758824134 -0.48701136330849992 -0.22244833854711599 0.055614676614631577 -0.055637189596053405 -0.24711651724873249 -0.03185359363736491 -0.2589155616777018 -0.19423266856503041 0.1793594564699707 0.40907515964983904 -0.058674523390004917 0.11701108963438391 -0.1799987290971157 -0.098406947388203422 0.029491956401491919 0.23579077850296498 -0.37816019097964576 0.30044997473616775 -0.34965676270338591 0.066550595786064898 -0.55421709205464265 -0.079009004986632977 -0.09303472633911937 -0.5848495308645878 -0.2439974492313626 0.28658217522522622 0.36383638273241142 0.056511647944549333 -0.10253859348018181 0.34202860441239741 -0.13195896668590845 0.45135852180887082
leaf_weight=82 65 61 81 131 112 57 218 502 57 135 63 449 209 799 600 174 149 156 61 781 320 67 91 76 440 285 110 220 61 917 60 92 214 57 65 77 624 213 89 82 122 63 117 59 69 62 1084 89 88 64 381 79 72
leaf_count=82 65 61 81 131 112 57 218 502 57 135 63 449 209 799 600 174 149 156 61 781 320 67 91 76 440 285 110 220 61 917 60 92 214 57 65 77 624 213 89 82 122 63 117 59 69 62 1084 89 88 64 381 79 72
internal_value=0 -0.243268 0.172458 0.0862844 -0.367571 -0.121235 -0.329167 -0.0848229 0.274059 -0.0422535 -0.469418 -0.28636 0.250398 0.124691 -0.268063 -0.169136 -0.522608 -0.473881 -0.418702 0.00811237 0.25724 -0.358702 -0.211286 0.142729 -0.012803 -0.202415 0.0239184 -0.249194 -0.29854 0.169895 0.347375 0.040231 0.0639329 -0.150036 -0.166739 0.111928 0.220637 -0.353773 0.323328 -0.283575 0.0215677 -0.481991 -0.112128 -0.0374027 -0.635148 -0.183045 0.278951 0.40469 0.0994031 -0.0578892 0.334169 -0.106766 0.432187
internal_weight=0 4770 6681 3615 2363 2407 1716 1714 3066 1139 647 1161 2318 2424 1049 575 437 305 555 1191 2237 210 693 1869 942 459 1047 428 143 993 748 873 555 265 126 876 833 274 527 302 253 281 174 116 132 197 1404 221 302 174 470 144 132
internal_count=11451 4770 6681 3615 2363 2407 1716 1714 3066 1139 647 1161 2318 2424 1049 575 437 305 555 1191 2237 210 693 1869 942 459 1047 428 143 993 748 873 555 265 126 876 833 274 527 302 253 281 174 116 132 197 1404 221 302 174 470 144 132
is_linear=0
shrinkage=0.0140275


Tree=5
num_leaves=54
num_cat=0
split_feature=10 10 10 10 10 4 11 10 10 12 11 23 2 5 12 2 12 11 11 10 2 11 10 10 5 23 11 23 5 10 2 12 5 2 10 23 17 10 10 5 12 5 13 23 17 11 2 9 4 17 6 11 10
split_gain=2.37629e+06 357457 288978 53616.3 45666.4 38983.3 30930.6 30386.3 26258.2 23326.5 20187 19089.2 15872 15484.4 14801.2 13287.6 12446 12312.6 21519.8 10709.4 10336.7 10251.6 9185.93 8766.99 7690.3 7482.72 7431.6 7413.79 7072.72 6492.71 6079.34 5731.33 5630.69 5279.71 5070.27 4921.69 4637.16 3697.6 3370.8 3113.99 2508.26 2160.14 2152.81 1834.68 1703.25 1650.72 1500.88 1393.18 1201.21 1006.49 867.327 594.936 261.573
threshold=51.759487500000013 32.963805000000001 75.462397500000023 59.789310000000008 12.060930000000001 1.5000000000000002 46.588874000000004 40.174207500000016 91.065922500000013 52.504252500000014 20.332680000000003 -0.30031049999999831 1.5000000000000002 0.21466973886328727 28.261222500000006 1.5000000000000002 33.25665 18.189354000000005 38.152080000000005 24.293430000000004 1.0000000180025095e-35 40.013784000000008 67.598685000000017 80.563770000000019 0.19944751381215473 2.4002999999999983 60.04111000000001 1.4577599999999984 0.25817133091219829 44.763757500000004 2.5000000000000004 41.400502500000009 0.35805860805860812 1.5000000000000002 98.840017500000016 3.7695494861111114 23.614861541246899 67.292190000000019 44.461777500000004 0.18127053669222346 75.84717000000002 0.12158167036215818 52.039856000000007 1.7967435500000002 30.894978640432811 54.148570000000007 1.5000000000000002 9.5000000000000018 2.5000000000000004 26.794348943658417 1.0000000180025095e-35 8.4760299999999997 100.70959500000002
decision_type=2 2 2 2 2 2 2 2 2 2 2 2 2 2 2 2 2 2 2 2 2 2 2 2 2 2 2 2 2 2 2 2 2 2 2 2 2 2 2 2 2 2 2 2 2 2 2 2 2 2 2 2 2
left_child=1 4 3 15 11 20 10 16 14 25 13 21 37 -6 -4 41 43 47 -19 42 38 30 36 39 29 -9 32 -18 -12 -22 -1 -24 -17 -21 40 -26 -14 49 -3 -16 -10 -2 -8 -7 -39 -11 -25 -13 52 -5 -28 -42 -36
right_child=2 5 8 12 6 7 19 9 34 45 28 17 22 -15 23 26 27 18 -20 33 24 -23 31 46 35 -27 50 -29 -30 -31 -32 -33 -34 -35 48 -37 -38 44 -40 -41 51 -43 -44 -45 -46 -47 -48 -49 -50 -51 -52 -53 -54
leaf_value=-0.40383856315591671 -0.13618824320972917 -0.38639404762224649 0.060503820252853092 0.027121462184053587 -0.41725086764804792 0.019788310008769027 -0.42533566492870556 0.024381462932788582 0.23054389084657914 -0.15283131047324811 -0.25724702473662431 -0.66739278269110258 0.13887131398191349 -0.2688977917772491 0.17442824749757044 0.034703855062193381 -0.1273479152241396 -0.34313638695584264 -0.57119468255774719 -0.46868222725057779 -0.25811620884773756 -0.49129945259617241 0.056325920044190063 0.24990840677220988 -0.033343965445068249 -0.054856736982679156 -0.012689386146845319 -0.24365008057680643 -0.15221395509787872 -0.13990386113761219 -0.22136965916005713 0.17720743007176659 0.15540532952136182 -0.31947050212132022 0.40333684558232891 -0.18769671384449202 0.077160550944695358 0.11913367022868876 -0.24248249446908821 0.23467617244171973 0.29623540747695959 -0.045981351049660439 -0.50482521773412925 -0.091729679725353633 0.043374984364595769 -0.24057476493559221 0.28350494252141611 -0.57664553813084207 0.35873265914291325 -0.040735076663904815 -0.078647780627114902 0.33723078883359542 0.44502707857681445
leaf_weight=57 110 71 81 87 260 57 123 502 57 135 335 68 474 297 237 726 174 155 172 58 255 72 84 354 92 440 62 285 203 143 98 973 85 244 60 73 486 111 59 596 89 100 152 59 124 62 1050 69 89 85 108 381 72
leaf_count=57 110 71 81 87 260 57 123 502 57 135 335 68 474 297 237 726 174 155 172 58 255 72 84 354 92 440 62 285 203 143 98 973 85 244 60 73 486 111 59 596 89 100 152 59 124 62 1050 69 89 85 108 381 72
internal_value=0 -0.239856 0.170039 0.085074 -0.362415 -0.119535 -0.322759 -0.0836332 0.270215 -0.0416608 -0.278944 -0.458361 0.122942 -0.338158 0.246885 0.0079982 -0.166764 -0.509961 -0.463113 -0.405898 -0.208323 -0.35286 0.139067 0.253631 -0.182264 -0.0126233 0.0296813 -0.199576 -0.217627 -0.215659 -0.288512 0.167607 0.0473623 -0.348148 0.342503 -0.101672 0.107637 0.0430117 -0.321129 0.217542 0.318792 -0.0932628 -0.469295 -0.0368773 0.0791859 -0.180478 0.275039 -0.621734 0.399014 -0.00637538 -0.0546297 0.329481 0.426125
internal_weight=0 4770 6681 3615 2363 2407 1672 1714 3066 1139 1095 691 2424 557 2318 1191 575 464 327 577 693 227 2017 2237 563 942 981 459 538 398 155 1057 811 302 748 165 960 407 130 833 527 210 275 116 235 197 1404 137 221 172 170 470 132
internal_count=11451 4770 6681 3615 2363 2407 1672 1714 3066 1139 1095 691 2424 557 2318 1191 575 464 327 577 693 227 2017 2237 563 942 981 459 538 398 155 1057 811 302 748 165 960 407 130 833 527 210 275 116 235 197 1404 137 221 172 170 470 132
is_linear=0
shrinkage=0.0140275


Tree=6
num_leaves=51
num_cat=0
split_feature=10 10 10 10 10 4 10 10 12 5 23 2 12 3 3 12 2 28 10 28 10 5 17 23 23 23 15 10 12 2 10 23 17 23 17 17 10 10 24 2 12 17 17 27 22 2 4 12 12 10
split_gain=2.3101e+06 347500 280928 52123 44426 37897.5 29539.7 25526.7 22676.8 20613.4 18294.4 15429.7 14388.6 13894 13547.7 12099.3 10048.5 9531.07 8929.9 8700.81 8522.51 7475.85 7443.07 7728.25 7274.27 7207.08 6774.45 6311.65 5571.52 5300.73 4928.77 4784.49 4507.89 4296.94 4504.37 3842.73 3594.62 3276.61 3263.16 3056.5 2438.11 1870.18 1655.73 1509.2 1495.52 1458.82 1167.41 989.379 449.898 253.905
threshold=51.759487500000013 32.963805000000001 75.462397500000023 59.789310000000008 11.515455000000005 1.5000000000000002 40.174207500000016 91.065922500000013 52.504252500000014 0.067424242424242428 -0.30031049999999831 1.5000000000000002 28.261222500000006 0.95938981653267374 0.60769230769230786 33.25665 1.0000000180025095e-35 1.4117583333333383 67.598685000000017 1.1690047619047648 80.563770000000019 0.19944751381215473 52.803214976003567 6.7686500000000001 2.4002999999999983 1.4577599999999984 1.5000000000000002 44.763757500000004 41.400502500000009 1.5000000000000002 98.840017500000016 3.7695494861111114 23.614861541246899 10.032388800000001 24.356955680808593 47.89189251728618 67.292190000000019 44.461777500000004 0.55291153415453542 1.5000000000000002 75.84717000000002 40.999080867465658 30.894978640432811 11.311499999999798 1.0255988366666664 1.5000000000000002 2.5000000000000004 61.14701250000001 94.998907500000016 100.70959500000002
decision_type=2 2 2 2 2 2 2 2 2 2 2 2 2 2 2 2 2 2 2 2 2 2 2 2 2 2 2 2 2 2 2 2 2 2 2 2 2 2 2 2 2 2 2 2 2 2 2 2 2 2
left_child=1 4 3 14 10 16 15 12 24 29 17 36 -4 26 43 38 37 -1 32 -15 39 27 23 -12 -8 -17 -11 -18 -20 41 40 -23 -13 34 -16 -19 47 -3 -7 -14 -9 -6 -38 -2 -10 -22 49 -5 -42 -32
right_child=2 5 7 11 9 6 8 30 44 13 22 18 20 19 33 25 21 35 28 -21 45 31 -24 -25 -26 -27 -28 -29 -30 -31 46 -33 -34 -35 -36 -37 42 -39 -40 -41 48 -43 -44 -45 -46 -47 -48 -49 -50 -51
leaf_value=-0.46929091852323818 -0.16268840628627562 -0.38097389427837497 0.059655097767002327 0.038480906049535531 -0.45449110437038709 0.036687532500403686 0.024039450072713967 0.22730993078251796 -0.20576769646850943 -0.30876103187792253 -0.44401166951020976 0.13692329189964528 0.16149462800173439 -0.38721331432350964 0.060474886475590912 -0.12556153728938801 -0.25449547586172455 -0.200287006070475 0.055535807418970212 -0.2280064347540067 0.24640280860444833 -0.032876233648129541 -0.62126779710262625 -0.60682243513501877 -0.054087232670035207 -0.24023227390993074 -0.38858150355867699 -0.13794135550789521 0.17472164805494486 -0.35102761520314002 0.39767902176686121 -0.1850637916329804 0.076078178179137798 -0.067724376969595296 -0.00059852878112839414 -0.35324209895675029 0.11746251952061972 -0.23908106342271576 -0.11208045907454517 0.22817074245503519 0.31611815712922758 -0.56105912800334601 0.042766540238217542 -0.067982967963541294 -0.1238718432585264 0.27952806532284091 0.35370052764834248 -0.031575085895651889 0.34743255122183858 0.43878444726834437
leaf_weight=80 80 71 81 62 68 59 502 57 130 610 273 474 171 78 540 174 255 67 84 511 354 92 91 73 440 285 320 143 973 65 60 73 486 90 424 63 111 59 57 662 339 64 124 57 67 1050 89 110 131 72
leaf_count=80 80 71 81 62 68 59 502 57 130 610 273 474 171 78 540 174 255 67 84 511 354 92 91 73 440 285 320 143 973 65 60 73 486 90 424 63 111 59 57 662 339 64 124 57 67 1050 89 110 131 72
internal_value=0 -0.236492 0.167654 0.0838807 -0.357332 -0.117859 -0.0824602 0.266425 -0.0410765 -0.319972 -0.45641 0.121217 0.243422 -0.302451 0.00788578 -0.164425 -0.205401 -0.348712 0.137116 -0.249101 0.250074 -0.179707 -0.508149 -0.47838 -0.0124461 -0.196776 -0.336233 -0.212634 0.165256 -0.455039 0.337699 -0.100246 0.106127 0.0249476 0.0336061 -0.27446 0.0424086 -0.316625 -0.0363592 0.214491 0.314321 -0.506209 0.0780755 -0.123332 -0.177947 0.27118 0.393418 -0.00628543 0.32486 0.420148
internal_weight=0 4770 6681 3615 2363 2407 1714 3066 1139 1716 647 2424 2318 1519 1191 575 693 210 2017 589 2237 563 437 346 942 459 930 398 1057 197 748 165 960 1054 964 130 407 130 116 833 527 132 235 137 197 1404 221 172 470 132
internal_count=11451 4770 6681 3615 2363 2407 1714 3066 1139 1716 647 2424 2318 1519 1191 575 693 210 2017 589 2237 563 437 346 942 459 930 398 1057 197 748 165 960 1054 964 130 407 130 116 833 527 132 235 137 197 1404 221 172 470 132
is_linear=0
shrinkage=0.0140275


Tree=7
num_leaves=57
num_cat=0
split_feature=10 10 10 10 10 10 11 10 5 11 21 21 2 5 3 14 11 11 7 5 21 10 28 10 10 11 5 13 21 5 7 2 10 14 3 5 10 13 2 11 27 10 3 27 2 3 9 27 2 10 3 5 26 7 10 26
split_gain=2.24575e+06 337819 273102 50671.3 43224.9 36641 29840.8 24815.5 24005.7 19533 18041.9 15743.7 14999.7 14864.7 13170.3 12027.1 11879.9 20865.3 10711.9 10586.6 11013.4 10400.7 10187 8681 7876.81 7117.05 6808.3 5834.35 5564.97 5340.7 5122.38 5048.78 4791.22 4693.4 4105.01 3977.71 3494.51 3164.05 3065.3 2116.84 1742.23 1729.06 1606.76 1467.05 1412.13 1368.77 1361.19 1276.29 1076.76 971.815 965.829 929.354 916.95 1253.85 444.785 1.26638
threshold=51.759487500000013 32.963805000000001 75.462397500000023 59.789310000000008 12.060930000000001 39.809069999999998 46.588874000000004 91.065922500000013 1.0000000180025095e-35 20.332680000000003 -0.30031049999999831 2.4002999999999983 1.5000000000000002 0.21466973886328727 0.60769230769230786 1.0000000180025095e-35 18.189354000000005 38.152080000000005 1.0000000180025095e-35 0.24502962475312709 1.0615564999999987 24.293430000000004 1.4117583333333383 67.598685000000017 80.563770000000019 59.793998000000009 0.25817133091219829 61.302799000000007 5.746361249999997 0.35805860805860812 1.0000000180025095e-35 1.5000000000000002 98.840017500000016 1.5000000000000002 0.85239651416122009 0.098780487804878067 67.292190000000019 19.701164000000006 1.5000000000000002 31.976184000000003 17.801000000000275 44.061622500000006 0.90733452593917718 11.311499999999798 1.5000000000000002 0.9223227752639519 9.5000000000000018 4.200999999999909 1.5000000000000002 36.585412500000011 0.99193548387096786 0.12158167036215818 -1.2249543799999996 1.0000000180025095e-35 95.377012500000021 -0.86132199999999759
decision_type=2 2 2 2 2 2 2 2 2 2 2 2 2 2 2 2 2 2 2 2 2 2 2 2 2 2 2 2 2 2 2 2 2 2 2 2 2 2 2 2 2 2 2 2 2 2 2 2 2 2 2 2 2 2 2 2
left_child=1 4 3 14 10 19 9 15 41 13 22 27 36 -6 43 18 46 -18 -4 28 40 30 -1 34 38 29 -11 -10 35 -16 -8 -23 52 -13 -14 -3 51 -22 -17 -24 -21 -7 -25 -2 -26 -27 -12 -43 55 -30 -38 -5 53 -9 -54 -34
right_child=2 5 7 12 6 8 21 32 11 26 16 33 23 -15 25 24 17 -19 -20 20 37 31 39 42 44 45 -28 -29 49 -31 -32 -33 48 -35 -36 -37 50 -39 -40 -41 -42 47 -44 -45 -46 -47 -48 -49 -50 -51 -52 -53 54 -55 -56 -57
leaf_value=-0.46581135094330728 -0.16040629007145624 -0.30048620405699838 0.24020415466781656 -0.03808386737475028 -0.4064433813833816 -0.28276074827793923 -0.50231673986967995 0.31129946615483617 0.0042220897845617333 -0.24925812268168893 -0.65075303888382408 -0.092831365548919839 0.054626736616500748 -0.26108755944117568 0.029306821508745601 0.15892708739518294 -0.33167519554760322 -0.55623867810764149 -0.024926739477241978 0.0087834635004777548 -0.29352181851628073 -0.45635984219938303 -0.22615942395706815 0.14412417574419473 0.2432799672660198 -0.10715212724966465 -0.14620673292277461 -0.12764121862801772 -0.36765147173224699 0.14079488242080301 -0.37494566025428311 -0.31044251643733339 0.41087365613565474 -0.22429938863776872 0.12148593422112454 -0.18264492399709265 0.044113635405849887 -0.17103190734726537 0.22662750339670884 -0.33653088373216933 -0.088229164433748508 -0.23321260596696425 0.1789398293155737 -0.067029334985979683 0.27614338736512489 -0.026755697216646564 -0.5610573810193088 -0.14420009500357439 0.35524731954166361 -0.28556164006097035 0.10170618780523936 0.027133230178852372 0.31495593930289534 0.24141210920019762 0.35350592477937587 0.42477767212491541
leaf_weight=84 80 75 58 88 260 66 179 162 612 335 68 691 242 297 772 166 155 172 62 63 58 58 85 486 348 63 203 74 57 95 96 244 57 58 718 230 101 148 649 58 86 73 571 57 1035 124 69 57 106 59 134 84 201 75 89 58
leaf_count=84 80 75 58 88 260 66 179 162 612 335 68 691 242 297 772 166 155 172 62 63 58 58 85 486 348 63 203 74 57 95 96 244 57 58 718 230 101 148 649 58 86 73 571 57 1035 124 69 57 106 59 134 84 201 75 89 58
internal_value=0 -0.233175 0.165302 0.0827041 -0.35232 -0.116206 -0.313738 0.262688 -0.0784481 -0.270702 -0.445666 -0.0585531 0.119517 -0.328949 0.00777486 0.240008 -0.495832 -0.449814 0.103167 -0.195557 -0.139092 -0.395399 -0.343098 0.135193 0.247476 0.0245975 -0.210386 -0.00999298 -0.243155 0.0415303 -0.457876 -0.338487 0.332962 -0.10302 0.104638 -0.211643 0.0418139 -0.20555 0.212846 -0.27097 -0.0471678 -0.224076 0.162938 -0.121602 0.267879 -0.0538751 -0.605624 -0.194233 0.3879 -0.325954 0.0769807 -0.00619674 0.309912 0.28921 0.326809 0.417941
internal_weight=0 4770 6681 3615 2363 2407 1672 3066 1631 1095 691 1435 2424 557 1191 2318 464 327 120 776 355 577 227 2017 2198 1054 538 686 421 867 275 302 748 749 960 305 407 206 815 143 149 196 1057 137 1383 187 137 130 221 116 235 172 527 237 290 115
internal_count=11451 4770 6681 3615 2363 2407 1672 3066 1631 1095 691 1435 2424 557 1191 2318 464 327 120 776 355 577 227 2017 2198 1054 538 686 421 867 275 302 748 749 960 305 407 206 815 143 149 196 1057 137 1383 187 137 130 221 116 235 172 527 237 290 115
is_linear=0
shrinkage=0.0140275


Tree=8
num_leaves=53
num_cat=0
split_feature=10 10 10 10 10 5 11 10 10 11 11 5 12 2 11 16 5 9 12 21 16 10 10 11 21 10 10 17 11 10 5 21 17 24 24 10 10 5 11 21 2 17 13 2 12 17 17 2 13 24 10 12
split_gain=2.17592e+06 323817 269302 52093.7 42856.6 35976.9 25640.3 23315.1 21058.9 19157 28050.9 17878.6 16038.9 15410.9 14862.3 13623.9 12300.7 12086 11344.3 10224.2 8808.44 9301.78 8335.22 7820.6 7774.97 7476.25 7456.53 7225.39 6605.45 5612.73 5449.73 4749.37 4677.74 4541.09 3733.03 3731.6 3422.14 2823.77 2473.63 2404.8 1738.96 1553.88 1523.58 1474.8 1474.46 1463.45 1158.95 1095.82 845.42 693.656 281.59 160.342
threshold=51.759487500000013 32.963805000000001 75.462397500000023 59.789310000000008 11.515455000000005 0.18933143669985777 48.907096000000003 92.479695000000007 39.428970000000007 53.207654000000012 18.189354000000005 0.26483157365510313 53.719942500000009 1.5000000000000002 14.059986000000004 78.657542951240558 0.072751322751322761 5.5000000000000009 33.25665 2.4002999999999983 63.629157644583451 67.598685000000017 80.563770000000019 41.89901600000001 1.7551092391304364 23.6000625 41.423235000000012 29.975519472912875 60.04111000000001 37.969050000000003 0.34698996655518399 2.2958474999999976 39.843166730533959 0.76696832579185525 0.59632253711201089 98.840017500000016 67.292190000000019 0.1937129690585912 43.904438000000006 5.5545358750000018 1.0000000180025095e-35 28.602372449678771 51.144262000000005 1.5000000000000002 87.501277500000015 30.894978640432811 26.794348943658417 1.5000000000000002 63.683917600000008 0.74239631336405543 97.168470000000013 100.44651750000001
decision_type=2 2 2 2 2 2 2 2 2 2 2 2 2 2 2 2 2 2 2 2 2 2 2 2 2 2 2 2 2 2 2 2 2 2 2 2 2 2 2 2 2 2 2 2 2 2 2 2 2 2 2 2
left_child=1 4 3 16 9 17 11 15 18 10 24 14 19 36 -6 22 49 29 -7 -10 21 -15 37 -12 -1 42 39 -20 30 -3 -18 -28 -27 -13 -11 44 46 -4 -14 -19 -31 -22 -8 -24 -9 -38 -5 51 -30 -2 -46 -37
right_child=2 5 7 13 6 8 25 35 12 34 23 33 38 20 -16 -17 28 26 27 -21 41 -23 43 -25 -26 32 31 -29 48 40 -32 -33 -34 -35 -36 47 45 -39 -40 -41 -42 -43 -44 -45 50 -47 -48 -49 -50 -51 -52 -53
leaf_value=-0.42757745023970289 -0.072007071059716446 -0.33829195278573554 0.1737040349747086 0.030704572427226042 -0.38619932613530039 -0.027847198066448652 -0.39758970434506197 0.26082680554902865 0.019121810315149635 -0.51729753215689722 -0.29527274929521979 -0.17131340296520761 -0.12255469591137529 0.11039478296196409 -0.26068654605803382 0.067040841690497885 0.024671415755714791 -0.1706450461285102 -0.14438892837721123 -0.071741319470056936 0.077613324181187715 0.17379219582432415 0.24207780661494213 -0.46350747263121767 -0.62287921313508587 -0.30708355400634885 0.0070638704533860439 -0.27475050928361128 -0.023497504099770774 -0.27262361882583624 0.12589196865553928 -0.12931058671893003 -0.44263250766980178 -0.29764357457436452 -0.66303484256859535 0.39482060383207745 0.1107640558793918 0.22914146291971357 -0.2307182337768918 -0.28206664408812088 -0.19459564104380028 -0.0057361774248080926 -0.46800662576093771 0.27415964049685931 0.31825352080117536 0.041077278273594593 -0.041083118977847374 0.3497987289148653 -0.085897231800289325 -0.13256515856515527 0.35210899071884172 0.43028676367455548
leaf_weight=65 61 100 272 87 305 105 99 91 537 73 275 322 96 860 476 86 739 117 221 446 99 970 379 68 106 223 74 135 82 78 122 156 65 68 67 59 118 547 74 57 207 79 163 1153 244 120 90 108 90 98 66 58
leaf_count=65 61 100 272 87 305 105 99 91 537 73 275 322 96 860 476 86 739 117 221 446 99 970 379 68 106 223 74 135 82 78 122 156 65 68 67 59 118 547 74 57 207 79 163 1153 244 120 90 108 90 98 66 58
internal_value=0 -0.228674 0.163404 0.0814046 -0.344835 -0.113865 -0.308089 0.260179 -0.0759091 -0.44152 -0.401859 -0.270964 -0.0438621 0.118754 -0.309711 0.240555 0.00547868 -0.1915 -0.156048 -0.0220975 0.134838 0.144002 0.246899 -0.328644 -0.548679 -0.38712 -0.13787 -0.193842 0.0231627 -0.247761 0.0390213 -0.085406 -0.337698 -0.193356 -0.587089 0.336564 0.0409147 0.210738 -0.169675 -0.207182 -0.215973 0.0405855 -0.441423 0.266227 0.310825 0.0756545 -0.00576177 0.382409 -0.0561854 -0.109372 0.325482 0.412456
internal_weight=0 4778 6678 3615 2375 2403 1721 3063 1614 654 514 1171 1153 2423 781 2437 1192 789 461 983 2008 1830 2351 343 171 550 404 356 1033 385 861 230 288 390 140 626 415 819 170 174 285 178 262 1532 401 238 177 225 172 159 310 117
internal_count=11456 4778 6678 3615 2375 2403 1721 3063 1614 654 514 1171 1153 2423 781 2437 1192 789 461 983 2008 1830 2351 343 171 550 404 356 1033 385 861 230 288 390 140 626 415 819 170 174 285 178 262 1532 401 238 177 225 172 159 310 117
is_linear=0
shrinkage=0.0140275


Tree=9
num_leaves=51
num_cat=0
split_feature=10 10 10 10 10 10 11 10 24 11 11 12 12 11 2 12 3 21 10 21 27 10 11 21 10 10 11 12 11 2 3 24 24 10 10 10 3 12 21 2 22 27 12 2 2 13 3 2 10 12
split_gain=2.11531e+06 314796 261800 50642.7 41662.5 32362.3 24925.9 22665.6 20533.4 18623 27269.1 17414 17375.4 16253.3 14981.4 12905.6 12248.8 9135.33 8541.23 8473.78 8323.32 8272.24 7602.43 7557.89 7324.2 7267.63 6987.96 6877.63 6639.95 6103.75 5421.69 4741.49 3628.51 3627.38 3326.83 3277.98 2942.61 2934.48 2317.48 2195.97 1525.63 1481.47 1433.12 1422.05 1064.98 933.891 765.345 725.761 273.455 155.507
threshold=51.759487500000013 32.963805000000001 75.462397500000023 59.789310000000008 11.515455000000005 39.428970000000007 48.907096000000003 92.479695000000007 0.7543103448275863 53.207654000000012 18.189354000000005 52.741605000000007 32.409037500000004 5.7710920000000003 1.5000000000000002 28.261222500000006 0.60769230769230786 5.6909842500000014 67.598685000000017 0.11509608806818232 5.7329999999999766 80.563770000000019 41.89901600000001 1.7551092391304364 23.6000625 23.6000625 59.28110800000001 38.121195000000007 59.28110800000001 1.0000000180025095e-35 0.88799283154121877 0.82843137254901966 0.59632253711201089 98.840017500000016 67.292190000000019 35.781637500000009 0.78319623971797891 42.939697500000008 1.4577599999999984 1.5000000000000002 4.0795583777777793 11.134000000000009 87.501277500000015 1.5000000000000002 1.5000000000000002 65.495447800000008 0.99193548387096786 1.0000000180025095e-35 97.168470000000013 100.44651750000001
decision_type=2 2 2 2 2 2 2 2 2 2 2 2 2 2 2 2 2 2 2 2 2 2 2 2 2 2 2 2 2 2 2 2 2 2 2 2 2 2 2 2 2 2 2 2 2 2 2 2 2 2
left_child=1 4 3 16 9 12 13 15 11 10 23 20 -3 24 34 -4 41 26 36 -15 -7 39 -12 -1 -6 40 -14 -20 31 -10 -27 -18 -11 42 47 -19 -16 -31 -13 -17 -8 -2 -9 -23 49 -30 -36 -5 -44 -35
right_child=2 5 7 14 6 8 25 33 29 32 22 38 17 19 18 21 28 35 27 -21 -22 43 -24 -25 -26 30 -28 -29 45 37 -32 -33 -34 44 46 -37 -38 -39 -40 -41 -42 -43 48 -45 -46 -47 -48 -49 -50 -51
leaf_value=-0.42157959314941329 -0.15658982845301464 -0.021863448096410235 0.06516417032580149 -0.044391679682724033 -0.47176051065018426 -0.16399443738172942 -0.4532196276253338 0.25716804924761427 -0.27605897530010237 -0.51004112440261284 -0.29113080120690094 -0.095686875548193481 -0.15898882747148876 -0.17964328239757565 0.041929297864603532 0.16184544849763005 0.051638699413352522 -0.390002667120675 0.012773278282506188 -0.27024973359951071 -0.018664470684333363 0.23886626535642252 -0.45700560556424191 -0.6141417564305488 -0.30532838237216942 -0.41986117114041061 -0.29707509158462397 0.16870729025165709 -0.031802870178396156 -0.075593187629514114 -0.29015412738587609 -0.043726873179508671 -0.65373409900459067 0.38928224316429144 0.045678085204384156 -0.26008801360778644 0.11234654882644668 -0.17147926854233522 -0.19768529607936888 0.21890261006645934 -0.37042461882726857 -0.063241360743073904 0.31378920903937291 0.27027990592548928 0.34489191738122321 -0.098590230028668235 0.096608160106718424 0.015134749488120559 0.34716976949802764 0.42425090459061099
leaf_weight=65 82 103 83 62 93 84 205 91 84 73 275 62 366 293 137 168 741 61 59 666 1012 382 68 106 119 95 90 1009 133 94 193 119 67 59 103 104 803 191 152 651 57 57 244 1153 108 60 135 115 66 58
leaf_count=65 82 103 83 62 93 84 205 91 84 73 275 62 366 293 137 168 741 61 59 666 1012 382 68 106 119 95 90 1009 133 94 193 119 67 59 103 104 803 191 152 651 57 57 244 1153 108 60 135 115 66 58
internal_value=0 -0.225467 0.161112 0.0802627 -0.339998 -0.112268 -0.303768 0.25653 -0.0784575 -0.435327 -0.396222 -0.0524151 -0.190668 -0.267164 0.117088 0.237181 0.0054016 -0.218655 0.132947 -0.242574 -0.0298087 0.243243 -0.324034 -0.540983 -0.378369 -0.381691 -0.186257 0.160099 0.0217441 -0.170894 -0.332961 0.0384354 -0.578854 0.331844 0.040341 -0.308156 0.10209 -0.139876 -0.168164 0.207206 -0.435231 -0.118356 0.306466 0.262466 0.377045 -0.0525987 0.0745937 -0.00568044 0.320917 0.406671
internal_weight=0 4778 6678 3615 2375 2403 1721 3063 1679 654 514 1310 724 1171 2423 2437 1192 621 2008 959 1096 2354 343 171 212 550 456 1068 1053 369 288 860 140 626 415 165 940 285 214 819 262 139 401 1535 225 193 238 177 310 117
internal_count=11456 4778 6678 3615 2375 2403 1721 3063 1679 654 514 1310 724 1171 2423 2437 1192 621 2008 959 1096 2354 343 171 212 550 456 1068 1053 369 288 860 140 626 415 165 940 285 214 819 262 139 401 1535 225 193 238 177 310 117
is_linear=0
shrinkage=0.0140275


Tree=10
num_leaves=55
num_cat=0
split_feature=10 10 10 10 10 4 10 11 10 12 11 11 18 2 16 11 2 12 17 16 10 10 11 23 11 23 10 23 11 23 20 17 7 10 7 12 10 10 23 4 10 4 25 10 17 27 2 12 17 23 2 17 10 12
split_gain=2.05639e+06 306026 254508 49232.3 40501.8 33039.4 25535 24231.3 22034.2 19442.7 18103.8 26509.2 16851.2 14563.9 12911.5 12389.3 11453.1 10661.1 10502.7 8433.35 8777.71 7872.39 7390.35 7346.85 7282.41 7264.71 7064.83 7016.22 6668.81 6496.57 5214.98 4558.41 4394.19 4376.89 3765.78 3636.05 3526.07 3234.18 2578.29 2198.08 2070.96 2013.35 1994.64 1848.3 1421.65 1396.48 1394.04 1392.93 1122.78 1062.68 1035 897.501 265.55 150.811
threshold=51.759487500000013 32.963805000000001 75.462397500000023 59.789310000000008 11.515455000000005 1.5000000000000002 40.174207500000016 48.907096000000003 92.479695000000007 52.504252500000014 53.207654000000012 18.189354000000005 16.77427774807423 1.5000000000000002 78.657542951240558 19.048874000000005 1.5000000000000002 33.25665 29.210475493400661 63.629157644583451 67.598685000000017 80.563770000000019 41.89901600000001 1.7551092391304364 4.631344000000003 2.4002999999999983 23.6000625 1.4577599999999984 60.04111000000001 5.626344750000003 9.986018593948021 39.843166730533959 1.0000000180025095e-35 44.763757500000004 1.0000000180025095e-35 59.913840000000008 98.840017500000016 67.292190000000019 1.5415433070731712 1.0000000180025095e-35 43.366575000000005 1.0000000180025095e-35 10.427235000000001 36.585412500000011 30.894978640432811 53.10100000000012 1.5000000000000002 87.501277500000015 26.794348943658417 1.7967435500000002 1.5000000000000002 31.420198135336324 97.168470000000013 100.44651750000001
decision_type=2 2 2 2 2 2 2 2 2 2 2 2 2 2 2 2 2 2 2 2 2 2 2 2 2 2 2 2 2 2 2 2 2 2 2 2 2 2 2 2 2 2 2 2 2 2 2 2 2 2 2 2 2 2
left_child=1 4 3 16 10 18 17 12 14 25 11 23 15 37 21 -6 41 49 29 20 -15 39 -13 -1 -14 -8 34 -19 35 30 -3 -28 -21 43 -9 -18 47 48 -12 -4 -31 -2 -43 -20 -39 -11 -23 -10 -5 -7 53 -30 -49 -38
right_child=2 5 8 13 7 6 9 26 36 45 38 22 24 19 -16 -17 28 27 33 32 -22 46 -24 -25 -26 -27 31 -29 51 40 -32 -33 -34 -35 -36 -37 50 44 -40 -41 -42 42 -44 -45 -46 -47 -48 52 -50 -51 -52 -53 -54 -55
leaf_value=-0.4156658724156978 -0.12978083136156796 -0.14974547148314762 0.14666527105829191 0.03029190720661136 -0.37659620493544599 0.0061052430744182873 0.021999327331013133 -0.46771271142959464 0.25356061537584307 -0.13568766776763827 -0.49965286895684297 -0.28704695412400144 -0.34396237334769847 0.1074012102516755 0.064934112737700639 -0.24901942729253906 0.051700714809186414 -0.11468840518014248 -0.35166550233988159 0.11260012215162114 0.16898777241159052 0.23533134728749835 -0.45059494702675335 -0.60552686523493382 -0.19010648510825467 -0.05543678825472436 -0.29806937706276032 -0.22866872897582693 -0.025804018259140426 -0.27515499880730876 -0.010393495683685564 -0.43187745969739094 -0.02697340149528767 -0.17642908595819923 -0.35531291338155491 -0.057689831150635064 0.38382157471261569 0.10815180425897404 -0.6224317569993838 0.21400461477528462 -0.16993385998143334 0.013990593963203707 -0.1022779753125071 -0.26182928334335975 0.039467382247489545 -0.21217048874230243 0.26652748375380508 0.30938752000397235 -0.040366568230383502 -0.077995022946944256 0.3400539335388108 -0.091646118866599569 0.34229983329068353 0.41829971525047643
leaf_weight=65 106 135 111 87 312 59 512 172 91 112 59 275 69 860 86 289 739 171 67 84 970 379 68 106 501 446 223 282 93 64 87 65 94 97 90 65 59 118 81 708 88 57 59 142 120 82 1153 244 90 59 108 73 66 58
leaf_count=65 106 135 111 87 312 59 512 172 91 112 59 275 69 860 86 289 739 171 67 84 970 379 68 106 501 446 223 282 93 64 87 65 94 97 90 65 59 118 81 708 88 57 59 142 120 82 1153 244 90 59 108 73 66 58
internal_value=0 -0.222305 0.158852 0.0791369 -0.335229 -0.110693 -0.078011 -0.299507 0.252931 -0.0399848 -0.429221 -0.390665 -0.263416 0.115446 0.233854 -0.31526 0.00532546 -0.154718 -0.193496 0.131082 0.140049 0.24003 -0.319489 -0.533395 -0.208742 -0.0140447 -0.376337 -0.185657 0.026132 -0.143591 -0.0951632 -0.328291 0.0388571 -0.25447 -0.429126 0.0428491 0.32719 0.0397753 -0.570735 0.204886 -0.214279 -0.0855572 -0.0450913 -0.290659 0.0735477 -0.168048 0.258814 0.302167 -0.00560026 -0.0358911 0.371757 -0.0547969 0.316415 0.400968
internal_weight=0 4778 6678 3615 2375 2403 1723 1721 3063 1152 654 514 1171 2423 2437 601 1192 571 680 2008 1830 2351 343 171 570 958 550 453 970 374 222 288 178 306 262 804 626 415 140 819 152 222 116 209 238 194 1532 401 177 118 225 166 310 117
internal_count=11456 4778 6678 3615 2375 2403 1723 1721 3063 1152 654 514 1171 2423 2437 601 1192 571 680 2008 1830 2351 343 171 570 958 550 453 970 374 222 288 178 306 262 804 626 415 140 819 152 222 116 209 238 194 1532 401 177 118 225 166 310 117
is_linear=0
shrinkage=0.0140275


Tree=11
num_leaves=50
num_cat=0
split_feature=10 10 10 10 10 5 10 10 5 21 12 2 5 3 9 16 12 21 17 16 10 17 2 10 17 21 10 21 5 10 26 21 10 18 12 10 5 26 21 16 2 3 17 27 17 17 2 12 12
split_gain=1.9991e+06 297501 247418 47861.1 39373.4 33787.1 21424.1 19389.5 18424.8 16419.6 14802.1 14158 12151.1 11705 11368.8 10772.6 10490.4 9577.55 8827.91 8198.39 8533.06 8143.02 7223.91 6939.3 6882.15 6747.72 6675.28 6019.13 5258.14 5247.5 5123.97 4504.97 4482.37 3902.19 3651.35 3144.1 2677.45 2368.47 2240.92 1882.89 1623.84 1493.3 1487.32 1404.94 1381.98 1091.51 1005.86 301.01 146.252
threshold=51.759487500000013 32.963805000000001 75.462397500000023 59.789310000000008 11.515455000000005 0.18933143669985777 91.065922500000013 39.428970000000007 0.30320054477357855 -0.30031049999999831 53.719942500000009 1.5000000000000002 0.067424242424242428 0.60769230769230786 5.5000000000000009 78.657542951240558 33.25665 2.4002999999999983 48.180853168324624 63.629157644583451 67.598685000000017 52.803214976003567 1.5000000000000002 41.423235000000012 29.975519472912875 -1.6791050176630433 80.563770000000019 4.7413169999999996 0.054093567251461992 37.969050000000003 19.170043200000006 2.2958474999999976 98.840017500000016 22.099844009183187 59.913840000000008 67.292190000000019 0.1937129690585912 -10.087391999999996 5.5545358750000018 39.170720691309704 1.5000000000000002 0.91596045197740128 28.602372449678771 11.134000000000009 30.894978640432811 26.794348943658417 1.5000000000000002 92.445045000000007 100.44651750000001
decision_type=2 2 2 2 2 2 2 2 2 2 2 2 2 2 2 2 2 2 2 2 2 2 2 2 2 2 2 2 2 2 2 2 2 2 2 2 2 2 2 2 2 2 2 2 2 2 2 2 2
left_child=1 4 3 13 9 14 15 16 12 18 17 35 22 43 29 26 -7 -9 -1 20 -13 27 -6 38 -18 -14 36 -11 -15 -3 33 -25 39 -10 -30 45 -4 -31 -16 47 -28 -12 -21 -2 -37 -5 48 -8 -34
right_child=2 5 6 11 8 7 32 10 30 21 41 19 25 28 23 -17 24 -19 -20 42 -22 -23 -24 31 -26 -27 40 -29 34 37 -32 -33 46 -35 -36 44 -38 -39 -40 -41 -42 -43 -44 -45 -46 -47 -48 -49 -50
leaf_value=-0.23512452944224041 -0.1529638028935863 -0.32648260525091211 0.16594922039499474 0.029866987670165206 -0.47649617993805449 -0.025971530954463789 0.2872264909273759 0.019195613179356742 -0.26031033936610082 -0.39675515988229076 -0.19485313610010135 0.10589463647223991 -0.22155310700761782 -0.080064204220942528 -0.16395235233294983 0.070023868650828339 -0.13733450487639168 -0.06874722755656669 -0.41387350737938933 0.074538807825791795 0.16661729235858463 -0.59456398470496907 -0.3026276704451179 0.0083099086898344044 -0.2645626110299551 -0.31481474900063938 0.2252510356921007 -0.51699166602752988 0.038889513406144612 -0.1270770115133848 -0.099102137156780068 -0.1245085051787637 0.37843750740124088 -0.13060321917108966 -0.063017402841180445 0.10663470060755907 0.21993267363881391 -0.22845907662337214 -0.27151992043511941 0.21591949241831401 0.26094791744439777 -0.10874284878414484 -0.0070068695616880934 -0.062051284079582561 0.03891375222329372 -0.039800324492597496 0.33528381766176973 0.31054293382700421 0.41243200503921729
leaf_weight=110 82 100 272 87 137 105 197 537 205 216 106 860 181 92 117 82 221 446 108 99 970 87 72 74 135 993 332 133 886 57 74 156 59 59 75 118 547 228 57 58 1068 64 79 57 120 90 108 282 58
leaf_count=110 82 100 272 87 137 105 197 537 205 216 106 860 181 92 117 82 221 446 108 99 970 87 72 74 135 993 332 133 886 57 74 156 59 59 75 118 547 228 57 58 1068 64 79 57 120 90 108 282 58
internal_value=0 -0.219187 0.156624 0.0780268 -0.330527 -0.109141 0.249384 -0.0723584 -0.295306 -0.423201 -0.0416076 0.113827 -0.318005 0.00525045 -0.184377 0.228025 -0.149255 -0.0206987 -0.323708 0.129243 0.138084 -0.472933 -0.416629 -0.132361 -0.185599 -0.300442 0.23386 -0.442594 0.0212262 -0.238943 -0.202413 -0.081748 0.313873 -0.231347 0.0309297 0.0392176 0.202012 -0.208205 -0.199227 0.291793 0.252487 -0.162473 0.0383115 -0.115729 0.0725164 -0.00552119 0.366543 0.300967 0.395344
internal_weight=0 4778 6678 3615 2375 2403 3063 1614 1721 654 1153 2423 1383 1192 789 2301 461 983 218 2008 1830 436 209 404 356 1174 2219 349 1053 385 338 230 762 264 961 415 819 285 174 537 1400 170 178 139 238 177 225 479 117
internal_count=11456 4778 6678 3615 2375 2403 3063 1614 1721 654 1153 2423 1383 1192 789 2301 461 983 218 2008 1830 436 209 404 356 1174 2219 349 1053 385 338 230 762 264 961 415 819 285 174 537 1400 170 178 139 238 177 225 479 117
is_linear=0
shrinkage=0.0140275


Tree=12
num_leaves=45
num_cat=0
split_feature=12 12 17 3 27 17 9 12 0 6 12 9 17 27 12 17 28 21 12 20 3 12 21 11 22 12 9 11 1 17 17 6 21 17 4 20 22 21 25 12 28 12 20 4
split_gain=873005 132608 130247 62804.7 50060.8 32310.1 23825.2 20767.4 20194.8 17027.4 19164.2 16070.2 15891.1 15799.8 15280.4 12454.9 12289.9 11722 8080.1 7145.9 6476.94 6141.05 5896.64 5311.69 13580.2 5305.35 5224.1 4926.61 4580.79 4336.68 4237.45 4010.95 4840.54 3855.54 3848.53 3289.68 3264.17 3006.51 2650.55 2598.87 2222.89 1563.03 1550.4 1150.31
threshold=38.496622500000008 60.209362500000005 35.91099775504285 0.90960163432073549 6.1675000000001896 50.107077432772819 2.5000000000000004 85.735387500000016 12.500000000000002 1.0000000180025095e-35 74.996460000000013 2.5000000000000004 32.061189786738119 3.5010000000001189 85.419862500000008 25.442576605860314 1.1886666666666772 4.7413169999999996 53.719942500000009 10.390907358720231 0.73993558776167478 53.982390000000002 -5.3677575000000077 55.56572400000001 -1.5395469571428559 90.096142500000013 2.5000000000000004 51.246262000000009 2.5000000000000004 39.19210497611666 31.204573004532065 1.0000000180025095e-35 2.7336329999999998 41.407882637960434 3.5000000000000004 12.495882796750669 0.11354659999999862 6.8575365833333342 -16.830145499999997 45.025522500000008 1.8800000000000017 43.550797500000009 9.4953291003664475 1.0000000180025095e-35
decision_type=2 2 2 2 2 2 2 2 2 2 2 2 2 2 2 2 2 2 2 2 2 2 2 2 2 2 2 2 2 2 2 2 2 2 2 2 2 2 2 2 2 2 2 2
left_child=2 4 11 6 18 13 7 -3 16 10 30 -1 17 33 -10 35 -8 21 26 28 38 -6 -22 36 -25 -12 41 34 -15 -21 -5 -7 -33 -4 -14 37 -11 -13 -17 -29 -19 -2 -28 -20
right_child=1 3 5 9 12 31 8 -9 14 23 25 15 27 19 -16 20 -18 40 43 29 22 -23 -24 24 -26 -27 42 39 -30 -31 -32 32 -34 -35 -36 -37 -38 -39 -40 -41 -42 -43 -44 -45
leaf_value=-0.30947547651690788 -0.29168000956748452 0.053510044064679109 -0.35445522494467341 0.15967180737504746 0.032050577610760682 -0.55232227782154364 0.047645279914283516 0.3336445638145718 0.091556914387511457 0.15198018875654595 0.2077487937116502 -0.047135960288430798 -0.092080761511810924 -0.41069522356422156 -0.0027037792570866531 -0.11965421976359894 -0.080866812685510353 -0.00093750550117837012 -0.093268965955867422 -0.10941102353343837 -0.030857020615668741 0.09094212316199396 -0.17321509222408893 -0.12226154809241947 0.11165157809511278 0.28601308185319857 -0.16452799154750922 -0.21050653111648024 -0.28174679038728673 -0.2436118813555529 0.084205198618535829 -0.34137835936591687 -0.50996672299662027 -0.51198125090299107 0.048152794879440165 0.04841803687197712 0.10711839769451879 -0.15604773660480561 0.0056805210605723935 -0.090010832887002429 -0.053255040695535612 -0.20332565996327748 -0.06700443896580148 -0.013802771186925701
leaf_weight=87 62 99 57 340 1196 85 256 110 1363 771 545 298 78 59 450 63 342 479 79 70 63 492 640 59 283 249 66 57 703 148 258 65 70 67 76 58 547 60 70 93 240 111 63 66
leaf_count=87 62 99 57 340 1196 85 256 110 1363 771 545 298 78 59 450 63 342 479 79 70 63 492 640 59 283 249 66 57 703 148 258 65 70 67 76 58 547 60 70 93 240 111 63 66
internal_value=0 0.0671186 -0.222643 0.107681 -0.00573273 -0.321302 0.057298 0.20098 0.0448402 0.150931 0.187121 -0.125083 0.0169436 -0.290354 0.0681572 -0.112265 -0.025841 0.0290151 -0.143276 -0.271461 -0.143479 0.0492194 -0.160467 0.120579 0.0712796 0.232301 -0.184611 -0.0786149 -0.291739 -0.200549 0.127123 -0.476579 -0.428842 -0.439621 -0.0228334 -0.049522 0.133366 -0.0654071 -0.0536408 -0.135842 -0.0184098 -0.235027 -0.116949 -0.0571419
internal_weight=0 8830 2663 5672 3158 1324 2620 209 2411 3052 1392 1339 2711 1104 1813 1252 598 2407 447 980 836 1688 703 1660 342 794 302 304 762 218 598 220 135 124 154 416 1318 358 133 150 719 173 129 145
internal_count=11493 8830 2663 5672 3158 1324 2620 209 2411 3052 1392 1339 2711 1104 1813 1252 598 2407 447 980 836 1688 703 1660 342 794 302 304 762 218 598 220 135 124 154 416 1318 358 133 150 719 173 129 145
is_linear=0
shrinkage=0.0140275


Tree=13
num_leaves=55
num_cat=0
split_feature=10 10 10 10 10 10 4 10 11 21 16 4 21 2 2 11 11 10 28 2 10 16 21 11 21 16 2 16 28 10 13 21 10 7 7 10 21 21 13 28 21 16 10 4 21 6 10 10 30 10 10 28 22 26
split_gain=1.90646e+06 287471 243580 36312.8 34173.7 31457 30066.8 24192.2 21786.9 18479.8 15455.2 14165.4 12313.2 11296.7 11198.6 11167.6 24647.4 10108.9 10092.3 10058.6 8828.71 8691.9 7515.77 7014.03 6384.83 6026.22 6003.07 5910.33 4594.85 4586.4 3892.38 3567.92 3117.93 3043.52 2974.63 2893.96 2886.61 2803.25 2768.67 2705.2 2538.11 2247.78 1799.43 1797.39 1997.12 1796.35 1789.6 1680 1545.13 1512.82 780.322 722.219 679.716 427.252
threshold=51.759487500000013 33.425700000000013 72.740535000000008 12.943245000000001 59.789310000000008 83.405962500000015 1.5000000000000002 39.428970000000007 50.980042000000005 -0.30031049999999831 49.148469469777957 1.0000000180025095e-35 0.16304296874999882 1.5000000000000002 1.5000000000000002 22.642266000000003 38.152080000000005 23.6000625 1.4180373376623343 1.0000000180025095e-35 96.106762500000016 76.50351965857233 3.2394632812499959 60.04111000000001 2.6852660625000007 77.688903695505857 1.5000000000000002 63.287448700755867 1.7429285714285714 67.598685000000017 63.276084200000007 -0.96840406250000055 76.831965000000011 1.0000000180025095e-35 1.0000000180025095e-35 44.461777500000004 7.1244483333333353 -3.7861941249999975 48.364490000000011 2.0614052631579018 2.6421707788461553 91.903381080175549 44.763757500000004 1.0000000180025095e-35 10.448051250000001 2.5000000000000004 67.292190000000019 91.541940000000011 4643.5000000000009 77.871045000000024 98.840017500000016 0.92019999999997715 -0.25991553583333343 -0.71261415999999744
decision_type=2 2 2 2 2 2 2 2 2 2 2 2 2 2 2 2 2 2 2 2 2 2 2 2 2 2 2 2 2 2 2 2 2 2 2 2 2 2 2 2 2 2 2 2 2 2 2 2 2 2 2 2 2 2
left_child=1 3 4 9 13 21 19 24 11 18 52 31 -13 43 46 41 -17 34 -1 35 25 26 -12 40 38 47 49 29 36 -16 -19 -5 -28 -29 -10 -3 -21 -20 -8 -26 -15 -11 -30 -2 -45 50 51 -7 -25 -4 -22 -6 -9 -48
right_child=2 6 5 8 14 20 7 10 17 15 22 12 -14 23 27 16 -18 30 37 28 45 -23 -24 48 39 -27 32 33 42 -31 -32 -33 -34 -35 -36 -37 -38 -39 -40 -41 -42 -43 -44 44 -46 -47 53 -49 -50 -51 -52 -53 -54 -55
leaf_value=-0.41418942732769365 -0.12825597070097139 -0.35613292517454809 0.11370773556117696 -0.31743569125759946 -0.044513020938057209 0.25587812976819896 -0.082675973385229945 -0.21110086465336667 -0.47578898135618897 -0.59854689293134755 0.006687833874806039 -0.15768383503382252 -0.26548186053457173 0.066018797403939733 0.10112364989456564 -0.25982828410237491 -0.51244858374794955 -0.27394124377255158 -0.29193929934695484 -0.15682104875465847 0.32131232408690807 0.037448554008848021 -0.069185048880170588 -0.025202316681037042 -0.18376122354903035 0.12126063415547887 0.18396576908152501 0.095432492290258727 -0.13258795035019427 0.15048321394404254 -0.38643952943713283 -0.47174289947951703 0.22790429314964261 -0.032728999606166487 -0.36584583153464906 -0.22420544909507634 -0.23946070383811413 -0.16950436058345758 -0.18775728816023107 -0.29577696014179683 0.016055116861834272 -0.49732501396306567 -0.033698918609761659 0.011091521152515639 -0.10524387635832574 0.26671927528666428 0.082961002474931128 0.29158102705152927 -0.11347478831982179 0.17302461560739346 0.36973631670919049 0.014734132133204628 -0.14806247925783408 0.034734698598255988
leaf_weight=100 105 69 164 57 64 1016 189 70 137 80 674 286 773 421 870 134 176 197 75 280 106 70 415 109 161 60 528 70 84 647 88 62 807 76 76 63 119 73 67 58 382 97 64 57 59 59 75 353 61 177 185 110 67 71
leaf_count=100 105 69 164 57 64 1016 189 70 137 80 674 286 773 421 870 134 176 197 75 280 106 70 415 109 161 60 528 70 84 647 88 62 807 76 76 63 119 73 67 58 382 97 64 57 59 59 75 353 61 177 185 110 67 71
internal_value=0 -0.213702 0.152732 -0.321662 0.0636512 0.233017 -0.104334 -0.0728273 -0.285598 -0.403889 -0.0398922 -0.252696 -0.236375 0.00435612 0.0993506 -0.454109 -0.403272 -0.363413 -0.305246 -0.183254 0.274539 0.190706 -0.0222202 0.0249246 -0.157821 0.259054 0.197103 0.113974 -0.156707 0.12218 -0.3087 -0.397884 0.210531 0.0286748 -0.43659 -0.293216 -0.181484 -0.231592 -0.110203 -0.213456 0.0422582 -0.543111 -0.089868 -0.0861722 -0.0480243 0.337741 0.0233328 0.265089 -0.0569139 0.144515 0.352119 -0.00702143 -0.180318 0.059552
internal_weight=0 4791 6702 2411 3177 3525 2380 1701 1676 735 1226 1178 1059 1194 1983 487 310 498 248 679 1779 1746 1089 973 475 1429 1676 1663 547 1517 285 119 1335 146 213 132 399 148 256 219 803 177 148 221 116 350 320 1369 170 341 291 174 137 146
internal_count=11493 4791 6702 2411 3177 3525 2380 1701 1676 735 1226 1178 1059 1194 1983 487 310 498 248 679 1779 1746 1089 973 475 1429 1676 1663 547 1517 285 119 1335 146 213 132 399 148 256 219 803 177 148 221 116 350 320 1369 170 341 291 174 137 146
is_linear=0
shrinkage=0.0140275


Tree=14
num_leaves=44
num_cat=0
split_feature=16 16 17 3 4 17 27 27 12 0 12 16 0 4 16 12 27 28 12 15 11 11 5 5 12 17 5 7 11 21 16 3 25 11 26 3 5 16 17 21 17 17 27
split_gain=866448 129150 110607 62936 36912.8 33617.6 16658.7 15226.1 16331.5 15246.9 18174.5 12623.1 12840.8 11865.9 9848.59 9683.67 9423.04 9363.74 7126.24 7014.33 17161 8784.55 6650.02 6238.13 6095.17 4604.73 4437.52 4221.83 3836.34 3797.66 3750.19 3676.82 3524.3 2600.04 2460.98 2438.23 2395.8 2149.59 2120.18 1955.11 2639.53 1898.93 1020.44
threshold=70.564689038311784 50.300970646390404 34.744815235796075 0.92546296296296304 1.5000000000000002 50.107077432772819 4.8660000000002137 3.6330000000000244 87.501277500000015 12.500000000000002 85.419862500000008 42.591819717502041 6.5000000000000009 1.0000000180025095e-35 58.034849820550242 85.735387500000016 7.9000000000001487 1.0815555555555851 53.719942500000009 1.5000000000000002 42.556100000000008 50.035080000000008 0.34391801075268824 0.31281565656565663 28.868070000000007 41.407882637960434 0.16247642991829042 1.5000000000000002 60.04111000000001 -0.73952858391608378 64.794341458723508 0.72474747474747481 -40.899337500000001 23.806902000000004 8.2856639999999988 0.73993558776167478 0.37668918918918926 48.222687264109261 28.740095770772133 6.6235925000000035 29.346371500373554 52.803214976003567 5.0004999999999891
decision_type=2 2 2 2 2 2 2 2 2 2 2 2 2 2 2 2 2 2 2 2 2 2 2 2 2 2 2 2 2 2 2 2 2 2 2 2 2 2 2 2 2 2 2
left_child=1 3 13 7 16 6 25 8 -1 17 -11 12 15 42 26 -5 18 -9 34 20 -8 -21 24 30 29 -4 -6 -14 -28 -15 -16 -26 -7 -25 -3 -20 37 -13 -24 40 -18 -34 -2
right_child=2 4 5 11 14 32 19 9 -10 10 -12 36 27 22 23 -17 39 -19 35 21 -22 -23 38 33 31 -27 28 -29 -30 -31 -32 -33 41 -35 -36 -37 -38 -39 -40 -41 -42 -43 -44
leaf_value=0.027187853461055619 -0.29790949887538609 -0.18504200710628338 -0.33145618255350884 0.16703472447306109 -0.047974924012892856 -0.38438815086486561 -0.25097403331824392 0.083325727312236419 0.30102619806211678 0.093908655369179 -0.0032838611683698249 0.11060245287073213 0.15739073461206299 -0.075613348295525351 0.0029179956144763045 0.27468677575712114 0.037304136451739751 -0.041013303463311501 -0.12445930516159359 -0.14872180401442081 -0.01741702349552892 -0.33103893690489117 0.049160602389837237 0.089230836491392754 -0.010352620576086956 -0.46746509479414039 0.07701441717951675 0.08995679473377946 0.0015363345895920547 -0.19443037970181018 -0.051444136613476701 -0.10674908030580085 -0.45818920789773326 0.014377668798486853 -0.094903663038272801 -0.016616340751198878 0.17192202349325125 0.054607108599051775 -0.065920846051827853 -0.074264012270016791 -0.073652430330308938 -0.56041716891187798 -0.21329659802089959
leaf_weight=74 57 247 106 322 75 73 607 160 102 1529 503 476 1202 68 609 337 132 467 63 62 69 327 62 165 93 92 776 216 160 242 423 483 81 205 79 120 90 189 64 101 62 66 57
leaf_count=74 57 247 106 322 75 73 607 160 102 1529 503 476 1202 68 609 337 132 467 63 62 69 327 62 165 93 92 776 216 160 242 423 483 81 205 79 120 90 189 64 101 62 66 57
internal_value=0 0.0659832 -0.224772 0.10628 -0.00500137 -0.304361 -0.276474 0.0595543 0.185926 0.0511873 0.0698466 0.153054 0.170914 -0.119945 0.0224245 0.222096 -0.0873209 -0.00927392 -0.123884 -0.254491 -0.227144 -0.301997 -0.104651 -0.00163641 -0.118212 -0.394684 0.0557971 0.147123 0.064119 -0.168388 -0.019358 -0.0911961 -0.464427 0.0477753 -0.163218 -0.0537773 0.103912 0.0946975 -0.00924307 -0.0242135 0.00181106 -0.504131 -0.255659
internal_weight=0 8884 2609 5667 3217 1483 1263 2835 176 2659 2032 2832 2077 1126 2413 659 804 627 509 1065 676 389 1012 1402 886 198 1011 1418 936 310 1032 576 220 370 326 183 755 665 126 295 194 147 114
internal_count=11493 8884 2609 5667 3217 1483 1263 2835 176 2659 2032 2832 2077 1126 2413 659 804 627 509 1065 676 389 1012 1402 886 198 1011 1418 936 310 1032 576 220 370 326 183 755 665 126 295 194 147 114
is_linear=0
shrinkage=0.0140275


Tree=15
num_leaves=50
num_cat=0
split_feature=10 10 10 17 10 10 4 10 12 21 10 19 7 12 3 4 3 10 15 16 21 17 12 19 17 1 16 21 27 10 12 17 30 3 10 10 19 10 17 27 10 10 22 12 10 10 27 22 10
split_gain=1.82692e+06 275194 234554 34806.2 32790.8 30226.4 28455 23166.9 19547.6 19087.9 18557.8 17832.6 12823.7 11237 10553 10096.7 9659.14 8497.88 8460.7 8102.48 7025.94 6814.29 5879.48 5732.47 5560.76 5393.47 4990.79 4634.45 4474.08 4041.88 3991.16 3460.48 5046.7 3014.61 2907.02 2765.93 2391.1 2371.85 1857.9 1642.84 1634.99 1590.54 1128.89 1085.73 1009.39 744.143 725.531 720.437 496.197
threshold=51.759487500000013 33.425700000000013 72.740535000000008 49.465549974889939 59.789310000000008 83.405962500000015 1.5000000000000002 39.428970000000007 52.504252500000014 0.11509608806818232 11.515455000000005 8.2952627053682679 1.0000000180025095e-35 33.662737500000013 0.59545454545454557 1.5000000000000002 1.0000000180025095e-35 96.106762500000016 1.5000000000000002 76.50351965857233 3.2394632812499959 39.843166730533959 29.417640000000002 27.590706436812209 29.082458066122715 1.5000000000000002 63.964778625219516 5.626344750000003 9.765999999999794 67.598685000000017 59.913840000000008 55.020720830585411 4642.0000000000009 0.59545454545454557 76.831965000000011 44.461777500000004 9.129528968917823 44.763757500000004 51.468622530843383 43.673000000000123 78.41940750000002 91.541940000000011 -0.52790316363636447 67.159785000000014 57.241852500000007 98.840017500000016 8.4009999999998275 -0.23569310000000354 66.035025000000005
decision_type=2 2 2 2 2 2 2 2 2 2 2 2 2 2 2 2 2 2 2 2 2 2 2 2 2 2 2 2 2 2 2 2 2 2 2 2 2 2 2 2 2 2 2 2 2 2 2 2 2
left_child=1 3 4 9 14 19 16 13 20 11 18 -1 -12 -8 46 33 35 22 -11 25 -9 -13 -7 -15 27 40 29 -18 44 -17 -30 32 38 48 -27 -3 -35 -26 -5 45 -4 -24 -28 -10 -16 -19 -2 -34 -6
right_child=2 6 5 31 15 17 7 8 43 10 12 21 -14 23 28 26 24 39 -20 -21 -22 -23 41 -25 37 34 42 -29 30 -31 -32 -33 47 36 -36 -37 -38 -39 -40 -41 -42 -43 -44 -45 -46 -47 -48 -49 -50
leaf_value=-0.4419452546685107 -0.1455061815920263 -0.34823549262282749 0.1086094725688045 -0.43054374824723235 -0.045052684099254912 0.1140100451578228 -0.028113430161617332 0.014778086316879021 -0.13638490319655799 -0.37508480224139451 -0.33799728287552561 -0.16241018164579971 -0.24427532383211412 -0.10318362284991629 -0.067568338507679251 0.10099301114809454 -0.074518034011671536 0.3168970452472456 -0.54819995632648466 0.038844814814960937 -0.061475541299777732 -0.25974197101872876 0.2506676798409283 -0.22627428841289957 -0.23661380626978729 0.17926555263893046 0.072615490902014926 -0.18410204710290026 0.040911006587373872 0.14902516041369587 -0.0680820630515893 -0.54072219757685125 -0.39351693472221749 -0.0040357179940513832 0.22109632675878027 -0.21924964774210878 0.085047934969663216 -0.13611190994981068 -0.53216637360533292 0.26812246610913643 0.17475597699381967 0.28539980945819804 -0.012008379092508466 -0.20183681277851884 -0.00024453546545009192 0.36425602407334084 -0.078173534964120842 -0.32247911778841659 0.008456295479528305
leaf_weight=70 72 69 162 71 63 57 107 635 128 174 687 326 495 104 121 798 202 110 82 70 380 251 1019 264 157 540 60 122 803 609 72 66 57 79 838 63 236 66 73 67 136 353 64 83 69 173 57 59 74
leaf_count=70 72 69 162 71 63 57 107 635 128 174 687 326 495 104 121 798 202 110 82 70 380 251 1019 264 157 540 60 122 803 609 72 66 57 79 838 63 236 66 73 67 136 353 64 83 69 173 57 59 74
internal_value=0 -0.209197 0.149512 -0.314826 0.0620972 0.228295 -0.10219 -0.0715387 -0.0393089 -0.293742 -0.322223 -0.230432 -0.298754 -0.154712 0.00401415 0.0970668 -0.178966 0.268997 -0.430561 0.18682 -0.0137638 -0.204761 0.253805 -0.191505 -0.15295 0.192997 0.114267 -0.115801 0.0185333 0.121788 0.0319352 -0.449652 -0.42651 0.0387911 0.204709 -0.286722 0.0626862 -0.206897 -0.482105 0.331005 0.138818 0.259608 0.0288874 -0.162161 -0.0431526 0.34587 -0.115804 -0.35744 -0.0161037
internal_weight=0 4791 6702 2411 3177 3525 2380 1701 1226 2085 1438 647 1182 475 1194 1983 679 1779 256 1746 1015 577 1429 368 547 1676 1531 324 1065 1407 875 326 260 452 1378 132 315 223 144 350 298 1372 124 211 190 283 129 116 137
internal_count=11493 4791 6702 2411 3177 3525 2380 1701 1226 2085 1438 647 1182 475 1194 1983 679 1779 256 1746 1015 577 1429 368 547 1676 1531 324 1065 1407 875 326 260 452 1378 132 315 223 144 350 298 1372 124 211 190 283 129 116 137
is_linear=0
shrinkage=0.0140275


Tree=16
num_leaves=42
num_cat=0
split_feature=12 12 12 3 1 4 19 9 12 0 12 6 12 13 11 13 13 12 5 13 11 11 5 19 4 11 26 11 12 21 12 12 12 4 12 12 30 9 5 26 25
split_gain=801540 114329 81605.8 59939.7 37922 32390.3 19881.5 18467.7 21351.1 19963.6 17885.4 17477.9 17263.6 15833.1 18813.4 12435.7 12559.8 11936 10607.5 9322.13 7551.29 7232.94 6924.89 6681.49 6480.6 5741.98 5684.65 5133.69 4640.64 4287.59 4181.64 3640.44 3371.32 2849.9 2462.96 2183.36 1934.57 1440.8 1174.92 1133.83 361.42
threshold=38.778442500000004 57.634027500000009 23.982735000000002 0.92546296296296304 1.5000000000000002 1.0000000180025095e-35 8.0278188054019815 2.5000000000000004 83.770995000000013 12.500000000000002 76.413277500000021 1.0000000180025095e-35 87.178402500000018 49.325262000000009 4.1833939999999972 4.3599900000000007 62.034380400000011 11.460540000000004 0.34391801075268824 64.112939800000007 60.04111000000001 2.0994999999999924 0.18933143669985777 33.305133467985968 1.5000000000000002 55.889234000000009 1.6380860000000015 55.56572400000001 49.531440000000011 2.6421707788461553 11.460540000000004 91.205415000000016 31.470915000000002 4.5000000000000009 46.725052500000011 96.216907500000005 4640.5000000000009 2.5000000000000004 0.14142857142857146 -0.34884000000000265 9.0122025000000026
decision_type=2 2 2 2 2 2 2 2 2 2 2 2 2 2 2 2 2 2 2 2 2 2 2 2 2 2 2 2 2 2 2 2 2 2 2 2 2 2 2 2 2
left_child=2 4 6 7 24 32 -1 8 -3 23 20 31 -11 14 -8 -7 18 -16 -17 22 21 -5 33 -9 28 -15 -22 -13 38 -24 -27 -12 -4 -6 -21 -10 -18 -30 -2 -34 -36
right_child=1 3 5 10 19 15 13 9 35 12 11 27 -14 25 17 16 36 -19 -20 34 26 -23 29 -25 -26 30 -28 -29 37 -31 -32 -33 39 -35 40 -37 -38 -39 -40 -41 -42
leaf_value=-0.51073788235872708 -0.23138813863969043 0.027214716814619528 -0.37474670490293643 0.017642203556099415 -0.010152507211558448 -0.27327013126789745 -0.46359170999590227 0.0092533952514877761 0.24466653635493682 0.085137462406826805 0.20682503879278299 0.14865469412846166 -0.017430152861163513 -0.28196636318077811 -0.29094301334007699 -0.10395745484967671 -0.17572945547169902 -0.17837288075167904 0.02700619771430561 -0.15397201974446845 -0.076534148975469896 0.13396719953356639 0.055845114984876709 -0.086625414299998843 -0.00272323950694174 -0.50198886521758279 0.077709634512624262 0.056850272783979597 -0.13740044234783727 0.0090584149696531537 -0.36564356711432866 0.27603887633187574 -0.21271655302416889 -0.10327901984149442 -0.069015235151154902 0.36596267553881773 -0.28041476800086312 -0.049304039287555473 -0.16039119473181768 -0.3010823032126988 -0.022188385164557008
leaf_weight=79 119 98 84 116 435 91 73 423 57 1747 533 655 396 105 330 927 70 424 140 62 63 1141 884 216 62 66 185 147 86 684 137 209 57 76 68 61 70 64 76 59 63
leaf_count=79 119 98 84 116 435 91 73 423 57 1747 533 655 396 105 330 927 70 424 140 62 63 1141 884 216 62 66 185 147 86 684 137 209 57 76 68 61 70 64 76 59 63
internal_value=0 0.0661106 -0.20999 0.0999069 -0.0101716 -0.140711 -0.29547 0.0553654 0.180322 0.0456612 0.143701 0.17725 0.0661813 -0.280481 -0.248484 -0.115099 -0.103168 -0.227649 -0.0867679 0.0121633 0.109278 0.123237 0.0208231 -0.0231464 -0.134867 -0.366375 0.0385011 0.131836 -0.158597 0.0354397 -0.410004 0.226329 -0.306901 -0.0240155 -0.0810874 0.307424 -0.228117 -0.099855 -0.20375 -0.257716 -0.0465439
internal_weight=0 8726 2712 6047 2679 1498 1214 2998 216 2782 3049 1544 2143 1135 827 1298 1207 754 1067 2272 1505 1257 2079 639 407 308 248 802 345 1568 203 742 200 511 193 118 140 150 195 116 131
internal_count=11438 8726 2712 6047 2679 1498 1214 2998 216 2782 3049 1544 2143 1135 827 1298 1207 754 1067 2272 1505 1257 2079 639 407 308 248 802 345 1568 203 742 200 511 193 118 140 150 195 116 131
is_linear=0
shrinkage=0.0140275


Tree=17
num_leaves=48
num_cat=0
split_feature=10 10 10 10 10 10 11 3 16 11 23 10 11 11 2 10 23 28 16 3 16 14 10 11 2 11 16 24 7 10 10 3 7 24 10 7 9 10 10 10 10 10 3 2 28 23 1
split_gain=1.75373e+06 262692 222178 42513.8 30240.5 28167.7 21561.9 20640.6 17410.5 17066.6 16386.7 14041 11324.5 19469.1 11165.8 10951.3 10927.1 10564.6 10281.1 10272.5 8674.54 7932.59 7871.82 7187.28 6036.03 5984.71 5809.52 4990.12 4985.91 4866.96 4819.62 4511.3 3550.69 3200.42 3137.38 2596.66 2530.5 2062.21 1923.19 1351.61 1326.62 1287.98 1113.58 757.145 576.598 514.292 436.773
threshold=51.759487500000013 35.781637500000009 72.18466500000001 12.943245000000001 83.405962500000015 59.789310000000008 48.640706000000009 0.34848484848484856 49.148469469777957 7.2258500000000021 -0.35475299999999893 39.428970000000007 18.706800000000005 53.207654000000012 1.5000000000000002 24.293430000000004 0.11509608806818232 1.6692953389830574 76.50351965857233 0.59545454545454557 82.692372758524343 1.0000000180025095e-35 97.915282500000004 41.89901600000001 1.5000000000000002 59.28110800000001 63.287448700755867 0.23611111111111113 1.0000000180025095e-35 21.573772500000004 67.598685000000017 0.80810147299509005 1.0000000180025095e-35 0.82843137254901966 77.661045000000016 1.0000000180025095e-35 8.5000000000000018 91.541940000000011 44.061622500000006 66.982492500000021 42.684495000000005 78.41940750000002 0.9223227752639519 1.5000000000000002 0.89725657894737332 5.6909842500000014 1.5000000000000002
decision_type=2 2 2 2 2 2 2 2 2 2 2 2 2 2 2 2 2 2 2 2 2 2 2 2 2 2 2 2 2 2 2 2 2 2 2 2 2 2 2 2 2 2 2 2 2 2 2
left_child=1 3 5 10 18 19 9 38 35 29 23 21 36 -14 39 32 -11 -13 24 46 22 -10 37 27 41 33 30 -1 -28 -5 -16 -17 -8 -21 -26 40 -12 -6 -3 44 -9 -4 -27 -24 -7 -41 -2
right_child=2 7 4 6 20 14 15 8 11 16 12 17 13 -15 26 31 -18 -19 -20 25 -22 -23 43 -25 34 42 28 -29 -30 -31 -32 -33 -34 -35 -36 -37 -38 -39 -40 45 -42 -43 -44 -45 -46 -47 -48
leaf_value=-0.3478277719098643 -0.13971951998435103 -0.31864434519143564 0.11272561165749935 -0.42894666044964525 0.24653245238007931 -0.045663099377955998 -0.43952078343165485 -0.28247567637970267 -0.02546234057232228 -0.13081274255706504 -0.60567146637028857 -0.089078591340971902 -0.31466491831398186 -0.53824338176764375 0.095900306757586221 -0.37082289181668343 -0.23310983506813546 -0.010774841146925071 0.012871277071388425 0.047244307505229198 0.093278869911815707 -0.17706828089745308 0.36695737396130668 -0.42509771790849005 0.18047744054554007 -0.093122259048367947 0.10880569296057281 -0.19356745930258312 -0.053549055529019438 -0.29360456425442322 0.1479572006220703 -0.25532697004220933 -0.32982180965458435 -0.032876163733435194 0.22285622453947415 -0.14262008933880244 -0.48778866822465222 0.28319562106346718 -0.21127728011497121 0.078068440853363799 -0.18896530618167146 0.16722067146418243 -0.02376839954886607 0.31687146100623026 0.0084510631465074971 0.023197145255525707 -0.086560214294192916
leaf_weight=65 65 57 196 72 1053 60 167 63 90 288 64 572 223 117 870 87 720 833 68 740 57 278 128 62 680 72 72 114 77 194 587 288 90 113 701 107 84 428 79 63 58 153 125 117 109 73 59
leaf_count=65 65 57 196 72 1053 60 167 63 90 288 64 572 223 117 870 87 720 833 68 740 57 278 128 62 680 72 72 114 77 194 587 288 90 113 701 107 84 428 79 63 58 153 125 117 109 73 59
internal_value=0 -0.204654 0.147599 -0.298383 0.222766 0.0603445 -0.263526 -0.0890808 -0.0777108 -0.230279 -0.389508 -0.0628675 -0.436273 -0.391621 0.0935672 -0.330536 -0.203888 -0.0426582 0.182162 0.0062601 0.263709 -0.140008 0.269334 -0.294789 0.188812 0.0205246 0.108344 -0.249619 0.0248616 -0.330262 0.116877 -0.282139 -0.40113 0.036623 0.201994 -0.19311 -0.538808 0.257132 -0.256323 0.0157358 -0.237705 0.136634 -0.0491482 0.343065 -0.0107235 0.0486622 -0.114477
internal_weight=0 4772 6666 2635 3581 3085 1906 2137 2001 1274 729 1773 488 340 1911 632 1008 1405 1798 1174 1783 368 1726 241 1730 1050 1606 179 149 266 1457 375 257 853 1381 228 148 1481 136 305 121 349 197 245 169 136 124
internal_count=11438 4772 6666 2635 3581 3085 1906 2137 2001 1274 729 1773 488 340 1911 632 1008 1405 1798 1174 1783 368 1726 241 1730 1050 1606 179 149 266 1457 375 257 853 1381 228 148 1481 136 305 121 349 197 245 169 136 124
is_linear=0
shrinkage=0.0140275


Tree=18
num_leaves=49
num_cat=0
split_feature=16 16 17 3 4 17 27 27 16 12 20 1 5 12 1 16 5 0 16 5 16 11 26 17 17 27 3 5 19 12 21 12 25 20 11 3 5 11 11 16 12 18 5 26 12 21 17 16
split_gain=794254 118326 95808.8 60856.8 35220.5 32028.9 16859.9 16475 13059.4 12801.6 17866.1 15464.5 11961.6 11060.9 10502.1 9187.04 8285.47 8179.17 9535.9 6912.11 6174.77 4904.75 6413.24 4811.37 4771.86 4288.89 4149.07 3946.5 3787.16 3824.75 3668.45 3621.76 3506.43 3600.92 3071.65 2914.81 2888.41 2769.08 2712.13 2656.12 2602.97 2394.13 2089.86 1812.25 1790.92 1661.38 1348.74 1144.36
threshold=70.829577876971996 48.222687264109261 34.744815235796075 0.92546296296296304 1.5000000000000002 50.107077432772819 3.6330000000000244 4.7435000000000977 58.034849820550242 85.419862500000008 9.3999897193000219 1.5000000000000002 0.2085622710622711 86.803657500000014 1.5000000000000002 58.034849820550242 0.31281565656565663 4.5000000000000009 37.136141645957558 0.31281565656565663 73.48112329741636 57.040066000000003 -1.2249543799999996 45.349180663356861 41.407882637960434 6.3535000000001682 0.8218253968253969 0.33514492753623193 10.118042294044534 85.943445000000011 -1.5658220454545451 12.330937499999999 -32.150579999999998 6.4950201628699302 2.0994999999999924 0.81934731934731941 0.39696969696969703 23.806902000000004 43.227090000000011 63.964778625219516 94.998907500000016 12.321287497847409 0.054093567251461992 -2.7682541599999939 35.196682500000009 -0.41193014712918602 19.923395220939213 43.806234259988194
decision_type=2 2 2 2 2 2 2 2 2 2 2 2 2 2 2 2 2 2 2 2 2 2 2 2 2 2 2 2 2 2 2 2 2 2 2 2 2 2 2 2 2 2 2 2 2 2 2 2
left_child=1 3 12 6 14 7 13 24 21 10 -8 -11 25 -1 15 45 23 18 40 39 44 34 -23 -9 -4 -2 38 35 29 -19 -28 -18 -7 -34 -6 -22 -30 -21 -27 -10 -5 43 -43 -16 -14 -3 -17 -20
right_child=2 4 5 17 8 32 9 16 19 11 -12 -13 20 -15 41 46 31 28 47 37 27 22 -24 -25 -26 26 30 -29 36 -31 -32 -33 33 -35 -36 -37 -38 -39 -40 -41 -42 42 -44 -45 -46 -47 -48 -49
leaf_value=0.046902062726298273 -0.26384225582018367 0.011340337588200761 -0.31520612303805962 0.23001514694957792 -0.0042944701727107154 -0.38371047225970689 0.089460956980754569 -0.23979352777474167 0.0020555727000383297 0.17306397477205712 -0.030373357757360414 -0.026930890478762574 0.028723561793302363 0.28374724644825478 -0.015210496230605556 -0.12366346609346161 -0.24440035972745039 -0.00015504212237859341 0.15348464448481444 0.092732128233159794 -0.043116046947930961 -0.11428207353655129 0.04405731579293802 -0.31561705757967895 -0.45852509562049698 -0.14502092078758722 -0.10586197737212903 -0.023015672192636491 0.14188513709526432 0.14701755589683199 -0.23810897941058107 -0.11342829217742229 -0.57139175799520092 -0.41827966573603842 0.081466133939225249 -0.14589857083207564 0.20882089794687156 0.015896193276159338 -0.020393256460551581 -0.042577331543440837 0.32688426897376321 -0.062598349144342105 0.022780210117882768 -0.11300575190859555 -0.054224333082975626 -0.076210092949295746 -0.19759182257133989 0.084819462897808548
leaf_weight=62 86 57 95 255 90 109 1461 655 520 87 294 606 95 104 68 67 62 72 145 165 66 65 223 221 89 87 61 87 1792 67 129 127 60 62 929 311 137 210 57 529 70 77 211 83 111 168 182 72
leaf_count=62 86 57 95 255 90 109 1461 655 520 87 294 606 95 104 68 67 62 72 145 165 66 65 223 221 89 87 61 87 1792 67 129 127 60 62 929 311 137 210 57 529 70 77 211 83 111 168 182 72
internal_value=0 0.0635552 -0.216508 0.10635 0.00220256 -0.290013 0.0585054 -0.261937 0.0274196 0.049225 0.0693825 -0.00181415 -0.116698 0.195325 -0.0732205 -0.119009 -0.240745 0.154266 0.202799 -0.00196381 -0.0798886 0.0594381 0.00829895 -0.25893 -0.384563 -0.175402 -0.152611 -0.108265 0.141544 0.0707386 -0.195684 -0.156426 -0.441792 -0.493633 0.0738854 -0.127922 0.146642 0.0497209 -0.0957332 -0.0204463 0.250899 -0.0237667 -2.46492e-05 -0.0690076 -0.0159408 -0.0540024 -0.177725 0.130731
internal_weight=0 8868 2570 5224 3644 1480 2614 1249 2731 2448 1755 693 1090 166 913 474 1065 2610 542 1424 670 1307 288 876 184 420 334 464 2068 139 190 189 231 122 1019 377 1929 375 144 1049 325 439 288 151 206 225 249 217
internal_count=11438 8868 2570 5224 3644 1480 2614 1249 2731 2448 1755 693 1090 166 913 474 1065 2610 542 1424 670 1307 288 876 184 420 334 464 2068 139 190 189 231 122 1019 377 1929 375 144 1049 325 439 288 151 206 225 249 217
is_linear=0
shrinkage=0.0140275


Tree=19
num_leaves=53
num_cat=0
split_feature=10 10 10 10 10 10 5 12 5 21 3 10 2 3 12 10 17 21 17 21 12 17 13 12 2 7 2 17 13 5 3 21 10 10 12 10 13 0 10 17 22 7 18 1 10 10 17 17 17 4 17 10
split_gain=1.68107e+06 251393 214126 39103.9 29153.9 27065.9 23941.1 19011.3 18193.2 16244.7 13566.4 11541.8 10671.2 9838.19 8064.89 8043.13 7998.68 7995.41 8034.03 7914.92 7858.38 7582.22 7040.28 7017.05 6996.31 5943.43 5587.51 5032.17 4509.99 4916.74 4174.6 4021.46 3802.02 3766.62 3407.94 2879.25 2836.82 2743.53 2526.78 2509.49 2333.22 2102.6 1571.41 1453.59 1286.83 1164.06 975.971 762.667 733.407 640.614 545.876 176.21
threshold=51.759487500000013 35.226502500000002 72.18466500000001 12.943245000000001 83.405962500000015 59.789310000000008 0.18933143669985777 53.719942500000009 0.14142857142857146 -0.35475299999999893 0.95938981653267374 39.809069999999998 1.5000000000000002 0.59545454545454557 34.819732500000008 98.840017500000016 38.007204493516589 6.7686500000000001 52.803214976003567 4.6714471363636374 26.885932500000003 48.44554483049253 50.509040000000006 34.819732500000008 2.5000000000000004 1.5000000000000002 1.5000000000000002 26.324838026998979 59.975898000000008 0.34698996655518399 0.75277777777777788 -1.3940487499999998 43.366575000000005 67.598685000000017 69.878760000000014 77.661045000000016 34.124950000000005 4.5000000000000009 91.541940000000011 19.690486525228824 -1.1276887666666673 1.0000000180025095e-35 13.656982904375115 1.5000000000000002 66.982492500000021 78.41940750000002 26.794348943658417 32.147681702251298 26.024336103267412 2.5000000000000004 30.549525737223316 100.70959500000002
decision_type=2 2 2 2 2 2 2 2 2 2 2 2 2 2 2 2 2 2 2 2 2 2 2 2 2 2 2 2 2 2 2 2 2 2 2 2 2 2 2 2 2 2 2 2 2 2 2 2 2 2 2 2
left_child=1 3 5 9 14 13 24 11 16 21 22 23 44 48 -4 20 31 18 -11 -13 -6 36 -10 -8 39 -12 45 30 29 -15 -14 -5 42 -29 41 -28 -1 -18 -22 -3 -34 -9 -26 -41 46 -16 -7 -30 -2 51 -46 -17
right_child=2 6 4 8 15 12 7 34 10 17 25 19 27 28 26 49 37 -19 -20 -21 38 -23 -24 -25 32 -27 35 33 47 -31 -32 -33 40 -35 -36 -37 -38 -39 -40 43 -42 -43 -44 -45 50 -47 -48 -49 -50 -51 -52 -53
leaf_value=-0.16084203918959369 -0.077436227520182255 -0.13828261635348726 0.046580534659651382 -0.18423467009148287 0.085596980533376124 0.021799201666582189 -0.011314809609426112 -0.19111741026065754 -0.24615299527989024 -0.36691828672945842 -0.19846522319945181 0.01150984483484278 0.053079221788919217 0.019513365131237269 0.11174548053970915 0.34006632070212311 -0.4703887850591929 -0.53347250467055107 -0.53648647933653393 -0.080747738530763488 0.24139484522722682 -0.37771736124607647 -0.33472270521335817 -0.16207761889313221 -0.097905068560452224 -0.047457528261974184 0.17716138195282491 0.049354266974407549 -0.021696351343559978 0.11684084658115768 0.14102060729515598 -0.32050011585387683 -0.0061335640667095894 0.11330395095052846 -0.23985623048187546 0.21797164976845748 -0.28901915910825682 -0.36086836377160597 0.28079953118084716 -0.25142381991984625 -0.10964906186457403 -0.086669501198823787 -0.18632528130501411 -0.17690795171928259 0.073585146465374285 0.16397490694812258 -0.045654862682554427 -0.082319374044189542 -0.14601109448594529 0.30884845835031072 0.017067998780786225 0.37507309617792212
leaf_weight=76 61 83 87 57 57 88 89 66 625 312 522 714 124 762 194 59 84 109 67 246 1045 103 247 192 57 57 674 396 101 118 751 172 70 335 89 693 62 99 466 165 111 90 132 76 73 150 81 69 63 86 63 70
leaf_count=76 61 83 87 57 57 88 89 66 625 312 522 714 124 762 194 59 84 109 67 246 1045 103 247 192 57 57 674 396 101 118 751 172 70 335 89 693 62 99 466 165 111 90 132 76 73 150 81 69 63 86 63 70
internal_value=0 -0.200374 0.144504 -0.293748 0.218297 0.0588455 -0.0893515 -0.0575763 -0.259655 -0.380866 -0.236282 -0.0352765 0.0914121 0.00582937 0.178428 0.258497 -0.341954 -0.427427 -0.396911 -0.0121245 0.24745 -0.286559 -0.271248 -0.11435 -0.15738 -0.18361 0.185129 0.105858 0.0197892 0.0325713 0.128565 -0.28661 -0.115662 0.0786696 -0.170506 0.197855 -0.218475 -0.411175 0.253552 -0.205 -0.0696505 -0.1309 -0.159692 -0.227951 0.0153234 0.134538 -0.0104933 -0.0463395 -0.112328 0.339036 0.0474511 0.359111
internal_weight=0 4772 6666 2592 3581 3085 2180 1486 1863 729 1451 1241 1911 1174 1798 1783 412 488 379 960 1568 241 872 281 694 579 1711 1606 1050 880 875 229 370 731 245 1367 138 183 1511 324 181 156 189 241 305 344 169 170 124 215 136 129
internal_count=11438 4772 6666 2592 3581 3085 2180 1486 1863 729 1451 1241 1911 1174 1798 1783 412 488 379 960 1568 241 872 281 694 579 1711 1606 1050 880 875 229 370 731 245 1367 138 183 1511 324 181 156 189 241 305 344 169 170 124 215 136 129
is_linear=0
shrinkage=0.0140275


Tree=20
num_leaves=40
num_cat=0
split_feature=16 16 3 16 27 16 27 6 8 16 16 27 13 11 3 27 16 11 13 13 11 16 2 21 13 11 11 21 27 24 26 25 16 18 26 16 28 25 16
split_gain=758984 137953 56206.2 44902.3 30423.7 24264.2 23325.7 21165.5 20306.2 15455.4 14766.5 12758.6 12740.2 16277.7 9206.37 10713.2 8562.53 8025.75 7661.78 7030.6 8087.3 5978.01 5300.48 4202.49 4177 3905.11 3577.89 3350.68 3138.2 3007.71 2708.67 2569.12 2495.19 2318.94 2280.52 2141.76 1756.38 1327.83 1305.24
threshold=73.48112329741636 56.546965824654471 0.88799283154121877 83.736760990582141 6.5005000000001028 42.815717206153579 3.5010000000001189 1.0000000180025095e-35 1.0000000180025095e-35 8.7908096339252282 102.06825350021768 4.6010000000000568 47.173606000000007 46.253056000000008 0.71714285714285719 3.7384999999998745 17.863734019657802 65.238482600000012 4.1318500000000009 47.470766000000005 48.006572000000006 67.063602581418635 1.5000000000000002 3.0883526625000006 60.518504000000007 55.889234000000009 51.246262000000009 -1.0425537500000022 4.0545000000002043 0.50308641975308654 -4.7578920000000009 -3.0249975000000009 64.240509992785846 16.337786379594871 5.088667799999997 50.300970646390404 1.8955657894736848 -0.74896499999999644 91.003220504400346
decision_type=2 2 2 2 2 2 2 2 2 2 2 2 2 2 2 2 2 2 2 2 2 2 2 2 2 2 2 2 2 2 2 2 2 2 2 2 2 2 2
left_child=1 2 9 11 28 7 38 8 -4 -1 12 37 13 -8 15 -11 -16 -9 -13 20 -20 23 35 33 27 -21 -14 -23 32 -12 -30 -24 -3 -6 -32 -7 -25 -2 -5
right_child=3 4 5 6 21 22 10 17 -10 14 29 18 26 -15 16 -17 -18 -19 19 25 -22 24 31 36 -26 -27 -28 -29 30 -31 34 -33 -34 -35 -36 -37 -38 -39 -40
leaf_value=0.24757790768805002 -0.25215079572901378 -0.13334874938467933 0.21797842170332241 -0.43034398513748806 0.0046748762767616541 0.051123287605842803 -0.2395060631819563 0.12225880033701546 -0.016423166287631314 0.1034236474504175 -0.34882079349984046 -0.27570004733733999 -0.23321699251671832 0.0057710159340600151 -0.10072005761285066 -0.017346108859248269 0.062597600956559779 -0.044535360432302128 -0.11993011981001253 -0.11468665684646784 0.047011949057665758 0.033499835343476121 0.13027299490687136 -0.0038790334776423368 -0.1226317076220574 -0.22330345319033607 -0.3512038520787224 -0.046011961842581231 -0.022761896172139622 -0.48998186770610674 -0.19965272677360396 0.079551433911602049 -0.22826932482556037 0.053174313013678635 -0.076002501001539699 -0.033593981819406364 -0.052726459146828206 -0.34775945567080158 -0.52557401314752639
leaf_weight=68 58 109 908 57 420 151 642 1463 79 172 62 78 64 58 66 905 1458 59 421 101 66 131 243 398 112 185 248 510 58 58 61 1039 110 361 57 96 228 58 59
leaf_count=68 58 109 908 57 420 151 642 1463 79 172 62 78 64 58 66 905 1458 59 421 101 66 131 243 398 112 185 248 510 58 58 61 1039 110 361 57 96 228 58 59
internal_value=0 0.0553331 0.0887472 -0.233717 -0.0323781 0.121762 -0.289318 0.148608 0.19921 0.0387957 -0.269892 -0.161951 -0.25243 -0.219174 0.0333349 0.00193527 0.0555206 0.115789 -0.143125 -0.12974 -0.0972925 -0.0116752 0.0777052 0.00539271 -0.0435755 -0.184968 -0.327022 -0.0297524 -0.145573 -0.417102 -0.101386 0.0891705 -0.181055 0.0271008 -0.139977 0.018171 -0.0216803 -0.30001 -0.478835
internal_weight=0 9262 6707 2215 2555 4038 1248 2509 987 2669 1132 967 1012 700 2601 1077 1524 1522 851 773 487 2160 1529 1407 753 286 312 641 395 120 176 1282 219 781 118 247 626 116 116
internal_count=11477 9262 6707 2215 2555 4038 1248 2509 987 2669 1132 967 1012 700 2601 1077 1524 1522 851 773 487 2160 1529 1407 753 286 312 641 395 120 176 1282 219 781 118 247 626 116 116
is_linear=0
shrinkage=0.0140275


Tree=21
num_leaves=52
num_cat=0
split_feature=10 10 10 10 10 10 11 11 5 5 28 15 10 12 5 11 11 10 12 12 10 9 3 12 5 10 2 12 12 11 19 11 7 11 12 3 10 10 2 3 25 12 10 12 10 2 12 10 1 10 5
split_gain=1.61751e+06 279627 146543 45243.5 30767.3 30068.3 21879.8 24827.5 18081.8 17941.7 14062.9 10587.8 10306.1 17243 10048.4 9760.31 9446.47 9440.95 9180.6 8344.39 8272.65 7827.31 7212.59 7490.54 5529.57 5066.88 5026.55 4883.15 4770.45 4742.1 4432.56 4295.52 4210.43 4069.23 4030.63 4022.96 3613.59 3023.34 2693 2265.41 1805.41 1688.44 1471.61 1410.56 1259.51 1256.36 1056.25 1007.32 840.131 629.586 469.793
threshold=46.671765000000008 71.939857500000016 32.963805000000001 59.789310000000008 10.061955750000001 82.560922500000018 44.248110000000004 20.332680000000003 0.18127053669222346 0.12158167036215818 1.4827100000000113 1.5000000000000002 39.428970000000007 39.423667500000015 0.089572192513368995 14.65638 41.89901600000001 23.6000625 32.409037500000004 34.819732500000008 96.106762500000016 5.5000000000000009 0.91266209000762777 46.725052500000011 0.25817133091219829 42.029925000000013 1.5000000000000002 28.868070000000007 73.395315000000011 60.947244000000005 27.311001192989149 66.827646000000001 1.0000000180025095e-35 1.8141719999999997 60.80004000000001 0.86616915422885576 77.661045000000016 37.969050000000003 1.5000000000000002 0.99193548387096786 2.4792075000000016 39.79867500000001 91.065922500000013 62.342805000000006 77.871045000000024 5.5000000000000009 52.130347500000006 54.045232500000004 1.5000000000000002 100.70959500000002 0.26209992193598758
decision_type=2 2 2 2 2 2 2 2 2 2 2 2 2 2 2 2 2 2 2 2 2 2 2 2 2 2 2 2 2 2 2 2 2 2 2 2 2 2 2 2 2 2 2 2 2 2 2 2 2 2 2
left_child=2 3 4 9 11 19 7 10 21 38 -6 15 18 39 43 -1 -17 32 -10 -3 27 37 23 -11 -9 41 44 -7 -19 -24 -20 33 -8 -16 -15 -13 -28 -4 46 -14 -39 -23 -29 -5 -21 49 -2 -40 -45 -22 -47
right_child=1 5 8 14 6 20 17 24 12 22 -12 35 13 34 31 16 -18 28 30 26 45 25 29 -25 -26 -27 36 42 -30 -31 -32 -33 -34 -35 -36 -37 -38 40 47 -41 -42 -43 -44 48 -46 50 -48 -49 -50 -51 -52
leaf_value=-0.47701224918458313 -0.18514472030592108 0.033015444921204798 -0.30444674231421193 -0.052450598031602888 -0.38631406076630342 0.10989126970263581 -0.42272701919973749 -0.19940921593063127 -0.013982378373977287 0.082858132085950845 -0.24414535247323602 -0.57842262196009764 0.00019101856302888105 -0.084650381917839426 0.014487829327253132 -0.26409168181050641 -0.45666782210028389 -0.25347684698860173 -0.10820557334240571 0.1021672375187663 0.31198720014244652 -0.14542312166652993 0.048197554205472615 -0.04774010901785089 -0.10881750569540255 -0.044307567257799378 0.16653099720629339 0.23193065281619821 -0.38943701492146704 -0.041014674802717366 -0.20653165576861598 -0.0085055196172160712 -0.31833537966453501 0.11027353317294319 -0.1862932857799158 -0.43219743898762897 0.21305309391992336 -0.16433555749860687 -0.094768508561966308 0.1001990040210947 -0.25328430884205949 -0.24110568487070305 0.26387162384497148 -0.001941732581117102 0.15721096741600557 0.30088613494376015 -0.11488912071419628 -0.020077017102271288 0.063848905886604218 0.36060638775089371 0.2433808717514602
leaf_weight=88 67 85 105 69 212 59 214 345 86 103 388 57 80 444 93 221 65 267 136 184 156 96 777 536 216 80 720 1108 63 138 270 69 119 1456 93 108 608 89 75 101 92 59 387 99 149 58 116 68 62 83 58
leaf_count=88 67 85 105 69 212 59 214 345 86 103 388 57 80 444 93 221 65 267 136 184 156 96 777 536 216 80 720 1108 63 138 270 69 119 1456 93 108 608 89 75 101 92 59 387 99 149 58 116 68 62 83 58
