tree
version=v4
num_class=1
num_tree_per_iteration=1
label_index=0
max_feature_idx=30
objective=regression
feature_names=total_actions num_passes num_successful_passes pass_success_rate num_carries carry_ratio num_recoveries num_tackles num_interceptions unique_players last_end_x last_end_y last_pass_end_x last_pass_end_y field_zone_x field_zone_y distance_to_goal distance_from_center avg_pass_distance max_pass_distance min_pass_distance avg_pass_dx avg_pass_dy avg_pass_forward forward_pass_ratio total_x_progress total_y_progress duration avg_action_interval is_home team_id
feature_infos=[1:269] [1:147] [0:134] [0:1] [0:68] [0:0.5] [0:20] [0:10] [0:12] [1:24] [0:105] [0:68] [0:105] [0:68] [0:2] [0:2] [0.18974828064833804:109.51311153086641] [0.61186938096377996:62.547981582142199] [0:85.567635650806437] [0:92.863733358967437] [0:85.567635650806437] [-33.913425000000004:80.505074999999991] [-65.665471600000004:63.022242240000004] [-33.913425000000004:80.505074999999991] [0:1] [-98.573307:95.518647000000001] [-67.050651999999999:66.895193800000001] [0:676.17299999999977] [0:52.013307692307677] [0:1] [316:4657]
tree_sizes=4214 4740 4666 4637 4117 4112 4065 4312 4217 4226 4382 4683 4318 4231 4308 4068 3969 4176 4049 4810 3890 4257 4167 3972 4312 4239 3610 4553 4193 3996 4064 3705 4225 4347 4391 4661 4800 4074 3724 3881 3821 3967 3661 4179 4326 4322 4492 4174 4003 4655 4373 4154 4161 3995 3982 3916 4227 4751 4148 4352 4659 3393 4320 4506 4229 3977 4144 3733 4233 3826 4330 3922 4754 4607 4521 4107 3909 4231 3911 4180 4001 4440 4337 4101 3727 3815 3965 3889 4015 4390 3848 4002 4601 4434 3900 3614 3828 4083 3603 3942 3932 4623 4356 4246 4005 4255 3650 4012 4425 4203 4297 4799 4459 4025 3023 4383 3517 4085 3935 4120 3588 3762 4025 3964 3368 3519 3696 3598 4100 3671 3947 4201 4729 4016 4349 4197 4742 4138 4345 4462 4565 4095 3846 4117 3938 4059 4539 3875 4326 4215 4095 4316 3429 4562 4365 4051 3894 3773 4137 3098 3668 4204 3764 3792 3614 3778 3946 3779 4141 3609 4384 3770 4024 3938 3598 3855 4285 3614 3539 3962 3285 4473 3873 3076 4959 3296 4042 4214 4780 3425 4459 4080 3524 3013 4043 3611 3714 4232 4129 2409 3844 4129 2748 3453 4315 3110 3927 3851 3625 3363 4180 3701 2842 3437 3346 4741 4370 4441 3863 3730 2582 3691 3685 4043 3197 3275 3750 4647 2739 3515 3099 3704 2323 3829 3861 3108 3796 3870 2579 3206 3008 3610 3590 3443 3265 2934 4127 4553 3607 3435 4398 3020 3014 2939 3688 3273 3092 2745 2732 3948 4026 3794 3625 3530 2830 1975 3169 3779 3765 2052 3442 3434 2128 3899 3361 3778 4295 2939 3820 2382 3972 3452 2832 3525 3213 2768 3082 3085 2868 1993 2444 2348 4133 2236 1909 2659 2439 3270 1917 2246 1206 3869 1740 1467 3433 3345 2404 3791 3343 2515 4035 3900 3201 3273 3877 2999 3878 1464 3600 2770 1021 3864 3039 3194 3530 1210 2578 2994 2850 1808 2742 1529 3256 3795 1533 3959 2143 3272 2920 1174 1292 2946 3192 1446 3018 1809 1879 3354 3955 1106 3588 2927 3018 3200 2338 2777 3359 2841 1725 3275 2341 3080 1730 2910 2614 3117 3376 3019 2752 3388 1282 3940 3890 2755 1116 4221 2689 1460 3636 1300 3266 2863 2337 3087 2061 1276 1430 2674 1286 3023 2750 2762 4023 3465 3630 2394 2242 2771 2488 2825 2849 2680 4597 3051 1355 3194 2144 2152 2631 2324 3271 1548 3517 3354 2559 3018 2236 1201 2487 1027 1798 1815 1892 2495 1726 1784 2833 2218 3782 2672 3087 3222 3392 3279 4370 1812 2486 3081 3349 2660 3796 2677 1996 3792 3969 1649 3099 3204 2748 3973 1375 2229 2417 3985 2245 939 4479 2847 4147 3183 2912 3258 1822 2973 3247 2767 1278 2429 2674 1196 2762 1730 1973 1370 1718 2053 3092 3289 2514 2782 3362 4320 3174 2989 1116 1454 3643 1280 1706

Tree=0
num_leaves=50
num_cat=0
split_feature=11 11 11 11 11 11 11 13 15 13 10 10 13 11 13 3 16 11 13 13 3 11 23 13 13 11 13 24 11 13 11 12 10 16 2 12 13 10 4 2 4 0 10 11 12 16 3 24 13
split_gain=3.33205e+06 344407 281790 50288.3 37466.1 32045.4 22544.2 21140.7 19621.7 15708 14052.6 11542 11278.1 10141.7 9655.63 10142.7 9573.08 9201.62 8742.24 7869.84 7189.05 6537.25 6514.33 6376.28 6199.48 6116.67 5547.45 5501.84 5497.41 5385.82 5248.74 4498 4310.64 4761.79 4372.84 3852.61 3342.28 2917.19 2203.28 2147.84 2137.87 2084.52 1735.14 1263.22 1227.1 859.795 848.241 352.403 229.477
threshold=33.374536000000013 53.522120000000008 16.328908000000002 43.047910000000009 26.226138000000006 4.1966880000000026 66.384289400000014 63.834000400000008 1.5000000000000002 53.318324000000011 14.196682500000003 17.506492500000004 43.300462000000003 47.925176000000008 13.827800000000005 0.9439203354297695 37.956333383446456 59.862372000000008 60.243376000000005 16.529372000000002 0.84877072612921689 11.315234000000002 5.494623749999997 33.294432000000008 11.590871999999999 37.309050000000006 37.403978000000009 0.69006568144499192 2.3342019999999981 3.9552879999999964 20.307724000000004 27.244140000000005 23.458102500000003 41.216619814558811 8.5000000000000018 70.352992500000013 39.432248000000008 64.763527500000009 1.5000000000000002 1.5000000000000002 2.5000000000000004 13.500000000000002 6.0852855000000021 67.230083600000015 61.736325000000015 48.625305813006356 0.83225108225108235 0.58102025506376609 66.696378800000005
decision_type=2 2 2 2 2 2 2 2 2 2 2 2 2 2 2 2 2 2 2 2 2 2 2 2 2 2 2 2 2 2 2 2 2 2 2 2 2 2 2 2 2 2 2 2 2 2 2 2 2
left_child=2 3 5 12 10 7 14 28 21 11 42 -5 25 -13 15 41 -10 18 -16 37 -18 29 44 32 -23 26 -2 36 39 -7 -21 -27 34 -34 -6 -14 -25 -12 -19 -1 46 -3 -4 47 -11 -30 -8 -42 -48
right_child=1 6 4 9 23 8 40 -9 16 22 19 13 35 -15 17 -17 20 38 -20 30 -22 24 -24 27 -26 31 -28 -29 45 -31 -32 -33 33 -35 -36 -37 -38 -39 -40 -41 43 -43 -44 -45 -46 -47 48 -49 -50
leaf_value=33.347083875364554 33.847545540590467 34.147080280847781 33.429349750352543 34.126349371039495 33.608720963379199 33.578884077272463 34.263056441602686 33.674306868088102 33.509692675488189 33.73709030682501 33.798678037018234 33.931137701411416 33.687685475640613 34.011325801031276 34.107045112498341 33.897119487899204 33.600811774711637 34.17861386993463 33.962245736278092 33.59116371847545 33.790392266289381 33.620115631489661 33.951440537099835 33.593226764807561 33.504371407076512 33.994385583090505 33.707795578379582 33.777717633417232 33.414351779474437 33.459292042913177 33.651280384226048 33.880382402051673 33.739336532577738 33.823743292279339 33.774828270594668 33.82192513369916 33.713494236051865 33.676738266724364 34.138358407305518 33.396928967085955 34.125371040570606 34.053134111102651 33.533547691664523 34.218894835354767 33.829115033276331 33.454403856615073 34.194263696659476 34.173966460333368 34.22919935626696
leaf_weight=276 364 77 59 107 64 80 149 59 97 57 72 575 101 676 853 74 87 398 91 479 72 108 75 114 591 79 66 84 170 1060 712 499 264 262 61 72 76 83 843 458 58 120 69 101 57 298 63 68 121
leaf_count=276 364 77 59 107 64 80 149 59 97 57 72 575 101 676 853 74 87 398 91 479 72 108 75 114 591 79 66 84 170 1060 712 499 264 262 61 72 76 83 843 458 58 120 69 101 57 298 63 68 121
internal_value=33.7913 34.0314 33.5538 33.9171 33.6699 33.4708 34.1347 33.4149 33.5044 33.9698 33.626 33.9864 33.8482 33.9745 34.1163 34.0373 33.6196 34.1261 34.0931 33.6393 33.6866 33.4884 33.8499 33.7399 33.5222 33.8662 33.8261 33.6831 33.4022 33.4677 33.6271 33.896 33.7638 33.7814 33.6897 33.7436 33.6413 33.7334 34.1513 33.3782 34.215 34.0899 33.4855 34.1816 33.7832 33.4398 34.2378 34.1516 34.2173
internal_weight=0 5744 5755 2728 2399 3356 3016 1261 2095 1547 1474 1358 1181 1251 2456 271 256 2185 944 1346 159 1839 189 925 699 1008 430 274 1202 1140 1191 578 651 526 125 173 190 155 1241 734 560 197 128 227 114 468 333 126 184
internal_count=11499 5744 5755 2728 2399 3356 3016 1261 2095 1547 1474 1358 1181 1251 2456 271 256 2185 944 1346 159 1839 189 925 699 1008 430 274 1202 1140 1191 578 651 526 125 173 190 155 1241 734 560 197 128 227 114 468 333 126 184
is_linear=0
shrinkage=1


Tree=1
num_leaves=54
num_cat=0
split_feature=13 13 13 13 3 13 9 3 9 12 16 13 16 9 16 28 12 16 9 3 16 13 6 6 24 16 1 18 6 13 13 20 13 9 18 3 24 13 6 21 3 22 21 3 21 24 22 13 12 16 20 27 13
split_gain=1.68186e+06 174446 144495 59381.1 48245.6 38508.5 33454.8 29956.2 21063.5 19984.3 19514.1 17188.3 16734.8 16204.9 15492 15467 14544.6 11159.4 11036.4 18950.5 9345.4 9241.3 8111.97 6830.87 6229.66 5705.26 5362.16 5270.03 5142.5 5066.62 4774.6 4286.69 4043.13 3409.85 3379.29 2956.17 2917.15 2881.96 2770.18 2638.29 2256.36 2253.19 2246.51 2080.84 2277.33 2031.02 1798.06 1782.55 1632.84 1383.19 1360.75 453.932 290.78
threshold=32.633710000000008 50.45977400000001 6.1083380000000007 64.061739200000019 0.90219990435198483 19.585530000000006 3.5000000000000004 0.86899313501144182 3.5000000000000004 39.546832500000008 84.627436149827759 45.254408000000005 71.367886673532595 3.5000000000000004 40.321338289410946 1.4444166666667593 39.546832500000008 92.075944416509643 2.5000000000000004 0.51666666666666672 45.026172921940365 26.340650000000007 1.0000000180025095e-35 1.0000000180025095e-35 0.54110360360360377 50.590606550039219 7.5000000000000009 18.320378682730009 2.5000000000000004 25.656230000000008 57.947628000000009 4.007695416527163 36.158490000000008 2.5000000000000004 13.258776654357627 0.86240703177822864 0.74679487179487192 1.9697219999999975 1.5000000000000002 7.809447704545458 0.81649831649831661 0.770998527272726 8.9014931250000018 0.65258620689655189 8.1460527272727301 0.46247654784240161 -2.6701768674999977 1.6761999999999946 12.183780000000004 46.523337441954844 8.6412599006444069 3.0004999999999886 1.0000000180025095e-35
decision_type=2 2 2 2 2 2 2 2 2 2 2 2 2 2 2 2 2 2 2 2 2 2 2 2 2 2 2 2 2 2 2 2 2 2 2 2 2 2 2 2 2 2 2 2 2 2 2 2 2 2 2 2 2
left_child=2 11 6 7 10 16 33 14 43 30 18 25 38 -11 27 37 48 21 -4 -20 28 -7 -18 49 -16 35 -25 -3 -10 -12 -9 -22 45 47 -34 36 -2 -8 42 -40 -39 -14 -13 -5 -45 -27 -37 52 -6 -17 -35 -49 -1
right_child=1 3 4 8 5 17 15 9 20 13 29 12 41 -15 24 23 22 -19 19 -21 31 -23 -24 26 -26 32 -28 -29 -30 -31 -32 -33 34 50 -36 46 -38 40 39 -41 -42 -43 -44 44 -46 -47 -48 51 -50 -51 -52 -53 -54
leaf_value=-0.46744839118209808 -0.039034374312152849 0.074712831606809318 -0.20573533523883636 0.45643685176265025 -0.36925225758670033 -0.12731619878440431 -0.21537023391624022 0.27142984082620158 0.24535758907515651 0.30429224267682142 -0.27588781998734357 0.1069108020305863 0.20672471345922333 0.17217912259501017 0.085447974883411978 -0.27476083713054394 -0.23682408420142187 -0.25413841130627779 0.048573092170079865 -0.074384054978536757 0.24458298052298358 -0.034929114304190177 -0.15592026337922074 -0.16127116615628373 0.19096500248901213 0.091867017028145828 -0.26499517444614218 -0.064910649457040226 0.10238523161204618 -0.11311809957667859 0.37098326019498229 0.33126619325411283 0.029622099817913892 -0.27494715401216158 0.11627296073783099 -0.0089866553565721968 0.041109416873450183 -0.050913118397188969 0.085930647300715771 -0.01966121819053793 -0.15780667652834265 0.30994300898082378 0.20338175947250403 0.40710901441034458 0.30488612116255254 -0.0051868511669262412 0.060349291578244778 -0.39513942618135212 -0.28616520343983104 -0.34930471405790592 -0.36322141097925986 -0.34290310399742285 -0.42753207366564144
leaf_weight=60 211 148 96 112 57 494 68 218 155 228 108 232 92 923 153 67 448 87 305 1288 158 375 537 123 395 61 491 83 73 58 169 394 112 57 427 90 155 76 252 57 80 77 60 181 57 139 400 85 271 193 90 58 115
leaf_count=60 211 148 96 112 57 494 68 218 155 228 108 232 92 923 153 67 448 87 305 1288 158 375 537 123 395 61 491 83 73 58 169 394 112 57 427 90 155 76 252 57 80 77 60 181 57 139 400 85 271 193 90 58 115
internal_value=0 0.168797 -0.170517 0.232455 -0.126984 -0.170368 -0.285374 0.191789 0.315833 0.22769 -0.0739148 0.0760135 0.130446 0.198355 0.1209 -0.243125 -0.219683 -0.102631 -0.0596462 -0.0508384 0.275239 -0.0874557 -0.192724 -0.269786 0.161517 0.0497317 -0.244227 0.0245176 0.199609 -0.219055 0.31492 0.306466 0.0782889 -0.385123 0.0982794 0.0250704 -0.00507635 -0.139071 0.0957511 0.066432 -0.105771 0.253791 0.126755 0.406282 0.382654 0.0243828 0.0476012 -0.411029 -0.300623 -0.33012 -0.329036 -0.373997 -0.441254
internal_weight=0 5812 5687 3447 4124 2269 1563 2317 1130 1538 1855 2365 770 1151 779 1098 1313 956 1689 1593 780 869 985 874 548 1595 614 231 228 166 387 552 739 465 539 856 366 224 601 309 156 169 292 350 238 200 490 318 328 260 147 143 175
internal_count=11499 5812 5687 3447 4124 2269 1563 2317 1130 1538 1855 2365 770 1151 779 1098 1313 956 1689 1593 780 869 985 874 548 1595 614 231 228 166 387 552 739 465 539 856 366 224 601 309 156 169 292 350 238 200 490 318 328 260 147 143 175
is_linear=0
shrinkage=0.0140275


Tree=2
num_leaves=53
num_cat=0
split_feature=13 13 13 13 13 6 9 6 9 14 10 10 14 10 10 13 14 28 8 13 14 10 10 8 10 10 6 30 1 10 10 0 5 5 5 9 20 14 10 13 30 5 10 9 0 13 20 9 13 17 13 0
split_gain=1.63501e+06 169586 140470 57753.5 37194.1 32709.3 32522.7 23705.1 23559.6 21506.5 83695.9 38392.9 20806.3 74977.7 29017.3 16709.6 16268.6 15035.8 12770.7 10729.5 8047.59 30092.8 8046.6 6824.72 6745.73 6663.55 6640.36 5593.82 5212.56 4687.75 4585.29 4398.59 4221.51 3943.95 3500.96 3314.53 3307.69 2759.79 13864.4 3581.45 2720.65 2537.85 2497.42 1863.66 1783.4 1732.52 1322.55 1063.39 578.535 327.778 282.286 199.939
threshold=32.633710000000008 50.45977400000001 6.1083380000000007 63.634549600000007 26.002214000000006 1.0000000180025095e-35 3.5000000000000004 1.0000000180025095e-35 3.5000000000000004 1.0000000180025095e-35 35.045797499999999 64.493572500000013 1.0000000180025095e-35 35.045797499999999 38.681580000000011 45.254408000000005 1.0000000180025095e-35 1.4444166666667593 1.0000000180025095e-35 16.084244000000005 1.5000000000000002 70.221742500000019 36.078472500000011 1.0000000180025095e-35 66.658567500000018 12.960569999999999 1.0000000180025095e-35 4642.0000000000009 7.5000000000000009 50.311747500000003 79.248330000000024 12.500000000000002 0.18624359479700436 0.30675001806750024 0.18441295546558709 2.5000000000000004 6.8858267575419347 1.0000000180025095e-35 32.008410000000005 36.158490000000008 4647.0000000000009 0.19944751381215473 12.960569999999999 13.500000000000002 14.500000000000002 1.6761999999999946 8.6412599006444069 6.5000000000000009 67.201244800000012 38.059512163808243 1.0000000180025095e-35 2.5000000000000004
decision_type=2 2 2 2 2 2 2 2 2 2 2 2 2 2 2 2 2 2 2 2 2 2 2 2 2 2 2 2 2 2 2 2 2 2 2 2 2 2 2 2 2 2 2 2 2 2 2 2 2 2 2 2
left_child=2 15 6 7 5 18 35 23 41 11 -11 -7 14 -14 -9 37 44 27 19 -4 24 -22 -18 32 -10 -6 47 34 -28 33 -24 -25 -3 -27 -8 45 -20 39 -39 -2 -40 48 -41 -31 -17 50 -37 -19 -5 -43 -1 -47
right_child=1 3 4 8 25 9 17 12 20 10 -12 -13 13 -15 -16 16 22 26 36 -21 21 -23 30 31 -26 29 28 -29 -30 43 -32 -33 -34 -35 -36 46 -38 38 40 42 -42 49 -44 -45 -46 51 -48 -49 -50 -51 -52 -53
leaf_value=-0.46089123325130199 0.013916509055958901 0.33259325261177658 -0.28482140670624234 0.40773311233344123 -0.1558212234409993 -0.25703361636508437 -0.25158345858656289 0.33410939858541777 0.31935583122731848 0.16525171130139177 -0.1307489208789234 0.13016827546163368 -0.17029274291033397 0.17064327533269566 -0.0093070365726249816 0.30082906338519433 -0.05964802899545861 -0.34684319119911966 -0.16015471147510438 -0.18224582601394274 -0.082717938012657019 0.27603981010483369 0.084890957434258424 0.081955231608044618 0.18825107440161368 0.042180474642379791 -0.15900892842807304 -0.047379772489607917 -0.26127794652056024 -0.04462477609042665 0.17428303883530721 0.25159143175309973 0.24990279869862247 -0.073108982061303285 -0.108564858756595 -0.27109032509865688 -0.031045042679800482 -0.11109374340245642 0.043473463882476825 0.043805348922691063 0.099432258862069675 0.37050946121227629 0.14170288880078843 -0.12016736493128956 0.2088141500225599 -0.38637648737056091 -0.35812631304945269 -0.2870759397281899 0.45221596712753198 0.3221774610325841 -0.42153485252498585 -0.35128298793374002
leaf_weight=60 102 187 437 154 91 383 81 234 463 212 1657 58 143 1128 61 76 60 167 83 372 57 238 380 64 93 232 123 85 491 369 161 57 351 78 58 57 74 110 926 73 210 58 174 78 93 71 90 93 99 60 115 72
leaf_count=60 102 187 437 154 91 383 81 234 463 212 1657 58 143 1128 61 76 60 167 83 372 57 238 380 64 93 232 123 85 491 369 161 57 351 78 58 57 74 110 926 73 210 58 174 78 93 71 90 93 99 60 115 72
internal_value=0 0.16643 -0.168125 0.229195 -0.125203 -0.146637 -0.281371 0.186635 0.306681 -0.117968 -0.0971703 -0.206095 0.156923 0.13228 0.263076 0.0749474 0.128616 -0.239715 -0.215188 -0.237662 0.265991 0.206699 0.0944081 0.257232 0.297438 -0.0423923 -0.266002 -0.137121 -0.240801 -0.0287485 0.111506 0.161919 0.278656 0.0131517 -0.191952 -0.379721 -0.0993409 0.0490342 0.0392591 0.0839148 0.0538235 0.399999 0.112795 -0.0578209 0.250231 -0.405265 -0.324421 -0.325489 0.425165 0.345988 -0.435065 -0.368751
internal_weight=0 5812 5687 3447 4124 3276 1563 2225 1222 2310 1869 441 1566 1271 295 2365 770 1098 966 809 851 295 601 659 556 848 874 224 614 757 541 121 538 310 139 465 157 1595 1246 349 1136 371 247 447 169 318 147 260 253 118 175 143
internal_count=11499 5812 5687 3447 4124 3276 1563 2225 1222 2310 1869 441 1566 1271 295 2365 770 1098 966 809 851 295 601 659 556 848 874 224 614 757 541 121 538 310 139 465 157 1595 1246 349 1136 371 247 447 169 318 147 260 253 118 175 143
is_linear=0
shrinkage=0.0140275


Tree=3
num_leaves=53
num_cat=0
split_feature=11 11 11 11 11 11 11 13 15 7 13 13 16 14 7 13 16 11 13 11 6 13 21 11 13 11 13 13 24 11 11 16 13 13 17 14 30 11 11 16 11 7 11 11 21 7 16 26 2 13 26 27
split_gain=3.13175e+06 324272 265444 47240.4 35101.2 29753.8 20975.6 18634.5 16737.3 20257.5 15867.2 11477.3 10185.2 8919.02 8347.61 21847.6 8096.1 8089.71 7827.27 7282.75 7141.69 6769.07 6396.81 6129.31 6047.73 5912.82 5511.69 5387.52 5324.32 5242.84 4642.93 4264.78 4008.6 3994.59 4209.28 3621.25 3438.96 3142.04 2435.72 2143.61 2100.68 2044.48 1863.48 1726.7 1406.32 1143.44 960.68 614.306 490.629 645.031 324.271 53.3797
threshold=33.374536000000013 53.522120000000008 16.328908000000002 43.047910000000009 26.226138000000006 4.1966880000000026 66.384289400000014 63.834000400000008 1.5000000000000002 1.0000000180025095e-35 53.318324000000011 43.300462000000003 90.616331377230665 1.5000000000000002 1.0000000180025095e-35 14.870477999999997 84.627436149827759 46.812866000000007 16.529372000000002 57.551188000000003 1.5000000000000002 33.294432000000008 5.494623749999997 11.315234000000002 11.590871999999999 37.309050000000006 37.403978000000009 3.9552879999999964 0.69006568144499192 2.3342019999999981 20.307724000000004 77.850623166039512 57.205680000000008 23.34797 22.66148098098078 1.5000000000000002 4642.0000000000009 59.613186000000006 62.605648400000007 45.812226339727026 67.230083600000015 1.0000000180025095e-35 0.54818200000000428 9.3871280000000024 0.47365368750000009 1.0000000180025095e-35 49.562661799481496 7.8793639999999998 1.5000000000000002 66.443551400000018 10.090078 2.4754999999997271
decision_type=2 2 2 2 2 2 2 2 2 2 2 2 2 2 2 2 2 2 2 2 2 2 2 2 2 2 2 2 2 2 2 2 2 2 2 2 2 2 2 2 2 2 2 2 2 2 2 2 2 2 2 2
left_child=2 3 5 11 12 7 14 29 23 43 16 25 18 -11 19 20 17 -5 39 32 -16 33 46 27 -25 26 -2 -7 36 42 -20 -27 -3 -6 -35 -13 -23 -17 -21 -4 41 50 -1 -10 -14 -31 -12 -18 51 -50 -8 -42
right_child=1 6 4 10 21 8 40 -9 9 13 22 35 44 -15 15 37 47 -19 30 38 -22 28 -24 24 -26 31 -28 -29 -30 45 -32 -33 -34 34 -36 -37 -38 -39 -40 -41 48 -43 -44 -45 -46 -47 -48 -49 49 -51 -52 -53
leaf_value=-0.43269222342828018 0.055136756113568053 0.30266672931754934 -0.10980997342428633 0.12923112020340904 0.054403357370692046 -0.20211193754008389 0.42265407460940968 -0.12116727752560522 -0.36182551269801178 0.046149359671042875 0.026892154851073168 -0.10534669869965591 -0.33343824422415463 -0.1792413456417884 0.0089716566391959598 0.27641196766052439 0.26902738717257463 0.20485616379720278 -0.19487878893178381 0.33016948353230463 0.21143488193651788 -0.094550723028623607 0.15300728297430308 -0.1638245717272663 -0.27814223735514354 0.087277469545727127 -0.084162727038853552 -0.32171539948258954 -0.015307374376037762 -0.3537498783659474 -0.13864178980911498 0.19828854251401432 0.18519247871953354 0.0022834781505630649 -0.07585823846737029 0.024543509186683059 -0.21450108799685746 0.33755668550998813 0.37035234525457167 -0.0056484912610228928 0.44173591429905629 0.31017944842776335 -0.38456085532056944 -0.25342530620564019 -0.2355045288922418 -0.30455929031868462 -0.054512095756465991 0.33489331372325531 0.4433100318124491 0.38365296542440352 0.38511687705530762 0.46278731960349284
leaf_weight=237 364 369 75 422 104 80 94 59 59 75 57 100 60 64 64 292 57 821 487 568 74 103 75 108 591 499 66 1060 84 336 714 79 68 248 299 73 87 387 634 81 63 62 497 58 57 132 57 58 85 66 102 88
leaf_count=237 364 369 75 422 104 80 94 59 59 75 57 100 60 64 64 292 57 821 487 568 74 103 75 108 591 499 66 1060 84 336 714 79 68 248 299 73 87 387 634 81 63 62 497 58 57 132 57 58 85 66 102 88
internal_value=0 0.232675 -0.230318 0.121851 -0.117635 -0.310867 0.332915 -0.364719 -0.278449 -0.172121 0.172855 0.0550336 -0.160143 -0.057582 0.31524 0.278563 0.189617 0.179186 -0.149306 0.333518 0.117585 -0.0498917 0.0523874 -0.293247 -0.260489 0.0731524 0.0337411 -0.313328 -0.10839 -0.376669 -0.161451 0.102461 0.284402 -0.0252606 -0.0404186 -0.0505008 -0.149509 0.311271 0.351369 -0.0557668 0.410425 0.380834 -0.400111 -0.308143 -0.285781 -0.339889 -0.0137543 0.302302 0.435683 0.417277 0.403152 0.454046
internal_weight=0 5744 5755 2728 2399 3356 3016 1261 2095 256 1547 1181 1474 139 2456 817 1358 1243 1357 1639 138 925 189 1839 699 1008 430 1140 274 1202 1201 578 437 651 547 173 190 679 1202 156 560 258 734 117 117 468 114 115 302 151 196 151
internal_count=11499 5744 5755 2728 2399 3356 3016 1261 2095 256 1547 1181 1474 139 2456 817 1358 1243 1357 1639 138 925 189 1839 699 1008 430 1140 274 1202 1201 578 437 651 547 173 190 679 1202 156 560 258 734 117 117 468 114 115 302 151 196 151
is_linear=0
shrinkage=0.0140275


Tree=4
num_leaves=47
num_cat=0
split_feature=11 11 11 11 11 11 13 11 13 13 13 10 11 13 13 11 11 13 11 12 13 13 10 10 12 13 11 13 12 8 27 11 13 12 12 13 13 10 11 4 11 0 12 20 0 13
split_gain=3.06021e+06 320742 242343 44006.4 32815.8 28385 21423.5 19434.2 17825.9 16659.9 15952.1 10982 9724.34 9444.27 9344.68 8706.97 8289.08 8139.75 7892.07 7837.17 7466.37 7239.38 6866.34 6675.69 6254.5 4996.7 4829.53 6162.89 4579.59 4402.31 4326.96 4087.01 3990.04 3982.75 3972.45 2775.24 2688.21 2184.34 1908.43 1872.17 1822.43 998.371 647.721 530.522 487.299 166.262
threshold=32.944674000000006 53.522120000000008 16.328908000000002 43.047910000000009 23.819686000000004 3.9542000000000006 63.834000400000008 66.641635400000013 53.318324000000011 45.254408000000005 23.976970000000005 17.506492500000004 47.925176000000008 43.300462000000003 13.827800000000005 59.862372000000008 27.558496000000002 16.298444000000003 37.309050000000006 68.695935000000006 37.795930000000006 60.243376000000005 18.156337500000003 75.737340000000017 15.5846775 32.889696000000008 11.315234000000002 11.590871999999999 27.244140000000005 1.0000000180025095e-35 28.431499999999975 2.3342019999999981 3.9552879999999964 70.352992500000013 65.019675000000021 57.205680000000008 48.693066000000009 72.145342500000012 67.989894452000016 1.5000000000000002 1.0000000180025095e-35 15.500000000000002 67.589392500000017 4.5109835844183008 13.500000000000002 67.98643566600002
decision_type=2 2 2 2 2 2 2 2 2 2 2 2 2 2 2 2 2 2 2 2 2 2 2 2 2 2 2 2 2 2 2 2 2 2 2 2 2 2 2 2 2 2 2 2 2 2
left_child=2 3 5 13 17 6 31 14 11 26 34 -5 -13 18 29 21 22 37 20 30 -2 -16 -12 -10 -19 -18 32 -28 -20 -3 -11 40 -7 -15 -6 -21 -26 -4 43 -17 -1 -31 -33 -9 -45 -40
right_child=1 7 4 8 10 9 -8 38 23 19 16 12 -14 33 15 39 25 24 28 35 -22 -23 -24 -25 36 -27 27 -29 -30 41 -32 42 -34 -35 -36 -37 -38 -39 45 -41 -42 -43 -44 44 -46 -47
leaf_value=-0.43770806371992255 0.051135958496043361 0.16698333935257761 0 0.32543482558699283 0.12699135152636051 -0.21384937668566723 -0.099894987972855884 0.35683638855928934 -0.030860580273046233 -0.1666385748750884 -0.27873411455557062 0.13255977188024809 0.21120479392766808 -0.10000674434693463 0.30185198661315527 0.36939220527137073 -0.029319558427768705 -0.3046487916161808 0.20494863396092022 -0.31898371823507071 -0.11167180849070581 0.16801813530897131 -0.11518077568182247 0.14755864770064939 -0.18311148730665511 -0.11264735407431559 -0.16371702498755747 -0.27902584515259676 0.090538703423466343 0.32101374676831934 -0.0021512949408632768 -0.32537914440185411 -0.31497180023388033 0.037114639445632876 -0.010622036798498345 -0.18822685401690503 -0.096499340793528551 -0.12232533428112821 0.46420415827095746 0.3335691837970805 -0.38271464665278715 0.25064070719916093 -0.36196220391611256 0.41538457802067946 0.37059373002990742 0.43421870998727807
leaf_weight=151 413 111 57 103 84 83 59 78 110 69 60 579 666 97 849 431 412 81 80 58 64 88 322 66 881 216 108 597 499 72 58 264 1097 73 81 72 77 58 79 891 590 92 157 149 76 93
leaf_count=151 413 111 57 103 84 83 59 78 110 69 60 579 666 97 849 431 412 81 80 58 64 88 322 66 881 216 108 597 499 72 58 264 1097 73 81 72 77 58 79 891 590 92 157 149 76 93
internal_value=0 0.228002 -0.230639 0.118494 -0.120647 -0.30681 -0.360805 0.328082 0.168826 -0.276029 -0.0684561 0.186162 0.174635 0.0559233 0.312637 0.322043 -0.0893493 -0.173782 0.0715466 -0.170021 0.0292784 0.28929 -0.140886 0.0360106 -0.18618 -0.0579902 -0.290479 -0.261371 0.106358 0.235345 -0.0915684 -0.374047 -0.307864 -0.0410879 0.0593972 -0.246613 -0.176157 -0.0617193 0.410464 0.345253 -0.39393 0.281575 -0.339037 0.38912 0.400283 0.448028
internal_weight=0 5759 5692 2750 2329 3363 1221 3009 1524 2142 1175 1348 1245 1226 2534 2259 1010 1154 1056 257 477 937 382 176 1039 628 1885 705 579 275 127 1162 1180 170 165 130 958 115 475 1322 741 164 421 303 225 172
internal_count=11451 5759 5692 2750 2329 3363 1221 3009 1524 2142 1175 1348 1245 1226 2534 2259 1010 1154 1056 257 477 937 382 176 1039 628 1885 705 579 275 127 1162 1180 170 165 130 958 115 475 1322 741 164 421 303 225 172
is_linear=0
shrinkage=0.0140275


Tree=5
num_leaves=47
num_cat=0
split_feature=11 11 11 11 11 11 13 11 13 13 13 10 11 13 13 11 11 13 11 12 13 13 10 10 12 13 11 13 12 8 27 17 11 13 12 13 13 5 10 2 11 5 17 20 27 13
split_gain=2.97497e+06 311807 235591 42780.4 31901.5 27594 20826.4 18892.7 17329.3 16195.2 15507.7 10675.8 9453.28 9181.15 9083.96 8464.11 8058.1 7912.81 7672.21 7618.69 7258.39 7037.45 6674.93 6489.75 6080.08 4857.45 4694.72 5990.97 4451.91 4279.5 4206.34 4060.62 3972.8 3878.61 3861.84 2697.7 2613.16 2309.14 2123.46 1863.25 1854.89 1300.14 858.963 515.405 375.65 161.23
threshold=32.944674000000006 53.522120000000008 16.328908000000002 43.047910000000009 23.819686000000004 3.9542000000000006 63.834000400000008 66.641635400000013 53.318324000000011 45.254408000000005 23.976970000000005 17.506492500000004 47.925176000000008 43.300462000000003 13.827800000000005 59.862372000000008 27.558496000000002 16.298444000000003 37.309050000000006 68.695935000000006 37.795930000000006 60.243376000000005 18.156337500000003 75.737340000000017 15.5846775 32.889696000000008 11.315234000000002 11.590871999999999 27.244140000000005 1.0000000180025095e-35 28.431499999999975 28.857788546913227 2.3342019999999981 3.9552879999999964 65.019675000000021 57.205680000000008 48.693066000000009 0.17445652173913045 72.145342500000012 1.5000000000000002 67.989894452000016 0.2085622710622711 32.920942771250694 4.5109835844183008 23.067500000000226 67.98643566600002
decision_type=2 2 2 2 2 2 2 2 2 2 2 2 2 2 2 2 2 2 2 2 2 2 2 2 2 2 2 2 2 2 2 2 2 2 2 2 2 2 2 2 2 2 2 2 2 2
left_child=2 3 5 13 17 6 32 14 11 26 34 -5 -13 18 29 21 22 38 20 30 -2 -16 -12 -10 -19 -18 33 -28 -20 -3 -11 -15 39 -7 -6 -21 -26 -17 -4 -1 43 -31 -34 -9 -45 -42
right_child=1 7 4 8 10 9 -8 40 23 19 16 12 -14 31 15 37 25 24 28 35 -22 -23 -24 -25 36 -27 27 -29 -30 41 -32 -33 42 -35 -36 -37 -38 -39 -40 -41 45 -43 -44 44 -46 -47
leaf_value=-0.41737746628395461 0.050418647715120272 0.16464097435511502 0 0.32086977851720377 0.12520997657398181 -0.21084959927147376 -0.098493706295995548 0.35183085456191865 -0.030427683456226221 -0.16430104597431097 -0.27482416460480624 0.13070028547812046 0.20824211179927141 -0.10989453652125318 0.29761774880468411 0.36646666736789069 -0.028908277324376445 -0.30037532002431266 0.20207371218392095 -0.31450916643496413 -0.11010532820585972 0.16566125791875977 -0.11356507286216658 0.1454887632153081 -0.18054288495739382 -0.11106719025615935 -0.16142048040779278 -0.27511180131412089 0.089268669957822622 0.31934384364261376 -0.0021211194719258793 0.027185188008874397 -0.30727820738442424 -0.31055352254643076 -0.010473035024187659 -0.18558649355048448 -0.095145691494771714 0.32709161109983131 -0.12060941313816588 -0.37109359454712748 0.45769251855768561 0.23971437766560058 -0.34951579437745661 0.40841803390003933 0.36917860111511336 0.42812768284151137
leaf_weight=277 413 111 57 103 84 83 59 78 110 69 60 579 666 84 849 447 412 81 80 58 64 88 322 66 881 216 108 597 499 78 58 86 152 1097 81 72 77 875 58 464 79 86 269 146 79 93
leaf_count=277 413 111 57 103 84 83 59 78 110 69 60 579 666 84 849 447 412 81 80 58 64 88 322 66 881 216 108 597 499 78 58 86 152 1097 81 72 77 875 58 464 79 86 269 146 79 93
internal_value=0 0.224804 -0.227404 0.116832 -0.118955 -0.302507 -0.355744 0.32348 0.166458 -0.272157 -0.067496 0.183551 0.172186 0.0551389 0.308251 0.317526 -0.0880962 -0.171345 0.0705431 -0.167637 0.0288675 0.285232 -0.13891 0.0355049 -0.183568 -0.0571769 -0.286404 -0.257704 0.104866 0.232044 -0.0902846 -0.040511 -0.3688 -0.303546 0.0585635 -0.243155 -0.173686 0.34041 -0.0608539 -0.388404 0.404707 0.277626 -0.334281 0.383662 0.394669 0.441744
internal_weight=0 5759 5692 2750 2329 3363 1221 3009 1524 2142 1175 1348 1245 1226 2534 2259 1010 1154 1056 257 477 937 382 176 1039 628 1885 705 579 275 127 170 1162 1180 165 130 958 1322 115 741 475 164 421 303 225 172
internal_count=11451 5759 5692 2750 2329 3363 1221 3009 1524 2142 1175 1348 1245 1226 2534 2259 1010 1154 1056 257 477 937 382 176 1039 628 1885 705 579 275 127 170 1162 1180 165 130 958 1322 115 741 475 164 421 303 225 172
is_linear=0
shrinkage=0.0140275


Tree=6
num_leaves=46
num_cat=0
split_feature=15 15 6 9 12 10 10 8 3 17 12 10 26 17 17 12 3 10 10 10 22 20 3 23 20 27 9 12 7 22 27 5 5 26 17 17 22 10 17 2 26 20 23 27 10
split_gain=1.32678e+06 327990 66792.9 55348.7 32400.7 104673 34383.7 28336.7 23918.7 22286.4 16598.7 67164.2 15926.7 15711.3 13613.1 11394 10988.9 9633.27 8272.6 7843.36 7580.79 7410.21 6684.67 6274 6229.54 6044.98 5971.11 5914.52 5684.44 5120.56 4155.48 3852.11 3848.32 3319.07 3011.68 2383.62 2285.97 2242.14 2024.02 2975.76 1973.72 1256.94 1125.05 953.168 941.693
threshold=1.5000000000000002 1.0000000180025095e-35 1.0000000180025095e-35 3.5000000000000004 33.136687500000008 32.84662500000001 44.282175000000009 1.0000000180025095e-35 0.75277777777777788 26.846228999836793 29.212260000000004 30.418867500000001 -1.9830840000000014 21.354766113036561 27.308735413715013 60.902520000000017 0.65258620689655189 29.849400000000006 45.931200000000011 12.960569999999999 -2.4883984909090899 6.2943491990090106 0.82683658170914553 -1.1160974999999991 4.5584362188004528 2.3330000000003115 3.5000000000000004 20.435100000000009 1.0000000180025095e-35 14.646247999999998 3.9660000000001223 0.19944751381215473 0.23756188118811883 -17.401573999999993 38.213957781262103 29.694035463967762 0.26489677862069089 34.07717250000001 15.716076936491472 6.5000000000000009 -16.129259999999995 8.0032595708149188 -0.045463687499999642 3.3329999999999846 60.464827500000006
decision_type=2 2 2 2 2 2 2 2 2 2 2 2 2 2 2 2 2 2 2 2 2 2 2 2 2 2 2 2 2 2 2 2 2 2 2 2 2 2 2 2 2 2 2 2 2
left_child=1 2 7 12 6 24 34 13 14 16 17 -12 30 33 21 18 -7 -10 -9 23 38 -4 -11 -3 -6 -15 -16 32 -26 -29 -2 35 -22 -1 41 -14 -25 -33 39 -21 -40 -5 -36 -37 -39
right_child=3 19 8 4 5 9 -8 15 10 22 11 -13 31 25 26 -17 -18 -19 -20 20 27 -23 -24 36 28 -27 -28 29 -30 -31 -32 37 -34 -35 42 43 -38 44 40 -41 -42 -43 -44 -45 -46
leaf_value=-0.22537403589126476 0.24416489157598564 -0.15509262574560057 -0.089722759701008542 0.29497621200096602 -0.21950823142097908 -0.04962330105141885 -0.022676964296950611 -0.30898846023674653 -0.31822659018934141 0.16230791528045854 0.10820043507712582 -0.18576978621140486 0.27476775842342627 -0.36882748849406699 -0.24636712772988958 0.013840739782965742 0.13848865671601029 -0.11331600965802757 -0.07644446637946635 -0.036986490161912765 0.20070025210448819 0.071579077781594128 0.22811515520887357 0.032837934124493776 -0.1620930975733258 -0.29096165848084543 -0.10305457614218801 0.010792016870261994 0.0057059077511205985 0.13473919011638832 0.10708302243806203 0.21310905971213209 0.037534970955564552 -0.092012017824932596 0.30074362446174041 0.38990443217677262 -0.074272609046169627 0.34525131658241237 -0.051111679662043677 -0.15500833897631325 0.0099986015459948372 0.21661096602913563 0.36210334256609761 0.3415959802001976 0.28378834975210054
leaf_weight=69 96 107 93 138 85 66 68 64 219 404 168 1702 58 251 67 83 816 57 57 147 57 141 1234 86 73 912 395 1857 87 68 80 59 57 79 86 225 72 92 187 59 234 58 198 130 110
leaf_count=69 96 107 93 138 85 66 68 64 219 404 168 1702 58 251 67 83 816 57 57 147 57 141 1234 86 73 912 395 1857 87 68 80 59 57 79 86 225 72 92 187 59 234 58 198 130 110
internal_value=0 -0.114097 -0.19128 0.199806 0.173894 0.154359 0.272448 -0.266509 -0.151174 0.181272 -0.174352 -0.159356 0.300796 -0.290444 -0.0796998 -0.112666 0.124405 -0.275931 -0.199495 0.000635706 0.0078725 0.0074448 0.211888 -0.0721452 -0.122427 -0.307772 -0.123852 0.0209914 -0.0708127 0.0151737 0.181891 0.331836 0.119173 -0.15423 0.31427 0.35856 -0.0159317 0.289525 -0.03478 -0.0708197 -0.0171303 0.271819 0.343545 0.372232 0.311813
internal_weight=0 7288 4357 4163 3313 2765 548 1515 2842 2520 2146 1870 850 1311 696 204 882 276 121 2931 2666 234 1638 265 245 1163 462 2039 160 1925 176 674 114 148 480 413 158 261 627 206 421 196 284 355 202
internal_count=11451 7288 4357 4163 3313 2765 548 1515 2842 2520 2146 1870 850 1311 696 204 882 276 121 2931 2666 234 1638 265 245 1163 462 2039 160 1925 176 674 114 148 480 413 158 261 627 206 421 196 284 355 202
is_linear=0
shrinkage=0.0140275


Tree=7
num_leaves=49
num_cat=0
split_feature=11 11 11 11 11 11 13 11 13 13 7 10 14 10 13 11 7 13 13 13 11 13 11 3 10 11 13 11 13 10 10 13 13 11 13 10 14 13 20 11 11 11 26 7 10 3 27 13
split_gain=2.84465e+06 298018 224858 40508.8 30253.2 26692.5 19598.3 18176.6 17097.4 14852.9 20396.9 10737.3 10389.6 10272.5 9154.72 9022.56 8880 23477.6 8137.65 7700.38 7445.83 7039.49 7024.17 6978.16 6290.93 5376.54 5247.75 4494.74 5829.9 4187.61 4120.77 4041.09 4029.41 3960.03 3775.04 3709.73 3630.01 3021.92 2281.11 1947.62 1857.12 1687.38 1424.27 1099.74 727.785 564.672 358.097 215.882
threshold=32.944674000000006 53.522120000000008 16.328908000000002 43.047910000000009 26.226138000000006 3.9542000000000006 63.834000400000008 66.641635400000013 53.318324000000011 45.254408000000005 1.0000000180025095e-35 14.196682500000003 1.5000000000000002 17.506492500000004 43.300462000000003 47.925176000000008 1.0000000180025095e-35 12.086796000000001 15.621266000000004 32.889696000000008 37.309050000000006 37.795930000000006 62.605648400000007 0.90219990435198483 75.737340000000017 22.649576000000007 36.450414000000002 11.315234000000002 11.590871999999999 68.75158500000002 23.458102500000003 23.34797 29.264072000000002 0.54818200000000428 3.9552879999999964 33.254077500000008 1.5000000000000002 62.754262400000009 7.3286852786428174 9.3871280000000024 67.989894452000016 2.3342019999999981 9.3290559999999996 1.0000000180025095e-35 6.8563949999999982 0.95579975579975596 26.334499999999824 67.98643566600002
decision_type=2 2 2 2 2 2 2 2 2 2 2 2 2 2 2 2 2 2 2 2 2 2 2 2 2 2 2 2 2 2 2 2 2 2 2 2 2 2 2 2 2 2 2 2 2 2 2 2
left_child=2 3 5 14 11 6 33 16 13 27 39 44 -12 -5 20 -15 22 23 29 30 21 -2 37 -18 -10 -20 -21 34 -29 -13 -6 -32 -22 45 -7 -19 -16 -3 -28 -11 43 -35 -24 46 -4 -1 -9 -42
right_child=1 7 4 8 19 9 -8 40 24 10 12 18 -14 15 36 -17 17 35 25 26 32 -23 42 -25 -26 -27 38 28 -30 -31 31 -33 -34 41 -36 -37 -38 -39 -40 -41 47 -43 -44 -45 -46 -47 -48 -49
leaf_value=-0.42861181019855837 0.049783727128561245 0.30260843778671537 -0.3152969858190775 0.31423715747650077 -0.10091348691331133 -0.20485618276288217 -0.098544670782626423 0.40238782079799712 -0.032430454070721683 -0.35593347203248393 0.063438873714128985 0.05217126351131901 -0.18059339112687814 0.12785736795940014 -0.098204817489300197 0.20361316502230656 0.19220432609591723 0.35821427615728385 -0.17561216016196624 -0.20585041198411602 0.028207986299475143 -0.10830072269785206 0.37761084529137245 -0.020833031511973691 0.1407720628726106 -0.11328896223759014 -0.11141429054840944 -0.15646967439143136 -0.26862274944265951 -0.11426506272422801 0.088151515307617417 -0.023467593467834408 0.12165561387769615 -0.36503787899591494 -0.30322063534782978 0.27822410507746359 0.032487020186533051 0.20798841505646953 -0.0044721244706709016 -0.24183527360183149 0.45110565114755763 -0.32674033755021348 0.33674913033813075 0.32940027614691042 -0.24557757415220849 -0.38241440629176426 0.36157378474945318 0.41759077982278792
leaf_weight=152 413 932 63 103 112 83 59 161 110 61 74 58 64 579 96 666 59 144 812 85 113 64 292 62 66 411 102 108 597 61 75 428 466 504 1097 563 74 72 64 58 79 421 410 79 58 85 63 93
leaf_count=152 413 932 63 103 112 83 59 161 110 61 74 58 64 579 96 666 59 144 812 85 113 64 292 62 66 411 102 108 597 61 75 428 466 504 1097 563 74 72 64 58 79 421 410 79 58 85 63 93
internal_value=0 0.219825 -0.222368 0.114268 -0.116418 -0.29574 -0.3481 0.316295 0.162558 -0.26589 -0.165791 -0.155317 -0.0496895 0.179536 0.0542342 0.168387 0.301357 0.263621 -0.143897 -0.050695 0.0696163 0.0285599 0.319669 0.0829922 0.0324844 -0.154673 -0.116177 -0.279534 -0.251451 -0.0330915 -0.0239595 -0.00681196 0.103429 -0.360766 -0.296307 0.294525 -0.0412781 0.295829 -0.0702218 -0.300376 0.395968 -0.347614 0.353755 0.374914 -0.28193 -0.41207 0.390937 0.433021
internal_weight=0 5759 5692 2750 2329 3363 1221 3009 1524 2142 257 1463 138 1348 1226 1245 2534 828 1342 866 1056 477 1706 121 176 1223 251 1885 705 119 615 503 579 1162 1180 707 170 1004 166 119 475 925 702 303 121 237 224 172
internal_count=11451 5759 5692 2750 2329 3363 1221 3009 1524 2142 257 1463 138 1348 1226 1245 2534 828 1342 866 1056 477 1706 121 176 1223 251 1885 705 119 615 503 579 1162 1180 707 170 1004 166 119 475 925 702 303 121 237 224 172
is_linear=0
shrinkage=0.0140275


Tree=8
num_leaves=48
num_cat=0
split_feature=11 11 11 11 11 11 11 13 13 13 13 10 11 13 13 16 13 11 11 13 10 11 10 13 13 11 12 13 12 11 11 12 10 11 28 13 28 12 10 9 5 5 11 16 2 13 2
split_gain=2.76217e+06 285966 233235 36217.6 36110.8 26439.2 18734.7 15202.7 13422.8 13002 11125.3 10728.7 10044.8 16048.7 9043.16 8927.79 7764.37 7492.93 7070.4 6355.27 5671.35 5391.3 5264.45 5242.92 5231.95 5145.44 4681.98 4364.67 3622.95 3611.27 3591.57 3376.55 3144.36 3007.64 2865.69 2522.1 2454.85 2331.46 1981.19 1911.25 1736.7 1558.24 981.189 773.495 512.331 414.103 694.97
threshold=33.374536000000013 53.522120000000008 16.328908000000002 25.439888000000003 43.047910000000009 3.2119460000000051 62.605648400000007 45.520084000000004 53.318324000000011 43.300462000000003 63.023994600000002 14.196682500000003 47.925176000000008 48.061244000000009 16.298444000000003 37.956333383446456 23.976970000000005 67.230083600000015 11.315234000000002 8.7491520000000005 75.737340000000017 27.558496000000002 56.618625000000009 11.298676000000006 21.325310000000005 36.234752000000007 23.748007500000003 62.754262400000009 70.352992500000013 21.814842000000002 57.551188000000003 45.620767500000007 68.75158500000002 0.54818200000000428 1.8143214285714102 14.870477999999997 2.2423724340175983 70.352992500000013 16.854337500000003 7.5000000000000009 0.22745750184774577 0.20806277056277059 2.3342019999999981 46.296118740408524 2.5000000000000004 61.524853000000007 3.5000000000000004
decision_type=2 2 2 2 2 2 2 2 2 2 2 2 2 2 2 2 2 2 2 2 2 2 2 2 2 2 2 2 2 2 2 2 2 2 2 2 2 2 2 2 2 2 2 2 2 2 2
left_child=2 4 5 11 9 10 27 18 12 25 33 40 13 -6 32 -9 37 19 38 -8 -10 34 -17 -20 -14 31 -27 30 -11 -16 41 -2 -13 44 -18 -32 -23 -5 -7 -21 -4 -3 -35 -29 -1 -19 -47
right_child=1 6 3 16 8 7 17 15 20 28 -12 14 24 -15 29 22 21 45 23 39 -22 36 -24 -25 -26 26 -28 43 -30 -31 35 -33 -34 42 -36 -37 -38 -39 -40 -41 -42 -43 -44 -45 -46 46 -48
leaf_value=-0.42433055011330417 0.091750970048596434 0.28750679963317777 -0.23368847329184336 0.11386189794773066 0.15920891615216651 -0.36262696961190416 0.22512325503084665 -0.27083987929935294 -0.014982563369997461 -0.11282045768523383 -0.1598562187889091 0.03438606812094798 0.11419587344810188 -0.062023060749312395 -0.17861265702054602 -0.033462486836194238 -0.083571163730642425 0.43817150516829706 -0.13846459786069304 0.35888014238472726 0.14168916222326985 -0.051716554443890519 -0.18448832767839393 -0.25734741528637733 0.22573572979322504 0.19386774415858893 0.081976765012112207 0.23174775226487559 0.019249369432592405 -0.12729462310955569 0.24087629705370839 -0.0058835340242129573 -0.10463281059166586 -0.35956652086099322 -0.18925653400845344 0.31459137032568124 0.036538824309551556 -0.006787637651850283 -0.2937773289913948 0.32067019570767863 -0.34071473558565329 0.2414823280109106 -0.32546012844721017 0.15807761758374841 -0.38046126289723559 0.41881189350919967 0.36320747815336468
leaf_weight=135 105 242 64 65 553 89 99 110 113 100 57 65 96 73 688 89 135 88 83 619 76 606 93 621 611 84 600 57 69 446 106 207 63 508 81 699 69 61 1240 450 57 370 255 57 93 141 68
leaf_count=135 105 242 64 65 553 89 99 110 113 100 57 65 96 73 688 89 135 88 83 619 76 606 93 621 611 84 600 57 69 446 106 207 63 508 81 699 69 61 1240 450 57 370 255 57 93 141 68
internal_value=0 0.218745 -0.216901 -0.111195 0.113669 -0.292112 0.312981 -0.265733 0.158662 0.0548836 -0.350627 -0.157926 0.17435 0.1334 -0.145818 -0.17103 -0.0476404 0.348858 -0.279332 0.332832 0.0479841 -0.0622192 -0.11067 -0.24334 0.210599 0.07419 0.095727 0.278647 -0.0588609 -0.158435 0.285375 0.0269539 -0.0339877 -0.361593 -0.123233 0.304893 -0.0426855 0.0554018 -0.298393 0.342801 -0.284158 0.259692 -0.348176 0.194968 -0.406464 0.41186 0.400751
internal_weight=0 5683 5773 2400 2687 3373 2996 2325 1522 1165 1048 1383 1333 626 1262 292 1017 1465 2033 1168 189 891 182 704 707 996 684 1531 169 1134 1417 312 128 991 216 805 675 126 1329 1069 121 612 763 114 228 297 209
internal_count=11456 5683 5773 2400 2687 3373 2996 2325 1522 1165 1048 1383 1333 626 1262 292 1017 1465 2033 1168 189 891 182 704 707 996 684 1531 169 1134 1417 312 128 991 216 805 675 126 1329 1069 121 612 763 114 228 297 209
is_linear=0
shrinkage=0.0140275


Tree=9
num_leaves=48
num_cat=0
split_feature=11 11 11 11 11 11 11 15 13 13 13 10 11 13 13 13 11 11 13 3 12 11 10 11 13 13 11 12 13 11 26 11 12 11 10 13 10 12 10 26 10 13 26 12 2 13 1
split_gain=2.68523e+06 278000 226737 35208.6 35104.7 25702.4 18212.5 14916.9 13048.8 12639.8 10815.1 10434.6 9764.84 15601.7 8607.47 7548.04 7283.96 6814.56 6177.93 5808.4 7865.94 6953.23 5513.4 5241.13 5118.02 5086.01 5002.1 4551.46 4242.77 4202.27 4035.17 3491.26 3282.51 2923.56 2753.65 2451.56 2416.11 2266.56 2258.94 2018.69 1925.73 1345.08 1011.62 747.973 497.695 402.189 708.857
threshold=33.374536000000013 53.522120000000008 16.328908000000002 25.439888000000003 43.047910000000009 3.2119460000000051 62.605648400000007 1.5000000000000002 53.318324000000011 43.300462000000003 63.023994600000002 9.8298165000000015 47.925176000000008 48.061244000000009 16.298444000000003 23.976970000000005 67.230083600000015 11.315234000000002 8.7491520000000005 0.84877072612921689 69.798907500000013 9.1436540000000033 75.737340000000017 27.558496000000002 11.298676000000006 21.325310000000005 36.234752000000007 23.748007500000003 62.754262400000009 20.307724000000004 3.2822341999999947 57.551188000000003 45.620767500000007 0.54818200000000428 68.75158500000002 14.870477999999997 51.283575000000006 70.352992500000013 59.817082500000012 4.962538000000003 16.854337500000003 57.205680000000008 -21.722177039999995 70.869225000000014 2.5000000000000004 61.524853000000007 5.5000000000000009
decision_type=2 2 2 2 2 2 2 2 2 2 2 2 2 2 2 2 2 2 2 2 2 2 2 2 2 2 2 2 2 2 2 2 2 2 2 2 2 2 2 2 2 2 2 2 2 2 2
left_child=2 4 5 11 9 10 28 17 12 26 33 -4 13 -6 34 37 18 40 -8 21 -21 -9 -10 36 -19 -14 32 -28 31 -16 -11 41 -2 44 -13 -33 -17 -5 -25 -20 -7 -3 -35 -30 -1 -18 -47
right_child=1 6 3 15 8 7 16 19 22 30 -12 14 25 -15 29 23 45 24 39 20 -22 -23 -24 38 -26 -27 27 -29 43 -31 -32 35 -34 42 -36 -37 -38 -39 -40 -41 -42 -43 -44 -45 -46 46 -48
leaf_value=-0.4183782434684199 0.090463930185330471 0.26379875708860179 -0.30269654156675596 0.11226469564582396 0.156975607483747 -0.35754020879109255 0.22196533208462038 -0.31955264844611719 -0.014772396313189936 -0.14055252003265167 -0.1576138333598808 0.02643374595318795 0.11259398666353504 -0.061153029791390305 -0.18728715786689079 -0.17208601323473785 0.43202503926897801 -0.1365222823886362 0.36831198050963904 0.011680327641281076 -0.20059930628305161 -0.1314140911711138 0.13970161381412896 -0.019589486775883087 -0.25399350587670816 0.22256921434781318 0.191148262795793 0.08082683435140775 0.15595057709815155 -0.13363968252936351 -0.0010338780899669263 0.23749739447608723 -0.0058010023343141775 -0.32507173361972919 -0.10316507087678049 0.31017843135361073 -0.077844709898737069 -0.0066924241465178523 -0.071395592451950485 0.32560120436140577 -0.28965635753670144 0.19962228185103795 -0.35792267744556411 0.22840650197980084 -0.37512433124764938 0.41178514100052449 0.35366309128635465
leaf_weight=135 105 538 89 65 553 89 99 79 113 69 57 66 96 73 521 100 88 83 310 64 74 76 76 382 620 611 84 600 57 644 100 106 207 340 63 699 116 61 293 759 1240 74 423 57 93 149 60
leaf_count=135 105 538 89 65 553 89 99 79 113 69 57 66 96 73 521 100 88 83 310 64 74 76 76 382 620 611 84 600 57 644 100 106 207 340 63 699 116 61 293 759 1240 74 423 57 93 149 60
internal_value=0 0.215677 -0.213858 -0.109635 0.112075 -0.288014 0.308591 -0.262006 0.156437 0.0541138 -0.345709 -0.155711 0.171904 0.131529 -0.145596 -0.0469722 0.343965 -0.275503 0.328164 -0.16838 -0.102105 -0.227345 0.0473105 -0.0613465 -0.240133 0.207645 0.0731494 0.0943844 0.274739 -0.157637 -0.0580347 0.281372 0.0265755 -0.356521 -0.0368095 0.300616 -0.121504 0.054624 -0.0420866 0.337993 -0.294207 0.256049 -0.343292 0.192234 -0.400763 0.406083 0.39513
internal_weight=0 5683 5773 2400 2687 3373 2996 2325 1522 1165 1048 1383 1333 626 1294 1017 1465 2032 1168 293 138 155 189 891 703 707 996 684 1531 1165 169 1417 312 991 129 805 216 126 675 1069 1329 612 763 114 228 297 209
internal_count=11456 5683 5773 2400 2687 3373 2996 2325 1522 1165 1048 1383 1333 626 1294 1017 1465 2032 1168 293 138 155 189 891 703 707 996 684 1531 1165 169 1417 312 991 129 805 216 126 675 1069 1329 612 763 114 228 297 209
is_linear=0
shrinkage=0.0140275


Tree=10
num_leaves=50
num_cat=0
split_feature=11 11 11 11 11 11 11 15 7 13 13 16 13 10 11 13 13 13 11 7 13 11 10 11 13 13 11 13 13 10 12 11 11 10 11 28 13 28 12 11 13 10 13 13 16 16 2 13 1
split_gain=2.61043e+06 270256 220421 34227.6 34126.8 24986.3 17704.9 14501 22835.7 12685.3 12287.8 11243.9 10513.5 10173.1 9492.72 15167.2 8551.57 7337.75 7080.82 7217.1 12344.2 6624.46 5359.84 5095.1 4975.22 4944.14 4879.1 5676.16 4124.28 3626.32 3511.23 3434.82 3393.74 2976.27 2841.82 2778.16 2383 2380.07 2203.47 2151.1 1887.61 1448.77 1307.38 1231.6 963.45 731.45 483.473 390.612 693.235
threshold=33.374536000000013 53.522120000000008 16.328908000000002 25.439888000000003 43.047910000000009 3.2119460000000051 62.605648400000007 1.5000000000000002 1.0000000180025095e-35 53.318324000000011 43.300462000000003 38.739857584746154 63.023994600000002 14.196682500000003 47.925176000000008 48.061244000000009 16.298444000000003 23.976970000000005 67.230083600000015 1.0000000180025095e-35 12.086796000000001 11.315234000000002 75.737340000000017 27.558496000000002 11.298676000000006 21.325310000000005 37.309050000000006 37.403978000000009 62.754262400000009 20.324272500000003 70.352992500000013 21.814842000000002 57.551188000000003 68.75158500000002 0.54818200000000428 1.8143214285714102 14.870477999999997 2.2423724340175983 70.352992500000013 9.6435220000000044 3.0158680000000051 6.0852855000000021 57.205680000000008 26.002214000000006 53.756649242838215 46.296118740408524 2.5000000000000004 61.524853000000007 1.5000000000000002
decision_type=2 2 2 2 2 2 2 2 2 2 2 2 2 2 2 2 2 2 2 2 2 2 2 2 2 2 2 2 2 2 2 2 2 2 2 2 2 2 2 2 2 2 2 2 2 2 2 2 2
left_child=2 4 5 13 10 12 28 21 39 14 26 -10 34 41 15 -6 33 38 19 43 -21 40 -11 35 -23 -16 27 -2 32 -28 -12 -18 42 -15 46 -19 -34 -25 -5 -9 -7 -4 -3 -8 -36 -30 -1 -20 -49
right_child=1 6 3 17 9 7 18 8 11 22 30 -13 -14 16 25 -17 31 23 47 20 -22 24 -24 37 -26 -27 29 -29 45 -31 -32 -33 36 -35 44 -37 -38 -39 -40 -41 -42 -43 -44 -45 -46 -47 -48 48 -50
leaf_value=-0.41250942772213928 0.057129828970553617 0.26009831075626488 -0.32814441035851066 0.11068990103945449 0.15477362722140975 -0.21828303560581547 0.39885348203209808 -0.3445920030098939 -0.20579513402270339 -0.014565176068632646 -0.11034266707847654 0.041943894699200603 -0.15540289777903391 0.033532916824066561 0.11101457021320824 -0.060295203886667752 -0.17368452877980439 -0.080748732396395045 0.42596479566308681 0.081703609534154981 0.30687506727674035 -0.13460721169517142 0.13774194479894092 -0.050388926205949779 -0.25043060344000556 0.21944711756536672 0.18596941796556837 -0.089024790889331976 0.22531075267116771 0.084546318229969969 0.019674580263879787 -0.12363435982389889 0.23416589255178627 -0.10171791970727935 -0.3543882160604519 -0.18480797346317152 0.30582739306992118 0.036511710664080051 -0.0065985454969928071 -0.23189298141645742 -0.29400693619376456 -0.2303070938714028 0.19682207180607847 0.34098278253549091 -0.32250711832683077 0.15365474297018192 -0.36986226397418709 0.41130328617611567 0.35845503664728717
leaf_weight=135 365 538 57 65 553 69 82 80 57 113 100 98 57 65 96 73 688 135 88 57 303 83 76 606 620 611 81 61 57 489 69 446 106 63 382 81 699 69 61 58 1260 64 74 726 381 57 93 123 86
leaf_count=135 365 538 57 65 553 69 82 80 57 113 100 98 57 65 96 73 688 135 88 57 303 83 76 606 620 611 81 61 57 489 69 446 106 63 382 81 699 69 61 58 1260 64 74 726 381 57 93 123 86
internal_value=0 0.212652 -0.210859 -0.108098 0.110503 -0.283974 0.304263 -0.25833 -0.166018 0.154242 0.0533547 -0.0491192 -0.34086 -0.153527 0.169493 0.129684 -0.141736 -0.0463136 0.33914 0.323561 0.271241 -0.271638 0.0466464 -0.0604863 -0.236765 0.204733 0.0721234 0.0361867 0.270885 0.0989702 -0.0572211 -0.154005 0.277425 -0.0329862 -0.35152 -0.1198 0.296399 -0.0414963 0.053857 -0.297272 -0.29008 -0.276448 0.252458 0.346864 -0.338477 0.189538 -0.395142 0.400387 0.389588
internal_weight=0 5683 5773 2400 2687 3373 2996 2325 293 1522 1165 155 1048 1383 1333 626 1262 1017 1465 1168 360 2032 189 891 703 707 996 426 1531 570 169 1134 1417 128 991 216 805 675 126 138 1329 121 612 808 763 114 228 297 209
internal_count=11456 5683 5773 2400 2687 3373 2996 2325 293 1522 1165 155 1048 1383 1333 626 1262 1017 1465 1168 360 2032 189 891 703 707 996 426 1531 570 169 1134 1417 128 991 216 805 675 126 138 1329 121 612 808 763 114 228 297 209
is_linear=0
shrinkage=0.0140275


Tree=11
num_leaves=53
num_cat=0
split_feature=26 26 26 17 16 6 17 16 10 16 10 17 26 3 26 8 3 26 17 5 16 17 18 10 17 16 21 16 18 5 16 26 21 26 9 30 17 6 21 16 21 28 21 12 5 28 17 8 9 27 18 26
split_gain=472927 75989.5 62122.2 41958.9 53420.9 29810.7 27764.9 60873.8 25814 23728.6 49014.7 25659.2 23167.1 19055.7 12789.7 12389.8 10084.9 9447.31 8337.78 7806.12 7406 7565.42 6871.43 6172.07 6109.81 9199.09 5744.11 6847.38 5448.12 5422.97 5067.54 4646.61 4536.62 4496.78 4232.23 4053.58 3999.92 3965.57 3985.59 3918.76 3422.48 3199.21 2838.85 2752.4 2691.73 3051.91 2500.13 2498.46 2010.54 1726.71 1514.41 1193.83
threshold=1.0000000180025095e-35 23.349908000000006 -31.558157399999999 28.460917033058994 34.173216609326147 1.0000000180025095e-35 29.968667560168381 33.355606957484618 12.0477525 38.336757105857906 72.145342500000012 18.395823526544749 -6.496900199999998 0.90219990435198483 0.89121479999999675 1.0000000180025095e-35 0.84877072612921689 12.772610000000002 49.732134640068232 0.29561459667093476 35.086209557012438 24.57621567871378 20.123308341647419 80.335972500000011 24.377090272302947 36.844408219529839 5.2525112499999986 29.399516758642594 17.416672861009364 0.29198717948717956 53.471591203787362 -13.546484 0.82330604999999968 -18.6226126 11.500000000000002 4652.5000000000009 19.308746591834495 1.0000000180025095e-35 -0.55889662499999992 20.335738732355306 6.2471975168918918 1.3000000000000225 3.0597956666666648 92.652000000000015 0.36939571150097467 2.1972545289855074 33.695409251991322 1.0000000180025095e-35 15.500000000000002 25.766999999999914 16.524567144759217 -38.636069999999989
decision_type=2 2 2 2 2 2 2 2 2 2 2 2 2 2 2 2 2 2 2 2 2 2 2 2 2 2 2 2 2 2 2 2 2 2 2 2 2 2 2 2 2 2 2 2 2 2 2 2 2 2 2 2
left_child=2 6 13 31 26 15 17 32 18 10 47 34 -7 19 -10 -6 22 35 -9 24 23 51 -13 -15 42 -26 33 -28 36 -30 -18 37 43 -5 49 41 -19 50 -39 -12 -34 -2 -1 -8 45 -33 -41 -3 -23 -11 -4 -22
right_child=1 9 3 4 5 12 7 8 14 11 39 16 -14 20 -16 -17 30 28 -20 -21 21 48 -24 -25 25 -27 27 -29 29 -31 -32 44 40 -35 -36 -37 -38 38 -40 46 -42 -43 -44 -45 -46 -47 -48 -49 -50 -51 -52 -53
leaf_value=0.026286904866559532 0.032781614751934807 -0.055421589675588169 -0.12632323938246637 -0.057673555795288746 -0.23592398767631034 -0.14740038994173532 -0.13309701313929448 -0.1110866284726877 0.020533622570109503 0.05354342000206997 0.064837833895583841 0.12246931953485377 -0.0075668816001365309 -0.0087702335067908945 0.18254732156929793 -0.047103797584009358 0.1895282811366753 -0.031961017965224804 0.098355788906830721 0.043089917149005084 -0.18207307133142811 -0.2677108944797883 0.25166382317590114 -0.19749348652737012 -0.046880790090225187 -0.18762105922669078 -0.01587329743905138 -0.16171127981521644 0.060989781120588317 0.20783337357480405 0.26116608647612405 0.006922464733806013 0.032095084351121406 0.042228192886626263 -0.047733236834386267 -0.1146701581591881 0.062164170347329434 0.093144543402804827 -0.027886326404176431 0.13274211271705952 -0.041739988241181789 -0.025205420495405337 -0.097281792521171168 -0.013185999630769262 -0.065104525749793363 0.079123885362885921 0.21307486291168154 -0.17177381957183788 -0.18037239284247611 0.14912740465791569 -0.053188290297542129 -0.10494192782863559
leaf_weight=59 257 57 97 113 617 625 99 92 106 108 67 326 372 58 1013 77 292 166 63 58 89 460 108 83 123 357 241 86 164 71 586 755 271 411 64 78 191 60 496 123 227 689 96 61 84 136 203 101 59 57 132 72
leaf_count=59 257 57 97 113 617 625 99 92 106 108 67 326 372 58 1013 77 292 166 63 58 89 460 108 83 123 357 241 86 164 71 586 755 271 411 64 78 191 60 496 123 227 689 96 61 84 136 203 101 59 57 132 72
internal_value=0 0.0907676 -0.0895105 -0.0623112 -0.0987639 -0.144383 0.0512276 0.0871164 0.143705 0.157824 0.0787975 0.186076 -0.0952322 -0.166793 0.167206 -0.214983 0.209992 0.00831707 -0.0259175 -0.112606 -0.212523 -0.231718 0.154634 -0.119908 -0.126837 -0.15157 -0.00810847 -0.0542477 0.0529268 0.105382 0.237348 -0.00965831 -0.0224385 0.0206724 0.0490307 -0.0174667 0.0183795 -0.0350618 -0.014814 0.162693 -0.00154791 -0.00944536 -0.050205 -0.0874206 0.0107882 0.0179502 0.182785 -0.129839 -0.257794 0.0866018 -0.0841946 -0.147619
internal_weight=0 5640 5816 4302 2542 1691 3548 1932 1274 2092 551 1541 997 1514 1119 694 1312 1616 155 693 821 680 434 141 635 480 851 327 592 235 878 1760 658 524 229 1024 357 785 556 393 498 946 155 160 975 891 326 158 519 165 229 161
internal_count=11456 5640 5816 4302 2542 1691 3548 1932 1274 2092 551 1541 997 1514 1119 694 1312 1616 155 693 821 680 434 141 635 480 851 327 592 235 878 1760 658 524 229 1024 357 785 556 393 498 946 155 160 975 891 326 158 519 165 229 161
is_linear=0
shrinkage=0.0140275


Tree=12
num_leaves=49
num_cat=0
split_feature=11 11 11 11 11 11 11 17 7 7 12 12 7 11 19 11 12 11 12 11 22 11 12 12 28 19 17 28 25 22 17 22 11 11 19 20 0 22 11 11 11 7 3 22 27 0 3 17
split_gain=2.53687e+06 256587 205039 33583.8 29291.5 22261.2 16163.5 8507.31 8332.65 7775.26 7623.52 7238.96 6953.96 6375.14 5810.4 5788.07 5678.33 5003.23 4776.97 3765.14 3725.11 3181.74 3180.23 3171.95 2954.46 2762.07 2651.22 2585.6 2549.73 2472.09 2175.25 2118.06 2097.99 2057.89 1830.56 1810.64 2151.97 1789.25 1524.36 1392.49 1240.47 884.867 716.273 667.077 353.971 351.496 301.799 155.268
threshold=33.374536000000013 53.522120000000008 16.005772000000004 43.047910000000009 26.226138000000006 3.2119460000000051 66.641635400000013 12.326390807021992 1.0000000180025095e-35 1.0000000180025095e-35 18.134812500000006 15.5846775 1.0000000180025095e-35 57.551188000000003 28.750873028049586 11.315234000000002 13.163902500000001 50.472490000000008 20.435100000000009 23.819686000000004 2.1416566000000006 38.709578000000008 28.667940000000005 52.394212500000002 1.7713142857142927 18.936139047799262 10.845006539019723 1.630000000000009 -35.095850999999989 -1.7565389090909089 11.616658181088178 -1.6166682666666652 0.54818200000000428 62.605648400000007 37.913067856548132 3.2673943592901127 32.500000000000007 0.26489677862069089 67.989894452000016 27.918250000000004 7.9389660000000015 1.0000000180025095e-35 0.90353598014888348 0.3440950757446804 26.334499999999824 27.500000000000004 0.73993558776167478 34.095440198554307
decision_type=2 2 2 2 2 2 2 2 2 2 2 2 2 2 2 2 2 2 2 2 2 2 2 2 2 2 2 2 2 2 2 2 2 2 2 2 2 2 2 2 2 2 2 2 2 2 2 2
left_child=2 3 5 18 11 12 9 -5 15 13 -9 28 32 37 -14 40 -6 -12 27 30 24 25 45 -22 -10 -20 -23 -2 -4 -24 -13 -17 46 -15 -21 36 -18 -3 41 -37 -7 44 -16 -34 -8 -11 -1 -40
right_child=1 6 4 7 16 8 38 10 20 22 17 19 14 33 42 31 35 -19 21 34 23 26 29 -25 -26 -27 -28 -29 -30 -31 -32 -33 43 -35 -36 39 -38 -39 47 -41 -42 -43 -44 -45 -46 -47 -48 -49
leaf_value=-0.41283966353679369 0.20134150482787419 0.28697694645031147 -0.18893563384672504 0.28031544951515985 -0.15039660958804171 -0.30487555598822436 0.3778077129509565 0.26323149249276023 -0.20252118186294735 0.33522687878425794 0.11618244098814932 -0.22014088535339751 -0.17951053791538099 0.29680844885453828 -0.3428415409612503 -0.20276560831663504 -0.14176623586061135 0.17422102269124176 -0.036874554721752287 -0.065453465355544707 -0.23238148195074887 0.14752578585918616 0.184271061720822 -0.097296193079030535 -0.26272949442552129 0.037550192723947044 0.056263777717062938 0.075222265737017333 -0.32204409402828038 0.24974727958368112 -0.14533000485760139 -0.26151259640166336 -0.33370206524582591 0.33294617766062651 -0.13819844905243092 -0.06118630552581758 -0.031881842271235201 0.2291468269867632 0.42422065342996823 -0.014845339369402235 -0.27262131397056044 0.31278440596559104 -0.28445464610398641 -0.3749601745296115 0.33763118978720863 0.28736833752177121 -0.37660413456328595 0.39436028905038684
leaf_weight=92 60 187 57 97 95 647 171 99 329 67 879 83 91 572 100 227 64 439 124 175 58 75 144 84 316 469 384 69 57 551 1032 262 493 692 112 170 78 246 62 514 377 82 74 95 63 61 105 113
leaf_count=92 60 187 57 97 95 647 171 99 329 67 879 83 91 572 100 227 64 439 124 175 58 75 144 84 316 469 384 69 57 551 1032 262 493 692 112 170 78 246 62 514 377 82 74 95 63 61 105 113
internal_value=0 0.20885 -0.207976 0.109418 -0.110075 -0.279194 0.297844 0.153155 -0.25475 0.283487 0.144446 -0.147983 -0.332732 0.300664 -0.270498 -0.274022 -0.0476711 0.135519 0.0533431 -0.139232 -0.21769 0.043455 0.248061 -0.152517 -0.232028 0.0219768 0.0711897 0.133932 -0.255546 0.23619 -0.150905 -0.234254 -0.353733 0.316598 -0.0938639 -0.0358487 -0.0814519 0.254137 0.371515 -0.0263721 -0.293007 0.352965 -0.318047 -0.340379 0.367018 0.312469 -0.393559 0.404976
internal_weight=0 5706 5787 2695 2437 3350 3011 1514 2300 2520 1417 1516 1050 1697 265 1513 921 1318 1181 1402 787 1052 823 142 645 593 459 129 114 695 1115 489 785 1264 287 826 142 433 491 684 1024 316 174 588 234 128 197 175
internal_count=11493 5706 5787 2695 2437 3350 3011 1514 2300 2520 1417 1516 1050 1697 265 1513 921 1318 1181 1402 787 1052 823 142 645 593 459 129 114 695 1115 489 785 1264 287 826 142 433 491 684 1024 316 174 588 234 128 197 175
is_linear=0
shrinkage=0.0140275


Tree=13
num_leaves=48
num_cat=0
split_feature=11 11 11 11 11 11 11 13 13 13 7 10 16 10 13 11 7 13 13 11 10 13 10 16 11 16 11 9 11 13 24 10 10 11 13 28 11 10 24 11 10 11 26 7 2 27 13
split_gain=2.46621e+06 249439 199327 32648.1 28475.3 21640.9 15713.1 15297.5 11784.3 11559.5 19720.8 9908.58 9903.29 9356.15 9304.62 8368.82 7558.35 16080.9 7411.22 6197.25 5915.1 5761.73 5362.71 5330.02 4905.27 4814.96 4560.97 4506.83 4276.31 3481.76 3198.28 3129.86 2862.64 2593.27 2312.96 2211.65 2000.28 1991.57 1760.61 1631.27 1535.38 1481.56 1057.79 859.913 507.316 343.783 307.413
threshold=33.374536000000013 53.522120000000008 16.005772000000004 43.047910000000009 26.226138000000006 3.2119460000000051 66.641635400000013 53.318324000000011 63.023994600000002 45.520084000000004 1.0000000180025095e-35 14.196682500000003 39.475024070672212 17.506492500000004 43.300462000000003 47.925176000000008 1.0000000180025095e-35 14.870477999999997 15.621266000000004 57.551188000000003 75.737340000000017 23.976970000000005 66.658567500000018 68.196071149838474 35.919198000000009 92.075944416509643 22.649576000000007 10.500000000000002 11.315234000000002 11.298676000000006 0.62910052910052927 33.254077500000008 61.166857500000006 0.54818200000000428 57.205680000000008 1.630000000000009 62.605648400000007 16.854337500000003 0.5545634920634922 9.3871280000000024 6.0852855000000021 67.989894452000016 -21.722177039999995 1.0000000180025095e-35 2.5000000000000004 26.334499999999824 67.98643566600002
decision_type=2 2 2 2 2 2 2 2 2 2 2 2 2 2 2 2 2 2 2 2 2 2 2 2 2 2 2 2 2 2 2 2 2 2 2 2 2 2 2 2 2 2 2 2 2 2 2
left_child=2 3 5 14 11 8 16 13 33 28 39 40 -12 -5 23 -15 19 27 22 34 38 -6 -13 24 -2 32 -20 -18 37 -30 -16 -19 -23 44 -3 -25 -21 -7 -9 -11 -4 43 -35 45 -1 -8 -43
right_child=1 6 4 7 21 9 41 20 -10 10 12 18 -14 15 30 -17 17 31 26 36 -22 25 -24 35 -26 -27 -28 -29 29 -31 -32 -33 -34 42 -36 -37 -38 -39 -40 -41 -42 46 -44 -45 -46 -47 -48
leaf_value=-0.39891463253404102 -0.0072868373676886746 0.26472198098566846 -0.31650701846122797 0.29516337131604536 0.047743640876883008 -0.34228757605557902 0.37250800419617747 -0.084539389869927872 -0.13866709671914473 -0.33438841688252929 -0.20438294173196123 0.065241320660945887 0.029452982640422024 0.1179296923683449 -0.098364186624260247 0.19171080008846048 0.038787389697993641 0.33287722459376617 -0.1640836330961718 0.29264495950090536 0.12964245440720495 -0.02089449689211292 -0.11877113553723941 0.18049912588589373 0.072051630724662682 -0.15441485145268188 -0.10750020092704549 0.19898369535203431 -0.14757569333892087 -0.2458969489985427 0.027591014043335371 0.25766378364911152 -0.077092417932314389 -0.30830184282137763 0.17583320455777701 0.090692944060488584 0.32827576376874179 -0.27294887668955592 0.02471727927575771 -0.2355179890530438 -0.21882790660773926 0.42059584475480016 -0.34201825011045511 0.30839681270909469 -0.35585309573856477 0.33289505732940655 0.38170071933383709
leaf_weight=135 207 364 59 105 111 88 171 57 61 76 57 59 95 571 95 645 80 137 840 572 77 376 66 95 590 94 422 61 81 587 68 545 340 335 69 126 692 1257 59 59 70 79 422 82 97 63 96
leaf_count=135 207 364 59 105 111 88 171 57 61 76 57 59 95 571 95 645 80 137 840 572 77 376 66 95 590 94 422 61 81 587 68 545 340 335 69 126 692 1257 59 59 70 79 422 82 97 63 96
internal_value=0 0.20592 -0.205059 0.107883 -0.108532 -0.275278 0.293666 0.151007 -0.328065 -0.251176 -0.16783 -0.145908 -0.0581937 0.168052 0.0525951 0.15707 0.279511 0.244582 -0.134961 0.296447 0.0343111 -0.0470028 -0.0318665 0.0683528 0.0514376 -0.0599944 -0.145168 0.108137 -0.263056 -0.233984 -0.0457795 0.272782 -0.0475895 -0.33974 0.250572 0.129326 0.312157 -0.27749 -0.0289144 -0.291225 -0.263552 0.366305 -0.327106 0.348014 -0.380938 0.36187 0.399295
internal_weight=0 5706 5787 2695 2437 3350 3011 1514 1050 2300 287 1516 152 1321 1181 1216 2520 823 1387 1697 193 921 125 1018 797 810 1262 141 2013 668 163 682 716 989 433 221 1264 1345 116 135 129 491 757 316 232 234 175
internal_count=11493 5706 5787 2695 2437 3350 3011 1514 1050 2300 287 1516 152 1321 1181 1216 2520 823 1387 1697 193 921 125 1018 797 810 1262 141 2013 668 163 682 716 989 433 221 1264 1345 116 135 129 491 757 316 232 234 175
is_linear=0
shrinkage=0.0140275


Tree=14
num_leaves=49
num_cat=0
split_feature=11 11 11 11 11 11 11 15 7 16 15 11 17 7 15 8 12 7 15 11 16 11 15 12 12 11 11 11 28 12 24 15 12 12 11 26 11 0 11 11 11 26 12 7 27 3 15 24
split_gain=2.39751e+06 242490 193774 31738.5 27713.1 21037.9 15275.3 11360.8 18995.9 9627.46 9365.09 8526.03 8279.42 7347.49 11943.4 8038.5 7232.03 6693.54 13036.2 6024.31 5585.28 4820.14 4730.69 4230.94 4186.82 4109.87 3449.03 3158.6 3066.17 2908.28 2843.23 4496.86 2753.52 2488.5 1981.83 1979.38 1944.28 1695.2 1684.43 1439.96 1138.44 933.707 924.073 835.659 333.882 288.277 229.845 227.077
threshold=33.374536000000013 53.522120000000008 16.005772000000004 43.047910000000009 23.819686000000004 3.2119460000000051 66.641635400000013 1.5000000000000002 1.0000000180025095e-35 39.475024070672212 1.0000000180025095e-35 27.558496000000002 12.326390807021992 1.0000000180025095e-35 1.0000000180025095e-35 1.5000000000000002 18.134812500000006 1.0000000180025095e-35 1.5000000000000002 57.551188000000003 90.06079809632466 50.472490000000008 1.5000000000000002 21.7734825 28.667940000000005 11.315234000000002 38.709578000000008 56.27547400000001 1.630000000000009 65.936587500000016 0.68496240601503777 1.0000000180025095e-35 13.163902500000001 38.151067500000003 0.54818200000000428 -5.7840459999999956 62.605648400000007 4.5000000000000009 9.3871280000000024 67.989894452000016 2.3342019999999981 -27.986352 44.267107500000009 1.0000000180025095e-35 26.334499999999824 0.73993558776167478 1.5000000000000002 0.96666666666666679
decision_type=2 2 2 2 2 2 2 2 2 2 2 2 2 2 2 2 2 2 2 2 2 2 2 2 2 2 2 2 2 2 2 2 2 2 2 2 2 2 2 2 2 2 2 2 2 2 2 2
left_child=2 3 5 22 20 17 13 25 38 -10 29 23 -5 19 15 -15 -14 34 40 35 30 -18 24 -12 28 37 -26 -16 -2 -6 31 -4 -13 -27 45 -3 -21 -7 -9 43 -19 -36 -32 44 -8 -1 -41 -48
right_child=1 6 4 12 10 7 39 8 9 -11 11 32 16 14 27 -17 21 18 -20 36 -22 -23 -24 -25 26 33 -28 -29 -30 -31 42 -33 -34 -35 41 -37 -38 -39 -40 46 -42 -43 -44 -45 -46 -47 47 -49
leaf_value=-0.40163774243504607 0.18885422957672504 0.30541890192050813 -0.10352469912352284 0.27433427214304013 0.12337886886860829 -0.30799702740665419 0.36728263780593534 -0.3296977726167904 -0.20151595716881054 0.029039831074236779 -0.2363933970446678 -0.12298537890853613 0.25599397978088911 0.058467189696295663 0.20636757650643009 0.2559707284687045 0.11262240861774057 -0.33757178917193087 -0.080403889163657677 0.28853987224982902 -0.2606338340312086 0.16958956714606152 -0.036150762567507731 -0.10615005461461641 0.024719442392497248 -0.27850719719953271 0.079945745300647089 0.28384062302403951 0.068307568252384779 -0.0070729191879093439 -0.12837958742776448 -0.174260912506604 -0.033359186170196425 -0.2153963159181565 -0.30617453147663404 0.23150966831053704 0.32367086492546687 -0.26630938352850853 -0.22973030526509 0.41772038398120681 -0.2649610017446456 -0.34391076165943446 -0.1886091646597054 0.30407076819396545 0.32822536327111085 -0.36619825917485876 0.36056632094009167 0.40173029176751646
leaf_weight=92 79 91 463 97 59 235 171 76 57 95 57 76 99 103 130 67 879 143 60 572 91 439 109 358 509 164 396 523 88 78 61 287 605 503 200 342 692 1110 60 58 62 388 302 82 63 105 57 60
leaf_count=92 79 91 463 97 59 235 171 76 57 95 57 76 99 103 130 67 879 143 60 572 91 439 109 358 509 164 396 523 88 78 61 287 605 503 200 342 692 1110 60 58 62 388 302 82 63 105 57 60
internal_value=0 0.203032 -0.202183 0.10637 -0.107009 -0.271417 0.289547 -0.247653 -0.16519 -0.0573768 -0.0602569 -0.0739274 0.148889 0.27559 0.241151 0.136344 0.140297 -0.323463 -0.262405 0.292288 -0.154883 0.131602 0.0518573 -0.124054 0.0608119 -0.259454 0.0488918 0.268427 0.125371 0.0490607 -0.146231 -0.130602 -0.0433708 -0.230923 -0.344067 0.247057 0.307778 -0.273598 -0.285641 0.361167 -0.315642 -0.331086 -0.178505 0.343133 0.356794 -0.382781 0.393695 0.38173
internal_weight=0 5706 5787 2695 2437 3350 3011 2300 288 152 1233 1096 1514 2520 823 170 1417 1050 265 1697 1204 1318 1181 415 1072 2012 905 653 167 137 1113 750 681 667 785 433 1264 1345 136 491 205 588 363 316 234 197 175 117
internal_count=11493 5706 5787 2695 2437 3350 3011 2300 288 152 1233 1096 1514 2520 823 170 1417 1050 265 1697 1204 1318 1181 415 1072 2012 905 653 167 137 1113 750 681 667 785 433 1264 1345 136 491 205 588 363 316 234 197 175 117
is_linear=0
shrinkage=0.0140275


Tree=15
num_leaves=46
num_cat=0
split_feature=15 15 3 0 16 10 17 0 16 10 17 17 3 0 12 10 12 10 22 3 10 22 21 16 21 22 16 12 28 10 18 30 22 18 7 27 0 19 17 17 22 17 10 17 12
split_gain=1.03582e+06 247875 44362.2 39859.5 37614.2 110484 42523.9 28236.6 17885.4 73971.8 24594.7 11874.5 10252.5 9705.13 10444.3 9183.11 9113.59 8853.72 8319.02 7284.07 6420.17 5441.11 5216.21 5001.07 4092.47 3375.14 3365.29 3359.26 3262.14 3204.31 2804.67 3129.71 2745.63 2414.47 2243.24 2067.78 1782.77 1759.6 1758.14 3926.84 1460.78 1275.35 741.526 284.187 189.474
threshold=1.5000000000000002 1.0000000180025095e-35 0.95180023228803723 3.5000000000000004 38.739857584746154 71.32093500000002 30.878010098364573 3.5000000000000004 36.372836052987289 71.825460000000007 29.430779942931348 26.364903426937492 0.65258620689655189 5.5000000000000009 73.359720000000024 79.248330000000024 66.588952500000019 12.960569999999999 -0.73273314999999928 0.9291979949874688 57.516060000000003 -2.4420023999999989 -2.9444887499999988 44.808165806838893 -2.7746362499999977 2.4052090960000032 85.725645431378226 50.405040000000007 1.566500000000133 75.737340000000017 18.178495423341005 4640.5000000000009 1.8026645111111113 9.8227151757809334 1.0000000180025095e-35 58.484000000000044 2.5000000000000004 20.833867802253526 15.716076936491472 8.3151568286770843 -2.3820878266666661 40.088759993784514 81.205005000000014 34.624790235262772 39.990510000000008
decision_type=2 2 2 2 2 2 2 2 2 2 2 2 2 2 2 2 2 2 2 2 2 2 2 2 2 2 2 2 2 2 2 2 2 2 2 2 2 2 2 2 2 2 2 2 2
left_child=1 2 7 18 5 19 12 40 9 -9 -10 30 27 25 -15 23 -17 22 36 34 -14 38 -3 -8 37 -13 -26 -6 -24 -7 32 -32 -4 -31 -5 -30 -2 -23 39 -19 -1 -40 43 -20 -45
right_child=3 17 11 4 6 29 15 8 10 -11 -12 13 20 14 -16 16 -18 21 42 -21 -22 24 28 -25 26 -27 -28 -29 35 33 31 -33 -34 -35 -36 -37 -38 -39 41 -41 -42 -43 -44 44 -46
leaf_value=-0.35207003227449934 0.25064553694362918 -0.1709024961349126 -0.19435784249140181 -0.24559664169362549 -0.056245543928569085 0.095138393060525503 0.17719268346731626 0.20415708982545405 -0.075766355002008179 -0.17122151597326749 -0.18269501163477123 -0.29920919634877985 0.17183106744072393 -0.24545328018263143 -0.1553730180763358 0.0010801732818587462 0.21749935142181775 0.01801982899684813 0.32870281158003495 -0.051290952162838029 0.10736165969056659 0.025387893098829342 0.04299243850914105 0.2662836813762462 0.0075802129026056788 -0.20905039131901829 0.1028880079856046 0.086418185528692917 -0.13328453674431917 0.27653284984264692 -0.16643237017355608 -0.031694792156172415 -0.089476856755654435 0.18130018114024499 -0.14698270007467787 -0.017801858725112182 0.1415708072585444 0.12413026010635497 -0.0027167270896086898 -0.11065487409221207 -0.26648731167362516 -0.065715510507709476 0.29889109337282355 0.3456823377200744 0.37962954179119052
leaf_weight=74 62 83 277 100 67 79 141 163 783 282 922 440 701 631 424 57 117 73 101 99 538 57 65 1056 1797 101 76 63 66 58 69 67 60 571 84 57 57 95 355 129 86 77 85 84 64
leaf_count=74 62 83 277 100 67 79 141 163 783 282 922 440 701 631 424 57 117 73 101 99 538 57 65 1056 1797 101 76 63 66 58 69 67 60 571 84 57 57 95 355 129 86 77 85 84 64
internal_value=0 -0.101746 -0.168567 0.175021 0.159931 0.0858596 0.186719 -0.126306 -0.112922 -0.033709 -0.133593 -0.215748 0.131407 -0.23405 -0.209256 0.241946 0.14664 -0.00187662 0.299293 -0.148398 0.143842 0.00590575 -0.0782592 0.255795 0.0171356 -0.282389 0.0114509 0.0128427 -0.0373243 0.179506 -0.153979 -0.100101 -0.175704 0.190092 -0.200612 -0.0798198 0.198453 0.0871437 -0.0299525 -0.0641222 -0.306109 -0.0139604 0.335202 0.347571 0.360405
internal_weight=0 7309 4379 4184 3731 991 2740 2310 2150 445 1705 2069 1369 1596 1055 1371 174 2930 453 283 1239 2659 271 1197 2025 541 1873 130 188 708 473 136 337 629 184 123 119 152 634 202 160 432 334 249 148
internal_count=11493 7309 4379 4184 3731 991 2740 2310 2150 445 1705 2069 1369 1596 1055 1371 174 2930 453 283 1239 2659 271 1197 2025 541 1873 130 188 708 473 136 337 629 184 123 119 152 634 202 160 432 334 249 148
is_linear=0
shrinkage=0.0140275


Tree=16
num_leaves=45
num_cat=0
split_feature=11 11 11 11 11 11 11 13 13 13 26 13 11 13 12 11 11 12 13 13 21 12 3 18 12 11 12 13 11 12 25 12 11 13 11 11 5 18 26 11 3 20 13 5
split_gain=2.26319e+06 230142 182848 30048.7 29289.9 19625 15181.6 13231.9 12499.5 12272.5 11853.1 10457.9 9128.48 8724.17 7479.62 6310.22 6208.42 5537.5 5498.4 5409.91 5261.96 4898.86 4762.96 4616.83 4210.8 3936.55 3873.14 3825.13 3800.01 3156.74 3052.32 3034.75 2956.69 2904.64 2557.69 2488.35 2467.16 1881.96 1310.43 1246.89 618.302 421.233 333.109 205.294
threshold=33.374536000000013 53.522120000000008 15.450925999999997 23.819686000000004 43.047910000000009 3.9542000000000006 66.641635400000013 53.318324000000011 23.976970000000005 63.258312400000008 16.315070000000006 43.300462000000003 27.558496000000002 15.621266000000004 18.134812500000006 47.925176000000008 57.551188000000003 77.048422500000001 9.2377320000000029 58.745880000000007 5.494623749999997 36.819877500000011 0.90219990435198483 14.453838847292745 15.5846775 35.919198000000009 64.24587750000002 3.9552879999999964 8.9049060000000022 70.352992500000013 -37.311487499999998 65.936587500000016 0.54818200000000428 32.889696000000008 17.484568000000007 51.056474000000009 0.17165178571428574 22.020714983137836 -21.722177039999995 67.989894452000016 0.93180937621077109 4.5109835844183008 67.98643566600002 0.26546556122448989
decision_type=2 2 2 2 2 2 2 2 2 2 2 2 2 2 2 2 2 2 2 2 2 2 2 2 2 2 2 2 2 2 2 2 2 2 2 2 2 2 2 2 2 2 2 2
left_child=2 4 5 13 11 9 16 14 31 32 27 21 23 26 -6 -16 19 -12 22 37 35 30 -18 -10 -15 -23 -4 -7 -29 -13 -2 -5 40 -14 -26 -9 -20 -3 -34 41 -1 -8 -41 -43
right_child=1 6 3 8 7 10 39 20 12 -11 17 29 33 24 15 -17 18 -19 36 -21 -22 25 -24 -25 34 -27 -28 28 -30 -31 -32 -33 38 -35 -36 -37 -38 -39 -40 42 -42 43 -44 -45
leaf_value=-0.38541646517301398 0.040513087620349268 0.25359118565689931 0.034693452364474249 0.11661929857635066 0.2845481062511041 -0.16331100558812711 0.31056328104133546 -0.087588606119411216 -0.055273020905365344 -0.11710886483975066 -0.052654612163449632 -0.10018925954265744 -0.020535332430358703 -0.25632872213377128 0.11738464503773936 0.18059593427959753 0.26428123235987278 -0.22115937090433557 0.31307421662554191 0.10662247384336211 0.1288374898686617 -0.00090833821529414998 0.10522548633589174 -0.16043288228400809 -0.19797925120275389 0.070853923239013447 -0.12206656556373356 -0.27711543713435832 -0.23564168569025476 0.022842305909894028 0.15955486174381536 -0.0060680538027218537 -0.29117281742752266 -0.080636903515335881 -0.1464359621914206 0.040706126074786471 0.27719545790818911 0.17318056784356653 -0.32503541840726219 0.40895006109768517 -0.33660935221262756 0.35707887675509492 0.36775667382406824 0.32590239173389363
leaf_weight=141 58 518 63 84 89 96 83 58 118 61 92 101 418 94 579 673 95 66 573 62 74 202 61 272 247 587 61 798 964 69 159 75 404 255 827 61 1128 65 525 75 85 165 93 64
leaf_count=141 58 518 63 84 89 96 83 58 118 61 92 101 418 94 579 673 95 66 573 62 74 202 61 272 247 587 61 798 964 69 159 75 404 255 827 61 1128 65 525 75 85 165 93 64
internal_value=0 0.19777 -0.19687 -0.107145 0.104201 -0.266661 0.282802 0.144581 -0.0572703 -0.311186 -0.239802 0.0515222 -0.0746239 -0.154312 0.160212 0.151368 0.268929 -0.123083 0.281967 0.23138 0.0359425 0.0687208 0.202127 -0.128632 -0.166191 0.0524733 -0.0423712 -0.249724 -0.254429 -0.0502156 0.127767 0.058708 -0.32143 -0.0433173 -0.158296 -0.0217707 0.289285 0.244637 -0.310316 0.355105 -0.367088 0.33835 0.386184 0.348394
internal_weight=0 5692 5746 2514 2710 3232 2982 1534 1222 1216 2016 1176 1063 1292 1341 1252 2502 158 1857 645 193 1006 156 390 1168 789 124 1858 1762 170 217 159 1155 673 1074 119 1701 583 929 480 226 312 168 229
internal_count=11438 5692 5746 2514 2710 3232 2982 1534 1222 1216 2016 1176 1063 1292 1341 1252 2502 158 1857 645 193 1006 156 390 1168 789 124 1858 1762 170 217 159 1155 673 1074 119 1701 583 929 480 226 312 168 229
is_linear=0
shrinkage=0.0140275


Tree=17
num_leaves=47
num_cat=0
split_feature=11 11 11 11 11 11 11 15 7 10 14 15 11 10 7 15 11 10 7 15 15 10 16 11 11 11 15 28 10 24 10 16 11 11 11 18 10 16 16 11 15 10 7 0 3 6
split_gain=2.20015e+06 223731 177754 29211.4 28473.9 19078.1 14758.6 11073.4 16375.1 10559.1 9273.54 8956.08 7634.47 7665.41 7149.4 13225.9 6035.19 5196.27 5122.08 12619.7 4579.21 4265.35 3905.99 3403.91 3306.85 3122.75 3965.38 2732.31 2716.51 2442.66 4273.42 2280.48 2165.69 2030.09 1795.3 1769.99 1731.63 1297.26 1269.67 1211.83 1072.27 1007.21 560.084 259.969 243.84 111.205
threshold=33.374536000000013 53.522120000000008 15.450925999999997 23.819686000000004 43.047910000000009 3.9542000000000006 66.641635400000013 1.5000000000000002 1.0000000180025095e-35 17.506492500000004 1.5000000000000002 1.0000000180025095e-35 27.558496000000002 16.352805000000007 1.0000000180025095e-35 1.5000000000000002 57.551188000000003 14.755755000000002 1.0000000180025095e-35 1.0000000180025095e-35 1.5000000000000002 35.045797499999999 84.627436149827759 11.315234000000002 38.709578000000008 51.321640000000009 1.5000000000000002 2.26583986928105 12.960569999999999 0.71714285714285719 45.024787500000009 61.973528027012513 0.54818200000000428 62.605648400000007 2.6147360000000011 22.020714983137836 44.679547500000005 72.053393976091556 43.299819382977027 67.989894452000016 1.0000000180025095e-35 13.516650000000004 1.0000000180025095e-35 12.500000000000002 0.73993558776167478 1.0000000180025095e-35
decision_type=2 2 2 2 2 2 2 2 2 2 2 2 2 2 2 2 2 2 2 2 2 2 2 2 2 2 2 2 2 2 2 2 2 2 2 2 2 2 2 2 2 2 2 2 2 2
left_child=2 4 5 17 20 14 16 21 -9 -6 -10 38 13 -13 32 34 35 -4 33 -20 22 41 24 -23 -2 26 -11 -14 -24 30 -19 -27 44 -18 -16 37 -31 -3 -5 42 -34 -7 43 -8 -1 -41
right_child=1 6 3 11 9 7 39 8 10 25 -12 12 27 -15 15 -17 18 29 19 -21 -22 23 28 -25 -26 31 -28 -29 -30 36 -32 -33 40 -35 -36 -37 -38 -39 -40 45 -42 -43 -44 -45 -46 -47
leaf_value=-0.38751075128554313 0.026901503115507399 0.22560117004986271 -0.24490798660391358 0.010718955699760025 0.27837802188634919 -0.33448826362028949 0.35573982310950519 -0.27360486248753024 0.064095837454033647 0.15294398871081191 -0.16793679117235319 -0.25545394599759541 -0.049688317109066654 -0.09044753882203925 -0.32505535192798923 -0.079409169605182323 0.27452611623365453 -0.18255595689955573 0.11402649080191643 0.27617948670122661 -0.034063190361334809 -0.25344432132513534 0.072154664319021858 -0.20731497255928646 0.080018527796359734 0.14481223260540221 0.098810935413158468 0.044569595508153884 0.20395037013556364 -0.11987846984298225 -0.1118157468350414 0.22383805327478157 -0.31001173118608089 0.31039448971051709 -0.24638652281128667 0.16124886350022893 -0.19444364537167375 0.27841302998118123 0.10101336991736748 0.36444914989306554 -0.3676863629695461 -0.27882613236850917 0.30177129624021332 0.3223212150694425 -0.35404236940377709 0.39049834466441341
leaf_weight=88 530 459 109 60 105 86 156 113 72 455 64 66 619 347 164 70 577 231 118 476 113 934 66 478 409 222 645 67 58 82 621 107 632 686 89 70 249 116 63 63 72 269 83 73 101 105
leaf_count=88 530 459 109 60 105 86 156 113 72 455 64 66 619 347 164 70 577 231 118 476 113 934 66 478 409 222 645 67 58 82 621 107 632 686 89 70 249 116 63 63 72 269 83 73 101 105
internal_value=0 0.194996 -0.194109 -0.105642 0.102739 -0.262921 0.278835 -0.236438 -0.148797 0.142553 -0.0450493 -0.0564671 -0.0691743 -0.116832 -0.306821 -0.250182 0.265156 -0.152148 0.278012 0.243978 0.0507995 -0.248785 0.0598267 -0.237833 0.0500444 0.132569 0.121208 -0.0404731 0.133852 -0.143596 -0.131003 0.170533 -0.3273 0.294013 -0.297406 0.228135 -0.17599 0.236266 0.0570189 0.350125 -0.315919 -0.292328 0.333604 0.345114 -0.369659 0.380768
internal_weight=0 5692 5746 2514 2710 3232 2982 2016 249 1534 136 1222 1099 413 1216 323 2502 1292 1857 594 1176 1767 1063 1412 939 1429 1100 686 124 1183 852 329 893 1263 253 645 331 575 123 480 704 355 312 229 189 168
internal_count=11438 5692 5746 2514 2710 3232 2982 2016 249 1534 136 1222 1099 413 1216 323 2502 1292 1857 594 1176 1767 1063 1412 939 1429 1100 686 124 1183 852 329 893 1263 253 645 331 575 123 480 704 355 312 229 189 168
is_linear=0
shrinkage=0.0140275


Tree=18
num_leaves=46
num_cat=0
split_feature=11 11 11 11 11 11 11 26 16 17 12 12 11 12 27 12 11 11 26 11 3 11 18 26 11 17 5 17 3 18 20 17 26 3 11 25 21 11 30 3 1 20 16 26 26
split_gain=2.13886e+06 217498 172802 28397.7 27680.6 18546.5 14347.4 11340.4 7921.34 7702.28 7622.99 6762.89 5866.79 4898.56 4459.36 4427.88 4069.53 4033.08 3046.44 2797.82 2798.96 2643.62 3253.28 2442.54 2827.19 2258.03 2105.43 2009.17 1971.33 2158.52 1957.91 1883.26 1640 6210.75 1731.92 1406.21 1279.47 1177.76 1019.05 867.249 746.737 402.933 212.536 170.529 122.856
threshold=33.374536000000013 53.522120000000008 15.450925999999997 23.819686000000004 43.047910000000009 3.9542000000000006 66.641635400000013 16.315070000000006 34.891521792309916 12.326390807021992 18.134812500000006 13.163902500000001 57.551188000000003 15.5846775 26.026500000000002 28.667940000000005 50.472490000000008 0.74694600000000133 33.397690000000004 12.104305999999999 0.75277777777777788 27.918250000000004 14.453838847292745 -32.106713399999997 62.605648400000007 39.524167118167895 0.20806277056277059 10.059304693178687 0.79587542087542096 14.614889954625571 3.5368056656014697 21.015164080837639 1.4523847999999975 0.88165266106442586 2.3342019999999981 -42.998733749999992 2.5526343088235293 67.989894452000016 4429.5000000000009 0.86240703177822864 2.5000000000000004 4.5109835844183008 48.882361675678261 12.772610000000002 -5.1585990000000015
decision_type=2 2 2 2 2 2 2 2 2 2 2 2 2 2 2 2 2 2 2 2 2 2 2 2 2 2 2 2 2 2 2 2 2 2 2 2 2 2 2 2 2 2 2 2 2
left_child=2 4 5 13 15 17 12 19 -9 -6 -11 14 26 -4 -5 25 -12 39 27 35 -21 22 -13 -14 -25 -2 36 -17 38 -30 -23 -28 34 -34 -19 -7 -3 41 -15 44 -41 -8 -43 -39 -1
right_child=1 6 3 11 9 7 37 8 -10 10 16 21 23 28 -16 18 -18 32 -20 20 -22 30 -24 24 -26 -27 31 -29 29 -31 -32 -33 33 -35 -36 -37 -38 43 -40 40 -42 42 -44 -45 -46
leaf_value=-0.36135661331151359 0.16622635007414191 0.2958376885979534 -0.24705940728163861 -0.23555902565476924 0.2657906173803587 -0.31835913608093591 0.30173750071403754 -0.24763616638234479 -0.042200462537192167 0.2548543160463016 0.10704480314950909 -0.015775200241547147 0.20495627045505788 -0.13519499757192202 -0.065547058150353416 0.091351300870333954 0.15894518608730823 -0.3157258338535186 -0.045304327808002677 -0.13185081925042899 -0.22776735649971078 -0.076204962952196781 -0.094373434919275231 0.25877455305696195 0.2945190964441477 0.064093844674937214 0.27877646764559733 0.036527393606339796 -0.10059426258077382 -0.14702624557088037 -0.013293605069875727 0.19113533391137699 -0.3307336225677992 -0.1395676580674301 -0.27415079785485602 -0.25010241771434572 0.23126419887900515 0.38635642162679718 -0.19191588640710491 -0.36231665320872769 -0.29511370412469012 0.35754667473779717 0.32802342723489686 0.35458928819311963 -0.39003594468764408
leaf_weight=83 87 99 95 64 91 63 83 59 99 94 905 152 96 92 58 159 444 423 78 70 428 121 327 820 941 84 57 768 292 613 500 329 73 62 377 1297 160 110 200 58 79 83 146 58 61
leaf_count=83 87 99 95 64 91 63 83 59 99 94 905 152 96 92 58 159 444 423 78 70 428 121 327 820 941 84 57 768 292 613 500 329 73 62 377 1297 160 110 200 58 79 83 146 58 61
internal_value=0 0.192261 -0.191386 -0.10416 0.101298 -0.259233 0.274924 -0.233122 -0.118954 0.140554 0.132652 -0.055675 0.261437 -0.150014 -0.154786 0.0500871 0.124132 -0.302517 0.0388499 -0.242827 -0.214298 -0.0446769 -0.0694453 0.274112 0.277878 0.116093 0.224935 0.0459377 -0.142306 -0.132052 -0.0255619 0.204094 -0.288473 -0.242986 -0.296142 -0.253269 0.255971 0.345214 -0.174067 -0.349225 -0.323611 0.328925 0.338752 0.375427 -0.37355
internal_weight=0 5692 5746 2514 2710 3232 2982 2016 158 1534 1443 1222 2502 1292 122 1176 1349 1216 1005 1858 498 1100 479 1857 1761 171 645 927 1197 905 621 386 935 135 800 1360 259 480 292 281 137 312 229 168 144
internal_count=11438 5692 5746 2514 2710 3232 2982 2016 158 1534 1443 1222 2502 1292 122 1176 1349 1216 1005 1858 498 1100 479 1857 1761 171 645 927 1197 905 621 386 935 135 800 1360 259 480 292 281 137 312 229 168 144
is_linear=0
shrinkage=0.0140275


Tree=19
num_leaves=55
num_cat=0
split_feature=13 13 13 3 13 13 0 12 10 0 12 10 12 10 12 10 10 13 10 10 28 10 13 13 13 12 10 5 12 10 22 10 13 10 13 17 13 22 5 0 22 12 13 17 0 12 13 3 0 13 21 13 5 2
split_gain=1.04551e+06 108440 89125.7 30070.7 29012.8 21540.7 20906.6 19521.3 49382.8 18507.6 12991.4 28278.8 11684.9 28004.4 11104.5 34049.5 9965.75 8988.13 8317.75 7524.7 7367.24 6007.03 5547.56 5294.45 5024.65 4644.22 4551.21 4262.93 4212.85 13418.6 3884.86 3757.49 5135.79 3701.84 3665.24 3590.75 3398.62 3269.24 2725.32 2600.88 2398.19 2268.11 1979.6 1844.28 1664.38 2241.13 1643.83 1160.65 1024.04 815.84 632.923 524.556 448.896 146.332
threshold=32.633710000000008 59.024340000000009 6.1083380000000007 0.90219990435198483 45.254408000000005 26.340650000000007 6.5000000000000009 33.533587500000003 33.637065 6.5000000000000009 29.840527500000004 29.210370000000005 39.135442500000003 39.358042500000003 34.360095000000008 24.602340000000002 44.679547500000005 64.539520800000005 29.210370000000005 62.277022500000008 1.4789556025370019 42.836902500000008 17.640594000000004 51.711280000000009 23.051320000000004 83.298075000000011 30.739065000000004 0.14017543859649126 53.949157500000005 53.657834999999999 -2.2742333666666652 62.638747500000001 36.158490000000008 80.335972500000011 66.299054800000008 21.948950923101091 52.516128000000009 0.64034666796747952 0.29289318755256522 3.5000000000000004 -6.1563884999999994 42.872130000000006 30.970328000000006 38.79162244652877 3.5000000000000004 60.573870000000007 1.9697219999999975 0.99193548387096786 2.5000000000000004 62.754262400000009 5.5475717500000004 2.4079480000000051 0.24152298850574716 1.0000000180025095e-35
decision_type=2 2 2 2 2 2 2 2 2 2 2 2 2 2 2 2 2 2 2 2 2 2 2 2 2 2 2 2 2 2 2 2 2 2 2 2 2 2 2 2 2 2 2 2 2 2 2 2 2 2 2 2 2 2
left_child=2 4 9 10 28 12 34 16 36 39 18 22 21 -14 26 -16 38 -17 24 -13 27 -5 -12 -10 -4 33 52 -11 31 37 -29 32 -2 -22 44 41 -9 -30 -6 46 -31 -7 -37 51 49 -46 53 -36 -49 -3 -48 -41 -8 -1
right_child=1 6 3 5 7 35 14 8 23 20 11 19 13 -15 15 17 -18 -19 -20 -21 25 -23 -24 -25 -26 -27 -28 30 29 40 -32 -33 -34 -35 47 42 -38 -39 -40 43 -42 -43 -44 -45 45 -47 50 48 -50 -51 -52 -53 -54 -55
leaf_value=-0.36598446169909316 0.016908390227810502 0.25875145407160738 -0.25025332184500598 -0.23485748567855472 0.25950519652661613 0.063693347074082654 0.29544351030670962 -0.073812083724867902 0.094382940421010308 -0.20183620858948814 0.24623050317822495 -0.027954792408045971 0.072507998457487163 -0.15544859346618661 -0.10964818967232513 0.15167785818985619 0.034761421882418188 0.23165907772748617 -0.0067477001300563126 -0.092272555949427848 -0.23507725093493886 -0.082428988383354426 0.069037145754787019 0.14633672426757549 -0.10521746424226876 -0.12659916122561923 0.1720739691034768 -0.14533703188439984 -0.030424718485863356 -0.024071824360871717 0.0034431362178544973 -0.014066835321011118 0.10543265436162391 -0.12807579388088025 0.37415098281080639 -0.1168067660344474 -0.20497473347278658 -0.14805360677262858 0.1745922077951417 -0.31814146161800128 0.05944992321209476 -0.035603799967877513 -0.023695478312734761 -0.20557874168136678 0.26898932067279385 0.18107364549837135 -0.25326378472814964 0.33780010093389529 0.26080919910567885 0.32211926355148451 -0.31596063260894403 -0.26122646616091172 0.34424305117163329 -0.33773879444038452
leaf_weight=67 182 78 124 422 254 65 94 80 681 78 60 651 116 1231 81 607 57 509 60 796 636 58 83 894 76 111 60 70 103 76 68 97 444 71 75 142 76 85 106 66 608 149 66 85 143 96 70 82 60 86 61 66 66 110
leaf_count=67 182 78 124 422 254 65 94 80 681 78 60 651 116 1231 81 607 57 509 60 796 636 58 83 894 76 111 60 70 103 76 68 97 444 71 75 142 76 85 106 66 608 149 66 85 143 96 70 82 60 86 61 66 66 110
internal_value=0 0.132228 -0.136013 -0.101675 0.0874027 -0.136137 0.214592 0.121058 0.100295 -0.226291 -0.0597779 -0.0447404 -0.157002 -0.135813 0.184853 0.168005 0.207231 0.188162 -0.151713 -0.0633406 -0.191834 -0.216452 0.143428 0.123877 -0.195171 -0.211085 0.276495 -0.118901 0.0420753 0.0213059 -0.0719791 0.0671161 0.0797057 -0.224341 0.28255 -0.045786 -0.137753 -0.0836418 0.234521 -0.294143 0.0501604 -0.00541378 -0.0872924 -0.256798 0.25745 0.233702 -0.320433 0.329135 0.305313 0.29202 -0.282507 -0.289732 0.315613 -0.348467
internal_weight=0 5780 5658 4099 3743 2249 2037 2148 1731 1559 1850 1590 1827 1347 1417 1197 417 1116 260 1447 1034 480 143 1575 200 818 220 216 1595 872 138 723 626 707 620 422 156 188 360 525 684 214 208 217 403 239 308 217 142 164 131 132 160 177
internal_count=11438 5780 5658 4099 3743 2249 2037 2148 1731 1559 1850 1590 1827 1347 1417 1197 417 1116 260 1447 1034 480 143 1575 200 818 220 216 1595 872 138 723 626 707 620 422 156 188 360 525 684 214 208 217 403 239 308 217 142 164 131 132 160 177
is_linear=0
shrinkage=0.0140275


Tree=20
num_leaves=44
num_cat=0
split_feature=11 11 11 11 11 11 13 11 13 13 15 13 11 16 16 13 11 16 16 11 21 11 11 13 11 13 16 11 13 13 11 16 26 13 19 13 11 13 3 22 14 26 3
split_gain=2.0456e+06 208009 171762 26458.5 21568.6 18936.5 15830.3 14095.9 12027.4 10023.7 9417.85 8650.04 7241.86 6888.86 6076.15 6063.93 5978.2 5746.79 5266.88 4887.83 4754.9 4297.74 4219.82 3913.15 4114.16 3893.94 3833.69 3584.52 4306.12 3478.42 3453.86 3374.54 3325.26 2973.88 2855.45 2559.39 2296.12 1835.33 1828.49 1525.75 1312.95 531.555 549.949
threshold=33.374536000000013 53.522120000000008 17.484568000000007 43.047910000000009 7.146221999999999 25.439888000000003 64.061739200000019 64.331617600000015 53.318324000000011 17.640594000000004 1.5000000000000002 43.300462000000003 2.3342019999999981 33.355606957484618 84.627436149827759 23.34797 47.925176000000008 84.627436149827759 98.447098231402279 12.104305999999999 5.494623749999997 38.709578000000008 67.230083600000015 6.7790560000000015 11.315234000000002 64.383236400000015 40.836497796751154 57.551188000000003 57.452826000000009 8.7491520000000005 20.307724000000004 92.075944416509643 1.8503105999999969 9.2377320000000029 52.456416984651739 58.495810000000013 51.571982000000013 63.023994600000002 0.87367021276595758 0.11649346631578919 1.5000000000000002 1.2484153999999956 0.83225108225108235
decision_type=2 2 2 2 2 2 2 2 2 2 2 2 2 2 2 2 2 2 2 2 2 2 2 2 2 2 2 2 2 2 2 2 2 2 2 2 2 2 2 2 2 2 2
left_child=2 3 4 11 6 9 12 25 14 26 23 17 38 -12 16 40 -5 21 30 -15 36 -2 29 -6 -25 27 -4 28 -3 -9 -11 34 -13 -29 -17 -14 -10 -31 -1 -19 -7 -24 -43
right_child=1 7 5 8 10 15 -8 22 20 18 13 32 35 19 -16 31 -18 39 -20 -21 -22 -23 41 24 -26 -27 -28 33 -30 37 -32 -33 -34 -35 -36 -37 -38 -39 -40 -41 -42 42 -44
leaf_value=-0.34960889024616254 0.025112545390967765 0.23509469204777381 -0.10024572544860284 0.10993014780058648 -0.14191222014765137 0.097408107625704177 -0.067937868711169996 0.19022066900228465 -0.082107629092334225 -0.17033879065639188 -0.25055871566535826 -0.1200592137736783 -0.26913187754938095 -0.14700264251438916 0.25037648509045474 -0.037240496241930841 0.17224706579528129 0.10272821938307458 -0.27306358971832762 0.013900668946362328 0.12299290264506441 0.087494039239819063 0.38826075752468903 -0.25819598864833226 -0.20914244809510146 0.15620649426393224 0.046974422959116295 0.19177482925369937 0.11821727320256839 0.34933732640220988 -0.11537701978723457 -0.13447116727963165 0.0075502966081673626 0.27101972419803677 -0.11890066688952416 -0.17293737316150881 0.04168111257945592 0.28953270656539903 -0.30401940800772215 0.20360356967998139 0.0028900388315181739 0.36547414014901047 0.32185503277731142
leaf_weight=279 514 561 61 576 109 59 67 63 61 344 59 69 989 79 113 695 641 57 57 70 71 377 65 574 820 94 81 103 70 121 655 98 96 1040 96 58 57 651 470 62 57 110 128
leaf_count=279 514 561 61 576 109 59 67 63 61 344 59 69 989 79 113 695 641 57 57 70 71 377 65 574 820 94 81 103 70 121 655 98 96 1040 96 58 57 651 470 62 57 110 128
internal_value=0 0.187875 -0.186681 0.0983592 -0.246734 -0.0892534 -0.279769 0.268097 0.137025 -0.126925 -0.210761 0.0483675 -0.287668 -0.122227 0.151906 -0.0443413 0.142758 0.0637535 -0.141805 -0.0713679 0.0322738 0.0515145 0.307037 -0.223009 -0.229346 0.244371 -0.0162233 0.249039 0.222139 0.290721 -0.134309 -0.0567913 -0.0457752 0.263884 -0.0471592 -0.263809 -0.0222576 0.298914 -0.32101 0.155338 0.0510186 0.351978 0.342042
internal_weight=0 5700 5777 2694 3574 2203 1863 3006 1519 1198 1711 1175 1796 208 1330 1005 1217 1010 1056 149 189 891 1138 1503 1394 1868 142 1774 631 835 999 889 165 1143 791 1047 118 772 749 119 116 303 238
internal_count=11477 5700 5777 2694 3574 2203 1863 3006 1519 1198 1711 1175 1796 208 1330 1005 1217 1010 1056 149 189 891 1138 1503 1394 1868 142 1774 631 835 999 889 165 1143 791 1047 118 772 749 119 116 303 238
is_linear=0
shrinkage=0.0140275


Tree=21
num_leaves=48
num_cat=0
split_feature=11 11 11 11 11 11 11 7 15 10 15 7 10 12 12 10 15 11 5 7 19 11 10 12 11 10 7 11 7 11 11 26 10 19 15 11 26 7 3 15 12 26 10 11 11 26 3
split_gain=1.98862e+06 202214 166977 25721.3 20967.5 18409 13703 11766.3 22095 10306.5 9155.32 8590.02 7601.66 6824.77 5242.74 4944.07 4575.68 6387.58 4154.3 4102.94 6180.08 4102.04 4037.11 3861.43 3660.47 3487.32 3388.74 2949.33 2807.97 2746.91 2629.9 2568.96 2388.08 4984.99 3370.69 2291.75 2240.51 2201.3 1731.89 1589.16 1555.52 1458.03 1216.78 1110.8 980.605 516.424 534.323
threshold=33.374536000000013 53.522120000000008 17.484568000000007 43.047910000000009 7.146221999999999 25.439888000000003 64.331617600000015 1.0000000180025095e-35 1.5000000000000002 17.506492500000004 1.5000000000000002 1.0000000180025095e-35 7.5702532500000013 65.584680000000006 28.667940000000005 35.045797499999999 1.0000000180025095e-35 22.649576000000007 0.16784037558685447 1.0000000180025095e-35 43.591275244781997 67.230083600000015 15.294982500000001 13.163902500000001 2.3342019999999981 38.681580000000011 1.0000000180025095e-35 11.315234000000002 1.0000000180025095e-35 36.913868000000008 2.6147360000000011 33.397690000000004 61.166857500000006 52.456416984651739 1.0000000180025095e-35 38.709578000000008 -0.90943199999999524 1.0000000180025095e-35 0.79587542087542096 1.0000000180025095e-35 68.919637500000007 4.962538000000003 13.516650000000004 61.022622000000005 56.27547400000001 1.2484153999999956 0.83225108225108235
decision_type=2 2 2 2 2 2 2 2 2 2 2 2 2 2 2 2 2 2 2 2 2 2 2 2 2 2 2 2 2 2 2 2 2 2 2 2 2 2 2 2 2 2 2 2 2 2 2
left_child=2 3 4 14 7 12 18 24 30 -5 15 -12 -4 -13 29 42 17 -14 40 25 -21 28 -20 -7 39 -11 -18 -17 41 -2 -9 35 33 -25 -34 -16 -30 -24 -26 -1 44 -8 -6 -42 -3 -23 -47
right_child=1 6 5 9 10 23 21 8 -10 19 11 13 16 -15 31 27 26 -19 22 20 -22 45 37 32 38 -27 -28 -29 36 -31 -32 -33 34 -35 -36 -37 -38 -39 -40 -41 43 -43 -44 -45 -46 46 -48
leaf_value=-0.31569829588114923 0.049973104266294567 0.24160423427465053 -0.27039435052935024 0.26592704113736276 -0.32526968768038761 -0.12692328628147473 0.33521724454354934 -0.30925910437505233 -0.044151345981425484 0.20186133858012084 -0.23115895169995518 0.059102296940273275 -0.10625529911215806 -0.14821171520805304 0.02236065562891976 -0.23331502813896374 -0.17188789559340251 0.036579424853354789 0.3161565992318463 0.054658546835915256 0.15937640825076635 0.38281441591733023 0.23530796048049199 0.0062176822751269772 -0.31798812259745668 0.12974604699419207 -0.099520195562492378 -0.18899480052627882 0.16924713187361196 0.16335932995352048 -0.23801981796017227 -0.044245371701377788 0.040126499782115875 -0.1290421715717755 -0.072787720965834413 0.066968488952457828 0.27000021109815348 0.19624518784795286 -0.26619580813839283 -0.38457881739091038 0.2200545729245959 0.28783740004669595 -0.25638900092229461 0.28616473864250508 0.30216094679581285 0.36034744077215203 0.31734020048917166
leaf_weight=503 70 66 67 110 67 99 192 170 111 160 83 61 510 64 526 511 350 70 93 313 172 65 731 396 165 764 201 708 57 106 259 74 60 62 388 399 188 469 578 77 145 398 217 78 286 110 128
leaf_count=503 70 66 67 110 67 99 192 170 111 160 83 61 510 64 526 511 350 70 93 313 172 65 731 396 165 764 201 708 57 106 259 74 60 62 388 399 188 469 578 77 145 398 217 78 286 110 128
internal_value=0 0.18524 -0.184063 0.0969797 -0.243273 -0.0880015 0.264337 -0.275844 -0.22062 0.135103 -0.207805 -0.120512 -0.125144 -0.0469917 0.0476893 -0.219881 -0.116534 -0.0890057 0.240943 0.124886 0.0918087 0.30273 0.226964 -0.0437193 -0.29838 0.14224 -0.1455 -0.207579 0.286643 0.118299 -0.266265 0.0352432 -0.0346204 -0.0120787 -0.0576511 0.0416092 0.246586 0.220046 -0.277706 -0.324854 0.272368 0.303267 -0.272661 0.243207 0.290825 0.347041 0.337244
internal_weight=0 5700 5777 2694 3574 2203 3006 1863 540 1519 1711 208 1198 125 1175 1503 1131 580 1868 1409 485 1138 1293 1005 1323 924 551 1219 835 176 429 999 906 458 448 925 245 1200 743 580 575 590 284 223 352 303 238
internal_count=11477 5700 5777 2694 3574 2203 3006 1863 540 1519 1711 208 1198 125 1175 1503 1131 580 1868 1409 485 1138 1293 1005 1323 924 551 1219 835 176 429 999 906 458 448 925 245 1200 743 580 575 590 284 223 352 303 238
is_linear=0
shrinkage=0.0140275


Tree=22
num_leaves=47
num_cat=0
split_feature=26 26 26 6 16 0 8 16 16 10 26 10 16 10 22 26 27 10 12 16 8 25 27 23 25 20 12 26 26 12 16 12 16 8 5 0 20 24 16 23 10 22 10 16 26 22
split_gain=348819 52972.3 48826 20971.4 20774.8 28224.7 19548.3 17510.1 14886 37641.5 10995.9 10589 10196.8 24430.2 9282.27 9146.58 7534.54 7520.59 31436.1 20545.2 7374.07 7182.99 5730.3 5625.68 5503.05 4844.11 4787.6 4498.32 4095.86 3876.92 3414.8 3223.58 3800.96 3085.55 3030.52 2655.36 3659.08 2651.96 2506.18 1630.9 2506.96 1784.83 1472.69 1319.97 798.193 397.787
threshold=1.0795340000000027 -31.558157399999999 23.349908000000006 1.0000000180025095e-35 33.618197478517509 3.5000000000000004 1.0000000180025095e-35 33.355606957484618 38.977684421036408 72.145342500000012 1.0000000180025095e-35 7.5702532500000013 35.086209557012438 62.638747500000001 -10.002821250000002 13.071912000000001 27.984000000000041 60.824505000000009 51.693600000000011 51.217447014260564 1.0000000180025095e-35 -4.0664924999999998 17.134000000000032 6.8593541129032261 19.396545 5.3271667577341413 28.20468 -15.694059999999999 -8.0351859999999977 67.589392500000017 20.335738732355306 78.07920750000001 61.392925364923379 1.0000000180025095e-35 0.22611077297626295 6.5000000000000009 9.2133142540056365 0.39208074534161497 35.086209557012438 6.2471975168918918 38.988495000000007 8.6717048571428546 76.905832500000017 27.947710413510396 -44.311309199999997 -16.991295150000003
decision_type=2 2 2 2 2 2 2 2 2 2 2 2 2 2 2 2 2 2 2 2 2 2 2 2 2 2 2 2 2 2 2 2 2 2 2 2 2 2 2 2 2 2 2 2 2 2
left_child=1 12 4 6 37 31 7 24 9 33 -9 -7 13 -1 38 -13 21 19 34 -10 35 -16 -22 28 -3 -21 -24 -18 -8 -20 -11 32 -6 -4 -19 45 -37 43 -5 40 -39 -41 -32 -2 -15 -14
right_child=2 3 8 14 5 11 23 10 17 30 -12 15 20 44 16 -17 27 18 29 25 22 -23 26 -25 -26 -27 -28 -29 -30 -31 42 -33 -34 -35 -36 36 -38 39 -40 41 -42 -43 -44 -45 -46 -47
