tree
version=v4
num_class=1
num_tree_per_iteration=1
label_index=0
max_feature_idx=66
objective=regression
feature_names=last_start_x last_start_y last_time is_home period_id episode_length seq_mean_x seq_mean_y seq_std_x seq_std_y progress_x progress_y progress_dist prev_end_x prev_end_y recent_pass_count recent_avg_move_x recent_avg_move_y recent_avg_distance last_recent_move_x last_recent_move_y pass_count carry_count pass_ratio success_rate start_zone_x start_zone_y dist_from_center_x dist_from_center_y angle_change_last_3 angle_change_last_5 angle_change_last_10 pass_direction_consistency consecutive_successful_passes short_pass_ratio long_pass_ratio side_pass_ratio forward_pass_ratio dist_to_goal angle_to_goal dist_to_top_line dist_to_bottom_line dist_to_nearest_sideline dist_to_goal_line in_penalty_box field_zone_9 game_minute is_first_half is_last_10_min avg_time_between_actions is_fast_tempo episode_duration avg_pass_velocity max_pass_velocity velocity_std avg_acceleration is_accelerating velocity_x velocity_y is_attacking_mode attack_intensity action_density same_team_sequence field_coverage_x field_coverage_y field_coverage_area time_since_last_action
feature_infos=[0:105] [0:68] [4.2329999999999997:3614.4670000000001] [0:1] [1:2] [0:269] [1.4549430000000001:104.38029] [0:67.792133519999993] [0:73.794091201388014] [0:47.857798709290336] [-104.3606046:100.2422085] [-67.744119807999994:67.357808000000006] [0:117.53394589692549] [0:105] [0:68] [0:3] [-61.786063499999997:66.685500000000005] [-47.291939599999999:61.492617600000003] [0:67.667957225548363] [-61.786063499999997:81.880470000000003] [-63.059446399999999:61.492617600000003] [0:147] [0:68] [0:1] [0:1] [0:3] [0:2] [0.00021000000000270802:52.5] [0.0019719999999949778:34] [0:3.1185020339940741] [0:3.0965525313591895] [0:3.0965525313591895] [0:0.28643715605053527] [0:57] [0:1] [0:1] [0:1] [0:1] [5.3836954674309032:110.19923650466731] [-1.5707963267948966:1.5707963267948966] [0:68] [0:68] [0:33.998028000000005] [0:105] [0:1] [0:8] [0:60] [0:1] [0:1] [-0.58000000000001817:132.34979999999996] [0:1] [0:679.01799999999957] [0:144.4071413894481] [0:655.71295900338305] [0:228.8089654810411] [-114.1621575284982:2215.2892145877704] [0:1] [-143.48152970297159:59.42545895855099] [-50.23287237425626:64.707612551164274] [0:1] [-0.97228680000000001:0.98819600000000007] [0:4.5662100456618804] [1:72] [0:105] [0:68] [0:7140] [0:123.46599999999944]
tree_sizes=8035 8502 8763 8663 8923 8996 9090 8814 10028 9590 9531 9774 9898 10028 10373 9767 9734 10063 10894 10121 10563 10065 10567 10908 10857 10582 10812 10912 10931 10938 10924 10940 10918 10905 10903 10912 10959 10959 10950 10927 10941 10934 10955 10939 10928 10944 10957 10976 10963 10965 10919 10954 10962 10917 10937 10982 10976 10948 10980 10980 11010 10971 11025 10984 11013 10986 10988 11031 11032 11015 10995 11024 11047 11009 11020 11015 10988 11021 11022 11018 10973 11027 11036 10983 11013 11056 11044 11070 11030 11016 11038 11047 11067 11056 11032 11059 11030 11005 11060 11058 11022 11025 11045 11042 11054 11055 11061 10973 11043 11077 11083 11099 11040 11070 11052 11035 11078 11043 11055 11060 11106 11027 11044 11068 11005 11020 10969 10983 11079 11061 11058 11072 11101 11029 11064 11054 11032 11029 11090 11028 11058 11043 11081 11064 11036 11068 11034 11035 11070 11044 11120 11087 11087 11107 11090 11084 11075 11076 11120 11069 11061 11103 11089 11060 11093 11083 10985 11005 11073 11110 11078 11077 11084 11089 11077 11107 11045 11132 11062 11036 11065 11095 11064 11057 11086 11115 11113 11068 11115 11088 11155 11081 11043 11083 11067 11151 11050 11149 11117 11109 11113 11074 11129 11127 11148 11010 11120 11085 11067 11081 11092 11067 11081 11102 11108 11125 11116 11103 11086 11034 11115 11128 11085 11047 11073 11097 11116 11144 11130 11086 11109 11100 11114 11101 11151 11070 11132 11107 11091 11159 11107 11119 11093 11128 11091 11127 11095 11141 11146 11161 11148 11117 11061 11172 11056 11113 11166 11113 11119 11127 11071 11055

Tree=0
num_leaves=99
num_cat=0
split_feature=38 38 38 66 0 38 38 19 66 16 16 20 66 66 66 27 38 38 66 28 38 66 36 17 43 66 19 20 66 51 9 62 10 61 12 49 37 19 66 33 39 54 62 9 58 27 24 43 18 38 20 38 66 16 66 10 14 18 49 66 1 65 2 10 11 19 32 30 61 58 10 19 66 51 0 23 64 20 27 24 18 8 65 0 6 51 16 8 18 12 66 9 16 0 12 38 31 20
split_gain=2.68887e+06 424368 228401 95419.5 67589.2 54720.4 40743.6 32409 26983.4 16313.4 12749.9 10687.8 10163 9531.99 8969.93 8782.61 8180.3 6942.75 6252.45 12308 5050.12 5015.15 4589.66 4287.26 3751.36 3549.45 3380.05 3220.57 2896.9 2785.3 2726.4 2715 2647.24 2611.41 3240.46 2672.28 2236.49 2228.75 2228.58 2179.37 2155.53 2064.22 1937.19 1935.33 2027.21 1941.14 1904.57 1860.3 1855.32 2173.61 1763.17 1709.03 2284.24 1697.44 1654.02 1637.56 1493.23 1463.79 1458.03 1401.28 1370.1 1361.39 1329.95 1134.33 1093.5 1616.45 1401.46 1064.39 1043.28 836.426 835.889 1211.1 829.14 826.803 824.506 805.495 793.186 770.069 739.371 738.913 732.118 721.949 709.927 651.816 644.042 801.051 624.587 522.812 515.061 424.759 423.711 415.565 288.706 265.302 135.763 127.311 94.1208 92.8917
threshold=64.540331731007868 45.954426786371222 74.679550658644089 4.7990000000001496 78.801030000000011 86.842186139694391 55.911892662226457 -12.993109499999999 1.2665000000000648 -6.2067424999999981 -0.07712250000000094 -13.817497999999999 1.965999999999948 7.8660000000002137 2.2669999999998276 17.762535 68.888447905805265 93.397504156777515 2.6299999999999959 15.316320000000001 48.796083193761568 2.4000000000002051 0.72046511627906984 -4.2090288666666664 20.938207500000001 2.6299999999999959 -2.0190975000000004 0.98273055999999681 1.1319999999998915 12.504500000000009 12.204092746299979 3.5000000000000004 8.9492549999999991 0.58127143460237207 34.22503134849719 2.3445000000000777 0.39767441860465119 2.942362500000002 0.90000000000020475 6.5000000000000009 0.20908119477897849 1.1976105028586108 3.5000000000000004 19.806283056865713 0.13810265812532505 5.7363074999999997 0.91287878787878796 89.483047500000012 21.947927985847674 60.342976510936758 16.541068000000003 60.882599479219841 0.86700000000041666 3.7269049999999999 1.0999999999999377 22.396972500000007 13.604488000000005 14.581232282372847 1.5930999999999813 2.6614999999999331 29.197364000000004 1289.7833357178004 1644.8335000000004 40.664326500000008 1.1890479999999963 9.2059275000000031 0.028111708297801349 1.6654848696190048 0.7379334716873972 -0.040176928508065812 0.31028549999999827 2.7666975000000069 1.2255000000001248 30.799999999999986 72.68940000000002 0.44504830917874399 47.779928000000005 -3.7002199999999976 11.399692500000002 0.46110630942091624 17.154972542397157 16.700610029830727 3919.5122439574379 52.918845000000012 42.328818926470596 25.400000000000038 1.7705100000000014 11.329300301666064 14.724499275819722 31.771878940159091 2.5320000000002669 19.07637269168794 -9.6485024999999975 40.979820000000011 23.57969387992468 67.687301503080292 1.6146527796252863 -12.611823999999997
decision_type=2 2 2 2 2 2 2 2 2 2 2 2 2 2 2 2 2 2 2 2 2 2 2 2 2 2 2 2 2 2 2 2 2 2 2 2 2 2 2 2 2 2 2 2 2 2 2 2 2 2 2 2 2 2 2 2 2 2 2 2 2 2 2 2 2 2 2 2 2 2 2 2 2 2 2 2 2 2 2 2 2 2 2 2 2 2 2 2 2 2 2 2 2 2 2 2 2 2
left_child=1 4 8 5 15 9 12 17 42 92 29 25 20 36 26 28 22 -7 97 -20 30 39 23 40 -6 -11 60 93 78 57 -3 55 51 35 -35 -23 -5 -34 74 -18 -10 -24 95 44 62 -46 64 -15 49 58 -13 52 -28 -51 69 68 -53 -8 -16 73 -12 -54 96 83 65 -14 -66 -45 79 -33 71 -56 81 -29 -17 -57 -68 -67 -1 -22 88 -32 -63 89 -72 -86 -81 -44 -78 -39 -82 -87 -4 -25 -30 -2 -31 -9
right_child=2 6 3 13 24 7 10 18 16 11 14 50 46 47 48 38 21 -19 19 -21 31 33 41 27 -26 -27 32 59 94 43 72 54 37 34 -36 -37 -38 63 -40 -41 -42 -43 87 67 45 -47 -48 -49 -50 53 -52 56 61 -55 70 75 -58 -59 -60 -61 -62 82 -64 -65 66 77 76 -69 -70 -71 84 -73 -74 -75 -76 -77 80 -79 -80 86 90 -83 -84 -85 85 91 -88 -89 -90 -91 -92 -93 -94 -95 -96 -97 -98 -99
leaf_value=68.529101585151935 68.110468588687553 68.444802759256831 68.331351076215498 68.302319188885079 69.003378353868541 68.239214475944635 68.30487807976715 67.786150067806147 68.385828254906684 68.025109207195513 68.560131544010844 67.802753663639436 68.735196821819827 68.511654992086733 68.47061346997225 68.616176809760148 68.078707221363018 67.855385658118848 68.106448043907903 67.622300572227942 68.299355726893722 68.126273609617684 68.346072674976128 68.172022056264041 68.911028863319927 68.342868740451863 68.199297204445529 68.308341783797061 68.677848857008541 68.595792705755827 68.499694830904446 68.523280387955822 68.480274359977599 68.572269654727265 68.28891970219513 68.367112739118085 68.004979476083122 68.343892716696331 68.841337094029925 68.295996734039377 68.602223382111717 68.106425690312122 68.299279758632409 68.528911783442013 68.593335606791541 68.386178422215025 68.475185752137719 68.333111449979853 68.366054976748856 68.332610765239949 68.04632992980531 68.345877240270895 68.272051439511031 68.515928515957 68.576971507400444 68.585867023384779 68.137583225630365 68.502490325742798 68.643147816826996 68.536842006724228 68.375482955959072 68.494014935142886 68.525680891975526 68.434398652645271 68.511502089332083 68.653059522106815 68.52728887819481 68.367481510273691 68.475616079258913 68.383581647747292 68.500953139760128 68.401381075678998 68.708470595923373 68.458274130396688 68.762938128097971 68.439479912648167 68.639972688309726 68.511964738623149 68.650470307871473 68.481699471960994 68.595776172401443 68.631943970625727 68.366441811958438 68.375392150906009 68.510096770688392 68.563998032619438 68.355917994533542 68.122532854093706 68.51721471599717 68.202008423906094 68.767278835089414 68.713139126095413 68.18367763104807 68.318421995884862 68.757229126904676 67.960458038711678 68.735941954059498 67.496379113664446
leaf_weight=48 98 40 34 33 1338 43 35 79 32 66 32 663 216 63 45 55 154 154 60 101 50 54 49 33 703 34 61 38 136 32 39 34 56 32 40 53 45 39 902 48 62 40 33 38 42 40 32 48 58 44 65 35 36 49 37 39 99 32 60 35 39 44 44 38 59 59 37 34 60 43 36 33 87 33 176 32 77 42 150 36 32 75 35 48 32 35 35 95 37 50 57 45 43 42 417 193 50 635
leaf_count=48 98 40 34 33 1338 43 35 79 32 66 32 663 216 63 45 55 154 154 60 101 50 54 49 33 703 34 61 38 136 32 39 34 56 32 40 53 45 39 902 48 62 40 33 38 42 40 32 48 58 44 65 35 36 49 37 39 99 32 60 35 39 44 44 38 59 59 37 34 60 43 36 33 87 33 176 32 77 42 150 36 32 75 35 48 32 35 35 95 37 50 57 45 43 42 417 193 50 635
internal_value=68.4547 68.7292 67.9278 67.7883 68.8809 67.7411 68.5042 67.626 68.1901 67.8831 68.4063 67.8529 68.5868 68.2896 68.3594 68.7791 68.2761 67.9284 67.5628 67.7797 68.5302 68.202 68.3571 68.4065 68.9733 68.118 68.3121 68.3425 68.7123 68.5231 68.6164 68.4906 68.2927 68.3009 68.4144 68.2322 68.1067 68.3567 68.8214 68.1229 68.5287 68.2199 68.0429 68.5546 68.5891 68.4947 68.654 68.4319 68.4733 68.5069 67.8202 68.2484 68.3069 68.4269 68.5371 68.4354 68.1834 68.395 68.5752 68.4285 68.4605 68.376 68.6449 68.3176 68.663 68.6972 68.6216 68.452 68.399 68.4461 68.5686 68.4967 68.6498 68.3722 68.7341 68.5243 68.6461 68.6024 68.6249 68.3619 68.6644 68.5923 68.4351 68.2881 68.5989 68.6254 68.4166 68.1571 68.6065 68.2508 68.7212 68.6627 68.2323 68.2344 68.7409 68.0012 68.6975 67.5213
internal_weight=0 6576 3330 2166 3925 1977 2651 1072 1164 905 1215 828 1436 189 868 1884 745 197 875 161 788 381 364 275 2041 100 612 181 751 347 241 547 541 179 72 107 78 231 1133 202 94 89 419 280 208 82 648 111 256 198 728 310 176 93 295 252 134 67 105 106 71 115 126 175 616 317 299 72 181 77 218 70 201 71 231 71 240 101 198 121 203 114 79 137 148 112 71 128 114 89 89 80 77 75 553 291 82 714
internal_count=9906 6576 3330 2166 3925 1977 2651 1072 1164 905 1215 828 1436 189 868 1884 745 197 875 161 788 381 364 275 2041 100 612 181 751 347 241 547 541 179 72 107 78 231 1133 202 94 89 419 280 208 82 648 111 256 198 728 310 176 93 295 252 134 67 105 106 71 115 126 175 616 317 299 72 181 77 218 70 201 71 231 71 240 101 198 121 203 114 79 137 148 112 71 128 114 89 89 80 77 75 553 291 82 714
is_linear=0
shrinkage=1


Tree=1
num_leaves=100
num_cat=0
split_feature=38 0 38 66 38 38 19 0 66 66 16 62 13 20 13 66 38 38 27 66 28 66 13 62 19 33 24 38 17 19 38 66 0 13 13 53 0 64 45 63 13 66 62 42 16 32 20 63 43 49 19 11 49 38 66 24 62 13 28 33 19 10 19 62 23 9 10 66 49 33 35 9 23 19 65 16 61 14 29 38 11 18 29 58 32 34 65 2 23 16 49 19 49 14 38 38 12 58 1
split_gain=2.57077e+06 341861 288046 91036.3 61426.6 52313.5 30890.7 27841.7 27455.5 16991.2 15514.6 13372.3 10412.1 10132.7 10115 9161.58 7829.84 6611.59 6048.45 5849.36 11757.7 5547.18 7344.39 5318.83 4602.48 5008.17 4436.51 4434.09 4603.22 4314.15 4223.18 3396.54 3238.64 2951.24 2567.29 2502.92 2365.73 2364.69 2341.36 2202.89 2140.37 4173.41 2014.71 1907.08 1898.95 2055.31 1887.38 1833.53 1786.03 1781.11 1779.03 1743.02 1722.51 1560.01 1809.85 1417.64 1401.98 1380.38 1357.72 1360.83 1387.77 1241.17 1192.45 1178.24 1172.13 1501.01 1137.69 1120.77 1013.35 1004.68 988.484 982.882 969.777 965.357 951.324 878.504 797.303 785.264 763.884 598.712 534.303 529.439 1018.72 517.434 499.065 419.42 393.64 329.316 345.599 275.731 235.883 541.685 229.248 218.242 182.705 171.374 140.671 137.851 91.7557
threshold=62.441971098461501 71.161702500000018 74.679550658644089 4.7990000000001496 50.621134281651685 86.842186139694391 -12.993109499999999 81.208312500000019 1.8335000000001858 1.2989999999999855 -6.2067424999999981 5.5000000000000009 69.56848500000001 -13.817497999999999 66.95246250000001 7.8660000000002137 56.120346125479585 93.397504156777515 12.609502500000003 2.6299999999999959 15.316320000000001 1.1319999999998915 79.783935000000014 3.5000000000000004 13.562272500000001 1.5000000000000002 0.8377192982456142 68.593714408366779 -2.1610626666666648 5.3373074999999988 67.900804824785084 2.6299999999999959 56.101027500000008 61.752600000000008 65.68983750000001 5.4882452793654197 75.195277500000017 55.893283400000008 1.5000000000000002 83.728790250000017 47.927670000000006 1.1660000000002813 7.5000000000000009 17.705976000000003 2.7856325000000033 0.050458730591516045 16.541068000000003 93.324105000000017 89.483047500000012 2.0615999999999768 3.856335000000009 -1.1885039999999945 1.8134000000000472 47.300097048830786 1.6989999999997141 0.45972972972972981 3.5000000000000004 94.229520000000022 30.045735400000002 5.5000000000000009 0.82209749999999293 0.94279500000000038 -5.4026174999999954 3.5000000000000004 0.5865817091454274 17.679980501605364 12.708780000000003 0.80650000000002831 2.3131999999999824 4.5000000000000009 0.27118955690384267 17.600668287852901 0.52198067632850254 -0.12752250000000306 1737.0837283604703 8.2826800000000045 0.56789948465347251 57.605214000000011 1.5147929760133005 42.780706832070528 -3.3156800000000026 14.431950260541559 1.9091445528724087 0.033262829312966979 0.037627620779626343 0.32672684458398749 1998.2247413024402 1025.883 0.42776886035313005 -9.6485024999999975 1.6751250000000222 18.234195000000003 1.800099999999998 56.654472000000005 44.361262114946662 58.841358391932935 38.120917417457697 0.15502496197718657 49.563670000000009
decision_type=2 2 2 2 2 2 2 2 2 2 2 2 2 2 2 2 2 2 2 2 2 2 2 2 2 2 2 2 2 2 2 2 2 2 2 2 2 2 2 2 2 2 2 2 2 2 2 2 2 2 2 2 2 2 2 2 2 2 2 2 2 2 2 2 2 2 2 2 2 2 2 2 2 2 2 2 2 2 2 2 2 2 2 2 2 2 2 2 2 2 2 2 2 2 2 2 2 2 2
left_child=1 4 8 5 21 10 17 36 11 12 89 14 23 31 30 71 26 -7 29 -8 -21 22 34 33 25 43 44 28 37 72 63 -12 -23 67 73 51 79 -10 -29 86 41 -15 -39 95 45 77 -43 62 -17 58 70 -30 -53 90 69 -37 66 -9 59 60 -27 -47 -40 -2 65 74 -46 -6 -20 -55 -25 -5 -13 -1 -51 98 -52 -11 -61 -3 -69 -58 83 -83 -75 -64 -26 88 -36 -4 93 97 94 -34 -89 -18 -67 -92 -56
right_child=2 7 3 15 9 6 19 57 27 16 13 18 -14 40 -16 48 24 -19 68 20 -22 32 -24 50 39 49 -28 38 35 -31 -32 -33 53 -35 87 55 -38 42 47 -41 -42 46 -44 -45 56 61 -48 -49 -50 64 76 52 -54 54 75 -57 81 -59 -60 78 -62 -63 85 -65 -66 96 -68 80 -70 -71 -72 -73 -74 84 -76 -77 -78 -79 -80 -81 -82 82 -84 -85 -86 -87 -88 92 -90 -91 91 -93 -94 -95 -96 -97 -98 -99 -100
leaf_value=0.11985295684633879 -0.34282852222297017 0.34461936573271562 -0.12103965147860692 -0.20228845747440871 -0.29120908948681729 -0.21127491803102891 -0.9123200162648164 0.49885551092306052 0.14278293279579454 0.25734204856652604 -0.42072046375534866 0.13388325881835333 0.18099255441379405 -0.73187580121986584 0.0071143157479491934 0.055754803390285879 -0.088141501686955226 -0.5861801567753131 -0.18882304143211925 -0.34113723041398386 -0.81457095684217062 0.018797086405996755 0.37066158768680796 0.087766447378679516 -0.23783181757961577 -0.084665230115587131 -0.08398845804874118 -0.024877803934235877 0.080907810080142417 -0.19704269538214936 -0.46428231800285774 -0.1097400704482638 0.25478568062093199 -0.047123543225771253 0.11078844890975045 -0.073494796393527004 0.40733747386180286 -0.15815588799555569 -0.096689560903725061 0.033756906687508803 -0.35469391928742167 -0.58191693710166825 0.051086538850915179 0.022137967806933775 -0.062302181447011239 -0.0070445510234691637 -0.32578284678242803 -0.076220626278229148 -0.1191874450385894 0.1508866403431218 -0.15332826874396777 -0.21119627245774508 -0.0080721098346261816 0.0077782036748421371 0.28667152814416175 -0.28439263560285616 0.21400176057508372 0.59633026270927569 -0.079319508845029876 0.030421904982197986 0.091373015062466229 0.15815174962213527 -0.30553674361446087 -0.1832856100053655 0.032437211540116542 0.13222173535110995 0.10251708451334952 -0.05701372344075268 -0.39242559713514302 0.16892596939616494 -0.052027991333561105 -0.44133545625911852 -0.018316746548137704 -0.054441411207231241 -0.0085121414939921276 0.1121912396686119 -0.017430279831742636 0.10353894649421923 0.18359568575734114 0.24031684966679268 -0.1946031373250339 0.18783678652020586 -0.0060000280722001566 0.066926598336891172 0.038022037344888994 -0.1450497611876457 -0.10293113993211714 0.10542841778176726 0.24611277761547573 -0.26571979450361871 0.27562416408962842 0.16022083474873958 0.1620918972101825 0.13864061792371263 0.027249492805536468 -0.20523579094201622 0.27356505570959144 0.37112025606443955 0.18234180838025882
leaf_weight=35 188 430 34 42 109 43 714 1336 60 156 66 34 60 275 34 63 32 154 58 60 101 32 60 60 34 45 42 45 32 57 305 34 305 60 40 33 846 34 35 35 47 356 53 47 42 40 50 52 48 33 55 35 48 40 126 53 35 359 40 32 36 50 107 63 55 32 33 32 40 37 38 36 44 55 37 44 40 36 43 123 50 49 34 48 54 33 46 51 44 43 234 37 44 40 32 33 43 132 69
leaf_count=35 188 430 34 42 109 43 714 1336 60 156 66 34 60 275 34 63 32 154 58 60 101 32 60 60 34 45 42 45 32 57 305 34 305 60 40 33 846 34 35 35 47 356 53 47 42 40 50 52 48 33 55 35 48 40 126 53 35 359 40 32 36 50 107 63 55 32 33 32 40 37 38 36 44 55 37 44 40 36 43 123 50 49 34 48 54 33 46 51 44 43 234 37 44 40 32 33 43 132 69
internal_value=0 0.285129 -0.484139 -0.651622 0.118145 -0.697661 -0.81025 0.457304 -0.23071 0.0227217 -0.558854 -0.317482 -0.0883407 -0.58833 -0.375965 -0.161881 0.0701102 -0.514934 -0.162372 -0.871902 -0.660722 0.22436 0.147978 -0.127127 0.0134818 0.0434724 0.131543 -0.113136 -0.056786 -0.0567823 -0.39922 -0.329861 0.252091 -0.195507 0.103567 -0.126534 0.376621 0.0399091 -0.181781 -0.113498 -0.620176 -0.634509 -0.0363555 -0.088289 0.149813 0.19101 -0.55674 -0.211042 -0.022388 0.0817188 -0.0341986 -0.0506976 -0.104131 0.25891 0.203603 -0.215795 0.0973164 0.521983 0.0305317 0.0611262 -0.00507973 0.0894747 -0.246321 -0.309185 0.12893 0.16207 0.0125995 -0.238553 -0.293589 0.0934084 0.033493 -0.341215 0.0535373 0.0264959 0.0734883 0.23519 -0.10166 0.233468 0.127016 0.324894 -0.150217 0.133316 0.101435 0.137097 -0.00892476 -0.276927 -0.175621 0.153415 0.195935 -0.218122 0.280051 0.305506 0.115999 0.244537 0.0801814 -0.162627 0.230615 0.316711 0.25778
internal_weight=0 6297 3609 2166 3203 1977 1072 3094 1443 1692 905 823 504 828 590 189 1188 197 233 875 161 1511 415 444 623 508 565 620 348 135 556 100 1096 251 355 201 1399 147 272 115 728 681 87 112 523 282 406 227 111 396 193 115 83 1064 316 86 241 1695 196 156 81 90 175 251 200 145 75 191 98 77 98 78 78 144 70 239 95 192 75 553 82 166 131 97 109 140 80 211 84 77 748 403 127 345 83 65 75 366 195
internal_count=9906 6297 3609 2166 3203 1977 1072 3094 1443 1692 905 823 504 828 590 189 1188 197 233 875 161 1511 415 444 623 508 565 620 348 135 556 100 1096 251 355 201 1399 147 272 115 728 681 87 112 523 282 406 227 111 396 193 115 83 1064 316 86 241 1695 196 156 81 90 175 251 200 145 75 191 98 77 98 78 78 144 70 239 95 192 75 553 82 166 131 97 109 140 80 211 84 77 748 403 127 345 83 65 75 366 195
is_linear=0
shrinkage=0.023


Tree=2
num_leaves=103
num_cat=0
split_feature=38 0 38 66 38 38 19 0 66 66 16 62 13 66 13 66 38 20 38 0 66 28 66 13 62 19 19 24 38 17 33 38 13 38 13 42 65 37 53 13 64 37 0 45 37 42 51 62 66 16 63 43 11 49 61 30 19 16 24 62 13 18 39 11 19 7 5 30 66 62 57 55 35 66 2 64 49 12 38 66 61 64 38 33 57 30 12 49 19 66 55 20 18 49 16 11 58 28 20 13 6 51
split_gain=2.45771e+06 326158 275187 86845.8 58810.1 49881.8 29417.1 26568.9 26213.6 16289 14772.1 12735 9988.08 9747.95 9671.88 8811.53 7504.25 7472.29 6296.06 5784.26 5453 11231.9 5319.67 7897.84 5141.69 4449.24 4430.88 4257.9 4244.19 4417.93 4060.85 4019.55 3379.48 2877.63 2872.29 2632.81 2520.91 2484.68 2402.36 2377.58 2271.29 2264.68 2246.32 2243.62 2174.01 2090.5 2078.23 1937.92 1869.18 1808.99 1755.49 1714.74 1677.87 1657.55 1649.05 1640.86 1579.82 1502.73 1358.37 1346.51 1336.95 1271.33 1729.12 1201.34 1137.39 1330.34 1132.79 1875.26 1770.51 1116.9 1093.63 964.466 932.111 931.471 870.222 840.277 813.381 792.115 776.402 765.62 738.369 666.234 562.468 543.583 528.362 1061.56 826.522 476.09 530.335 436.461 390.924 381.356 306.866 303.153 263.321 261.645 244.452 200.924 150.159 116.098 46.4807 3.89244
threshold=62.441971098461501 71.161702500000018 74.679550658644089 4.7990000000001496 50.621134281651685 86.842186139694391 -12.993109499999999 81.208312500000019 1.8335000000001858 1.2989999999999855 -6.2067424999999981 5.5000000000000009 69.194685000000007 1.8335000000001858 66.95246250000001 7.8660000000002137 56.120346125479585 -13.355199999999998 93.397504156777515 39.685380000000009 2.6299999999999959 15.316320000000001 1.0004999999998747 79.783935000000014 4.5000000000000009 5.3373074999999988 11.580660000000007 0.8377192982456142 68.593714408366779 -2.1610626666666648 1.5000000000000002 67.900804824785084 47.927670000000006 47.300097048830786 61.752600000000008 26.886724000000005 2068.3211456822046 0.5131670131670133 5.4882452793654197 65.357040000000012 55.893283400000008 0.96666666666666679 75.195277500000017 1.5000000000000002 0.39767441860465119 17.705976000000003 49.633500000000033 7.5000000000000009 0.80650000000002831 2.7856325000000033 93.324105000000017 89.483047500000012 -1.1885039999999945 1.8134000000000472 0.76428725050239044 1.923297224065329 3.856335000000009 -0.21874124999999781 0.45972972972972981 3.5000000000000004 94.229520000000022 17.28958219789806 -0.1479416396030315 -5.1631039999999997 -5.4026174999999954 42.289039633333338 32.500000000000007 1.656301977202346 2.9330000000001069 3.5000000000000004 0.47963174465284747 0.94513638559757263 0.27118955690384267 0.52849999999995145 1602.3835000000001 64.632079000000019 2.3131999999999824 42.700202363801282 58.546705227919652 2.0999999999999379 0.56516363943209202 57.165498800000009 42.780706832070528 4.5000000000000009 0.46813063036932162 1.3976937752963623 46.732165626924726 1.6751250000000222 17.074785000000002 0.70000000000014506 -0.14933454082138772 -12.611823999999997 21.008251800573607 1.584325000000081 -9.6485024999999975 16.01519 0.19885705666409784 23.759948000000001 16.541068000000003 56.252647500000002 51.672244500000005 10.266500000000066
decision_type=2 2 2 2 2 2 2 2 2 2 2 2 2 2 2 2 2 2 2 2 2 2 2 2 2 2 2 2 2 2 2 2 2 2 2 2 2 2 2 2 2 2 2 2 2 2 2 2 2 2 2 2 2 2 2 2 2 2 2 2 2 2 2 2 2 2 2 2 2 2 2 2 2 2 2 2 2 2 2 2 2 2 2 2 2 2 2 2 2 2 2 2 2 2 2 2 2 2 2 2 2 2
left_child=1 4 8 5 22 10 18 42 11 12 94 14 24 32 31 44 27 -15 -7 76 91 -22 23 39 34 37 30 49 29 40 45 69 57 71 48 41 -28 -21 52 73 -10 79 82 -30 -5 -18 -38 -42 99 61 64 -17 -31 -54 55 66 72 -12 -40 70 -9 62 90 -50 -45 -66 67 68 78 -2 -51 87 -26 -1 -57 -68 -13 -58 -32 83 -64 -75 -3 -35 85 -61 -86 93 -89 101 -11 -8 -63 -24 -4 -81 -80 -91 -19 -6 -65 -41
right_child=2 7 3 15 9 6 20 60 28 16 13 19 -14 17 -16 51 26 98 -20 25 21 -23 33 -25 56 -27 36 -29 43 38 54 -33 -34 35 -36 -37 46 -39 58 89 47 -43 -44 50 -46 -47 -48 -49 63 59 -52 -53 53 -55 -56 74 77 -59 -60 84 -62 92 80 100 65 -67 75 -69 -70 -71 -72 -73 -74 81 -76 -77 -78 -79 96 95 -82 -83 -84 -85 86 -87 -88 88 -90 97 -92 -93 -94 -95 -96 -97 -98 -99 -100 -101 -102 -103
leaf_value=-0.084203707325800639 -0.33523819399929877 0.33682543654228214 -0.11874781735584176 -0.14409020846344475 -0.32135432017913146 -0.20712081926717438 -0.6352918121408615 0.48744419253685362 0.1398551373068592 -0.011654342851262664 -0.45050758772287047 -0.18874533104670557 0.17507789324614526 -0.18281180927030863 0.0069796085039257431 0.054605606594262043 -0.15397545158465273 -0.52965620304009065 -0.57330818607035949 -0.075233256230028009 -0.33414214723000379 -0.79709867002891366 0.24871442392468451 0.36306110393947866 0.1045811486117158 -0.19984374552371859 -0.22436243044985299 -0.082342759521326719 -0.024385479522252861 0.079392590923163725 0.11886190128096558 -0.45385343060503391 -0.33709068029704198 0.079273211729542686 -0.040357490341148161 0.0067306834317388993 0.076588566599688351 0.16217415476546568 -0.072110612041896976 0.057612295759585319 -0.1551612648265053 0.015522959871222347 0.39804886613452856 -0.094849487819288369 -0.43432073111515884 0.043912959034826837 -0.11802266763612801 0.050053791272798388 -0.014029193004366778 -0.064388527671548582 -0.074683355627735398 -0.11680800942222422 -0.2071770462746034 -0.0079109592161816667 -0.061444399392338603 0.068396796371011398 -0.15693697396223283 -0.68837022445785423 -0.27864346617687596 0.25096464016976872 0.58288800355420234 0.30214027672518945 0.24279417447127297 -0.22485693624044398 -0.31101912450602676 -0.10811042253824678 -0.041527146730410844 0.27238379915310562 0.21582891057277548 -0.17950778638793005 0.096640465580384943 0.13079678204074416 -0.039057575487133817 0.10387398344683854 -0.071902897532668236 0.10602782415213488 -0.38394492241656553 -0.016074256567547383 0.033847801045303737 0.29215586617552441 0.098309932043583723 -0.023757291234530697 0.23509922821637946 0.1991646536418048 -0.01268720196305818 0.081635201278684746 0.13415709467443301 0.31768393157024011 0.17013288804598406 0.23115990828047911 0.089094854948066529 -0.91581134537952058 0.14187287734665036 0.12130309650383281 -0.26049520901017353 0.17029398068692969 -0.047284417099321768 0.10076508088193778 -0.30285040844092048 -0.17316360188341168 -0.11035905750596342 0.10590862618125592
leaf_weight=38 188 430 34 33 79 43 79 1336 60 32 76 56 61 61 34 63 62 183 154 38 60 101 312 60 49 58 45 42 45 32 35 305 43 48 62 41 49 42 33 37 34 32 846 35 45 43 53 53 33 40 52 48 35 48 33 45 39 427 53 40 359 60 71 33 107 33 32 48 42 63 35 45 36 39 35 37 39 43 32 115 46 36 123 72 33 53 40 358 43 33 41 635 32 33 43 57 32 32 38 37 32 80
leaf_count=38 188 430 34 33 79 43 79 1336 60 32 76 56 61 61 34 63 62 183 154 38 60 101 312 60 49 58 45 42 45 32 35 305 43 48 62 41 49 42 33 37 34 32 846 35 45 43 53 53 33 40 52 48 35 48 33 45 39 427 53 40 359 60 71 33 107 33 32 48 42 63 35 45 36 39 35 37 39 43 32 115 46 36 123 72 33 53 40 358 43 33 41 635 32 33 43 57 32 32 38 37 32 80
internal_value=0 0.278725 -0.473436 -0.637139 0.11562 -0.682107 -0.792062 0.4469 -0.225726 0.0222513 -0.546541 -0.310515 -0.0864917 -0.575309 -0.367595 -0.158765 0.0686504 -0.439145 -0.503748 -0.159105 -0.852243 -0.646682 0.219549 0.136746 -0.124815 -0.0582428 0.0132108 0.128793 -0.110836 -0.055699 0.0473594 -0.390335 -0.638872 0.243939 -0.184539 0.182402 -0.0942254 0.0522809 -0.124029 0.0829841 0.03903 0.203924 0.368078 -0.177997 -0.33464 -0.0751441 -0.0254513 -0.0357043 -0.223499 0.146691 -0.206642 -0.0219587 -0.0497215 -0.102149 0.0828719 0.0980297 -0.0223809 -0.659435 -0.211482 0.0954204 0.510086 0.186915 0.142519 -0.133051 -0.241165 -0.271075 0.125571 0.154096 0.102247 -0.302417 0.0123854 0.270379 0.0452191 -0.000280575 0.00587239 0.0398691 -0.290784 -0.0906799 0.0423311 0.223612 0.195283 0.0456583 0.317598 0.158685 0.130701 0.167659 0.0723703 0.277419 0.305243 0.13282 0.0475998 -0.891549 0.261155 0.239359 -0.213881 0.260477 -0.00708358 0.183939 -0.501689 -0.287324 -0.185641 0.0951009
internal_weight=0 6297 3609 2166 3203 1977 1072 3094 1443 1692 905 823 504 828 590 189 1188 282 197 233 875 161 1511 355 443 138 623 565 620 348 476 556 546 1156 276 365 147 80 201 295 147 324 1399 272 78 105 102 87 214 523 227 111 115 83 371 338 167 503 86 241 1695 282 190 98 175 140 258 189 141 251 75 791 85 113 80 69 95 82 99 292 117 75 553 120 166 93 73 746 401 182 73 714 92 345 77 172 64 65 221 116 65 117
internal_count=9906 6297 3609 2166 3203 1977 1072 3094 1443 1692 905 823 504 828 590 189 1188 282 197 233 875 161 1511 355 443 138 623 565 620 348 476 556 546 1156 276 365 147 80 201 295 147 324 1399 272 78 105 102 87 214 523 227 111 115 83 371 338 167 503 86 241 1695 282 190 98 175 140 258 189 141 251 75 791 85 113 80 69 95 82 99 292 117 75 553 120 166 93 73 746 401 182 73 714 92 345 77 172 64 65 221 116 65 117
is_linear=0
shrinkage=0.023


Tree=3
num_leaves=102
num_cat=0
split_feature=38 38 38 66 0 38 38 19 66 16 16 66 66 66 66 62 27 13 62 38 13 13 20 66 28 38 62 19 19 13 62 13 31 66 12 66 55 13 66 66 58 49 37 66 39 0 0 18 38 16 24 43 58 38 65 34 28 13 7 38 22 49 19 10 10 32 13 5 58 11 19 32 19 14 28 18 66 2 19 64 0 18 20 27 18 6 20 20 53 66 53 37 35 38 20 12 66 35 16 30 64
split_gain=2.35e+06 369681 199242 84234 58673.8 44397.8 35887.6 28038.3 25610.9 14791.6 11551.7 9068.11 8863.59 8469.07 8238.29 8075.95 7557.75 6530.57 6584.71 5995.41 5831.76 5335.37 5118.82 5096.8 10729.5 4350.01 4031.26 5207.7 3980.09 4078.5 3658.76 3560.27 3529.28 3025.28 2617.96 2486.29 2428.91 2381.48 2269.43 2190.62 2155.62 2120.22 2084.33 2002.12 1957.99 1917.6 1827.36 1754.92 1933.58 1849.55 1691.05 1646.29 1496.22 1533.84 2216.48 1484.18 1465.54 1433.83 1414.26 1411.09 1325.27 1279.63 1266.17 1389.35 1255.24 1217.79 1167 1124.18 1077.96 1006.22 1555.31 1328.35 969.416 900.657 899.668 859.004 807.344 794.384 771.873 753.503 744.965 744.56 707.745 675.219 488.076 458.656 442.691 976.693 476.215 418.183 354.719 329.506 307.763 278.97 275.229 182.309 162.056 161.232 107.32 96.5285 92.9291
threshold=64.540331731007868 45.954426786371222 75.043074199013304 4.7990000000001496 78.801030000000011 86.842186139694391 55.911892662226457 -12.993109499999999 1.2665000000000648 -6.2067424999999981 -0.07712250000000094 1.965999999999948 1.8335000000001858 7.8660000000002137 2.2669999999998276 5.5000000000000009 17.762535 75.727837500000021 3.5000000000000004 93.397504156777515 67.829475000000016 54.114060000000009 -13.355199999999998 2.6299999999999959 15.316320000000001 66.142104361102724 2.5000000000000004 6.4436610000000032 12.151019999999997 39.809384999999999 3.5000000000000004 91.658805000000015 1.5215261909914404 2.5639999999997944 9.3954836088493803 1.1319999999998915 -0.16459984707455841 66.95246250000001 0.99199999999996191 0.90000000000020475 -0.38768942160844666 1.6531999999999643 0.39767441860465119 1.1670000000005987 0.16451391779252031 35.564287500000006 47.44635000000001 22.063456221364891 60.342976510936758 3.7269049999999999 0.91287878787878796 89.483047500000012 -0.86153288159795971 59.630678086399392 3356.7550481060002 0.14854215918045707 14.167766000000002 48.945382500000008 33.037102170731721 48.796083193761568 6.5000000000000009 1.5930999999999813 8.1444825000000041 19.304302500000002 -14.053131750000004 0.068764285884057239 59.083132500000005 13.500000000000002 -0.19863596743994485 1.4194693999999972 9.2059275000000031 0.028111708297801349 -0.96872999999999709 53.897650000000006 15.890138000000002 12.308323711582643 1.3659999999997441 1497.0500000000004 12.986767499999997 47.779928000000005 72.68940000000002 17.154972542397157 -3.7002199999999976 11.399692500000002 14.724499275819722 36.195040291666679 8.6532890000000027 1.111460000000003 3.713068291790353 2.5320000000002669 3.8638739086126956 0.5100040016006403 0.33615819209039549 50.621134281651685 -12.611823999999997 24.288611049707026 2.3330000000000912 0.24795081967213117 -1.3995099999999978 1.0758520491301828 65.471103800000009
decision_type=2 2 2 2 2 2 2 2 2 2 2 2 2 2 2 2 2 2 2 2 2 2 2 2 2 2 2 2 2 2 2 2 2 2 2 2 2 2 2 2 2 2 2 2 2 2 2 2 2 2 2 2 2 2 2 2 2 2 2 2 2 2 2 2 2 2 2 2 2 2 2 2 2 2 2 2 2 2 2 2 2 2 2 2 2 2 2 2 2 2 2 2 2 2 2 2 2 2 2 2 2
left_child=1 4 8 5 16 9 11 19 21 92 34 17 98 42 20 25 35 18 37 -7 26 30 -14 94 -25 -10 66 52 29 45 -2 -6 -31 65 -8 83 57 43 68 80 -38 77 -5 74 -34 -17 -29 48 61 -50 69 -15 -28 54 -54 96 -42 91 -45 67 90 -16 86 -64 -48 85 76 -40 -20 70 100 -71 -32 -58 -3 -55 -12 -35 -66 -73 -18 84 -72 -1 -81 -27 87 88 -61 -83 -47 -36 -4 -76 -9 -37 -24 -69 -11 -39 -13
right_child=2 6 3 13 31 7 10 23 15 12 14 50 22 51 47 28 39 -19 38 -21 -22 -23 55 24 -26 33 27 46 -30 32 72 -33 44 41 36 95 40 99 59 -41 56 -43 -44 58 -46 60 64 -49 49 -51 -52 -53 53 75 -56 -57 73 -59 -60 62 -62 -63 63 -65 78 -67 -68 97 -70 71 82 79 -74 -75 93 -77 -78 -79 -80 81 -82 89 -84 -85 -86 -87 -88 -89 -90 -91 -92 -93 -94 -95 -96 -97 -98 -99 -100 -101 -102
leaf_value=0.068864389556455033 -0.48654421420358163 -0.22144726884350294 -0.24557658794380371 -0.14137645293572551 0.45769239629399611 -0.2030484064637311 -0.11208916062087043 -0.62191608052126635 -0.036977114840897163 -0.41783669045450617 -0.30346052778839111 0.27990388119167203 -0.20657948517107136 0.053480093803039488 0.016370777512827523 -0.0010510964735209595 0.14784037070327932 0.2972119126470093 0.094271920177900509 -0.56071886361513679 0.12875665869671363 -0.17070899228895864 -0.20735778280955539 -0.32729049972580943 -0.78000116599701341 -0.19117758768137638 0.097124424598046724 -0.30207790629736964 -0.27351992084501314 -0.11376627467877065 -0.14255337276357286 0.55359354279651896 0.0072124080612189275 -0.32505380804833145 0.13414481827190944 0.20909456178496708 0.1368696946916298 0.040450672109393369 0.072391167922518943 0.3616973867287363 0.073157785236296569 -0.053800086794451078 -0.42572566479501484 0.087145287015084269 0.20828056414043924 -0.13777766694070626 -0.0040755421936364096 -0.088621871304933 -0.1216673211285392 0.067775822060270455 0.018911777648686151 -0.11447607500936709 0.13545832862434215 -0.19575343186447106 -0.10056840138015323 -0.55915154567488934 -0.13645655111932842 0.052233220059458942 -0.071711658713915105 0.058085235677332585 -0.050307748019007004 0.17787356469174781 -0.060899377361404737 0.11628855898941913 -0.089493567082927633 -0.13762892660900533 -0.10488416952778205 0.15539336268463091 -0.049935678279506145 0.050033615960951669 0.18586686731452409 0.06447114099875334 -0.33678594282719937 0.010556585626681082 -0.021098353182746412 -0.033178448316475075 -0.15324167512180839 -0.13184012222995717 -0.23634248435383318 0.17348510888251972 0.28522449071785821 0.13267430164280133 0.052472113891251046 0.18420170406160258 0.055756085219690006 -0.36699137527520115 0.21106252941256723 -0.0031654645550635557 0.18325205583395485 0.29816207964906055 -0.2956441633808416 0.28644683521682934 -0.10378758837779363 -0.10712428501608909 -0.89498707532093913 0.28412052864136778 -0.40137506441619958 0.31869125808734755 -0.64949530320636029 0.10969096561279103 0.15285888629012145
leaf_weight=48 245 33 41 33 1520 43 33 79 53 55 111 182 59 63 45 44 55 55 39 154 36 64 34 60 101 37 41 51 44 49 35 521 50 34 41 144 62 35 32 902 48 61 45 52 47 40 33 55 45 50 32 48 37 33 33 130 47 47 52 36 36 61 44 36 54 32 46 34 60 59 59 36 95 35 36 37 55 40 45 76 176 32 43 150 37 160 35 33 52 57 35 34 32 58 635 409 52 33 465 33 35
leaf_count=48 245 33 41 33 1520 43 33 79 53 55 111 182 59 63 45 44 55 55 39 154 36 64 34 60 101 37 41 51 44 49 35 521 50 34 41 144 62 35 32 902 48 61 45 52 47 40 33 55 45 50 32 48 37 33 33 130 47 47 52 36 36 61 44 36 54 32 46 34 60 59 59 36 95 35 36 37 55 40 45 76 176 32 43 150 37 160 35 33 52 57 35 34 32 58 635 409 52 33 465 33 35
internal_value=0 0.256405 -0.492819 -0.626373 0.397926 -0.671463 0.0463466 -0.774386 -0.253696 -0.538926 -0.0455092 0.123919 -0.568037 -0.155664 -0.0901566 -0.170336 0.303083 0.0704459 0.0506366 -0.492806 -0.135542 -0.393186 -0.43536 -0.833154 -0.63294 -0.237989 -0.153505 -0.103511 -0.0852614 -0.0518424 -0.42711 0.48407 0.0346893 -0.265893 0.0656652 0.241023 0.0865402 -0.03195 0.107173 0.342392 0.033069 -0.16431 -0.328088 -0.0669907 0.112617 -0.131386 -0.187552 0.0190056 0.05064 -0.0240141 0.1874 -0.0215374 -0.0144432 -0.0504669 0.0249016 -0.488952 -0.0209135 0.163896 0.0080163 0.135236 -0.179602 0.114986 0.0991224 0.0216284 -0.129626 -0.318754 -0.232935 0.208391 0.00922972 0.195792 0.228266 0.156198 -0.29502 -0.0777161 -0.125682 -0.121367 -0.262374 -0.242113 -0.168106 0.18015 0.258141 0.197689 0.137103 0.159796 0.14085 -0.342094 0.135979 0.103308 0.14066 0.253468 -0.231417 0.222752 -0.198795 -0.0782998 -0.871405 0.267604 -0.347143 0.259542 -0.63116 0.0817345 0.265157
internal_weight=0 6576 3330 2129 3925 1940 2651 1072 1201 868 1215 1436 795 189 868 762 1884 788 733 197 612 439 275 875 161 417 576 364 345 301 375 2041 146 364 347 751 314 299 434 1133 192 135 78 231 97 155 183 256 201 95 648 111 181 140 70 216 130 122 104 335 111 106 236 80 132 229 212 99 99 616 319 297 130 82 127 70 166 74 99 238 231 202 102 198 113 197 156 121 88 89 75 75 73 94 714 553 86 67 520 68 217
internal_count=9906 6576 3330 2129 3925 1940 2651 1072 1201 868 1215 1436 795 189 868 762 1884 788 733 197 612 439 275 875 161 417 576 364 345 301 375 2041 146 364 347 751 314 299 434 1133 192 135 78 231 97 155 183 256 201 95 648 111 181 140 70 216 130 122 104 335 111 106 236 80 132 229 212 99 99 616 319 297 130 82 127 70 166 74 99 238 231 202 102 198 113 197 156 121 88 89 75 75 73 94 714 553 86 67 520 68 217
is_linear=0
shrinkage=0.023


Tree=4
num_leaves=105
num_cat=0
split_feature=38 27 38 38 38 27 16 19 62 62 38 20 38 27 62 13 63 27 38 27 13 19 38 19 16 38 34 35 49 28 13 11 32 62 19 8 19 20 19 20 20 27 1 7 22 62 13 13 19 27 12 54 16 20 38 9 8 20 14 61 58 11 51 54 61 65 6 8 62 61 13 33 32 34 19 14 20 17 64 24 7 62 11 28 28 38 31 42 17 12 7 2 49 19 32 32 2 2 2 13 14 29 10 61
split_gain=2.32136e+06 341722 179364 54997.5 48791.4 39369.4 27529.5 22597.4 17771.4 10312 9106 8071 6729.07 6170.65 5811.9 5292.5 5225.39 15976.9 5145.49 4710.85 4546.99 4414.95 4354.41 4293.54 4287.12 3727.01 3409.45 3267.94 3175.67 3043.62 2688.61 2653.95 2426.07 2389.95 2355.26 2306.35 2300.33 2269.65 2239.25 2147.25 2040.61 1955.29 2064.53 1949.14 2166.68 1815.5 1775.85 1743.15 2381.02 1638.78 2300.55 1595.16 1550.75 1518.86 1444.59 1409.75 1330.73 1318.72 1318.16 1296.25 1272.62 1245.25 1240.55 1295.21 1205.8 1176.12 1341.65 1158.97 1119.54 1668.08 1049.27 1292.14 1111.68 1022.7 987.35 925.27 909.564 906.629 882.985 840.167 753.746 1037.06 727.441 722.543 694.302 811.822 677.768 620.003 511.945 611.307 499.762 538.772 475.043 299.407 374.809 247.459 228.015 538.333 200.108 134.68 114.525 104.259 89.6445 56.0445
threshold=64.540331731007868 15.081202499999998 75.043074199013304 93.397504156777515 55.911892662226457 27.643350000000002 -6.2067424999999981 -6.2697232500000002 3.5000000000000004 3.5000000000000004 49.03173019641202 -22.427997999999995 68.593714408366779 21.111615000000004 3.5000000000000004 67.25412750000001 97.187049750000014 35.161507500000006 85.229405890806774 23.244742500000005 74.040067500000021 -11.808268500000002 90.454604218047123 5.6510999999999987 -0.53548250000000042 67.687301503080292 0.10050505050505053 0.36055555555555557 2.3445000000000777 15.176784000000003 92.815275000000014 -6.4376483999999996 0.049619191193109084 17.500000000000004 -5.2282125000000006 13.045875734614699 -14.641199999999992 7.9355320000000029 -0.2283225000000044 14.861644800000002 -12.611823999999997 0.81128250000000091 21.688226000000004 28.65462277066667 1.0000000180025095e-35 4.5000000000000009 80.938567500000019 46.640842500000012 0.097964999999994987 4.4424974999999991 31.771878940159091 4.4601893399266226 5.1833215000000026 15.369822399999999 60.342976510936758 18.729326171930285 18.94805697457419 12.4868808 8.7919240000000034 0.55230894044626166 0.027176025869128095 -19.781947999999996 16.733000000000121 4.5179402788999203 0.6654466810846793 3180.0758200990804 48.664662068115952 17.455185639674578 11.500000000000002 0.58127143460237207 64.738590000000002 18.500000000000004 0.062281416446405079 0.24780701754385967 6.7367999999999997 57.605214000000011 4.0796565999999936 0.5068946666666686 4.616635599999996 0.25320512820512825 40.748367046779656 7.5000000000000009 -15.1353414 1.2890420000000022 29.135303800000003 57.786024898518114 1.5602478576072165 2.5242620000000078 2.151032666666667 31.487961315986023 34.067636598015874 1535.0330000000004 1.0199999999999878 -4.7950350000000048 0.050801329200595179 0.043441525116199017 846.26650000000006 2014.6835000000003 1309.8330000000003 71.859427500000024 59.656570000000009 1.5854381522997716 -2.0445600000000002 0.48062529798638071
decision_type=2 2 2 2 2 2 2 2 2 2 2 2 2 2 2 2 2 2 2 2 2 2 2 2 2 2 2 2 2 2 2 2 2 2 2 2 2 2 2 2 2 2 2 2 2 2 2 2 2 2 2 2 2 2 2 2 2 2 2 2 2 2 2 2 2 2 2 2 2 2 2 2 2 2 2 2 2 2 2 2 2 2 2 2 2 2 2 2 2 2 2 2 2 2 2 2 2 2 2 2 2 2 2 2
left_child=1 4 8 6 10 13 18 29 25 15 45 -8 27 87 20 37 19 -18 26 39 43 -21 -19 32 31 88 -4 40 38 -5 -7 65 55 34 -26 -29 -20 61 -27 -13 -10 -36 51 44 -12 46 75 73 -49 50 -45 58 70 62 -39 56 -14 -25 98 74 82 64 -44 95 -6 66 -11 -34 69 -42 71 72 80 -33 102 79 -62 -71 -63 -1 81 101 -54 -23 85 -80 92 -3 89 -2 91 -81 -51 -61 -95 -64 -92 -98 -43 -15 -89 -16 -47 -76
right_child=2 5 3 7 9 30 11 -9 12 24 14 16 23 99 52 -17 17 22 36 21 -22 83 -24 57 33 28 -28 35 -30 -31 -32 47 67 -35 41 -37 -38 54 -40 -41 68 42 53 49 -46 59 -48 48 -50 86 -52 -53 60 -55 -56 -57 -58 -59 -60 93 76 78 63 -65 -66 -67 -68 -69 -70 77 -72 -73 -74 -75 103 -77 -78 -79 84 90 -82 -83 -84 -85 -86 -87 -88 100 -90 -91 96 -93 -94 94 -96 -97 97 -99 -100 -101 -102 -103 -104 -105
leaf_value=0.051097181299362998 -0.33506724765223844 0.18742907841681225 0.064412518062437377 -0.49133418544614754 -0.15799099117174442 0.45276147784870896 -0.23907556638043609 -0.9111870375500789 0.013459954553882018 0.29311800357841311 -0.044012320933661343 -0.51092280459033979 0.031179701637023004 0.22956415175544648 0.094133031781223231 0.10016076261113431 -0.56902284160326244 0.050215948830682339 -0.19162860775602433 -0.29431199066771097 0.24420503956599135 -0.36177687952003762 -0.2892396510917396 -0.39589917827725762 0.087017541951689786 -0.2618235260282718 -0.21266111386808523 0.15726836063901301 -0.14522304736130626 -0.73217665211270477 0.5489014671439304 0.02196295450550155 -0.37814836849693129 0.11392648926536462 0.079395693397153549 -0.070711581937926801 -0.48253914021310357 0.04731489782370854 -0.45372550063203554 -0.22256510475816316 -0.2894903672672523 -0.05758111155654301 -0.049182005147708811 -0.19318977748955193 0.17933590892667395 0.18604286622598065 0.31484200129272244 0.19702514590506423 -0.041714881134217417 -0.015518518455713384 0.008264154974146341 0.097480725600299509 0.069375948494941733 0.0028517156552933724 -0.13484296976847251 -0.19251815242353901 -0.13352739629291355 -0.16864549846513899 0.033103611860174978 0.08577022129701356 -0.063721837511257359 -0.10132288445352883 -0.15198815577423494 -0.094561158293335085 0.016066392108835943 0.045427226422901451 0.079073046489142915 -0.13550302601649258 -0.047118192787465152 -0.18489228580787456 0.034213994456405501 0.028894033157491807 0.076324145389095724 -0.14604613967332297 0.10170524951838354 0.030206748175318598 0.074293821129109233 -0.024131149058723041 -0.12497455191396967 0.12872789011579033 0.11078502257625668 0.2700199746627604 0.2121239824159771 -0.66557894800441253 -0.11315843551739505 -0.29226329513143928 -0.065525249303448899 0.28794630674628646 -0.14461222831354575 -0.17183359715025903 0.18137819778182387 0.25724908268004465 0.08455796356856321 0.22824465578961597 0.11072333486537549 -0.31893522501569105 0.039424230792613278 0.14867856078357547 -0.15750354408900788 0.37065293613416844 0.1981039323110689 0.18349497761289543 0.34605025094766123 0.21038633604203499
leaf_weight=45 64 111 36 176 47 1430 53 401 38 41 36 244 51 49 50 42 142 35 44 36 36 33 34 96 54 79 48 35 35 113 430 33 32 47 38 46 41 42 286 32 58 33 52 58 46 33 35 39 38 37 54 40 56 39 37 57 41 35 45 34 38 50 35 60 32 38 34 32 38 34 34 32 52 33 32 40 50 39 37 60 59 144 35 704 39 115 32 630 52 52 38 70 58 89 46 34 57 47 35 865 83 38 121 33
leaf_count=45 64 111 36 176 47 1430 53 401 38 41 36 244 51 49 50 42 142 35 44 36 36 33 34 96 54 79 48 35 35 113 430 33 32 47 38 46 41 42 286 32 58 33 52 58 46 33 35 39 38 37 54 40 56 39 37 57 41 35 45 34 38 50 35 60 32 38 34 32 38 34 34 32 52 33 32 40 50 39 37 60 59 144 35 704 39 115 32 630 52 52 38 70 58 89 46 34 57 47 35 865 83 38 121 33
internal_value=0 0.252387 -0.490026 -0.614705 0.0678858 0.402391 -0.530032 -0.789081 -0.261986 -0.0439964 0.146169 -0.565949 -0.174701 0.320808 0.0968979 -0.131657 -0.578224 -0.434157 -0.238975 -0.603979 0.0229324 -0.641799 -0.12842 -0.242867 0.00707584 -0.355617 -0.0980076 -0.0892118 -0.397402 -0.601301 0.477059 0.0826403 -0.169056 -0.0312927 -0.0475535 0.0323955 -0.359265 -0.157476 -0.418201 -0.484168 -0.136387 -0.0664994 -0.0826619 -0.00669146 0.0854409 0.204382 0.162668 0.0146975 0.0855229 -0.0399906 -0.101305 -0.0163304 0.140935 -0.126685 -0.0419226 -0.108832 -0.0464108 -0.347455 -0.0602793 0.242685 0.0792151 -0.184362 -0.153747 -0.190837 -0.091825 0.162321 0.211984 -0.283443 -0.169373 -0.200311 0.166029 0.177038 0.189904 -0.0679066 0.284756 0.141676 0.0141389 -0.109294 -0.211012 0.154674 0.207758 0.228191 0.136189 -0.655688 -0.234823 -0.259279 0.0164782 0.268995 -0.243591 -0.276586 0.169944 0.208097 0.04703 0.178502 0.196096 -0.257197 0.126394 0.0955186 -0.119601 0.364993 0.279633 0.144062 0.321877 0.172871
internal_weight=0 6532 3372 2172 2934 3598 1482 690 1200 1209 1725 1313 632 1738 945 441 1260 211 169 1049 357 773 69 344 768 568 84 288 400 289 1860 256 213 512 465 81 85 399 365 276 207 411 373 321 82 780 392 143 77 239 112 153 588 220 79 149 92 131 113 388 179 320 181 129 79 113 75 64 169 131 409 375 343 66 219 357 88 73 241 317 291 232 91 737 191 152 127 824 168 116 272 130 95 169 135 69 142 104 68 914 713 88 154 65
internal_count=9904 6532 3372 2172 2934 3598 1482 690 1200 1209 1725 1313 632 1738 945 441 1260 211 169 1049 357 773 69 344 768 568 84 288 400 289 1860 256 213 512 465 81 85 399 365 276 207 411 373 321 82 780 392 143 77 239 112 153 588 220 79 149 92 131 113 388 179 320 181 129 79 113 75 64 169 131 409 375 343 66 219 357 88 73 241 317 291 232 91 737 191 152 127 824 168 116 272 130 95 169 135 69 142 104 68 914 713 88 154 65
is_linear=0
shrinkage=0.023


Tree=5
num_leaves=106
num_cat=0
split_feature=38 27 38 66 38 38 27 19 66 16 66 66 49 66 13 62 13 38 66 38 27 19 13 20 13 66 66 34 22 66 38 38 19 6 20 13 34 24 61 61 20 62 66 16 66 58 63 52 57 29 10 41 66 49 19 13 66 38 32 28 49 46 39 19 0 8 20 11 27 63 13 46 19 27 66 0 49 10 27 16 12 37 10 16 11 51 18 28 19 24 49 64 21 18 42 29 24 61 49 28 19 32 13 13 66
split_gain=2.21953e+06 326048 171231 76880.2 47705.4 46807.1 37559.9 25994.1 20820.3 20334.7 12868.4 11340.9 9619.3 9457.69 10603.6 7944.01 6981.62 6971.19 10498 6011.28 5942.01 5498.54 5039.68 4720.58 4679.36 4366.46 3404.11 3046.66 3045.21 3019.07 2840.67 2817.28 2810.51 2991.76 2716.34 2583.08 2517.26 2443.21 2227.01 2307.24 2168.25 2002.39 1954.72 2274.26 1924.19 1922.21 1765.46 3577.34 1716.95 2122.3 1680.56 1650.21 2496.07 1644.42 1667.91 1642.76 1560.82 1455.03 1424.69 2067.48 1403.37 1300.96 1292.2 1726.31 1158.86 1142.15 1120.78 1071.37 1179.14 1069.07 1060.01 1058.83 1054.82 1044.36 1037.23 1002.08 996.979 991.834 989.97 877.744 857.654 664.648 631.818 551.527 503.578 488.307 472.692 441.031 412.626 345.261 342.248 332.258 314.221 311.757 300.443 294.637 291.805 645.367 284.265 247.75 210.313 181.238 124.771 101.785 96.8405
threshold=64.540331731007868 15.081202499999998 74.679550658644089 6.1659999999998556 86.842186139694391 55.911892662226457 27.643350000000002 -11.0797218 1.0989999999999613 -6.2067424999999981 1.7999999999998411 2.2669999999998276 1.6000000000000119 1.249500000000012 75.727837500000021 4.5000000000000009 67.25412750000001 99.44406933773756 2.7000000000003301 49.03173019641202 22.705882500000005 7.5994800000000007 54.114060000000009 -16.482587999999996 58.141072500000014 3.7660000000004179 0.83300000000087959 0.051315789473684217 1.0000000180025095e-35 1.1340000000000006 60.592300758544525 94.751163814476016 12.66888 35.144371389705888 5.294327 92.815275000000014 0.10960960960960962 0.61591148577449961 0.46267285002510039 0.49598821843714641 14.861644800000002 18.500000000000004 3.5660000000001451 8.9841500000000014 0.59999999999962494 -0.93303626666275541 36.226890000000012 2.2874827424748769 -0.13521803583854355 2.0841446499048093 -54.187958999999999 47.333338000000005 3.0014999999998513 1.0199999999999878 5.446245000000002 56.529742500000005 1.0675000000000063 89.711934750581662 0.053502236848216575 19.950962000000004 1.9936000000000378 30.500000000000004 -0.29553568417421089 11.707657500000005 39.685380000000009 13.838460264643826 -12.611823999999997 25.826624400000004 3.9643275 44.695297500000017 68.631570000000011 12.500000000000002 1.8482100000000019 1.9712175000000018 1.965999999999948 43.317907500000011 1.6751250000000222 -0.81952500000000039 2.6902575000000017 5.1833215000000026 30.73388315629493 0.61152570480928703 10.477845 -8.7318192499999956 -19.265589999999996 47.217000000000105 17.709047207889903 13.892332000000005 8.1444825000000041 0.2991228070175439 2.1201999999999885 63.430785220000011 8.5000000000000018 16.957778553193993 2.5242620000000078 0.95441670856138938 0.51123737373737377 0.78725600010430752 1.247000000000035 23.642682000000004 -4.9435574999999963 0.035030557397130326 82.711230000000015 64.261207500000012 0.39999999999998975
decision_type=2 2 2 2 2 2 2 2 2 2 2 2 2 2 2 2 2 2 2 2 2 2 2 2 2 2 2 2 2 2 2 2 2 2 2 2 2 2 2 2 2 2 2 2 2 2 2 2 2 2 2 2 2 2 2 2 2 2 2 2 2 2 2 2 2 2 2 2 2 2 2 2 2 2 2 2 2 2 2 2 2 2 2 2 2 2 2 2 2 2 2 2 2 2 2 2 2 2 2 2 2 2 2 2 2
left_child=1 5 8 4 9 13 20 31 22 27 -11 15 37 14 24 16 26 18 66 76 29 45 75 -12 60 32 55 -4 -21 99 34 83 33 80 79 -8 90 72 93 -40 -38 48 43 58 70 -17 -41 -48 49 61 -5 52 69 -46 92 -7 -47 -52 62 -60 87 -13 71 95 -27 -54 -9 68 -58 -50 103 -30 77 -53 -45 -2 85 -10 -23 -28 -14 -49 -56 -6 -44 89 -80 -1 100 -15 -25 -73 -55 -35 -31 -64 97 -74 -32 -3 -78 -75 -16 -26 -22
right_child=2 6 3 50 7 11 35 17 12 10 23 41 25 19 102 21 -18 -19 -20 28 104 78 -24 36 44 64 30 -29 42 94 98 -33 -34 38 -36 -37 40 -39 39 46 -42 -43 84 74 53 56 47 81 51 -51 57 73 65 54 82 -57 67 -59 59 -61 -62 -63 63 -65 -66 -67 -68 -69 -70 -71 -72 91 96 101 -76 -77 88 -79 86 -81 -82 -83 -84 -85 -86 -87 -88 -89 -90 -91 -92 -93 -94 -95 -96 -97 -98 -99 -100 -101 -102 -103 -104 -105 -106
leaf_value=-0.21419605727173194 -0.47233682614863792 0.22583389848185462 -0.0020776668609347251 0.060587645825885592 -0.18008697275201388 -0.34329461672634998 0.4424008579684981 -0.51017289367149288 -0.20816145618356965 -0.61397842805641678 -0.17598039528285114 0.23025195414574234 0.089235011601852168 0.104996223798849 0.18739426485768837 0.16509661772194051 0.10581397466006734 -0.94107275123961043 -0.46903195193879299 -0.026667916143709912 0.23805774185347919 -0.044656469443949257 -0.1781848708961995 -0.35321925382245373 -0.093938103546487531 -0.038803663629915268 -0.058811029473354093 -0.26480186944868273 -0.014740360954790624 0.2165013889294857 -0.28818830445823568 -0.55665040247579611 -0.2835508554208509 -0.32309313255859073 0.087730922824652877 0.53648749982577404 -0.55039048468054863 -0.38762793660761857 0.057606966966151064 -0.22854383746895987 -0.25207530905732595 0.20568962457537943 0.11844384150830567 -0.0633841483050024 -0.025829773496749791 -0.087149347365141683 0.085075745028075259 -0.23348019534444556 0.051579582384010302 -0.03486505526317403 -1.6614927045890698e-06 0.024157519347445911 0.042682587078639443 0.11782810997489274 -0.012196576461421233 -0.13889992034150109 0.0033710816905544558 -0.18134265419284296 -0.046261515254906148 0.14974180483845864 0.0063717277925348188 0.041350679010082367 0.14224219366166849 0.039798099512590224 0.14042931262925079 0.22474120518485802 -0.80639549483014017 -0.060015631892905597 0.14346836653880743 -0.10377342665461656 0.065592704593827753 0.18459992513649218 -0.35514307766369602 -0.059127474200638963 0.080178319506748266 -0.26680211265881859 0.20871870773295834 -0.058551660008001973 -0.24635544078634278 -0.20142266956998733 -0.052280494424979215 -0.069121627467885874 0.10663555588511472 -0.39286986178706956 0.27024671534580752 0.11486625591978958 -0.099517433572214584 -0.084764727249768995 0.17680804633325148 0.23187809087717759 -0.17724813704296916 0.064196084314555868 0.25909237059049833 -0.15590081418165447 0.31124899437456821 0.25805081862925311 -0.14932761013356177 -0.15769199897314759 -0.14507680989474228 0.14995546756223188 0.32798628084742687 -0.15700999019492143 0.35512305601626698 -0.029169940810659611 0.37736703989554726
leaf_weight=35 230 186 39 41 36 92 1430 58 71 537 54 51 34 33 40 47 41 258 113 57 52 46 60 58 35 32 63 52 32 100 43 175 60 33 39 430 151 93 35 63 35 34 35 40 40 55 42 35 35 38 40 40 41 38 39 46 60 50 46 57 42 35 51 33 32 34 446 32 62 47 46 37 65 34 54 50 73 45 38 40 43 32 47 33 78 69 39 47 64 143 37 34 40 40 641 125 32 32 45 114 142 32 39 34 645
leaf_count=35 230 186 39 41 36 92 1430 58 71 537 54 51 34 33 40 47 41 258 113 57 52 46 60 58 35 32 63 52 32 100 43 175 60 33 39 430 151 93 35 63 35 34 35 40 40 55 42 35 35 38 40 40 41 38 39 46 60 50 46 57 42 35 51 33 32 34 446 32 62 47 46 37 65 34 54 50 73 45 38 40 43 32 47 33 78 69 39 47 64 143 37 34 40 40 641 125 32 32 45 114 142 32 39 34 645
internal_value=0 0.24672 -0.479226 -0.597822 -0.631722 0.0664987 0.393243 -0.737095 -0.250434 -0.50463 -0.538835 -0.0430846 -0.184735 0.143174 0.0602138 -0.094281 -0.163665 -0.799063 -0.729335 0.178572 0.313554 -0.0176671 -0.401414 -0.40779 0.0144776 -0.11576 -0.195224 -0.160956 0.130855 0.273706 -0.133709 -0.498025 -0.142633 -0.113679 -0.0642985 0.466177 -0.446673 -0.278303 -0.147821 -0.102792 -0.506014 0.0526615 0.145468 0.122865 0.0609603 0.0430914 -0.136576 -0.0722137 0.0355996 0.10353 -0.0539742 0.00155565 0.0481637 0.102208 0.133341 -0.285723 0.0109025 -0.10703 0.145674 0.0647295 -0.101669 0.162871 0.170233 0.203804 0.0556927 0.138109 -0.780122 0.0484229 0.0788262 -0.0384108 -0.0137548 0.0929264 -0.226698 -0.0659294 0.0186956 -0.443426 0.237713 -0.157212 -0.13963 -0.124068 0.0122503 -0.169794 0.0557622 -0.310006 0.23346 0.189825 -0.187314 -0.153261 0.273772 0.213342 -0.302447 0.138596 0.206514 -0.254269 0.30073 0.231619 -0.277247 -0.305821 -0.231966 0.201322 0.295778 -0.11781 0.293499 -0.0681691 0.369582
internal_weight=0 6532 3372 2213 2082 2934 3598 1119 1159 963 872 1209 819 1725 522 788 409 875 617 1203 1738 379 340 335 443 481 368 91 679 1041 230 244 417 357 142 1860 281 338 280 207 186 421 622 509 319 256 172 109 387 124 131 263 157 204 164 138 209 90 415 103 124 86 312 209 64 75 504 154 122 82 115 103 245 106 94 280 524 116 123 103 77 67 86 69 113 245 77 82 279 176 95 71 78 73 741 176 129 97 88 300 215 66 79 69 697
internal_count=9904 6532 3372 2213 2082 2934 3598 1119 1159 963 872 1209 819 1725 522 788 409 875 617 1203 1738 379 340 335 443 481 368 91 679 1041 230 244 417 357 142 1860 281 338 280 207 186 421 622 509 319 256 172 109 387 124 131 263 157 204 164 138 209 90 415 103 124 86 312 209 64 75 504 154 122 82 115 103 245 106 94 280 524 116 123 103 77 67 86 69 113 245 77 82 279 176 95 71 78 73 741 176 129 97 88 300 215 66 79 69 697
is_linear=0
shrinkage=0.023


Tree=6
num_leaves=107
num_cat=0
split_feature=38 27 38 66 38 38 27 28 66 16 66 66 66 66 13 49 62 13 38 27 13 27 38 66 39 16 34 34 38 22 38 20 13 28 18 57 66 11 23 38 62 66 16 66 42 28 20 57 29 63 1 66 49 66 18 32 28 14 2 49 9 6 5 57 12 8 39 63 13 38 61 27 66 0 13 49 16 20 16 10 42 13 10 51 13 62 66 13 11 51 55 24 13 33 0 66 1 13 24 33 32 13 28 28 32 20
split_gain=2.12221e+06 311200 163550 74451.7 44872.3 42851.4 35819.8 25243.2 22000 19748.8 15736.6 10892.3 10801.1 9046.21 10197.9 8481.39 7614.43 6707.2 5746.32 5679.05 4498.84 4185.98 4009.45 3931.59 3657.15 3595.27 3229.89 3177.65 3133.49 2920.48 2730.44 2611.02 2499.2 2447.58 2407.49 2363.64 2147.79 2100.16 2003.71 1984.89 1928.01 1875.68 2180.87 1850.9 1815.29 2673.89 1799.35 1648.31 2039.12 1632.55 1589.55 2400.42 1581.08 1547.72 1538.5 1365.01 1984.69 1552.54 1355.71 1350.63 1278.21 1158.35 2630.67 1140.7 1130.85 1099.51 1057.15 1027.63 1023.7 1015.54 1009.4 1005.42 996.396 982.79 967.758 953.676 942.191 925.22 844.888 805.703 716.604 706.441 682.293 917.049 632.946 610.224 566.035 1661.59 477.936 465.35 372.715 324.755 299.989 293.201 242.423 224.224 220.383 186.049 167.336 163.794 144.115 119.766 78.9275 84.9574 27.7425 19.1033
threshold=64.540331731007868 15.081202499999998 75.043074199013304 6.1659999999998556 55.911892662226457 86.842186139694391 27.643350000000002 15.761516 1.5670000000000217 -6.2067424999999981 1.2255000000001248 2.2669999999998276 1.8335000000001858 1.249500000000012 75.727837500000021 1.6000000000000119 4.5000000000000009 65.035372500000008 49.03173019641202 21.111615000000004 58.141072500000014 13.721610000000007 68.593714408366779 0.83300000000087959 0.0060719921429222149 -1.0000000180025095e-35 0.15319426336375494 0.051315789473684217 99.44406933773756 1.0000000180025095e-35 60.592300758544525 5.294327 91.658805000000015 15.044286000000003 8.1337529891911782 0.057610304282439427 0.90000000000020475 14.958748800000004 0.58086312118570194 66.142104361102724 18.500000000000004 3.5660000000001451 8.9841500000000014 0.59999999999962494 22.594802000000001 25.102098000000005 -9.2096751999999977 -0.13521803583854355 2.0841446499048093 98.439975375000003 47.333338000000005 3.0014999999998513 1.0199999999999878 3.3159999999999177 15.682740455598355 0.053502236848216575 19.950962000000004 49.405502000000006 1497.0500000000004 1.341575000000012 15.857452089692138 36.195040291666679 28.500000000000004 -0.16762532384018838 32.980054914485329 13.838460264643826 0.62771019332847133 44.695297500000017 64.501237500000016 52.553527329604727 0.82622749389561478 1.9712175000000018 1.965999999999948 57.556275000000007 51.52906500000001 1.6751250000000222 -5.9308549999999949 -5.7363099999999987 5.1833215000000026 1.2107025000000073 2.5242620000000078 55.617450000000012 10.477845 43.533500000000011 42.170782500000008 3.5000000000000004 1.1340000000000006 74.555565000000016 -19.265589999999996 47.217000000000105 -1.0000000180025095e-35 0.2991228070175439 70.704007500000003 1.5000000000000002 54.038775000000008 1.2000000000003868 52.92623600000001 48.945382500000008 0.63548951048951052 1.5000000000000002 0.042645292607168164 82.711230000000015 22.837494000000003 28.731530000000006 0.031042232642751251 -13.592383999999994
decision_type=2 2 2 2 2 2 2 2 2 2 2 2 2 2 2 2 2 2 2 2 2 2 2 2 2 2 2 2 2 2 2 2 2 2 2 2 2 2 2 2 2 2 2 2 2 2 2 2 2 2 2 2 2 2 2 2 2 2 2 2 2 2 2 2 2 2 2 2 2 2 2 2 2 2 2 2 2 2 2 2 2 2 2 2 2 2 2 2 2 2 2 2 2 2 2 2 2 2 2 2 2 2 2 2 2 2
left_child=1 4 8 5 13 9 19 10 21 27 -7 16 -11 14 20 39 17 23 75 36 59 34 33 81 -12 37 105 -4 -9 -20 31 78 -8 -17 -2 64 102 38 -18 -10 47 42 55 68 45 54 -26 48 58 60 51 67 -45 61 -27 57 -57 66 -13 -1 -5 -24 -63 84 -35 -53 98 -49 -22 -61 79 -52 -44 -59 -65 89 -48 -47 -25 -41 -38 -6 90 -84 -36 -23 87 -21 -43 91 -54 -15 -70 -32 -79 -87 99 -73 104 -77 -81 -16 -3 -104 -31 -14
right_child=2 6 3 49 11 7 32 28 15 12 24 40 26 18 101 22 25 -19 29 86 43 85 53 30 46 44 -28 -29 -30 41 93 -33 -34 35 63 -37 80 -39 -40 70 -42 88 72 52 -46 77 76 50 -50 -51 71 65 82 -55 -56 56 -58 73 -60 69 -62 62 -64 74 -66 -67 -68 -69 92 -71 -72 97 -74 -75 -76 96 -78 94 -80 100 -82 -83 83 -85 -86 95 -88 -89 -90 -91 -92 -93 -94 -95 -96 -97 -98 -99 -100 -101 -102 -103 103 -105 -106 -107
leaf_value=-0.18964887540235306 -0.39405794003848221 0.19113048454728915 0.0097311735556841437 -0.0080645260283055201 -0.3467822765966504 -0.85236275340677681 0.42996621228656368 -0.73791779892513021 -0.070101776683451869 -0.60013090878213804 -0.58346628596005468 0.24801561182699547 -0.17711292000746492 0.10301875293827975 0.1837493883801061 -0.12422853121072007 0.21069405560267288 0.07714781864059013 -0.026124186106779343 0.13094930305489905 -0.10116888549548901 -0.46823296312288737 -0.054991362420264311 -0.057598835699747761 -0.20380012685834373 0.13759004325806343 -0.47796151354356414 -0.25946117962231552 -0.94298102695033414 0.15045439589826212 -0.26800294412398656 0.086031252779752987 0.51770502475591806 0.21291760783387131 -0.047434558401636732 -0.056202053379598965 0.1847122560014906 -0.064266623039222509 -0.0040961584603814655 -0.38171900250559959 0.2017949711399708 0.11618976973684123 -0.06215130548569793 -0.025327375756446703 -0.18176862873605099 -0.01445690189089094 -0.25885171146979169 0.050597986064622305 -0.034192380152527603 0.033502972615359665 0.023687646451384523 0.041849260337295989 0.022061491514597069 -0.036470314495226482 -0.039314631528673122 -0.045343229708595528 0.14668874749592267 -0.017678282592284468 0.058880139642987425 0.038064779278713004 -0.19980630168904498 -0.3183478284750838 -0.079684380672292734 -0.2951188934811324 0.031809540125839496 0.22048581143412696 0.066709733875987026 -0.10170751314747455 -0.0082269314884962069 -0.1157815963748499 -0.15151691022443947 -0.054817124149612803 0.078553823136631853 0.12859252733800464 -0.11151936837128404 0.1599471231224768 -0.47597236287551375 -0.19691260510449046 -0.19750493388347343 -0.26125167831558005 0.28946302373045352 -0.17467704969381101 0.090821883916639298 0.26489847263686417 -0.19070245017255733 -0.37021565245218119 0.3681905407454007 0.31757668893415847 0.26456297948869145 0.1124770982409211 0.12085955791981279 0.22680392506474123 0.076839169508865754 -0.12286929999073742 -0.079572974833824445 -0.20329431167752063 0.14740489710583055 -0.1524539249053013 0.12760469886536688 0.29490030571875447 -0.12550734315557457 0.34824302690847908 0.062424583199976659 0.1457722167300971 0.26871120274915994 -0.31414599903741569
leaf_weight=46 80 98 37 32 81 88 1359 451 32 529 147 40 38 33 40 56 57 51 57 46 38 179 33 63 47 48 168 52 226 38 55 39 501 35 38 59 94 34 35 82 34 35 40 40 50 41 48 35 38 60 40 41 45 50 44 46 57 32 46 43 39 62 48 116 38 34 34 47 41 35 47 32 54 74 32 36 112 36 40 40 567 47 48 33 35 60 666 202 78 69 38 143 36 33 34 45 35 34 36 208 33 39 32 33 98 98
leaf_count=46 80 98 37 32 81 88 1359 451 32 529 147 40 38 33 40 56 57 51 57 46 38 179 33 63 47 48 168 52 226 38 55 39 501 35 38 59 94 34 35 82 34 35 40 40 50 41 48 35 38 60 40 41 45 50 44 46 57 32 46 43 39 62 48 116 38 34 34 47 41 35 47 32 54 74 32 36 112 36 40 40 567 47 48 33 35 60 666 202 78 69 38 143 36 33 34 45 35 34 36 208 33 39 32 33 98 98
internal_value=0 0.241168 -0.468686 -0.587743 0.0650973 -0.621751 0.384316 -0.72072 -0.250921 -0.496894 -0.564245 -0.0421969 -0.531725 0.140171 0.0590313 -0.151993 -0.0923708 -0.160301 0.174791 0.306489 0.0141778 -0.351728 -0.082373 -0.195056 -0.476784 -0.0173602 -0.401335 -0.155057 -0.815736 0.128131 -0.131067 -0.0630136 0.455543 -0.00573208 -0.277261 0.0482498 0.256822 0.0800761 0.134455 -0.259333 0.0516353 0.142442 0.1203 0.0597562 -0.066859 -0.0331196 -0.383623 0.0348929 0.101451 -0.0528794 0.00153432 0.0472791 0.100211 -0.153984 0.0560815 0.142636 0.0633934 0.166677 0.159619 -0.0997044 -0.12249 -0.191152 -0.22584 -0.223633 0.130391 0.135485 0.203752 -0.0376195 -0.0135174 -0.0346999 -0.28571 -0.0646976 0.0182882 0.0859384 -0.262678 0.232619 -0.425111 -0.106145 -0.121615 -0.317613 0.276781 -0.296592 0.130739 0.178039 -0.127503 -0.421646 0.348852 0.287785 0.228637 0.185764 0.0736628 0.208747 0.0344813 -0.2274 -0.153114 -0.316748 0.267897 -0.115602 0.226894 0.280305 -0.217163 0.28781 0.167351 0.115504 0.245177 -0.286991
internal_weight=0 6532 3372 2172 2934 2041 3598 1119 1200 922 442 1209 833 1725 522 615 788 409 1203 1738 443 585 381 358 354 379 304 89 677 679 230 142 1860 188 301 132 824 126 92 234 421 622 509 319 253 203 207 387 124 131 263 157 204 193 92 415 103 312 86 124 71 143 110 221 73 75 206 82 115 78 202 106 94 106 148 524 160 111 103 155 661 128 164 81 73 284 914 248 113 245 83 176 77 88 70 105 279 66 172 244 73 79 163 65 136 136
internal_count=9904 6532 3372 2172 2934 2041 3598 1119 1200 922 442 1209 833 1725 522 615 788 409 1203 1738 443 585 381 358 354 379 304 89 677 679 230 142 1860 188 301 132 824 126 92 234 421 622 509 319 253 203 207 387 124 131 263 157 204 193 92 415 103 312 86 124 71 143 110 221 73 75 206 82 115 78 202 106 94 106 148 524 160 111 103 155 661 128 164 81 73 284 914 248 113 245 83 176 77 88 70 105 279 66 172 244 73 79 163 65 136 136
is_linear=0
shrinkage=0.023


Tree=7
num_leaves=104
num_cat=0
split_feature=38 38 38 66 0 38 38 19 66 16 66 66 43 49 66 62 38 66 13 13 62 19 66 43 38 19 57 66 34 34 13 38 38 20 13 28 57 18 13 62 19 66 38 62 58 36 0 19 38 7 57 29 1 66 66 19 13 43 43 66 6 2 24 32 57 20 37 8 8 63 61 13 32 0 11 38 16 31 63 6 16 11 28 66 2 16 64 55 53 58 49 32 8 32 38 49 11 13 13 32 38 20 58
split_gain=2.02925e+06 296757 156083 71131.9 50212.1 41010.2 30373.4 24066.3 21042.3 18831.7 10466 10255.5 8459.06 8143.49 7946.88 7299.37 6557.59 9935 6465.23 5895.69 6053.88 5175.9 4108.88 3981.22 3852.38 3406.8 3679.18 3121.89 3069.89 3051.29 2834.52 2692.09 2622.46 2509.78 2447.69 2351.77 2272.56 2126.02 2075.75 1970.98 1926.18 1919.89 1901.11 1855.91 1832.86 1640.08 1598.1 1601.74 1594.35 1589.24 1583.99 1960.69 1530.93 2308.44 1510.19 1492.75 1490.98 1423.42 1405.53 1306.71 1667.47 1303.69 1217.63 1224.86 1172.87 1153.49 1127.37 1058.47 1047.2 988.588 965.664 946.622 926.342 895.354 885.496 848.496 813.255 710.731 709.352 643.659 800.213 638.677 635.651 2232.77 614.291 552.014 537.641 532.095 527.767 481.935 466.251 395.835 343.686 324.228 320.381 292.744 254.328 174.541 86.9357 47.3228 19.1097 10.8911 7.21918
threshold=64.540331731007868 46.153201098928143 75.043074199013304 6.1659999999998556 75.195277500000017 86.842186139694391 55.911892662226457 -11.0797218 1.5670000000000217 -6.2067424999999981 2.2669999999998276 1.8335000000001858 20.938207500000001 1.6000000000000119 1.6989999999997141 4.5000000000000009 99.44406933773756 2.7000000000003301 67.25412750000001 75.727837500000021 3.5000000000000004 7.5994800000000007 1.1329999999998679 66.283350000000013 68.593714408366779 9.8138250000000067 -1.0000000180025095e-35 0.83300000000087959 0.15319426336375494 0.051315789473684217 82.084905000000006 94.751163814476016 60.592300758544525 5.294327 43.766310000000011 15.044286000000003 0.057610304282439427 8.1337529891911782 64.501237500000016 7.5000000000000009 4.5246599999999981 3.131999999999906 66.142104361102724 18.500000000000004 -0.93303626666275541 0.5819598103409348 56.961135000000006 3.5230649999999959 89.711934750581662 43.021171863555558 -0.13521803583854355 2.0841446499048093 47.333338000000005 3.0014999999998513 1.0000000180025095e-35 -7.0183575000000067 56.252647500000002 36.130552500000007 69.573630000000023 1.1989999999996714 47.581273208823539 1497.0500000000004 0.50138121546961345 0.041704485618984148 -0.16762532384018838 -12.611823999999997 0.54425125313283218 13.838460264643826 10.055556462881219 41.966820000000006 0.82622749389561478 11.377695000000001 0.043051136218623123 63.939225 -8.3158219999999989 60.129872309058491 5.1833215000000026 1.2513655567084243 69.437266500000007 56.677137708333341 5.1040324999999998 19.346329799999999 10.323590000000001 0.76699999999983259 960.71400000000028 -8.7318192499999956 53.59154800000001 -0.056169178563316373 2.806711267402799 0.15502496197718657 2.200000000000137 0.039131437265666154 9.5699744561473103 0.054998393097743715 36.783376722180449 1.247000000000035 20.283516000000009 67.25412750000001 94.229520000000022 0.056533596121040489 44.10586275457208 -13.592383999999994 -0.13246557666551814
decision_type=2 2 2 2 2 2 2 2 2 2 2 2 2 2 2 2 2 2 2 2 2 2 2 2 2 2 2 2 2 2 2 2 2 2 2 2 2 2 2 2 2 2 2 2 2 2 2 2 2 2 2 2 2 2 2 2 2 2 2 2 2 2 2 2 2 2 2 2 2 2 2 2 2 2 2 2 2 2 2 2 2 2 2 2 2 2 2 2 2 2 2 2 2 2 2 2 2 2 2 2 2 2 2
left_child=1 4 8 5 22 9 14 31 23 29 15 34 98 42 19 18 17 65 27 20 38 44 30 37 35 26 58 56 101 -4 73 85 33 76 -11 -15 45 -2 54 41 64 62 -10 50 -17 -37 47 -22 -5 79 51 61 53 69 -3 -46 -8 -24 -26 -57 89 -12 63 66 -39 -9 -16 -55 -48 -52 91 -50 75 -1 -56 -23 -29 -54 92 80 93 88 83 -25 -76 -7 -64 -88 -70 -61 -42 -44 -43 96 -75 -34 -41 -40 -6 -93 -96 -13 -90
right_child=2 6 3 48 12 7 10 16 13 11 43 28 -14 24 39 21 -18 -19 -20 -21 46 72 57 82 25 -27 -28 32 -30 -31 -32 -33 95 -35 -36 36 -38 40 97 49 90 78 70 -45 55 -47 68 -49 71 -51 52 -53 77 67 74 59 -58 -59 -60 60 -62 -63 86 -65 -66 -67 -68 -69 81 -71 -72 -73 -74 94 84 -77 -78 -79 -80 -81 -82 -83 -84 -85 -86 -87 87 -89 102 -91 -92 99 -94 -95 100 -97 -98 -99 -100 -101 -102 -103 -104
leaf_value=0.04641691769117904 -0.38265713071904128 -0.20920810409992027 0.0095442388665864485 0.031201133430004118 0.44161638882238596 -0.16891438666447206 -0.33101869113398724 -0.48625138160098025 -0.068788927810186043 -0.60812563091362337 0.2431916268626681 -0.17369577216967186 0.37016028062803086 -0.1217007851073339 0.14812568828728445 0.16101254870549092 -0.90104445168789915 -0.44586451620334205 0.10224186119579134 0.27417672640658147 0.099305315739665112 0.01002415342949004 0.30446305266059781 -0.42889403253965785 -0.23550022960068773 -0.31544543097590844 0.055143639345086794 -0.056411630519337889 -0.4674261865783132 -0.25422820130548429 0.33314680313380535 -0.53177146319040403 -0.27804881762439171 0.084364515304501064 -0.34192869283963201 0.2170098525350089 -0.055051733285053826 -0.025825113851931834 0 0.32192086185687102 -0.31460812910247299 0.18853335505125537 -0.37169850099415913 0.19797405746607583 0.13697710508744121 0.0048578820087141917 0.025966566939390517 -0.075093101913701263 -0.20208672673078895 0.051266427858401159 0.053296305997200116 -0.0335326887703363 -0.0004307156401681659 0.04103220246377446 0.033947590389954194 -0.10361192234972698 -0.13732183698827491 0.23315322615065207 -0.043351534935987028 0.15043022320118199 -0.067918769652133851 0.057711374542726589 -0.016178478482899585 0.21106157908238227 -0.19081315925518025 -0.77178592788470968 -0.014551863272065228 0.2163109936451508 0.085643774923840524 -0.096999108523997235 -0.14850052457872237 -0.031479013866406468 -0.20534778452894539 0.21465758573984769 -0.15601571967274869 -0.13946876155005564 -0.19366340008207911 -0.11654031347683944 0.26935065898965271 0.098853305366658081 0.14753951298135609 0.069682524113672983 -0.45281963492647898 -0.16054754189239565 -0.035649241038086095 -0.37417286835592378 0.0056915282445438838 0.13058402095666521 0.14938841128437119 0.02680415996847197 -0.15028539550607367 -0.15406810081685665 0.080574877059973696 0.14398535226628129 0.14628377280502727 -0.13824243157532201 0.16670811539987021 0.066683726977448315 0.52023159155910315 -0.2829196050929963 0.082484705008518108 -0.30742154239985564 0.26518422916377987
leaf_weight=48 81 38 37 62 987 36 90 58 32 476 40 38 1218 56 37 47 258 113 41 52 54 36 547 36 59 44 55 63 168 52 52 175 43 39 53 39 59 41 33 113 93 43 76 34 33 34 42 44 32 34 33 38 52 41 41 55 48 472 35 33 52 46 58 58 54 446 43 34 36 49 47 37 52 79 35 35 40 54 54 32 67 46 194 51 62 33 34 34 47 36 35 47 53 32 179 45 35 51 354 32 39 98 40
leaf_count=48 81 38 37 62 987 36 90 58 32 476 40 38 1218 56 37 47 258 113 41 52 54 36 547 36 59 44 55 63 168 52 52 175 43 39 53 39 59 41 33 113 93 43 76 34 33 34 42 44 32 34 33 38 52 41 41 55 48 472 35 33 52 46 58 58 54 446 43 34 36 49 47 37 52 79 35 35 40 54 54 32 67 46 194 51 62 33 34 34 47 36 35 47 53 32 179 45 35 51 354 32 39 98 40
internal_value=0 0.235747 -0.458384 -0.574694 0.359907 -0.607935 0.042249 -0.70475 -0.245643 -0.485796 -0.0413299 -0.519811 0.421097 -0.148886 0.117045 -0.0905126 -0.764316 -0.697239 -0.157023 0.05561 0.0323756 -0.0170673 0.247714 -0.344234 -0.0806663 -0.15086 -0.089648 -0.187396 -0.39263 -0.15192 0.178113 -0.475054 -0.128453 -0.0617545 -0.586516 -0.00554226 0.0473672 -0.272204 -0.0486483 0.168418 -0.221127 0.130855 -0.254066 0.050647 0.0418781 0.12791 0.100173 0.021008 -0.0518748 0.213915 0.0342196 0.0994665 0.0015162 0.0464108 -0.0923645 0.0104509 -0.274088 0.273348 -0.172462 -0.0176577 0.0249055 0.156506 0.0892262 0.134978 -0.126757 -0.746383 0.0665179 0.13291 0.134904 -0.0368444 -0.279884 -0.122667 -0.1354 0.148261 -0.0511376 -0.0695081 -0.119211 -0.0634816 0.196434 0.231843 0.245649 0.159651 -0.413214 -0.296437 -0.0871808 -0.29379 0.0342965 0.0750489 0.187332 0.0949667 -0.280379 -0.31111 0.13906 0.274872 0.163137 -0.222864 0.294925 0.0427571 0.465091 -0.226044 0.138015 -0.280969 0.219279
internal_weight=0 6532 3372 2172 3975 2041 2557 1119 1200 922 1209 833 2559 615 1348 788 875 617 409 621 569 379 1416 585 381 193 149 368 304 89 397 244 230 142 529 188 132 304 260 727 223 414 234 421 256 73 309 98 131 313 387 124 263 157 176 209 138 1019 94 176 121 86 264 138 95 504 80 75 211 82 202 69 123 345 138 71 103 106 150 279 247 169 281 87 97 69 126 68 123 69 128 155 96 180 297 88 148 84 1341 79 218 136 87
internal_count=9904 6532 3372 2172 3975 2041 2557 1119 1200 922 1209 833 2559 615 1348 788 875 617 409 621 569 379 1416 585 381 193 149 368 304 89 397 244 230 142 529 188 132 304 260 727 223 414 234 421 256 73 309 98 131 313 387 124 263 157 176 209 138 1019 94 176 121 86 264 138 95 504 80 75 211 82 202 69 123 345 138 71 103 106 150 279 247 169 281 87 97 69 126 68 123 69 128 155 96 180 297 88 148 84 1341 79 218 136 87
is_linear=0
shrinkage=0.023


Tree=8
num_leaves=118
num_cat=0
split_feature=38 27 27 66 0 38 38 38 19 16 66 66 66 66 66 13 49 19 13 13 43 28 38 13 18 13 58 13 62 62 49 19 49 38 22 66 36 66 20 0 66 16 62 66 65 34 35 34 63 66 19 51 66 7 13 66 7 16 9 51 9 23 32 55 19 65 0 49 27 8 20 28 19 0 16 65 1 58 37 16 19 27 12 2 20 19 13 1 38 30 19 53 21 13 1 38 49 53 0 51 51 10 13 51 13 8 55 20 39 28 66 16 42 38 61 38 19
split_gain=1.95082e+06 236107 213176 77920.2 35650.1 30134.9 28437.6 24883.8 21126.6 19592.2 16954.6 10936.4 9176.64 9093.56 8050.77 7983.3 7299.93 6110.05 6077.89 5292.06 5091.45 4977.57 4408.89 4255.9 3866.39 3447.62 3147.4 3031.54 4410.09 2968.8 2935.75 2886.41 3270.04 2879.56 2772.17 2619.86 2813.59 2511.84 2493.76 2346.38 2196.54 2330.1 2121.74 1986.29 1985.1 1963.02 1879.77 1843.33 1761.16 1714.47 2416.85 1634.92 1581.48 1468.81 1446.66 1445.51 2066.52 1410.96 1374.43 1672.02 1357.71 1605.34 1490.52 1355.03 1215.28 1197.62 1173.98 1154.59 1111.24 1100.6 1083.63 1633.34 1047.75 1582.02 1042.1 985.834 906.828 831.618 811.887 1873.28 790.036 778.626 747.274 730.483 716.744 712.785 697.546 672.866 647.595 580.857 557.633 553.265 540.396 527.274 435.448 411.764 407.771 399.045 388.986 351.144 494.624 474.335 305.999 322.325 292.608 268.469 216.189 214.786 148.198 119.421 111.477 103.879 98.0301 55.2961 55.0024 40.9806 5.04806
threshold=62.441971098461501 15.081202499999998 22.264462500000011 6.1659999999998556 78.801030000000011 91.346582400734462 71.676095438974642 55.911892662226457 -6.0851174999999946 -6.2067424999999981 1.1989999999996714 1.3979999999999679 2.1190000000001423 1.3979999999999679 1.2330000000001757 61.752600000000008 1.4910999999999635 14.418022499999994 41.151862500000007 62.319127500000015 87.989895000000004 16.038004000000008 49.03173019641202 80.399077500000018 22.901828342158446 91.658805000000015 -0.93303626666275541 65.357040000000012 4.5000000000000009 10.500000000000002 3.4966000000000013 11.580660000000007 1.6166250000000277 37.042938198062913 1.0000000180025095e-35 3.1669999999999736 0.5727513227513229 2.2989999999999982 -13.817497999999999 55.784190000000002 1.9029999999998959 10.189646250000004 10.500000000000002 1.6670000000005987 3414.8401279464788 0.089572192513368995 0.14119601328903655 0.16869918699186995 98.929226025000006 0.8634999999998173 4.6259324999999949 49.633500000000033 0.39999999999998975 34.401138511921197 79.497810000000015 2.3320000000000793 33.454492477777791 -0.77712249999999894 18.604799069663937 12.504500000000009 16.256457193871526 0.59663271080928137 0.043885753641515778 -0.43857468717062503 -1.0000000180025095e-35 4631.4557083633181 16.775429999999997 1.6250000000000762 3.1698449999999991 9.9124828014949475 13.764192800000007 31.380912000000006 9.9541050000000002 54.314767500000009 5.4037725000000014 3048.7472324840369 40.465406000000009 -0.15336833604067793 0.66904761904761911 2.6494475000000031 8.1444825000000041 9.1062300000000018 37.861037928573246 1162.4515000000004 2.0657719999999995 13.296160500000001 54.114060000000009 44.457992000000012 44.646179241754716 1.4976659083482862 3.856335000000009 26.90307298291286 5.5000000000000009 57.138112500000013 56.870576000000007 47.300097048830786 1.1466000000000238 15.674486917815962 59.765632500000002 47.217000000000105 7.1330000000002665 18.503100000000003 67.573852500000029 45.736499999999985 49.643107500000006 10.590214880960021 -0.078389414759995613 -1.988796000000004 -0.29553568417421089 11.146628000000002 1.6989999999997141 8.8746349999999996 2.903701999999996 37.539457924702269 0.56390740896110414 38.060696660500305 -4.9435574999999963
decision_type=2 2 2 2 2 2 2 2 2 2 2 2 2 2 2 2 2 2 2 2 2 2 2 2 2 2 2 2 2 2 2 2 2 2 2 2 2 2 2 2 2 2 2 2 2 2 2 2 2 2 2 2 2 2 2 2 2 2 2 2 2 2 2 2 2 2 2 2 2 2 2 2 2 2 2 2 2 2 2 2 2 2 2 2 2 2 2 2 2 2 2 2 2 2 2 2 2 2 2 2 2 2 2 2 2 2 2 2 2 2 2 2 2 2 2 2 2
left_child=1 7 6 5 33 9 10 14 21 24 19 18 57 27 15 39 26 30 -11 49 29 -7 67 69 -4 113 -12 28 91 45 35 32 58 52 -24 36 46 74 -14 97 41 72 53 88 -10 -13 -18 -37 66 86 76 84 54 -38 -3 75 -57 107 59 -15 62 82 -34 87 -41 -39 -5 99 -30 -17 71 85 73 -36 -33 -28 -51 -66 79 114 116 111 83 -62 -48 108 -2 -42 115 -60 -70 -9 -19 -75 -72 -45 -83 -1 -79 100 -16 -101 103 -98 -84 -59 -82 -8 -65 -54 -77 -71 -90 -6 -40 -35 -69
right_child=2 4 3 48 25 8 12 13 44 11 16 20 38 31 22 23 17 92 -20 -21 -22 -23 34 -25 -26 -27 55 -29 68 -31 -32 37 60 43 40 47 42 65 78 64 63 -43 -44 95 -46 -47 51 -49 -50 50 -52 -53 109 -55 -56 56 -58 105 89 -61 61 -63 -64 70 77 -67 -68 80 90 81 94 -73 -74 93 -76 110 -78 98 -80 -81 106 96 104 -85 -86 -87 -88 -89 112 -91 -92 -93 -94 -95 -96 -97 102 -99 -100 101 -102 -103 -104 -105 -106 -107 -108 -109 -110 -111 -112 -113 -114 -115 -116 -117 -118
leaf_value=-0.20768280407427053 -0.40611457975243365 0.048871269583073508 -0.29958999865935421 -0.1912038108231203 0.41127788270026966 -0.44548116370117063 -0.15638600227941996 -0.24077276537859782 -0.64565158027409464 -0.69519118145335212 -0.0088310453604442136 -0.3639853007183434 -0.075188744106415184 -0.043491499881864834 0.079363269622620317 -0.022423670759855026 -0.094576570887867334 -0.31111890810439907 -0.33787238587571689 -0.012772990440897662 -0.20195633020748255 -0.69555784175816371 -0.023507203468596242 0.31187226856157158 0 0.49275771555650333 -0.18275910178305776 0.075803164113544069 0.067959897207689079 -0.25638250242719773 -0.20426630527615244 -0.22344782488485135 -0.045496960281847382 0.12584096614744592 0.24840124240753375 0.20699011565886935 -0.043258272655016451 -0.041137131009969276 -0.23555931002642413 0.11311780610763998 0.017761347951242894 -0.072261325716972358 0.01622043614578814 0.288124207537792 -0.88659974024564192 -0.57032418798130557 0.22712714899587269 0.0063131091067464909 0.035977573443609211 -0.01972209708608744 -0.34360204108722547 -0.012141124122307948 0.28837277505129594 -0.22226989480907847 0.2689594093150004 -0.24269270841297785 -0.017408505270394607 -0.30630071178559337 -0.012548727802674161 0.12708025619996377 0.16171404033734837 0.023869908193713697 0.12000719830311465 0.15761954573242304 0.054708169352344398 0.12929425016917651 -0.014160974415754292 0.19922412365255712 -0.0095031569977280187 0.00038595278640739792 0.036903596722632347 0.077323455071730149 0.010782741954302028 0.003450181581714052 -0.039834432882943166 -0.21464060718605005 -0.18798955473916748 -0.11091326575677346 -0.12084811725992586 -0.42653594068412121 0.19789858049507869 0.043175636806001574 0.29055326350953331 0.013826825846242542 0.059554921525125287 0.10401657524312993 -0.19587349820076358 0.14051283126428693 0.085876207861379561 -0.13820079377364544 -0.13765218640670521 -0.098076940004346386 -0.13401646237651421 0.11414483382365272 0.15085087109142034 0.15831699807033028 0.10995904127194871 -0.072208530269840518 -0.0120368048651687 0.02553435024377548 0.20617982176088148 0.15117116181637455 0.064989949617876908 0.22578323472113837 0.14462060866153262 -0.47448685366682863 0.085780370843799914 -0.32548646758100808 0.27970005061955411 0.36103366153165811 -0.42487897200965419 0.057029814259089893 0.16437353450788131 0.32331865601810872 -0.12097449655228473 0.22497474207691448 0.29741659095370238
leaf_weight=35 152 33 73 46 1379 189 32 128 136 380 40 91 55 60 34 39 33 32 50 32 49 122 60 49 32 521 68 33 37 47 32 36 55 36 42 42 46 43 45 32 51 41 60 440 384 249 32 49 58 32 50 49 307 58 33 39 43 64 36 49 38 52 47 43 34 32 34 78 36 32 42 50 46 35 33 33 35 46 32 42 34 32 34 32 32 33 32 42 60 41 32 33 39 63 36 45 59 33 39 33 125 33 33 41 48 274 39 42 140 334 34 32 37 172 35 244 153
leaf_count=35 152 33 73 46 1379 189 32 128 136 380 40 91 55 60 34 39 33 32 50 32 49 122 60 49 32 521 68 33 37 47 32 36 55 36 42 42 46 43 45 32 51 41 60 440 384 249 32 49 58 32 50 49 307 58 33 39 43 64 36 49 38 52 47 43 34 32 34 78 36 32 42 50 46 35 33 33 35 46 32 42 34 32 34 32 32 33 32 42 60 41 32 33 39 63 36 45 59 33 39 33 125 33 33 41 48 274 39 42 140 334 34 32 37 172 35 244 153
internal_value=0 0.242895 -0.423239 -0.58822 0.363894 -0.628415 -0.234898 0.0806149 -0.735895 -0.531604 -0.162493 -0.567924 -0.359044 -0.0154731 0.130706 0.0550307 -0.100881 -0.0486587 -0.660029 -0.298044 -0.467662 -0.557357 0.162553 0.127669 -0.214396 0.427305 -0.199033 -0.118537 -0.144111 -0.496884 -0.0145384 0.0337392 0.0601222 0.278549 0.123329 0.00392704 -0.0282276 -0.0548021 -0.221871 -0.0507379 0.136743 0.0748912 -0.091817 0.244242 -0.833437 -0.523976 0.0440223 0.107661 -0.057995 -0.327276 -0.228974 0.0879722 0.317421 -0.151329 0.175056 -0.232562 -0.135894 -0.423501 -0.0155914 0.0361534 0.105509 0.139015 0.033476 0.167062 0.00134552 0.0363192 -0.1237 0.213783 -0.0250276 0.0865301 0.188491 0.211561 0.108951 0.138917 -0.148147 -0.281133 -0.117766 -0.0333296 -0.268342 -0.297844 0.246976 0.105302 0.175364 0.102096 0.158339 0.238988 -0.378541 0.0796188 0.19546 -0.085901 -0.0776125 -0.217184 -0.235695 0.0778093 0.0981734 0.278653 0.131053 -0.155617 -0.0703357 0.162486 0.183874 0.0974656 0.148686 0.169791 0.224192 -0.449856 0.15153 -0.273253 0.258282 0.329908 -0.352901 0.0319697 0.125448 0.403099 -0.2 0.21583 0.271476
internal_weight=0 6365 3655 1940 3641 1802 1715 2724 831 971 1094 866 621 935 1789 536 761 504 430 333 436 311 1253 317 105 2072 257 299 266 387 433 636 492 1569 724 401 310 144 209 219 664 227 164 862 520 340 146 91 138 301 117 113 707 104 66 217 82 412 186 109 306 204 102 437 151 75 80 529 105 268 344 266 186 140 69 135 67 119 154 122 304 229 152 70 64 216 184 93 377 77 68 161 71 98 78 485 165 68 85 225 159 66 133 100 82 338 73 74 183 641 67 64 97 1551 80 280 231
internal_count=10020 6365 3655 1940 3641 1802 1715 2724 831 971 1094 866 621 935 1789 536 761 504 430 333 436 311 1253 317 105 2072 257 299 266 387 433 636 492 1569 724 401 310 144 209 219 664 227 164 862 520 340 146 91 138 301 117 113 707 104 66 217 82 412 186 109 306 204 102 437 151 75 80 529 105 268 344 266 186 140 69 135 67 119 154 122 304 229 152 70 64 216 184 93 377 77 68 161 71 98 78 485 165 68 85 225 159 66 133 100 82 338 73 74 183 641 67 64 97 1551 80 280 231
is_linear=0
shrinkage=0.023


Tree=9
num_leaves=113
num_cat=0
split_feature=0 27 27 66 0 0 27 28 62 66 66 66 19 18 13 28 19 66 0 19 13 28 8 13 28 34 19 27 34 66 13 10 27 19 66 24 58 9 51 13 31 35 64 42 23 62 19 66 2 63 20 49 1 49 24 29 28 13 19 19 57 0 7 18 58 37 0 0 19 62 24 62 58 24 51 11 10 49 63 14 31 6 62 66 13 20 9 13 8 17 43 0 13 19 65 61 17 14 63 1 19 5 39 39 51 35 32 32 66 1 6 1
split_gain=1.84877e+06 258777 176117 74455.7 33984.7 31978.1 21222.3 26235.9 21202.5 16598.2 15355 12424.5 11054.5 9002.29 7292.89 6950.34 6787.75 6025.7 4970.52 4967.7 6148.27 4780.13 4519.61 4353.15 4221.62 4022.48 3997.76 3830.52 3825.55 3437.93 4319 2987.67 3244.33 2862.51 2736.56 2719.3 2688.33 2469.06 2408.31 2398.34 2345.63 2148.53 2142 1974.2 1969.44 1936.07 1873.71 1850.37 1822.36 1691.81 1656.62 1640.97 1528.49 1468.14 1427.56 1417.77 1370.13 1359.25 1281.77 1279.25 1274.13 1206.15 1193.18 1136.9 1467.48 1596.19 1127.41 1113.12 1109.41 1062.06 1056.55 1054.2 1160.04 1052.79 981.374 947.382 924.365 863.845 860.427 836.353 826.554 809.138 800.499 783.803 1508.24 773.427 753.241 723.906 709.17 684.402 660.342 596.872 552.967 535.352 1132.57 489.461 431.57 369.882 306.93 296.71 315.459 270.4 258.48 1033.34 181.637 173.785 144.282 354.389 114.82 57.7649 24.7574 0.753938
threshold=44.795992500000004 15.081202499999998 22.264462500000011 6.1659999999998556 80.131905000000003 57.556275000000007 31.652145000000001 14.759740000000001 5.5000000000000009 2.3330000000000912 1.267000000000394 2.1190000000001423 -1.8600592499999988 16.457556402047405 37.326345000000011 25.222322000000005 10.950187500000004 1.2659999999995082 39.685380000000009 -0.2283225000000044 66.95246250000001 28.238077800000003 36.374012865891444 68.631570000000011 32.148084600000004 0.14854215918045707 11.580660000000007 20.909805000000002 0.20550527903469082 1.2330000000001757 79.783935000000014 16.223865 11.948790000000004 -2.9472922499999998 2.355000000000246 0.71651785714285732 -1.5014657436319785 11.205926282427493 9.0834999999997326 94.229520000000022 1.6938059404527694 0.21010186757215624 55.130371000000004 2.5242620000000078 0.52667140825035574 4.5000000000000009 20.125769999999999 0.90000000000020475 2437.1165000000005 98.929226025000006 9.1376360000000005 2.966733333333393 40.465406000000009 0.95659999999998047 0.51339392489834978 1.0050070240382818 11.771514000000002 54.392940000000017 5.3373074999999988 13.405087500000006 0.41209903711492846 38.542717500000009 33.943149775833334 12.110953310395901 0.46612315378144792 0.6224318658280924 16.775429999999997 51.649605000000008 -25.573589999999992 4.5000000000000009 0.49494743288761872 3.5000000000000004 0.095155162446911357 0.46225071225071229 4.4115000000000473 -24.875692000000001 0.31028549999999827 1.3999999999996364 56.655270000000009 55.767072000000006 1.6583012078138999 43.079355173076927 8.5000000000000018 0.63599999999996737 76.654042500000017 6.3354920000000137 19.526095651151611 55.617450000000012 5.2456773430083201 7.096266933333335 43.913205000000012 62.976847500000012 62.319127500000015 3.7119600000000017 3386.8688319656408 0.57346549128159086 -10.734196666666666 18.725262000000004 73.779809250000014 55.706858000000004 8.5562400000000007 46.500000000000007 0.053251048789154105 0.07629899150465666 30.428999999999863 0.24795081967213117 0.043885753641515778 0.036217307121902166 1.3659999999997441 54.615900000000003 52.868181832775925 55.118828000000008
decision_type=2 2 2 2 2 2 2 2 2 2 2 2 2 2 2 2 2 2 2 2 2 2 2 2 2 2 2 2 2 2 2 2 2 2 2 2 2 2 2 2 2 2 2 2 2 2 2 2 2 2 2 2 2 2 2 2 2 2 2 2 2 2 2 2 2 2 2 2 2 2 2 2 2 2 2 2 2 2 2 2 2 2 2 2 2 2 2 2 2 2 2 2 2 2 2 2 2 2 2 2 2 2 2 2 2 2 2 2 2 2 2 2
left_child=2 5 8 6 27 9 12 10 11 15 -8 14 13 -4 88 17 18 19 34 -2 85 31 68 69 29 -15 52 43 40 30 53 32 -13 -30 56 36 -17 -34 76 -6 -20 -35 -36 108 60 -14 48 109 63 66 57 -9 54 -7 62 -39 -10 80 73 91 74 -23 -19 -40 96 -66 -5 -50 -12 89 -28 -54 -73 -55 -31 -62 -11 -46 99 -59 -38 -18 -58 84 -29 87 -76 -21 -1 -16 97 -26 -88 94 -77 105 -65 -60 -95 100 -79 106 -70 -104 -99 -56 107 -98 -3 -45 -75 -49
right_child=1 4 3 49 39 24 7 51 16 38 22 21 45 25 23 35 81 26 28 20 -22 61 -24 -25 59 -27 70 83 33 44 -32 -33 37 41 42 -37 50 55 46 -41 -42 -43 -44 47 77 -47 -48 111 67 -51 -52 -53 71 58 95 -57 82 79 90 -61 75 -63 -64 64 65 -67 -68 -69 102 -71 -72 72 -74 110 86 93 -78 78 -80 -81 -82 -83 -84 -85 -86 -87 92 -89 -90 -91 -92 -93 -94 98 -96 -97 101 104 -100 -101 -102 -103 103 -105 -106 -107 -108 -109 -110 -111 -112 -113
leaf_value=-0.24442287381065406 0.087398199533659321 0.071614436762739583 -0.45162478899392844 -0.18740843340866339 0.40442165247843914 -0.039476155876397676 -0.75093952462712821 -0.79068713215812092 -0.070868204187222811 -0.10602479432563924 -0.23710060726472226 0.0058243931156581616 -0.59957795407438008 0.037288707693417869 -0.34331384159440176 0.064525145612672821 -0.38082749784806091 -0.03719759974096503 -0.0031070679698022049 -0.25972887327566757 0.098285906723252062 -0.38700744379825408 -0.16665134187523301 -0.029211332123569463 -0.066923191537865537 -0.27098423046452585 -0.0026237908704552994 0.075698037744944977 -0.21385801642741764 0.06859655321533116 0.30153250441162538 0.081328629740414493 -0.026878514331268616 -0.11251583575595731 0.068944035396462641 -0.25741826872344731 -0.24470605685556182 -0.1248620268284116 0.043540716229625534 0.49644707223648793 0.21532653710773406 0.12371347713414095 -0.13851097895165002 0.17494675462672224 0.096716862045801599 -0.40227483422970622 -0.045745682006573862 0.28424933630169602 -0.050474337127938376 0.035242593656329702 -0.0099541867687092059 -0.455673210910016 -0.072560406144935446 0.047355978666539962 0.1225145188709555 -0.34557991114539321 -0.33481769300904624 0.0070262064528902974 0.12554059644874194 0.12721013343357898 -0.00019425769506808599 -0.15696299164420463 0.13492247983396205 0.1049942152540411 0.0053735562505316083 0.19099925479190946 -0.013892839595350747 0.11250543073881371 -0.53851358084214063 -0.17357837370846474 -0.17669206047563987 -0.033094832967390367 0.12660680834750504 0.24264210704741121 0.23504269383674817 0.26555228402150877 0.051539976906230432 0.25054009527297766 0.30737872911337694 -0.13886740575022732 -0.098809338034736086 -0.16519503046153003 -0.15457436132603486 0.32548023239221152 0.27686766423368514 -0.088515487321210798 0.061658462060187651 -0.12459847019514665 -0.48221099774731269 -0.18394715496504513 -0.015213024300932429 0.034995196480304004 0.18543648490650794 0.042751888977457776 0.062509401646944199 0.078669148485244991 0.22635522526200522 0.069588547841490947 0.13324964789245233 0.096137412666246189 0.11380960794936948 0.11947074044729154 -0.1965249428968453 -0.4315001963065162 -0.0016186366149068745 0.26327299688255273 0.29386853621398434 0.095668870036636239 0.15252408117769142 0.088671104710065687 0.12387532925345997 0.20617562418088975
leaf_weight=32 62 37 115 46 1492 51 131 640 33 33 33 54 341 41 322 40 44 41 53 91 44 50 42 33 49 38 33 36 46 43 43 33 33 32 39 75 84 39 55 379 43 35 56 104 33 105 32 467 44 58 52 43 37 43 32 49 49 39 44 43 37 36 32 46 62 34 34 32 160 55 36 36 52 34 178 32 32 65 128 35 47 35 48 847 73 49 48 58 225 45 58 59 46 62 33 32 44 33 34 34 34 39 34 79 34 37 53 38 70 32 34 104
leaf_count=32 62 37 115 46 1492 51 131 640 33 33 33 54 341 41 322 40 44 41 53 91 44 50 42 33 49 38 33 36 46 43 43 33 33 32 39 75 84 39 55 379 43 35 56 104 33 105 32 467 44 58 52 43 37 43 32 49 49 39 44 43 37 36 32 46 62 34 34 32 160 55 36 36 52 34 178 32 32 65 128 35 47 35 48 847 73 49 48 58 225 45 58 59 46 62 33 32 44 33 34 34 34 39 34 79 34 37 53 38 70 32 34 104
internal_value=0 0.226505 -0.430034 -0.575175 0.355675 0.064946 -0.614466 -0.6773 -0.242787 -0.00483082 -0.52887 -0.304086 -0.493995 -0.32642 -0.356462 -0.0584245 -0.119956 -0.0137982 -0.0812207 -0.0885072 -0.134906 -0.171603 -0.431498 -0.291442 0.147724 -0.121107 0.0483777 0.281009 4.68982e-05 0.162309 0.101272 -0.105369 -0.142548 -0.0880085 -0.154437 -0.137162 -0.101272 -0.205506 0.0973918 0.424932 0.102813 0.0106084 -0.054278 0.238403 0.189407 -0.560405 0.115031 0.253104 0.127141 -0.0568569 -0.128233 -0.774671 0.0847492 0.0692436 0.127531 -0.26506 -0.220686 -0.156754 0.0896261 0.0312765 0.157309 -0.310772 0.0433725 0.14784 0.16453 0.0801903 -0.121256 0.0217182 -0.463046 -0.31105 -0.101959 0.0212725 0.0635024 0.14848 0.187298 0.104523 -0.0307646 0.240169 0.255096 -0.0679677 -0.200506 -0.307615 -0.262907 0.315181 0.219546 -0.18849 0.203698 -0.215551 -0.460259 -0.327803 0.0462926 -0.0123555 0.131456 0.12769 0.179507 0.181122 0.197474 0.0775807 0.0821773 0.191239 0.214839 0.216584 -0.48339 -0.377207 0.0365352 0.216262 0.236909 0.178822 0.131108 0.160358 0.20133 0.272851
internal_weight=0 6561 3459 1940 3641 2920 1802 1162 1519 1588 479 1006 640 194 712 1044 513 672 434 304 242 294 348 455 1332 79 368 1770 209 1181 374 208 175 113 225 372 297 121 544 1871 96 67 95 814 807 446 479 707 447 138 257 683 299 331 174 88 130 205 280 151 513 86 73 371 316 96 80 76 306 422 69 125 88 111 315 198 65 294 261 74 131 79 97 956 109 198 272 149 257 367 169 108 94 161 65 101 220 111 96 133 99 174 273 113 67 69 135 82 107 136 68 571
internal_count=10020 6561 3459 1940 3641 2920 1802 1162 1519 1588 479 1006 640 194 712 1044 513 672 434 304 242 294 348 455 1332 79 368 1770 209 1181 374 208 175 113 225 372 297 121 544 1871 96 67 95 814 807 446 479 707 447 138 257 683 299 331 174 88 130 205 280 151 513 86 73 371 316 96 80 76 306 422 69 125 88 111 315 198 65 294 261 74 131 79 97 956 109 198 272 149 257 367 169 108 94 161 65 101 220 111 96 133 99 174 273 113 67 69 135 82 107 136 68 571
is_linear=0
shrinkage=0.023


Tree=10
num_leaves=112
num_cat=0
split_feature=38 0 38 66 38 38 66 0 19 16 66 66 38 62 13 19 49 13 62 13 28 66 0 22 38 58 66 18 49 19 66 13 9 66 19 0 49 20 13 66 66 65 36 17 19 2 9 65 34 28 63 6 20 34 19 58 55 32 38 38 38 33 13 66 66 28 13 12 7 39 49 17 38 19 38 58 66 7 38 2 32 13 9 30 9 51 6 16 38 19 16 57 57 23 0 14 31 40 49 66 38 18 34 16 57 38 13 65 19 13 23
split_gain=1.78498e+06 214227 194677 65764.7 38472.4 34394.2 23195 22432 19747.2 18034.2 12950.1 11929.4 10117.5 7820.37 7079.86 6852.13 6783.35 5556.89 7220.08 4673.7 4532.84 4252.61 4093.56 3824.35 3721.67 3585.98 3572.34 3341.66 3337.48 3293.24 3113.29 4544.77 2572.11 2817.17 2559.38 2478.67 2294.43 2251.07 2227.07 3185.31 2156.65 2040.63 1981.17 1963.9 1962.63 2231.13 1945.63 2569.94 1903.27 1843.08 1800.21 1673.2 1670.24 1597.11 1584.6 1584.56 1555.18 1528.8 1527.88 1468.02 1414.89 1305.54 1339.6 1312 1234.68 1234.39 1208.17 1205.17 1214.96 1187.15 1394.67 1180.25 1163.96 1148.07 1128.04 1117.77 1093.26 1726.31 1068.86 1009.62 986.537 945.171 944.826 925.984 899.119 829.939 814.305 800.98 757.992 739.213 733.958 710.558 683.275 680.37 662.071 623.99 621.755 533.941 485.527 427.436 356.972 454.33 352.144 259.682 245.27 241.292 219.645 187.903 72.0118 66.9041 14.2947
threshold=62.441971098461501 70.295557500000015 75.992845259031796 6.1659999999998556 91.346582400734462 50.095530598499955 1.1989999999996714 81.884512500000014 -6.0851174999999946 -6.2067424999999981 1.6670000000005987 3.3159999999999177 71.676095438974642 3.5000000000000004 68.32386750000002 18.618862500000002 1.4910999999999635 73.456687500000001 4.5000000000000009 41.151862500000007 16.038004000000008 2.1190000000001423 40.659150000000004 1.0000000180025095e-35 56.120346125479585 -0.8880010629897227 1.8320000000000791 23.213755828015952 3.4966000000000013 3.0453675000000016 1.2330000000001757 80.399077500000018 22.210483668741926 3.0329999999999449 -1.4985547499999965 75.195277500000017 2.9067999999999876 -13.355199999999998 61.752600000000008 0.66699999999994486 0.70000000000014506 3414.8401279464788 0.5819598103409348 -2.2291794000000018 13.755472500000002 1602.3835000000001 17.387435368489687 2442.7383756877584 0.39827586206896559 23.882858000000002 98.929226025000006 44.69317825000001 6.0689013999999952 0.16869918699186995 -2.6528249999999995 0.14661516849455883 -0.41318296743996008 0.043315141096954154 54.782553012651249 83.734276896774688 47.611996617276887 1.5000000000000002 57.396307500000006 2.3330000000000912 2.369000000000256 22.994166000000003 94.229520000000022 42.462606981145484 35.052070849714291 -0.29553568417421089 2.2467999999999937 3.6170333333333322 59.351217187647173 10.060155000000004 81.676371830473201 -3.2378892009796689 2.3320000000000793 33.454492477777791 46.438220751378765 1670.4290000000003 0.042645292607168164 69.56848500000001 13.619793569781708 1.7669176338434016 16.205210585546315 23.733499999999825 51.307646250000012 -0.14733249999999623 94.204562328820543 5.0164800000000058 2.0875067500000024 0.31911115995058731 0.77474558678928018 0.49450283919294435 65.33252250000001 59.656570000000009 1.5636862941295029 5.9121375999999985 2.0932999999999997 1.0000000180025095e-35 56.389930867868522 10.10526710311002 0.096006144393241177 -0.85029000000000166 0.10681479032381487 54.198493189072146 49.322910000000007 3048.7472324840369 18.234195000000003 56.252647500000002 0.41967741935483877
decision_type=2 2 2 2 2 2 2 2 2 2 2 2 2 2 2 2 2 2 2 2 2 2 2 2 2 2 2 2 2 2 2 2 2 2 2 2 2 2 2 2 2 2 2 2 2 2 2 2 2 2 2 2 2 2 2 2 2 2 2 2 2 2 2 2 2 2 2 2 2 2 2 2 2 2 2 2 2 2 2 2 2 2 2 2 2 2 2 2 2 2 2 2 2 2 2 2 2 2 2 2 2 2 2 2 2 2 2 2 2 2 2
left_child=1 5 6 4 9 30 14 35 20 27 17 13 15 19 22 16 25 18 38 26 88 87 106 93 56 -8 -11 59 32 58 31 40 33 36 -24 78 42 74 39 109 81 -10 46 -23 45 54 47 -18 51 96 84 -47 92 -35 -26 104 85 -51 -20 -4 89 63 -63 79 -46 83 -9 68 -44 70 91 -39 -53 86 -15 -64 82 -78 95 -32 -45 99 -27 -60 -5 -25 -71 -14 -6 110 -87 -58 100 -12 -91 -3 -31 -77 -36 -1 -41 -102 -13 -88 -56 -40 -2 -84 -99 -7 -42
right_child=2 7 3 50 8 10 12 66 41 11 23 102 21 37 -16 -17 28 -19 29 -21 -22 43 34 24 44 76 -28 -29 -30 49 61 -33 -34 53 98 -37 -38 71 105 52 60 -43 67 80 64 48 -48 -49 -50 57 -52 72 -54 -55 55 -57 69 -59 65 -61 -62 62 75 -65 -66 -67 -68 -69 -70 73 -72 -73 -74 -75 -76 97 77 -79 -80 -81 -82 -83 107 -85 -86 90 103 -89 -90 94 -92 -93 -94 -95 -96 -97 -98 108 -100 -101 101 -103 -104 -105 -106 -107 -108 -109 -110 -111 -112
