tree
version=v4
num_class=1
num_tree_per_iteration=1
label_index=0
max_feature_idx=66
objective=regression
feature_names=last_start_x last_start_y last_time is_home period_id episode_length seq_mean_x seq_mean_y seq_std_x seq_std_y progress_x progress_y progress_dist prev_end_x prev_end_y recent_pass_count recent_avg_move_x recent_avg_move_y recent_avg_distance last_recent_move_x last_recent_move_y pass_count carry_count pass_ratio success_rate start_zone_x start_zone_y dist_from_center_x dist_from_center_y angle_change_last_3 angle_change_last_5 angle_change_last_10 pass_direction_consistency consecutive_successful_passes short_pass_ratio long_pass_ratio side_pass_ratio forward_pass_ratio dist_to_goal angle_to_goal dist_to_top_line dist_to_bottom_line dist_to_nearest_sideline dist_to_goal_line in_penalty_box field_zone_9 game_minute is_first_half is_last_10_min avg_time_between_actions is_fast_tempo episode_duration avg_pass_velocity max_pass_velocity velocity_std avg_acceleration is_accelerating velocity_x velocity_y is_attacking_mode attack_intensity action_density same_team_sequence field_coverage_x field_coverage_y field_coverage_area time_since_last_action
feature_infos=[0:105] [0:68] [4.4670000000000005:3607.6329999999998] [0:1] [1:2] [0:269] [1.8637919999999999:104.38029] [0:67.852542] [0:73.794091201388014] [0:47.857798709290336] [-104.3606046:100.2422085] [-67.744119807999994:67.357808000000006] [0:117.53394589692549] [0:105] [0:68] [0:3] [-33.913425000000004:66.685500000000005] [-47.291939599999999:46.796763600000006] [0:67.57157304740474] [-43.912890000000004:83.678931000000006] [-63.059446399999999:59.717022] [0:147] [0:68] [0:1] [0:1] [0:3] [0:2] [0.00073499999999881993:52.5] [0.0019719999999949778:34] [0:3.1268550998018654] [0:3.0965525313591895] [0:3.0965525313591895] [0:0.2370896075520077] [0:57] [0:1] [0:1] [0:1] [0:1] [5.3836954674309032:110.19923650466731] [-1.5707963267948966:1.5707963267948966] [0:68] [0:68] [0:33.998028000000005] [0:105] [0:1] [0:8] [0:60] [0:1] [0:1] [0:31.466799999999967] [0:1] [0:643.46599999999989] [0:205.44468080643585] [0:655.71295900338305] [0:228.8089654810411] [-117.37868702773758:2215.2892145877704] [0:1] [-143.48152970297159:60.731779279388427] [-140.53013179717141:80.54916516530993] [0:1] [-0.96449920000000011:0.98819600000000007] [0:6.220839813374436] [1:72] [0:105] [0:68] [0:7140] [0:244.5]
tree_sizes=7234 7540 7818 7898 7959 7073 7968 8244 7729 8714 8836 8280 9174 8493 8970 8854 8464 8489 8976 8306 9179 9439 9107 10299 9817 9802 9934 10173 10292 10027 10748 10519 10761 10794 10879 10865 10926 10833 10926 10920 10820 10883 10887 10928 10922 10897 10891 10910 10937 10931 10901 10911 10914 10884 10969 10930 10962 10905 10953 10988 10967 10925 10926 10982 10948 10951 10992 10959 10937 10922 10984 10971 10946 10986 10992 10950 10979 11008 10973 10970 11028 11005 10958 11067 10990 10995 11021 11014 10995 10995 11021 11011 11029 11025 11043 11042 11023 11020 11015 11024 11017 11013 11037 11019 11015 11009 10938 11016 11030 11054 11067 11044 11057 11063 11044 11052 11048 10991 11027 11063 11072 11045 11006 11041 11105 10963 11074 11030 11024 11027 11011 11039 11038 10993 11026 10932 11024 11075 11049 11104 11135 11084 11038 11014 11094 11116 11084 11080 11084 11103 11071 11050 11053 11002 11012 11025 11056 11050 11006 11069 11076 11082 11070 11061 11064 11044 11074 11049 11072 11057 11066 11126 11124 11071 11049 11082 11095 11081 11080 11038 11010 11078 11091 11132 11074 11033 11071 11145 11081 11098 11075 11028 11074 11079 11065 11082 11069 11085 11094 11061 11048 11079 11068 11073 11097 11112 11073 11082 11090 11078 11082 11082 11100 11070 11102 11085 11123 11136 11079 11050 11121 11136 11064 11083 11079 11123 11125 11084 11083 11093 11127 11079 11092 11157 11077 11023 11068 11071 11118 11045 11131 11174 11101 11105 11156 11113 11055 11110 11084 11090 11118 11114 11081 11121 11015 11078

Tree=0
num_leaves=89
num_cat=0
split_feature=39 14 42 40 14 14 20 42 27 14 43 14 66 2 14 8 20 38 16 38 66 20 65 20 66 17 19 14 30 49 51 10 66 66 27 63 24 19 66 27 39 6 10 1 31 16 8 6 0 38 14 20 38 20 66 38 14 31 38 49 66 9 58 12 66 64 38 6 24 12 66 18 58 64 38 27 40 66 0 58 11 14 28 0 49 28 42 38
split_gain=3.08095e+06 263665 247236 52281.9 50656.7 17723.6 11438.8 11229.3 11100.1 10422.6 10153.5 7755.04 8328.89 7535.19 6864.46 6102.66 6087.27 5158.31 7392.49 4905.76 5443.1 4796.89 4458.17 3797.2 5411.2 3420.37 3267.81 3265.08 3248.41 4076.2 3219.57 6021.05 3150.97 3147.83 3878.97 3075.42 3050.51 3323.38 5051.6 3049.01 2992.29 2871.39 2960.81 4590.09 2860.4 2829.14 2554.8 2671.06 2542.15 2438.57 2409.33 2371.65 4331.47 2314.14 2236.77 2217.01 2194.92 2095.51 1964.76 1750.18 1685.8 1665.98 1456.13 1376.37 1345.2 1222.43 1220.25 1174.95 1127.42 1114.79 1102.57 965.7 957.896 1037.26 797.627 724.814 643.408 566.591 565.494 550.548 400.824 381.706 376.193 327.905 224.589 141.798 805.608 126.569
threshold=1.0000000180025095e-35 16.121202 15.025688000000001 44.002188000000011 44.699800000000003 7.8095960000000035 5.7441980000000017 8.2367040000000014 15.358087500000005 56.52979400000001 96.436278750000014 41.929310000000008 1.9669999999997574 2044.1665000000003 29.700564000000004 17.753080891729716 -6.8567698000000012 53.568427812359971 -1.473359999999998 85.15964221557094 4.0649999999998281 -5.1164559999999986 5346.5561049598664 -1.8110439999999988 1.259500000000003 -0.54072126666666376 9.9668100000000006 36.679608000000009 2.0264638256849912 2.5733999999999928 11.580000000000043 -26.442202499999997 1.9504999999999202 1.1990000000006378 20.332987500000005 86.031120000000001 0.28062500000000007 13.882627500000003 3.4660000000001792 27.631905 0.054908723565311193 58.732377375000006 13.446667499999998 19.987614000000004 2.1342930055172089 2.7779850000000015 29.548368326245285 56.406435368359745 77.78043000000001 41.022349971792728 51.29563000000001 4.3075959999999975 45.442087818975587 0.98609655999999657 0.94249999999988188 56.292364478480359 38.19077200000001 1.5341939285705559 45.2183749876612 1.8998000000000277 2.4669999999997576 12.463972765432599 -0.055029679312597758 33.657181939507232 1.0000000180025095e-35 63.419707000000002 49.710449772395343 46.039252945945947 0.57932875667429451 35.593705345492388 0.60000000000037812 21.991738879711814 0.039084919405728585 59.536427600000017 25.50529924459838 27.631905 44.79115800000001 1.7990000000003195 72.975315000000009 0.5992666298585182 -4.6955699999999956 3.002642000000002 18.954490000000003 75.520882500000013 1.4869999999999837 16.673294000000006 20.968514000000003 29.588594451896693
decision_type=2 2 2 2 2 2 2 2 2 2 2 2 2 2 2 2 2 2 2 2 2 2 2 2 2 2 2 2 2 2 2 2 2 2 2 2 2 2 2 2 2 2 2 2 2 2 2 2 2 2 2 2 2 2 2 2 2 2 2 2 2 2 2 2 2 2 2 2 2 2 2 2 2 2 2 2 2 2 2 2 2 2 2 2 2 2 2 2
left_child=2 5 7 10 6 81 8 -1 16 19 11 12 14 28 25 39 35 18 53 20 23 66 58 24 -6 71 40 -18 29 46 69 77 50 83 -35 55 -8 38 54 45 -23 42 70 -44 51 -10 47 57 49 -26 -9 64 87 -5 -38 -4 62 -14 -15 -22 82 -60 -33 -29 -20 -56 -16 -41 -25 -17 -19 75 -51 -74 -66 -3 -72 -32 -42 -58 -34 -2 -7 -27 -12 86 -70 -53
right_child=1 3 4 17 9 60 36 32 15 -11 84 -13 13 22 21 30 27 41 44 -21 59 26 -24 68 48 33 -28 63 -30 -31 31 56 80 34 -36 -37 37 -39 -40 67 78 -43 43 -45 -46 -47 -48 -49 -50 72 -52 52 -54 -55 65 -57 79 -59 61 -61 -62 -63 -64 -65 74 -67 -68 -69 85 -71 76 -73 73 -75 -76 -77 -78 -79 -80 -81 -82 -83 -84 -85 -86 -87 -88 -89
leaf_value=34.045471325750931 32.793282835014914 33.053662495405085 33.332910348219841 33.28410990973773 33.800738270230134 33.049562004780341 33.449293318872918 33.692323059554298 33.235406715411962 34.045280337354875 33.220050293212559 33.66723648589042 33.369820010663318 33.465948075540595 33.175514435942191 33.551497394450578 33.332136738101902 33.21339071612703 33.262017770618264 33.914751981875689 33.617100143143958 33.638106850290946 33.349657044716039 33.832632525695914 33.389663589831173 33.167089489005591 33.283650617144787 33.64350285393985 33.511412531595752 33.112975652873622 33.645904290914451 33.570568014882632 33.741025118802995 33.562466932178417 33.262833382160196 33.426206419872649 33.55750847162313 33.501050867650243 33.486905599878234 33.63396790299722 33.350666055095182 33.278761930183322 33.074488157977285 33.403414413262709 33.339310398910342 33.493866854196213 33.504547411955606 33.462342999372886 33.719530422905763 33.68040374678737 33.995275447240203 33.220808620590667 33.429472245666247 33.520606639752032 33.848978829659607 33.065495362285944 33.663564476943087 33.166382474548833 33.518189131402266 33.41250429704877 33.033984712284465 33.752123944790569 33.401150933729141 33.455085893942545 33.200575283300843 33.647240869045937 33.368180212082187 33.465697555359938 33.796040435415108 33.383026421940095 33.183654818847586 33.291342679955292 33.59540133130745 33.423926836822254 33.031520609451505 33.252485799812021 32.984046365507197 33.872317533909829 33.471287951489401 33.518523702123773 33.885023756582839 32.875745274546382 32.918628316729048 33.304705204456575 33.010422495747761 33.610413173475685 33.585667877060921 33.105132090304522
leaf_weight=1538 792 82 38 43 120 129 32 34 43 76 33 33 56 42 48 34 41 37 37 108 57 49 46 316 41 57 37 46 45 39 36 45 89 37 40 41 34 48 44 32 32 42 55 37 42 35 43 44 58 37 511 85 36 32 128 36 98 56 35 32 354 45 51 38 55 51 34 61 64 36 40 33 36 32 224 35 349 52 36 32 389 834 717 38 38 50 32 80
leaf_count=1538 792 82 38 43 120 129 32 34 43 76 33 33 56 42 48 34 41 37 37 108 57 49 46 316 41 57 37 46 45 39 36 45 89 37 40 41 34 48 44 32 32 42 55 37 42 35 43 44 58 37 511 85 36 32 128 36 98 56 35 32 354 45 51 38 55 51 34 61 64 36 40 33 36 32 224 35 349 52 36 32 389 834 717 38 38 50 32 80
internal_value=33.4262 33.0351 33.8472 33.2185 33.6666 32.8863 33.5583 34.0006 33.5093 33.7807 33.3329 33.3525 33.3405 33.4145 33.2817 33.5653 33.3797 33.1132 33.1654 33.7558 33.7322 33.3782 33.5337 33.7518 33.6785 33.2136 33.4546 33.4893 33.3427 33.3091 33.6155 33.6464 33.9291 33.293 33.4064 33.2637 33.6696 33.6915 33.7239 33.4495 33.514 33.0582 33.0427 33.1951 33.1369 33.3475 33.3574 33.315 33.596 33.5352 33.9802 33.1219 33.2013 33.3847 33.7692 33.1818 33.5751 33.2582 33.6036 33.5478 32.9618 33.6663 33.4849 33.5676 33.0777 33.8025 33.2439 33.5347 33.7984 33.4687 33.0143 33.1332 33.5909 33.522 33.0582 33.0993 32.9997 33.8039 33.413 33.6348 33.8634 32.8329 32.9352 33.2093 33.0793 33.7082 33.7424 33.1534
internal_weight=0 5133 4752 2307 2191 2826 1132 2561 795 1059 1113 1042 1009 451 558 555 240 1194 634 983 875 236 168 786 324 322 154 125 283 238 384 314 1023 172 77 115 337 305 257 171 117 560 518 92 559 78 199 156 204 146 545 517 201 75 213 74 226 112 122 89 1200 80 96 84 316 179 82 93 462 70 426 150 105 68 279 117 389 88 68 130 478 1626 846 95 71 146 96 165
internal_count=9885 5133 4752 2307 2191 2826 1132 2561 795 1059 1113 1042 1009 451 558 555 240 1194 634 983 875 236 168 786 324 322 154 125 283 238 384 314 1023 172 77 115 337 305 257 171 117 560 518 92 559 78 199 156 204 146 545 517 201 75 213 74 226 112 122 89 1200 80 96 84 316 179 82 93 462 70 426 150 105 68 279 117 389 88 68 130 478 1626 846 95 71 146 96 165
is_linear=0
shrinkage=1


Tree=1
num_leaves=89
num_cat=0
split_feature=39 14 42 28 14 14 13 20 42 14 39 43 14 66 2 20 19 43 66 20 16 38 66 66 39 63 20 66 27 14 14 16 24 66 66 19 12 64 16 14 12 66 13 1 66 38 58 63 62 14 29 10 9 53 2 14 29 63 66 63 66 49 38 66 20 27 28 27 14 42 16 24 58 64 27 61 28 13 14 11 63 19 38 38 0 28 0 1
split_gain=2.94461e+06 251368 235595 50035.6 48465.7 16895.9 13627.1 11427.7 10663.2 10005.6 9415.02 8700.89 6530.73 6028.37 7024.23 6195 6063.86 4932.92 4732.73 5638.89 9994.22 4695.71 5201.61 4477.46 3870.44 3625.93 3608.59 5158.38 3601.32 3432.87 3053.72 3053.36 3019.03 3037.29 3001.59 2955.44 2892.76 2743.44 3103.8 3291.87 2704.57 2601.03 2555.71 2542.11 2462.16 2352.98 2325.57 2271.68 2259.46 2256.57 2255.26 2248.03 2091.76 1980.34 1888.35 2262.94 1860.65 1802.32 1756.07 1749.4 1695.57 1680.2 1635.44 1493.97 1466.53 1288.83 1244.02 1229.64 1192.5 1148.46 1112.17 1027.93 921.138 998.137 803.336 759.824 687.948 457.448 364.126 364.022 302.192 152.197 151.072 351.619 109.659 58.4327 54.4459 20.7515
threshold=1.0000000180025095e-35 16.121202 15.025688000000001 9.2250840000000007 44.699800000000003 7.8095960000000035 33.369682500000003 0.12257000000000408 8.2367040000000014 56.52979400000001 -0.14182914615927916 96.436278750000014 40.855352000000003 1.9669999999997574 2403.3500000000008 -5.1164559999999986 -1.2951750000000073 72.59521500000001 3.3389999999998285 4.3075959999999975 -1.473359999999998 85.15964221557094 4.0649999999998281 1.0000000180025095e-35 0.23289731624504764 82.322892750000022 -1.8110439999999988 1.259500000000003 19.114882500000004 30.823652000000006 35.928990000000006 5.3169549999999965 0.62279616455304676 1.233999999999938 1.9504999999999202 -4.364325 14.391859349200365 64.353836600000008 -1.0000000180025095e-35 30.036008000000002 34.210114653245547 3.6659999999996562 78.344490000000008 39.431908000000014 0.21650000000016337 41.022349971792728 1.4247713467134659 66.923619000000016 4.5000000000000009 51.29563000000001 1.7285480796027739 -0.78518999999999994 20.039250093839755 9.8770956720892649 1971.3000000000002 23.190516000000002 2.3131917352152072 85.177433250000021 1.3659999999996304 72.928380000000018 1.7319999999991753 1.8998000000000277 25.50529924459838 1.115999999999872 -5.1164559999999986 28.759920000000005 18.954490000000003 15.19665 42.574256000000005 32.121942000000004 8.4083125000000027 0.37946998722860797 0.039084919405728585 59.536427600000017 24.028987500000003 0.66113988763360954 11.786814000000001 87.352597500000016 3.002642000000002 -4.6955699999999956 55.839472500000014 2.8838774999999974 71.1643397928177 64.443700287728561 69.264457500000006 15.394146000000003 48.585915000000007 23.010316000000003
decision_type=2 2 2 2 2 2 2 2 2 2 2 2 2 2 2 2 2 2 2 2 2 2 2 2 2 2 2 2 2 2 2 2 2 2 2 2 2 2 2 2 2 2 2 2 2 2 2 2 2 2 2 2 2 2 2 2 2 2 2 2 2 2 2 2 2 2 2 2 2 2 2 2 2 2 2 2 2 2 2 2 2 2 2 2 2 2 2 2
left_child=2 5 8 11 6 78 43 10 -1 21 32 12 13 15 36 50 28 18 19 23 -21 22 26 85 -20 31 27 -6 -17 59 53 64 44 -34 49 -22 -15 38 47 -40 -16 46 45 48 -8 -29 58 -38 75 -10 65 -31 68 -9 -19 -56 76 -26 81 63 -7 -24 -25 -18 86 -3 -62 -27 -46 -41 74 -64 -47 -74 -60 -4 -28 -78 -2 -36 -37 -32 83 -68 -61 -5 -12 -82
right_child=1 3 4 17 9 60 7 30 34 -11 25 -13 -14 14 40 16 29 54 24 20 35 -23 61 62 57 67 56 42 -30 51 41 -33 33 -35 79 80 37 -39 39 69 -42 -43 -44 -45 52 72 -48 -49 -50 -51 -52 -53 -54 -55 55 -57 -58 -59 70 84 66 -63 71 -65 -66 -67 82 -69 -70 -71 -72 -73 73 -75 -76 -77 77 -79 -80 -81 87 -83 -84 -85 -86 -87 -88 -89
leaf_value=0.60508908881110401 -0.61849929637803347 -0.36320527968126542 0.2902330060868184 -0.082165872611835708 0.3664116036189019 -0.49468335913928535 -0.010389194957778658 0.14712158826619187 0.26107782163862459 0.60608301023045941 -0.33895680738087436 -0.32835920664571949 0.21075799023324696 -0.23553169792143847 0.27129181622529358 0.24143789960322268 -0.17668519469497265 -0.4489193632924483 0.058706638615233633 0.12569949456398061 -0.05546039374383762 0.4780204317369155 0.18700163063189104 -0.20347508072583387 -0.27557445102515077 -0.06056045018534624 0.23822367470306421 -0.03465046383183578 -0.047151045224971266 -0.13167976666424452 0.19704441740206891 0.01226938161646246 0.10183161387392414 -0.17638621849564803 0.30812675250901117 -0.34565884847808653 -0.17173430254969252 -0.17459542489373464 0.18631413123323579 -0.11760022679119246 0.035216440067497627 0.03373024657920555 0.29145369321149867 0.34114574348512561 0.29166474793091668 0.24931419893527407 0.041717910860229926 0.049394694026243892 0.02015973573243645 0.5561647869484686 -0.10714268324705579 0.092513970460931252 0.036769467149738368 -0.067751883649646044 -0.34703705751881764 -0.1019947279118523 0.1740597630749669 -0.063682795428302838 0.39324970291191358 -0.28939614051409557 -0.24761587820173497 -0.013445528291412287 -0.2528914197626036 0.0047276594476741655 -0.076196987835260535 -0.14303417603210072 -0.40031065699618051 0.12223328214868638 0.10496011345885521 0.054994998350924355 0.15369463660122226 -0.40653050421372322 0.16595948469280922 -0.0022369002325237559 0.17929765012216925 0.11365057913687776 0.41368835325041842 0.22992887897672917 -0.53791039500892535 0.44845891899670604 -0.25075971246608936 0.097570499129094962 -0.50490153646801017 -0.23045588762575309 -0.15410452195835039 -0.17289968487218763 -0.17806104997883532 -0.13760780613445486
leaf_weight=1538 792 71 56 33 120 615 43 37 34 76 37 64 37 38 44 38 44 172 37 38 40 108 57 59 62 32 58 42 42 33 34 36 37 32 89 83 61 52 61 35 57 44 57 141 69 37 34 34 37 511 58 50 42 40 77 37 44 39 80 52 63 32 78 44 33 35 357 32 40 33 40 333 36 32 33 35 320 40 834 389 127 51 122 43 40 35 37 34
leaf_count=1538 792 71 56 33 120 615 43 37 34 76 37 64 37 38 44 38 44 172 37 38 40 108 57 59 62 32 58 42 42 33 34 36 37 32 89 83 61 52 61 35 57 44 57 141 69 37 34 34 37 511 58 50 42 40 77 37 44 39 80 52 63 32 78 44 33 35 357 32 40 33 40 333 36 32 33 35 320 40 834 389 127 51 122 43 40 35 37 34
internal_value=0 -0.382352 0.411582 -0.203248 0.235293 -0.527655 0.129361 0.0834481 0.561296 0.346844 0.00638033 -0.0823632 -0.0635659 -0.0761685 -0.0106981 -0.128801 -0.0704762 -0.298532 -0.269731 -0.290202 -0.205127 0.322458 0.299434 -0.337651 -0.133827 -0.107525 0.318537 0.247033 0.0983916 -0.123198 0.173761 -0.169437 0.0965999 -0.0314264 0.491613 -0.251512 -0.0645673 -0.035485 0.00120022 0.0731259 0.149628 0.204899 0.166469 0.270478 0.141738 0.106361 0.2309 -0.0944912 0.178258 0.541491 -0.24245 0 0.183685 0.0390252 -0.38974 -0.27862 0.36401 -0.203775 0.255787 -0.177762 -0.453947 0.119136 -0.363399 -0.0923234 -0.227652 -0.30461 -0.405513 0.033671 0.234236 -0.0363239 0.304879 -0.38235 0.161556 0.0939593 0.345631 0.236034 0.38062 0.398309 -0.579767 0.427405 -0.281016 0.150047 -0.420848 -0.386565 -0.246459 -0.141407 -0.282004 -0.234006
internal_weight=0 5133 4752 2307 2191 2826 1132 863 2561 1059 470 1023 959 922 415 507 343 1284 998 860 322 983 875 538 138 207 786 324 80 263 393 143 263 69 1023 284 314 276 224 129 101 316 204 269 194 147 272 95 128 545 164 83 151 77 286 114 462 101 238 180 1200 89 470 88 107 106 585 64 109 68 153 411 105 68 113 91 418 360 1626 478 244 85 522 400 92 68 74 161
internal_count=9885 5133 4752 2307 2191 2826 1132 863 2561 1059 470 1023 959 922 415 507 343 1284 998 860 322 983 875 538 138 207 786 324 80 263 393 143 263 69 1023 284 314 276 224 129 101 316 204 269 194 147 272 95 128 545 164 83 151 77 286 114 462 101 238 180 1200 89 470 88 107 106 585 64 109 68 153 411 105 68 113 91 418 360 1626 478 244 85 522 400 92 68 74 161
is_linear=0
shrinkage=0.023


Tree=2
num_leaves=92
num_cat=0
split_feature=39 14 42 28 14 14 13 20 1 14 39 43 14 66 2 20 19 38 16 8 38 66 66 6 14 20 66 0 14 24 66 12 31 54 55 17 61 42 66 66 12 20 31 20 38 66 13 1 14 66 7 38 58 38 9 53 63 66 49 66 66 2 9 65 66 19 54 66 43 28 38 14 24 16 58 64 13 31 13 11 66 38 13 14 38 38 19 66 66 42 0
split_gain=2.81434e+06 239735 224519 47839.3 46376.4 16077.7 13045.9 10983.2 10148.1 9605.66 9043.59 8343.91 6281.16 5655.12 6749.38 5937.29 5725.29 4726.02 6536.16 4598.97 4495.11 4970.42 3914.1 3678.44 3509.82 3427.83 4916.99 3316.21 2929.71 2899.57 2923.57 2783.05 2931.12 2721.01 3411.76 4120.58 3747.2 2602.28 3105.42 2748.23 2599.3 2571.68 2531.59 2543.52 5489.05 2496.18 2447.78 2416.33 2394 2362.92 2275.72 2263.4 2230.44 2099.47 2005.48 1904.74 1679.6 1678.49 1613.03 1588.28 1562.64 1561.47 1470.59 1486.47 1435.77 1355.48 1293.12 1292.7 1204.96 1173.27 1145.45 1139.79 1095.69 1061.14 885.786 960.494 758.176 521.722 520.745 488.108 475.079 394.095 351.684 347.329 156.248 316.003 147.559 131.64 680.711 115.727 103.066
threshold=1.0000000180025095e-35 16.121202 15.025688000000001 9.2250840000000007 44.699800000000003 7.8095960000000035 33.369682500000003 0.12257000000000408 60.23470600000001 56.52979400000001 -0.14182914615927916 96.436278750000014 41.581694000000006 1.9669999999997574 2403.3500000000008 -5.1164559999999986 -1.2951750000000073 53.568427812359971 -1.473359999999998 15.529159186736711 85.15964221557094 4.0649999999998281 2.2000000000002804 58.732377375000006 30.823652000000006 -1.8110439999999988 1.259500000000003 62.458567500000008 35.928990000000006 0.62279616455304676 1.233999999999938 14.391859349200365 2.0181910294400627 9.0403336090906077 -0.24608355269967455 -2.2671821633333349 0.55207092385222434 23.208026000000004 1.0000000180025095e-35 2.0615000000000241 34.210114653245547 0.98609655999999657 2.1342930055172089 4.3075959999999975 45.442087818975587 3.6659999999996562 78.344490000000008 39.431908000000014 53.529430000000005 0.21650000000016337 38.728172795402308 41.022349971792728 1.4247713467134659 25.50529924459838 20.039250093839755 9.8770956720892649 72.928380000000018 1.3659999999996304 1.8998000000000277 1.7319999999991753 3.0014999999998513 1500.0500000000004 15.263331059727188 5267.9516407100282 1.115999999999872 0.23976750000000105 8.017264092083666 2.998999999999882 24.875287500000002 18.954490000000003 55.810329996248974 42.574256000000005 0.57932875667429451 8.4083125000000027 0.039084919405728585 59.536427600000017 70.632502500000015 1.7611333229578221 87.352597500000016 -5.081707999999999 5.4955000000000149 29.588594451896693 46.640160000000009 3.002642000000002 71.1643397928177 64.443700287728561 2.8838774999999974 0.88100000000005718 2.2649999999995321 19.663390000000003 69.264457500000006
decision_type=2 2 2 2 2 2 2 2 2 2 2 2 2 2 2 2 2 2 2 2 2 2 2 2 2 2 2 2 2 2 2 2 2 2 2 2 2 2 2 2 2 2 2 2 2 2 2 2 2 2 2 2 2 2 2 2 2 2 2 2 2 2 2 2 2 2 2 2 2 2 2 2 2 2 2 2 2 2 2 2 2 2 2 2 2 2 2 2 2 2 2
left_child=2 5 8 11 6 83 47 10 22 20 29 12 13 15 31 66 27 18 41 70 21 25 48 37 56 26 -6 -17 55 49 -31 -15 33 34 -33 60 -37 38 -19 -39 -16 -5 43 53 81 52 51 50 -1 -8 65 -28 57 89 71 -9 64 86 -23 -7 -36 -26 -21 -64 -18 -4 68 -40 -3 -61 -12 -51 78 76 -53 -76 -59 -70 -27 -24 -69 -45 -74 -2 85 -71 -30 -55 -89 -20 -58
right_child=1 3 4 17 9 59 7 28 -10 -11 19 -13 -14 14 40 16 24 23 42 62 -22 58 79 -25 61 72 46 -29 45 30 -32 32 -34 -35 35 36 -38 39 67 -41 -42 -43 -44 44 -46 -47 -48 -49 -50 54 -52 74 -54 87 -56 -57 90 73 -60 69 -62 -63 63 -65 -66 -67 -68 80 77 84 -72 -73 82 -75 75 -77 -78 -79 -80 -81 -82 -83 -84 -85 -86 -87 -88 88 -90 -91 -92
leaf_value=0.34753248125602193 -0.60440373099651989 -0.10695099518347637 0.29736700030252644 -0.14608519969430583 0.35846740175164415 -0.48343911397309619 -0.010184920852926094 0.14429539467222804 0.59379001216722327 0.59336472766596882 -0.11502759928179089 -0.32158017850691273 0.22037236836944563 -0.23098744797621076 0.26594002139963374 0.20599425675856053 -0.17319970737191437 -0.14478447851624185 -0.23337690973658595 0.092247922676091179 0.46772204575079579 0.18318888953369847 0.269748971539159 -0.12323126091852542 0.10110947981348048 0.4045975007025619 -0.033971511601918129 -0.074920118929623955 0.19331345669005168 0.09987543496671164 -0.17308290545911584 -0.24128967132166051 0.14848081414220352 0.11609353582064312 -0.019024493289926579 -0.27605750653005784 0.0054336567424991735 -0.31820840457802574 -0.43586426315419058 -0.058685457245224996 0.034498413803365838 0.094891057308880533 -0.079792510445171147 -0.19182488335420936 0.037910525330381417 0.033064842289186595 0.2855112949880434 0.33368562602064372 0.55015131103835635 0.28559827402097371 0.0036404735047095302 0.24452490135859153 0.040927995228666372 -0.23604594120511765 0.036048993600067698 -0.066434094503080882 -0.28355941727631812 0.39859876555982654 -0.013193717526115534 -0.24251209712268024 0.19059893484770818 -0.081469713753162698 -0.14861931391214117 0.027794558644062366 0.0046343949724707689 0.097745838902150356 -0.078782190820036346 -0.21987046172877842 -0.3536722960033295 -0.39128800552909987 -0.32057960002262703 0.10291860903292328 0.16272139426914881 0.15070522267647071 0.16278595467913234 -0.0021949980292308119 0.20046085020371116 -0.16806834925010131 0.20751146529507697 0.42666799597909688 -0.39316431014214531 -0.31269678734076051 0.30307984820199924 -0.52564581255159382 -0.49394442630662344 -0.22592465451887067 0.095607374869223133 -0.43408939456463913 -0.27285030494628687 -0.11725877782270848 -0.15110713756534944
leaf_weight=86 792 32 56 48 120 615 43 37 1469 76 40 64 33 38 44 48 44 38 37 38 108 57 64 48 39 283 42 32 34 37 32 53 33 32 32 41 51 51 312 41 57 34 42 93 38 44 57 141 578 69 32 37 34 53 42 40 52 69 32 63 34 46 46 44 44 40 32 82 67 357 39 40 46 40 36 32 44 35 33 364 34 82 100 834 122 43 51 128 83 40 40
leaf_count=86 792 32 56 48 120 615 43 37 1469 76 40 64 33 38 44 48 44 38 37 38 108 57 64 48 39 283 42 32 34 37 32 53 33 32 32 41 51 51 312 41 57 34 42 93 38 44 57 141 578 69 32 37 34 53 42 40 52 69 32 63 34 46 46 44 44 40 32 82 67 357 39 40 46 40 36 32 44 35 33 364 34 82 100 834 122 43 51 128 83 40 40
internal_value=0 -0.373799 0.402376 -0.198885 0.230276 -0.5157 0.126651 0.0817263 0.548529 0.339397 0.00617238 -0.0806812 -0.0622727 -0.0740149 -0.0104902 -0.124687 -0.0676886 -0.292055 -0.243933 -0.105461 0.31551 0.292982 0.484083 -0.342314 -0.118596 0.311657 0.241878 0.0964962 0.170266 0.0945965 -0.0308608 -0.0632959 -0.0347696 -0.063352 -0.093644 -0.0355095 -0.130854 -0.359284 -0.38384 -0.2156 0.146666 -0.0463215 -0.270193 -0.283361 -0.206294 0.200765 0.163173 0.264728 0.528007 0.138833 0.174692 0.104323 0.226238 -0.326102 0.179927 0.0382794 -0.174228 0.250611 0.116693 -0.443769 0.0968769 0.00342398 -0.0167828 -0.0665216 -0.0904974 0.2272 -0.235173 -0.402227 -0.266358 -0.396581 -0.235303 0.229426 0.356019 0.298634 0.158458 0.0921563 0.338485 -0.305674 0.389237 0.408174 -0.29112 -0.258842 0.268862 -0.566552 -0.411531 -0.377936 0.147137 -0.359935 -0.382014 -0.188706 -0.241545
internal_weight=0 5133 4752 2307 2191 2826 1132 863 2561 1059 470 1023 959 926 415 511 345 1284 678 207 983 875 1092 606 265 786 324 80 393 263 69 314 276 243 211 158 92 558 466 92 101 82 596 554 213 316 204 269 664 194 128 147 272 341 151 77 180 238 89 1200 66 85 128 90 88 96 166 428 134 585 79 109 462 153 105 68 113 102 316 428 116 175 146 1626 522 400 85 264 211 77 92
internal_count=9885 5133 4752 2307 2191 2826 1132 863 2561 1059 470 1023 959 926 415 511 345 1284 678 207 983 875 1092 606 265 786 324 80 393 263 69 314 276 243 211 158 92 558 466 92 101 82 596 554 213 316 204 269 664 194 128 147 272 341 151 77 180 238 89 1200 66 85 128 90 88 96 166 428 134 585 79 109 462 153 105 68 113 102 316 428 116 175 146 1626 522 400 85 264 211 77 92
is_linear=0
shrinkage=0.023


Tree=3
num_leaves=93
num_cat=0
split_feature=39 14 42 40 14 14 13 20 28 14 43 39 14 66 2 14 38 16 8 38 66 20 65 20 66 17 19 49 66 27 14 24 66 39 31 6 10 1 8 66 13 1 66 66 27 64 7 38 58 20 38 20 9 38 53 29 66 9 49 6 19 39 11 32 66 38 66 66 28 38 14 16 38 18 66 58 64 27 28 27 38 66 66 38 0 14 12 0 49 42 38 11
split_gain=2.69004e+06 228564 213955 45803.3 44375.8 15339.7 12485.6 10556 9720.51 9221.01 9054.82 8683.47 6985.32 7442.27 6836.87 6275.63 4570.92 6676.05 4423.82 4302.42 4750.02 4271.99 4238.14 3257.21 4686.8 3179.57 3110.36 3040.18 2877.16 3684.45 2811.47 2784.84 2814.1 2750.56 2636.77 2585.29 2864.9 4365.07 2553.5 2396.17 2344.4 2297.59 2284.93 2267.68 2253.11 2362.08 2206.26 2177.23 2139.78 2118.42 3967.89 2011.57 1922.75 1873.06 1832.04 1803.27 1605.45 1579.46 1548.54 1458.88 1457.01 1444.35 1430.37 1241.05 1279.38 1197.71 1186.85 1106.87 1326.98 1101.29 1089.39 1013.36 960.232 949.748 872.508 851.789 924.273 732.917 687.707 674.458 647.734 557.885 1064.83 550.035 520.948 468.112 362.151 316.077 315.833 312.781 120.195 118.559
threshold=1.0000000180025095e-35 16.121202 15.025688000000001 44.002188000000011 44.699800000000003 6.4020300000000008 33.369682500000003 0.12257000000000408 23.451670000000004 56.52979400000001 96.436278750000014 -0.14182914615927916 41.929310000000008 1.9669999999997574 2044.1665000000003 29.700564000000004 53.568427812359971 -1.473359999999998 15.529159186736711 85.15964221557094 4.0649999999998281 -5.1164559999999986 5346.5561049598664 -1.8110439999999988 1.259500000000003 -0.54072126666666376 9.9668100000000006 2.5733999999999928 1.1990000000006378 20.332987500000005 35.928990000000006 0.62279616455304676 1.233999999999938 0.054908723565311193 2.1342930055172089 58.732377375000006 13.446667499999998 19.987614000000004 29.548368326245285 3.6659999999996562 78.344490000000008 39.431908000000014 2.4669999999997576 0.21650000000016337 22.262362499999998 54.972328800000007 36.61600686293707 41.022349971792728 1.4247713467134659 4.3075959999999975 45.442087818975587 0.98609655999999657 20.039250093839755 45.2183749876612 9.8770956720892649 2.3131917352152072 1.3659999999996304 12.463972765432599 1.8998000000000277 56.054531220394743 0.23976750000000105 0.059735712003217305 10.856812000000003 0.061480925779767152 0.60000000000037812 49.710449772395343 1.0000000180025095e-35 1.8934999999996764 29.895645800000004 55.810329996248974 42.574256000000005 8.4083125000000027 58.235089302383166 21.991738879711814 1.9504999999999202 0.039084919405728585 59.536427600000017 24.028987500000003 11.786814000000001 27.631905 25.50529924459838 2.998999999999882 4.2385000000003865 53.015515842848828 72.975315000000009 14.270888000000001 21.963698237371943 75.520882500000013 1.4869999999999837 26.070452000000007 24.314316802239471 -3.9726619999999992
decision_type=2 2 2 2 2 2 2 2 2 2 2 2 2 2 2 2 2 2 2 2 2 2 2 2 2 2 2 2 2 2 2 2 2 2 2 2 2 2 2 2 2 2 2 2 2 2 2 2 2 2 2 2 2 2 2 2 2 2 2 2 2 2 2 2 2 2 2 2 2 2 2 2 2 2 2 2 2 2 2 2 2 2 2 2 2 2 2 2 2 2 2 2
left_child=2 5 8 10 6 -2 41 11 74 19 12 31 13 15 27 25 17 51 69 20 23 65 53 24 -6 73 33 38 87 -30 54 43 -33 -23 49 36 63 -38 44 48 47 46 85 -8 45 -15 60 -26 56 66 86 -5 70 -16 -9 78 89 -55 -22 62 -4 -46 -20 64 -18 -17 -19 -10 -69 -13 -45 77 83 79 -1 -49 -77 -58 -25 -3 -68 -66 -83 -44 -35 -7 -51 -27 -12 -32 -88 -76
right_child=1 3 4 16 9 42 7 30 67 -11 88 18 -14 14 22 21 35 34 59 -21 58 26 -24 55 40 28 -28 -29 29 -31 39 32 -34 84 -36 -37 37 -39 -40 -41 -42 -43 72 52 61 -47 -48 75 -50 50 -52 -53 -54 57 -56 -57 71 -59 -60 -61 -62 -63 -64 -65 81 -67 80 68 -70 -71 -72 -73 -74 -75 91 76 -78 -79 -80 -81 -82 82 -84 -85 -86 -87 90 -89 -90 -91 -92 -93
leaf_value=0.49020925163057705 -0.56234340586169684 -0.35543670067728433 0.31992926181816478 -0.13007606867056482 0.3506954454120837 -0.48688486624001248 -0.0099846649632065257 0.14152348557112918 0.59938493876246413 0.58091332883250957 -0.19052422199296598 -0.11279027362580531 0.22956311621381986 -0.10872055113633193 0.037118261246120228 -0.23799907671930995 -0.19076557647939249 -0.15412721946852337 -0.040487682778226813 0.45764554720594897 0.17945388470522911 0.20506430977283849 -0.076285095190940386 0.22655143283318963 -0.033305862993908704 -0.24553002874550886 -0.13864809993898358 -0.23310245365557847 0.13516212218569312 -0.15682139063954953 0.19866515953948033 0.097956836128073418 -0.16984145316307175 -0.070875329158384986 -0.078229026632425022 -0.13667777574570136 -0.33019114868096522 -0.011733520009447706 0.10323244292267651 0.032412571981404029 0.27969006549839287 0.32638864205252133 -0.34161200012935 0.27965798002864245 -0.031816355077369275 0.099278749842667866 0.040565827971665094 0.2398276046893936 0.040153038933259819 -0.13479174542225014 0.0068847084733685499 0.090285411006925068 0.035342639667750857 0.088464126406550131 -0.065141926326534969 0.1638694752401311 0.37713432659807894 0.31584222254459082 -0.012946622436131535 -0.12723389531324422 0.09374888962278001 -0.22559161306360392 0.13113723128697674 -0.21936004653343003 -0.4549638918011592 -0.049798431747184825 -0.21335111173016302 0.46355695266389335 0.57438105534173467 -0.31436880404439393 0.10091681102491586 0.1477739588371291 -0.44434983461543032 -0.12542280668767156 0.26837271787548439 0.15967308194202309 -0.0021538899402885341 0.1721453755901706 0.38163164069156469 -0.16506315152554932 -0.37027641846215725 -0.17253541300358402 -0.38323545430554457 -0.17843644507654627 0.044851003939212743 -0.37743736083301105 -0.17555715886072421 -0.11367734285643033 -0.39542396216992515 0.085356037159032644 -0.31241960941431784 0.40742356684233733
leaf_weight=347 1405 82 46 43 120 815 43 37 1040 76 33 40 33 49 42 48 32 37 55 108 57 49 46 58 42 57 37 48 37 40 35 37 32 32 42 42 55 37 45 44 57 141 221 69 35 52 49 37 34 34 36 32 42 35 40 44 80 45 32 36 33 54 37 51 246 34 55 452 411 39 40 40 160 33 69 36 32 33 360 35 224 43 54 40 36 185 43 38 38 50 88 242
leaf_count=347 1405 82 46 43 120 815 43 37 1040 76 33 40 33 49 42 48 32 37 55 108 57 49 46 58 42 57 37 48 37 40 35 37 32 32 42 42 55 37 45 44 57 141 221 69 35 52 49 37 34 34 36 32 42 35 40 44 80 45 32 36 33 54 37 51 246 34 55 452 411 39 40 40 160 33 69 36 32 33 360 35 224 43 54 40 36 185 43 38 38 50 88 242
internal_value=0 -0.365459 0.393382 -0.194667 0.225376 -0.504016 0.124009 0.0800568 0.536057 0.332118 -0.0876359 0.00598715 -0.0691334 -0.0805038 -0.0105877 -0.136106 -0.293279 -0.244197 -0.103399 0.308719 0.286677 -0.043902 0.102952 0.304935 0.236831 -0.201143 0.0281256 -0.0789626 -0.124875 -0.01669 0.166857 0.0926347 -0.0303051 0.0860963 -0.27125 -0.344948 -0.359657 -0.212625 -0.0413094 0.196735 0.159942 0.25909 -0.44375 0.135988 -0.0782125 -0.00194586 0.171176 0.102324 0.221693 -0.28558 -0.210734 -0.036107 0.176245 0.171203 0.0375478 0.34822 0.245566 0.232343 0.1143 -0.0164245 0.241637 -0.157815 0.0328701 -0.38724 -0.405387 -0.170672 -0.327283 0.565857 0.520738 -0.230745 0.224714 0.292558 -0.375475 -0.278596 0.444573 0.155419 0.0903877 0.33154 0.364425 -0.311711 -0.34565 -0.420951 -0.308666 -0.322225 -0.0108944 -0.469542 -0.256628 -0.204889 -0.327124 0.144284 -0.279299 0.383508
internal_weight=0 5133 4752 2307 2191 2826 1132 863 2561 1059 1113 470 1042 1009 451 558 1194 634 207 983 875 236 168 786 324 322 154 283 172 77 393 263 69 117 559 560 518 92 235 316 204 269 1421 194 190 101 128 147 272 517 201 75 151 122 77 462 238 80 89 128 79 89 92 426 375 82 316 1903 863 79 109 153 421 150 658 105 68 113 418 117 279 343 97 261 68 1000 165 95 71 85 131 311
internal_count=9885 5133 4752 2307 2191 2826 1132 863 2561 1059 1113 470 1042 1009 451 558 1194 634 207 983 875 236 168 786 324 322 154 283 172 77 393 263 69 117 559 560 518 92 235 316 204 269 1421 194 190 101 128 147 272 517 201 75 151 122 77 462 238 80 89 128 79 89 92 426 375 82 316 1903 863 79 109 153 421 150 658 105 68 113 418 117 279 343 97 261 68 1000 165 95 71 85 131 311
is_linear=0
shrinkage=0.023


Tree=4
num_leaves=94
num_cat=0
split_feature=39 14 14 1 40 14 20 28 14 13 43 14 62 20 19 42 20 16 20 20 19 13 52 13 19 38 45 40 2 1 58 16 7 17 10 52 14 27 30 16 7 31 19 32 55 65 14 28 14 7 19 58 21 10 27 8 20 63 20 16 20 2 38 14 10 2 6 10 38 13 39 17 8 14 19 19 32 19 29 49 12 10 33 10 38 28 31 39 7 19 49 28 10
split_gain=2.57529e+06 220315 202257 43651.1 40722.6 16164.5 10739 10648.2 10368.2 8647.91 7663.22 7127.51 6816.1 6623.48 6971.05 6057.73 5312.79 4660.35 4981.91 4602.66 4709.21 4349.97 4177.9 3669.26 3608.04 4148.67 3586.47 3121.67 2886.85 3155.32 2821.62 2766.43 2724.72 2665.69 3358.48 2363.62 2359.12 2329.4 2495.59 2358.55 2229.7 2534.2 2095.22 2012.61 1983.78 1986.54 1972.81 1969.57 1900.54 2464.43 1893.42 1764.16 1748.42 1651.12 1560.05 1521.84 1405.44 1408.31 1379.2 1372.23 1354.5 1803.28 1352.85 1286.2 1212.15 1255.29 1088.82 1895.83 978.154 949.752 949.127 1015.03 916.824 892.982 1583.04 859.974 790.597 781.935 704.181 643.553 630.443 601.738 503.182 398.843 344.269 437.022 301.234 241.917 142.047 110.794 99.7822 55.8663 25.0823
threshold=0.01373416550345429 53.253350000000005 16.121202 42.545832000000011 42.410240000000009 7.3574300000000017 6.8253980000000007 16.977492000000005 59.770606000000008 34.997655000000002 68.763292500000006 29.348256000000006 4.5000000000000009 4.9367660000000013 -6.0403349999999945 18.700884000000002 -5.9184412000000028 3.3152349999999995 -6.6172499999999967 -5.0042560000000007 -2.6508300000000005 32.035710000000002 0.65587091073346049 74.505165000000019 10.488869999999997 43.064641058600778 4.5000000000000009 28.695694000000003 2471.8665000000005 21.692544000000005 0.04668460154668358 -0.85568000000000188 27.563735429059836 -9.6645407999999975 -38.005222499999995 2.7991313651663838 20.345838000000004 9.5703300000000038 2.0264638256849912 2.536065000000002 35.734824979354848 1.4421605784534923 2.4943800000000071 0.052296466254860723 0.020962097749550882 1114.4948988427802 35.928990000000006 3.8364580000000008 24.110828000000001 24.333604094318186 -7.8399825000000005 -0.24443429184614227 20.500000000000004 -27.6281775 24.028987500000003 8.6764406276832293 -8.4662380000000006 81.375829500000009 12.623656000000002 3.5858707500000002 21.872335999999997 801.80000000000007 33.555334625377093 46.420268000000007 20.7219075 1621.5165000000002 64.033575750000011 14.206342500000007 58.235089302383166 50.68413000000001 -0.24664347412751744 -0.76426446666666792 18.237283457095252 44.380744000000007 -2.5073999999999965 -6.3695624999999998 0.033337590108827177 3.9386025000000058 1.29242299897197 2.2069999999999941 42.128541546253345 34.649564250000012 1.0000000180025095e-35 33.640267500000007 71.1643397928177 21.495072000000004 1.6365024883439945 -0.17386952541764411 40.279524747826095 2.6926199999999985 1.053600000000029 20.969160000000002 2.5829999999999989
decision_type=2 2 2 2 2 2 2 2 2 2 2 2 2 2 2 2 2 2 2 2 2 2 2 2 2 2 2 2 2 2 2 2 2 2 2 2 2 2 2 2 2 2 2 2 2 2 2 2 2 2 2 2 2 2 2 2 2 2 2 2 2 2 2 2 2 2 2 2 2 2 2 2 2 2 2 2 2 2 2 2 2 2 2 2 2 2 2 2 2 2 2 2 2
left_child=1 3 5 6 16 -2 11 10 81 28 13 -1 33 14 31 50 22 18 27 43 30 40 -4 35 25 32 72 -14 52 -30 -21 -5 -23 -13 -35 68 -9 -24 39 -39 41 -18 69 62 45 -27 59 -20 49 -22 -11 -50 92 -52 -26 -28 57 -48 -37 -36 61 -44 -17 -38 65 -34 67 -65 -8 -15 -58 -72 -16 -57 -75 -12 -53 -19 -41 -29 -64 -3 -51 -69 85 91 -66 -77 -55 -84 -73 -7 -6
right_child=2 8 4 7 9 84 23 36 -10 15 75 12 17 42 26 19 21 77 47 20 48 24 37 -25 54 44 55 79 29 -31 -32 -33 64 34 46 58 63 38 -40 78 -42 -43 60 -45 -46 -47 56 -49 51 82 53 76 -54 88 -56 73 70 -59 -60 -61 -62 -63 80 66 86 -67 -68 83 -70 -71 71 90 -74 74 -76 87 -78 -79 -80 -81 -82 -83 89 -85 -86 -87 -88 -89 -90 -91 -92 -93 -94
leaf_value=-0.25745982583849181 -0.54940346769676418 0.47025066397037685 0.042921797382843421 0.083207997045990578 -0.46022143388993081 -0.36852038719989372 0.19606350339250195 0.5166703867172141 0.56654819109028987 -0.11117615420703064 0.4766504411807978 -0.042944361098376273 -0.014458389109041155 0.20328612170602695 -0.052642685663305773 -0.1583472463132142 -0.062112734564484393 0.024935755941664101 -0.076500770508124483 0.087971675381129877 -0.077893202236115844 0.12151207639527853 -0.047721993077552975 0.039180188557069083 -0.183804555855823 0.033565255891882438 0.078125545548891256 -0.36381945300043073 -0.33355659527708059 -0.034029653212348722 -0.15663596793831477 -0.17654542620338964 -0.027095412264237537 0.28717763582186395 -0.065649764978084682 0.22706622849725927 0.15374496125110032 -0.36690581218540147 -0.043154885233114143 -0.2169501510967036 -0.013322125944661038 -0.28500306970038641 0.097102403907849577 -0.1321515542571626 -0.0013386857378035455 0.26228857244420017 -0.057777188108221772 0.14850838279212841 -0.2062700292441913 -0.13508109901782958 -0.13347438619243301 -0.083790892610188961 -0.22483856237591057 -0.36316130152005821 0.0076819194236332801 0.13860696597664063 0.049853475796377687 0.13700728761634148 0.019978852935571403 0.09578467398003758 0.069596928365661295 0.31048259525446759 -0.42177270990390936 0.43584670552224236 0.040705807244881209 -0.22144261899156881 0.16940938189360324 0.15395129815439182 0.40294997410490246 0.4326636801139418 0.10615766627950232 0.15635444749969407 0.10514443221203859 0.094777523442644881 0.29144808641454145 0.19459315887088155 0.062168374422548987 0.17613888111932552 -0.056217384128357577 -0.15190589365461704 -0.22184852652614812 0.35449748245511298 -0.16767747470479927 0.31144139624536527 -0.48180216770609524 -0.4334556295145246 -0.048203619498177142 0.34219463058383759 -0.19940713495954188 -0.30392409822265731 0.31321260632564468 -0.23343826994931913 -0.25874329384244965
leaf_weight=32 1547 778 43 37 213 323 45 99 1567 32 66 46 34 35 32 39 56 36 32 61 61 42 49 48 55 32 45 33 40 34 32 36 34 60 50 34 33 73 33 35 62 57 38 53 38 62 33 37 34 38 33 32 49 275 34 67 33 32 32 47 32 94 77 169 33 36 32 42 67 84 55 33 32 35 188 48 32 37 33 32 44 158 38 54 341 548 33 99 34 119 37 54 34
leaf_count=32 1547 778 43 37 213 323 45 99 1567 32 66 46 34 35 32 39 56 36 32 61 61 42 49 48 55 32 45 33 40 34 32 36 34 60 50 34 33 73 33 35 62 57 38 53 38 62 33 37 34 38 33 32 49 275 34 67 33 32 32 47 32 94 77 169 33 36 32 42 67 84 55 33 32 35 188 48 32 37 33 32 44 158 38 54 341 548 33 99 34 119 37 54 34
internal_value=0 0.37619 -0.366054 0.213795 -0.2022 -0.495895 0.0902087 0.294715 0.525773 -0.277746 0.248573 0.044547 0.0617006 0.210271 0.153322 -0.24004 -0.0745999 -0.0353357 -0.100984 -0.193852 -0.147543 -0.0343101 -0.158218 0.225525 0.00802163 0.0453607 0.190612 -0.200141 -0.376374 -0.211632 -0.00123956 -0.0490075 -0.0270865 0.11632 0.136105 0.272128 0.392876 -0.197234 -0.235594 -0.276137 -0.127409 -0.185207 0.298929 -0.282821 0.13952 0.192682 0.101935 0.0465195 -0.185113 -0.218343 -0.316216 -0.0889717 -0.411399 -0.332611 -0.115377 0.220223 0.13862 0.0419497 0.138963 0.0135798 0.225521 0.257528 -0.324649 0.345291 -0.07699 -0.138816 0.362299 0.380341 0.337102 0.381031 0.174641 0.202842 0.028616 0.239736 0.264663 0.372768 -0.0115956 0.110905 -0.152265 -0.285682 -0.366011 0.45363 -0.257769 0.258511 -0.427716 -0.404136 -0.00380848 0.305634 -0.350234 -0.280002 0.261312 -0.354033 -0.440802
internal_weight=0 4825 5057 2322 2244 2813 925 1397 2503 1404 968 699 667 755 472 1034 840 241 168 660 447 574 266 226 399 310 399 99 370 74 93 73 178 426 380 178 429 223 174 141 175 113 283 213 132 94 320 69 354 256 374 98 296 342 89 335 223 65 66 97 164 132 160 330 136 70 297 265 112 119 158 125 64 290 223 213 64 73 68 65 121 936 195 96 1266 925 66 147 309 157 70 377 247
internal_count=9882 4825 5057 2322 2244 2813 925 1397 2503 1404 968 699 667 755 472 1034 840 241 168 660 447 574 266 226 399 310 399 99 370 74 93 73 178 426 380 178 429 223 174 141 175 113 283 213 132 94 320 69 354 256 374 98 296 342 89 335 223 65 66 97 164 132 160 330 136 70 297 265 112 119 158 125 64 290 223 213 64 73 68 65 121 936 195 96 1266 925 66 147 309 157 70 377 247
is_linear=0
shrinkage=0.023


Tree=5
num_leaves=83
num_cat=0
split_feature=39 28 28 40 40 40 20 41 0 45 8 20 66 39 11 19 58 20 7 11 32 11 61 66 66 52 66 49 57 0 66 0 19 66 16 62 66 38 66 27 38 11 38 27 54 46 65 57 64 9 20 49 19 24 16 20 46 8 10 61 66 40 0 13 9 20 38 29 0 12 49 66 66 38 41 5 41 31 38 12 0 43
split_gain=2.46153e+06 208554 187470 35877.4 27738.2 13086.4 11612.8 10294.3 9164.56 8638.24 7746.11 6467.15 8033.22 7246.96 5460.74 5457.7 5331.41 5322.48 3771.19 3748.28 3528.97 3522 3488.05 3475.84 7882.03 3221.26 3219.89 3144.35 3119.99 2748.64 3959.14 2997.98 2943.61 2739.58 2600.35 2584.65 2416.68 2346.01 2290.63 3286.95 2433.58 2287.27 2266.21 2249.82 2189.68 2159.96 2091.34 2065.49 2020.94 1938.11 1765.6 1500.74 1488.32 1486.19 1440.71 1432.32 1572.44 1426.8 1426.73 1414.83 1365.32 1364.91 1339.01 1184.82 1060.74 1059.84 1039.73 936.439 924.966 903.968 901.535 881.374 696.473 535.053 525.153 505.526 422.64 289.578 273.524 205.421 67.1136 103.471
threshold=0.01373416550345429 17.699380000000005 18.702244000000007 42.410240000000009 27.339162000000002 10.987168000000002 -6.7382716399999998 3.9466860000000001 36.407017500000002 1.0000000180025095e-35 17.753080891729716 5.8820203999999991 1.3000000000001963 -0.41550533762453873 1.0000000180025095e-35 -2.5073999999999965 0.032227986164195983 -5.9184412000000028 22.402911666666672 -13.292568600000001 0.053852601779734034 16.198076000000004 0.40845063373298424 2.6650000000000493 3.2920000000000305 0.65587091073346049 2.69700000000006 2.0197999999999641 0.2954456993486993 32.132572500000002 2.5699999999999936 60.103522500000004 7.8465449999999999 2.4669999999997576 0.16740499999999636 4.5000000000000009 3.6319999999999486 55.810329996248974 3.3389999999998285 11.287657500000007 27.035071898073028 8.135622000000005 22.004803036896057 11.08065 3.8726087911841289 17.500000000000004 3368.0749861200543 0.73293434828154413 61.147915400000009 12.586586843543119 4.6874440000000037 1.3756999999999211 4.050119324999998 0.46110630942091624 2.536065000000002 0.12257000000000408 31.500000000000004 23.691941578507947 3.815122499999998 0.64264480096562526 3.0014999999998513 47.549000000000007 71.222760000000008 75.145770000000013 18.159986920411001 3.7183419999999967 31.579515204973848 0.52468534559154356 87.491355000000013 31.614130830253583 1.7844000000000053 2.1345000000001169 2.69700000000006 17.342751017352978 42.545832000000011 32.500000000000007 44.572198000000007 1.6647920701204164 76.271027474637563 32.90508361838544 47.02015500000001 43.98980250000001
decision_type=2 2 2 2 2 2 2 2 2 2 2 2 2 2 2 2 2 2 2 2 2 2 2 2 2 2 2 2 2 2 2 2 2 2 2 2 2 2 2 2 2 2 2 2 2 2 2 2 2 2 2 2 2 2 2 2 2 2 2 2 2 2 2 2 2 2 2 2 2 2 2 2 2 2 2 2 2 2 2 2 2 2
left_child=1 4 3 17 8 60 10 -4 74 58 37 12 19 70 27 20 45 25 -19 -10 23 38 -20 55 -25 -2 66 47 35 30 75 32 48 -9 79 -12 42 -6 40 -40 73 -18 -13 -27 -22 -15 50 59 -31 -21 -36 -48 -38 -30 72 -11 -57 -43 -5 69 -3 65 -33 -64 -56 -42 -7 -44 77 -8 -14 -47 -45 -17 -1 -24 -51 -65 -35 -16 -28 -82
right_child=2 5 7 9 6 26 14 33 11 15 28 36 13 16 34 21 41 18 22 49 44 -23 29 24 -26 43 80 -29 53 31 -32 62 -34 78 46 -37 52 -39 39 -41 61 57 67 54 -46 71 51 -49 -50 76 -52 -53 -54 -55 64 56 -58 -59 -60 -61 -62 -63 63 68 -66 -67 -68 -69 -70 -71 -72 -73 -74 -75 -76 -77 -78 -79 -80 -81 81 -83
leaf_value=0.22464180254703306 0.0053215363884508947 0.54958879860480481 -0.55442986755023083 -0.4225782452828345 -0.064875849632054367 0.30869832250158147 -0.14333686774642906 -0.47204339696091852 0.090038368006395156 -0.34398738374872573 0.064411625121484462 0.12387641056139137 0.27934453534179321 -0.018051593219252534 0.35652314728882534 -0.10057644325557266 -0.21370521527056718 0.14910956320308505 0.093828529672583719 0.15720331392082607 -0.12949129589733949 -0.085160812520904364 -0.32154679754887883 0.15479987167256443 -0.25037012520325846 -0.069506920070624811 0.3833931656411631 0.20611937114493972 0.24029220388449612 0.016573688077888366 -0.023124922434832971 -0.19022780678723827 -0.1131968401768295 -0.35513701681585497 -0.058639749790628325 -0.16490007803553627 0.24339003339375415 -0.32147218060311122 0.015817934606612162 -0.2441260451078415 -0.31285992542570645 -0.071404648236554083 0.20489611549213749 -0.37206364403184305 0.10608914955108326 0.072252574740475375 0.089708985229027857 0.13690323958794279 0.23239752142972001 0.20968595923412414 0.14688477165979821 0.28022787377665304 0.029810939675968869 0.028310670863014298 -0.061952361267682089 -0.24814434826374054 -0.031133760039436305 0.10209844152132672 -0.18993667417230675 0.057657458063545108 0.45190397906098839 -0.37559596964308578 0.044615701465318319 -0.16343768251028337 -0.23790153847371406 -0.18390296614181398 0.46209820199368695 0.38719639591306548 0.00090689792714160149 0.0024688651375736753 0.13087299718311882 0.24673437553258679 -0.16869840756093921 -0.23272969911821551 0.38987007472218987 -0.13982889377433835 0.3877880387527386 -0.057291924645823819 -0.48047558430127985 0.20386303374740938 0.28170192444472952 0.15636978364142001
leaf_weight=49 46 1612 975 227 37 94 53 1240 58 69 50 35 88 34 54 38 35 41 60 53 33 57 48 39 50 59 53 48 37 55 62 55 39 427 39 41 36 45 34 87 170 62 47 55 36 32 48 41 34 41 36 59 33 33 46 41 32 32 34 48 354 283 39 55 34 98 480 198 39 35 58 53 35 133 258 32 123 33 87 56 107 40
leaf_count=49 46 1612 975 227 37 94 53 1240 58 69 50 35 88 34 54 38 35 41 60 53 33 57 48 39 50 59 53 48 37 55 62 55 39 427 39 41 36 45 34 87 170 62 47 55 36 32 48 41 34 41 36 59 33 33 46 41 32 32 34 48 354 283 39 55 34 98 480 198 39 35 58 53 35 133 258 32 123 33 87 56 107 40
internal_value=0 0.36779 -0.357876 -0.205265 0.193435 0.499591 0.0815431 -0.487158 0.256799 -0.274648 -0.0485498 0.22043 0.174914 0.105126 0.142558 -0.245478 0.0273148 -0.0870036 -0.0470677 0.269516 -0.153937 -0.274482 -0.0634653 -0.195888 -0.0743092 -0.169453 0.408623 0.0546987 0.0447711 -0.0838257 -0.166948 -0.047213 0.039834 -0.447607 0.207195 -0.043244 0.302244 -0.220717 -0.286415 -0.174161 -0.303264 -0.0731886 0.333809 -0.203738 -0.0078878 0.134379 0.14373 0.00697289 0.110629 0.312893 0.0440108 0.206151 0.15417 0.152767 -0.245414 -0.264576 -0.164781 -0.00901158 -0.398351 -0.0370155 0.533748 -0.329422 -0.0973917 -0.0597827 -0.150635 -0.271914 0.441209 0.359256 -0.0926958 -0.0893576 0.229553 0.192206 -0.311804 -0.208811 0.369401 -0.266894 0.35423 -0.131312 -0.382827 0.296525 0.302747 0.256758
internal_weight=0 4825 5057 2328 2085 2740 760 2729 1325 1461 243 1018 669 394 517 1200 248 867 592 275 300 900 551 231 89 275 774 225 161 491 142 349 128 1754 292 91 349 82 843 121 722 129 280 229 69 119 182 177 89 217 75 107 69 70 170 142 73 94 261 136 1966 551 221 166 80 268 574 245 127 88 146 85 90 171 307 80 164 88 514 110 200 147
internal_count=9882 4825 5057 2328 2085 2740 760 2729 1325 1461 243 1018 669 394 517 1200 248 867 592 275 300 900 551 231 89 275 774 225 161 491 142 349 128 1754 292 91 349 82 843 121 722 129 280 229 69 119 182 177 89 217 75 107 69 70 170 142 73 94 261 136 1966 551 221 166 80 268 574 245 127 88 146 85 90 171 307 80 164 88 514 110 200 147
is_linear=0
shrinkage=0.023


Tree=6
num_leaves=94
num_cat=0
split_feature=39 14 14 40 1 14 20 13 14 42 13 14 62 20 20 42 13 16 20 0 66 20 9 66 0 17 5 13 18 14 27 66 2 0 66 63 23 10 14 6 17 10 66 16 66 39 52 0 66 13 14 66 66 28 14 18 66 5 66 32 29 20 16 20 63 14 38 16 32 2 29 14 5 38 12 39 13 61 20 66 42 5 64 6 20 13 14 58 58 66 20 10 6
split_gain=2.3525e+06 200894 184617 40025.5 39911.4 12018.4 9951.94 9709.2 9600.21 7914.59 7840.48 6826.06 6387.05 6193.97 6147.17 4974.69 4958.58 4426.97 4596.28 4420.22 4645.43 4216.15 3852.1 3825.39 3904.99 3726.66 3627.72 3518.12 3500.29 3463.48 3273.08 3154.81 3085.73 3137.01 2985.09 2916.38 2899.51 2714.76 2690.02 2676.32 2524.08 3187.19 2431.49 2398.13 2330.25 2310.37 2261.32 2250.72 2208.38 2138.44 2562.76 1962.09 1931.61 1880.32 1864.38 1818.91 1784.3 1370.44 1345.58 1343.81 1793.36 1333.27 1331.66 1324.57 1323.37 1316.45 1300.76 1299.75 1278.48 1209.16 1112.65 1047.29 1037.13 951.785 922.391 883.043 776.41 741.161 711.604 688.038 671.474 647.516 631.08 609.738 513.685 471.446 250.65 224.852 216.594 107.327 74.3131 72.2185 55.6092
threshold=0.01373416550345429 53.253350000000005 15.312410000000002 44.002188000000011 42.545832000000011 7.3574300000000017 6.8253980000000007 38.568915000000011 59.770606000000008 18.115472000000004 34.997655000000002 29.348256000000006 4.5000000000000009 0.98609655999999657 -5.9184412000000028 18.700884000000002 32.035710000000002 3.3152349999999995 -6.6172499999999967 77.486797500000009 1.3000000000001963 4.6874440000000037 16.865139284092049 1.166999999999945 53.270070000000011 -5.7059547999999944 15.500000000000002 74.505165000000019 16.869475374622038 32.861408000000004 20.909805000000002 2.7990000000000355 1476.8505000000002 60.103522500000004 2.7990000000000355 77.811195000000012 0.51754926108374399 -30.954068249999995 20.345838000000004 45.226623020833337 -9.6645407999999975 -38.005222499999995 3.6319999999999486 9.6891375000000028 1.0000000180025095e-35 0.24876759748000563 2.7991313651663838 55.007032500000015 1.0000000180025095e-35 77.13300000000001 28.294290000000004 3.0329999999999449 1.566000000000088 3.8364580000000008 35.928990000000006 6.5923444385105912 1.3659999999996304 32.500000000000007 4.0649999999998281 0.041591805867499658 1.6777453780799567 12.623656000000002 1.8448500000000025 -8.4662380000000006 81.375829500000009 48.612418000000012 20.133863108079925 3.5858707500000002 0.034459627934140612 2471.8665000000005 1.0150248725246913 44.380744000000007 23.500000000000004 58.235089302383166 31.614130830253583 -0.20262458126920121 47.943210000000015 0.39820954341152531 -5.2332120000000009 2.998999999999882 13.591194000000003 36.500000000000007 25.710800000000003 59.381218750000009 10.639908999999998 72.931477500000014 28.294290000000004 -0.26001379313706391 -0.5577955123279047 3.100000000000009 -10.816827999999996 36.953280000000007 52.087103433566448
decision_type=2 2 2 2 2 2 2 2 2 2 2 2 2 2 2 2 2 2 2 2 2 2 2 2 2 2 2 2 2 2 2 2 2 2 2 2 2 2 2 2 2 2 2 2 2 2 2 2 2 2 2 2 2 2 2 2 2 2 2 2 2 2 2 2 2 2 2 2 2 2 2 2 2 2 2 2 2 2 2 2 2 2 2 2 2 2 2 2 2 2 2 2 2
left_child=1 4 5 14 6 -2 11 82 31 38 69 -1 40 19 22 37 34 18 35 20 74 44 25 29 26 47 -25 46 30 68 45 80 62 -34 57 -14 -27 -12 -9 -36 -13 -42 66 49 -17 -23 73 -4 -39 50 -26 84 -10 -20 67 -46 -7 70 65 60 -24 -48 -22 64 -56 -40 -15 -43 86 81 -16 -21 75 -8 -11 -65 -68 -67 -19 87 91 -5 -6 -51 -50 -70 -18 88 -57 -33 -53 -3 -30
right_child=2 8 3 10 7 56 27 9 52 13 15 12 17 42 16 21 23 78 53 71 32 28 59 24 43 36 -28 -29 92 -31 -32 89 33 -35 39 -37 -38 48 58 -41 41 54 -44 -45 55 -47 61 -49 51 83 -52 90 -54 -55 63 79 -58 -59 -60 -61 -62 -63 -64 72 -66 77 76 -69 85 -71 -72 -73 -74 -75 -76 -77 -78 -79 -80 -81 -82 -83 -84 -85 -86 -87 -88 -89 -90 -91 -92 -93 -94
leaf_value=-0.25314583445929995 -0.52526689210444044 0.50214607197517136 0.12422716951962867 -0.43908429798773502 0.20657995832163673 -0.46895184835606896 0.18832580058000284 0.49289203386628228 0.58889731786090704 0.076741936134657046 -0.10377354524017106 -0.042815647929291788 -0.28215776009821103 0.12078336198040038 -0.12316162815048903 -0.046806623470843904 -0.08725312647689365 0.1653340402214018 -0.076840427289065219 0.090754156802795319 -0.022773730962634391 -0.058605599581340033 -0.25185132338377442 0 0.20091388286390183 -0.28410945429468237 0.27630066601549769 0.034756233488457113 -0.27476594061251508 0.090037581947874326 -0.15081820563621506 0.21051095805069744 0.19787668177097315 -0.078237908406841292 -0.16140967579416537 -0.023497766311496967 -0.015882870533787615 -0.1601825450142764 0.12622073782880608 0.084558053781182224 0.27838884589930701 -0.064798963768944076 0.10751306656271362 -0.16115324034577325 -0.091429995865167951 0.17599597728805039 0.21914516480003662 -0.10649064903040878 -0.39839519496054926 -0.13430958973845758 -0.024788641501055544 -0.25745648143570415 0.49874370317464289 0.14286402343963661 -0.056608965124740798 -0.27326441725287831 -0.37905596503267291 -0.085514758348929715 0.12113088726997376 -0.3293001819153627 -0.04008669051847738 0.0164256658187046 -0.22937775892459106 0.081308242927981805 0.13215686315040248 0.15933320774333945 0.16543754219745696 0.092297857994862023 -0.24793157318714362 -0.23643379767537964 -0.33271141138974492 0.25986566293804458 0.039594705335359838 0.38986229645933151 0.26132623559328633 0.23709281124948581 0.34234289416381347 0.34247013030297835 0.020142504228255885 -0.16873955843319982 0.3663023681784735 -0.25892603642399903 0.40122316527147972 -0.0021711064444953796 -0.21672659829857488 -0.11279246031565822 -0.00024849950859640697 -0.36304674082119037 -0.13050461006528549 0.35348027906720597 -0.13688557744263183 0.33010156518652883 -0.13760294865712561
leaf_weight=32 1547 475 45 217 35 430 45 55 700 34 42 46 62 33 35 32 33 40 32 38 32 38 48 45 46 52 50 48 38 40 62 46 38 36 36 37 35 59 33 44 60 50 56 41 37 38 34 32 238 32 50 38 867 37 33 61 726 44 37 74 40 32 32 38 32 33 38 47 43 63 50 94 32 67 38 88 177 229 33 52 166 54 329 36 40 52 32 103 32 188 43 61 32
leaf_count=32 1547 475 45 217 35 430 45 55 700 34 42 46 62 33 35 32 33 40 32 38 32 38 48 45 46 52 50 48 38 40 62 46 38 36 36 37 35 59 33 44 60 50 56 41 37 38 34 32 238 32 50 38 867 37 33 61 726 44 37 74 40 32 32 38 32 33 38 47 43 63 50 94 32 67 38 88 177 229 33 52 166 54 329 36 40 52 32 103 32 188 43 61 32
internal_value=0 0.359564 -0.349849 -0.199981 0.204489 -0.479468 0.0863128 0.281865 0.502403 0.242341 -0.283763 0.0423616 0.05916 0.189019 -0.0919479 -0.247209 -0.0529375 -0.0347579 -0.0987361 0.117757 0.0490156 -0.193322 -0.173703 -0.0128877 0.0387632 -0.0889115 0.154924 0.216573 -0.106988 -0.0891116 -0.0353332 0.433116 -0.0299824 0.068304 -0.144976 -0.193956 -0.186029 -0.30468 0.326145 -0.0301055 0.112036 0.131294 0.264472 -0.018435 -0.246216 0.0635628 0.262177 0.027153 -0.322685 0.0224574 0.0896933 -0.345604 0.541575 0.0430675 0.0980492 -0.266799 -0.415247 -0.210616 0.288443 -0.25187 -0.16628 0.132595 -0.139307 0.133707 0.0399644 0.30592 0.295737 0.012232 -0.136011 -0.383903 -0.263241 0.218654 0.168665 0.325559 0.18954 0.197308 0.317639 0.324433 0.107784 -0.289511 0.46279 -0.411002 0.386999 -0.0716517 -0.378551 -0.187513 -0.0490881 -0.314229 -0.237446 0.332689 -0.210318 0.487307 -0.231277
internal_weight=0 4825 5057 2354 2322 2703 925 1397 2503 1033 1319 699 667 646 1035 985 709 241 168 342 210 525 326 500 300 164 95 226 208 200 138 936 138 74 209 99 87 460 387 80 426 380 304 205 317 76 178 77 418 164 96 359 1567 69 320 285 1156 129 332 162 88 66 64 223 65 295 248 97 160 334 85 132 158 112 72 126 215 262 73 248 702 271 364 68 278 95 65 196 93 234 81 536 70
internal_count=9882 4825 5057 2354 2322 2703 925 1397 2503 1033 1319 699 667 646 1035 985 709 241 168 342 210 525 326 500 300 164 95 226 208 200 138 936 138 74 209 99 87 460 387 80 426 380 304 205 317 76 178 77 418 164 96 359 1567 69 320 285 1156 129 332 162 88 66 64 223 65 295 248 97 160 334 85 132 158 112 72 126 215 262 73 248 702 271 364 68 278 95 65 196 93 234 81 536 70
is_linear=0
shrinkage=0.023


Tree=7
num_leaves=97
num_cat=0
split_feature=39 14 14 28 40 14 20 8 14 13 1 20 11 28 20 14 66 6 66 20 19 13 24 52 66 7 16 66 66 13 66 66 5 13 53 2 19 28 0 20 28 13 39 66 29 14 11 33 11 16 53 24 13 24 32 66 49 66 14 7 24 66 61 65 7 11 9 38 66 19 64 1 20 7 28 61 28 57 19 13 58 2 51 64 66 2 63 19 0 31 28 61 38 0 7 66
split_gain=2.24867e+06 191586 175836 38183.5 35848.4 14212.3 12711.5 9654.5 9195.78 7662.62 6451.2 5903.82 4985.97 4981.42 4688.07 4666.63 4632.36 5279.41 4154.39 4087.99 3961.27 3915.45 3816.71 3757.32 3751.05 3678.43 3338.39 3302.13 3104.18 3070.03 2977.77 2977.63 2892.16 2854.64 2790.51 2768.85 2682.25 2631.87 2507.68 2507.16 2480.23 2430.85 2413.49 4133.56 2364.25 2523.76 2161.04 2112.28 2086.24 2675.11 2630.39 1980.02 1951.85 1930.89 1930.02 1806.1 1756.01 1750.76 1735.68 2141.7 1701.43 1477.84 1451.75 1404.02 1492.85 1397.17 1367.6 1353.22 1416.57 1275.54 1239.4 1157.44 1025.44 1013.12 943.254 895.079 781.328 776.252 729.867 653.425 650.534 648.479 629.76 610.495 515.941 511.872 504.419 475.368 416.586 373.776 311.891 200.088 153.837 104.994 86.4531 67.6654
threshold=0.01373416550345429 53.253350000000005 16.121202 11.613108000000006 42.410240000000009 7.3574300000000017 5.5767819999999988 18.147829242783057 62.410706000000005 34.997655000000002 53.223328000000009 -6.8567698000000012 -25.231603999999994 15.265082000000001 -5.9184412000000028 37.384054000000006 1.3000000000001963 41.431470937500002 4.0649999999998281 -5.0042560000000007 -2.6508300000000005 32.035710000000002 0.28062500000000007 0.65587091073346049 3.0659999999998893 50.470620529870139 0.46559099999999698 1.0000000180025095e-35 2.2000000000002804 35.482072500000008 1.0000000180025095e-35 2.7990000000000355 43.500000000000007 72.931477500000014 23.855502805209365 2471.8665000000005 1.9802475000000028 12.348596000000002 70.348792500000016 -1.0101740000000026 20.630656000000005 40.748925000000007 -0.44370138644385232 1.5989999999997624 2.3041814138384917 38.19077200000001 -3.7191920000000054 7.5000000000000009 6.3904020000000017 2.3386125000000031 32.981131968639041 0.57229965156794427 45.979290000000006 0.63548951048951052 0.052296466254860723 2.4669999999997576 1.4192000000000011 0.7999999999993862 27.953644000000004 25.189656963636363 0.57066052227342567 0.53299999999995162 0.61728605468799147 5934.5832227523333 35.664329771794876 32.99788740000001 14.423600325125475 33.555334625377093 2.833000000000141 9.9668100000000006 49.92600800000001 39.055222000000008 9.3761120000000009 35.812197166666671 9.375160000000001 0.55713323999528785 18.536562000000004 0.071996967761435882 -1.8591825000000026 47.006872500000007 0.43392900245185256 1411.6500000000003 59.483000000000182 16.525700000000004 1.4995000000001257 906.53350000000012 22.750559999999997 14.291445000000005 41.522722500000008 1.4151902055967251 3.4887740000000016 0.62728464308559084 24.053403819640334 54.405750000000005 29.690156222222225 1.0320000000000962
decision_type=2 2 2 2 2 2 2 2 2 2 2 2 2 2 2 2 2 2 2 2 2 2 2 2 2 2 2 2 2 2 2 2 2 2 2 2 2 2 2 2 2 2 2 2 2 2 2 2 2 2 2 2 2 2 2 2 2 2 2 2 2 2 2 2 2 2 2 2 2 2 2 2 2 2 2 2 2 2 2 2 2 2 2 2 2 2 2 2 2 2 2 2 2 2 2 2
left_child=1 3 5 6 14 95 7 11 28 32 18 16 -9 19 23 73 -1 -18 25 54 38 31 -8 -4 27 39 47 -15 -3 36 -12 82 35 34 56 -6 84 -37 -21 41 93 -5 -43 -44 45 57 -33 70 50 -50 51 88 -28 81 67 76 -24 -31 59 86 -20 -41 -59 64 66 80 -54 -11 -69 -35 83 -58 -68 -13 -61 -26 -7 -63 -29 -79 91 -17 89 -23 -14 -76 -22 -57 -25 -16 -66 -47 -81 -30 -87 -2
right_child=2 8 4 10 9 55 22 12 -10 13 30 15 29 24 21 53 17 -19 60 20 58 26 33 48 75 -27 52 78 40 44 -32 46 -34 69 -36 37 -38 -39 -40 61 -42 42 43 -45 -46 65 -48 -49 49 -51 -52 -53 63 -55 -56 87 71 62 -60 74 -62 77 -64 -65 90 -67 72 68 -70 -71 -72 -73 -74 -75 85 -77 -78 79 -80 92 -82 -83 -84 -85 -86 94 -88 -89 -90 -91 -92 -93 -94 -95 -96 -97
leaf_value=0.079095181887721328 -0.57219913090305485 0.47631652199676677 0.042420815623422738 0.35308191107056552 -0.41878137662526099 -0.30880857264661432 -0.011410881831872327 -0.092478028371175275 0.54493924180526376 -0.14359882585667322 0.20518853424365041 -0.15727732473807154 0.15777452953991761 -0.14288738385839375 -0.1238681236356876 0.088325997246737398 0.029412464039926315 -0.3131121153604346 0.18059387659110859 0.083630701487105719 -0.0013319575411355525 0.015230643213098591 0.18423641215011502 -0.2971984390857258 -0.19718691861659818 0.10566640731196315 0.093945209212142014 -0.2356515796696648 0.29244457518788192 -0.090250557292226363 0.5086040417424792 0.11206469208621538 -0.1596974860335281 0.18422881772042779 0.12842751066079078 -0.041644569086361174 0.091727799508844271 -0.32869473988134373 -0.14641903748879068 0.15839706818723259 0.40453003876853832 0.27088282408146314 0.22889258330075066 -0.030581736478378363 -0.069978376594429875 0.26311473532928648 -0.12195941974744016 0.24475013027057699 -0.39431484388289539 -0.10882393668653126 0.052691052372522335 -0.021711951328802583 -0.078515443936574419 0.015788543180645449 -0.12102244090085007 -0.3535639973164435 0.24048048273169234 -0.020529046566665318 -0.0085191192563253519 -0.095851889970820045 -0.017438717897005056 0.41291898547814476 0.16880254851447213 -0.18208437019896023 -0.16370881491935513 0.033391146341867864 0.13712336347395809 -0.39903015913330375 -0.16152674864746502 0.006007887272970051 -0.066841446398627061 0.45077384091058997 -0.024195294299805135 0.0013545696756434493 -0.150034044193183 -0.030091755620051203 -0.43714903499421315 0.17164144481798124 -0.39686581261983583 0.18574966629592718 0.080140262499792891 0.25429603673759882 -0.085090375515867914 0.1545967188037507 0.34095701073073481 -0.16530370164839611 -0.11898544383760276 -0.22099037263675991 -0.13389839097364062 -0.28734311810065039 -0.053096546396514434 0.14660728484639285 0.34980889188461611 0.16060949661700608 -0.29708544657370839 -0.49023868078701877
leaf_weight=34 385 844 43 81 250 114 32 46 1158 38 37 40 33 57 32 32 32 73 63 59 34 32 58 37 32 63 43 63 33 35 115 36 52 50 61 32 62 36 33 38 414 101 62 58 33 72 33 32 42 39 32 35 45 50 53 305 57 34 32 42 32 193 44 37 32 36 43 88 33 35 32 79 32 38 61 36 779 47 189 33 32 45 35 33 70 39 39 68 38 39 38 53 133 54 106 1162
leaf_count=34 385 844 43 81 250 114 32 46 1158 38 37 40 33 57 32 32 32 73 63 59 34 32 58 37 32 63 43 63 33 35 115 36 52 50 61 32 62 36 33 38 414 101 62 58 33 72 33 32 42 39 32 35 45 50 53 305 57 34 32 42 32 193 44 37 32 36 43 88 33 35 32 79 32 38 61 36 779 47 189 33 32 45 35 33 70 39 39 68 38 39 38 53 133 54 106 1162
internal_value=0 0.351548 -0.342032 0.200106 -0.18925 -0.463097 0.113877 0.065855 0.49104 -0.260129 0.301969 -0.0293414 0.125042 -0.224659 -0.0695324 0.0487222 -0.141315 -0.213393 0.274054 -0.182313 -0.138578 -0.0316912 0.225734 -0.148078 -0.293529 0.291235 0.00845378 -0.327868 0.441926 0.145977 0.447678 -0.120021 -0.35293 0.24789 0.286832 -0.380165 0.227029 -0.211051 -0.00335319 0.3057 0.377937 0.24055 0.189233 0.108737 0.102506 0.122378 -0.000518525 0.101567 -0.185091 -0.277478 -0.121247 -0.172173 -0.0374535 0.131955 -0.266342 -0.399212 0.330061 0.032819 -0.172975 -0.188746 0.117179 0.345356 0.0913097 -0.0645937 -0.0357068 0.171591 0.0140933 -0.307205 -0.347312 0.117372 0.0402871 0.379537 0.0719736 -0.0862234 -0.220741 -0.120523 -0.423427 0.359692 -0.36442 0.299274 0.200249 0.199216 -0.192562 0.0947692 0.296802 -0.241944 -0.069577 -0.334161 -0.233955 -0.232376 -0.114645 0.224705 0.326526 0.229628 -0.271414 -0.513242
internal_weight=0 4825 5057 2322 2244 2813 1266 894 2503 1404 1056 344 550 1034 840 205 139 105 904 657 445 574 372 266 377 809 399 309 1345 504 152 175 370 340 255 318 165 68 92 746 501 302 221 120 339 306 69 129 223 81 142 110 270 127 212 1266 194 113 353 321 95 444 78 227 190 193 120 159 121 85 97 136 75 78 248 68 893 406 252 213 157 77 106 65 103 206 73 373 75 71 70 125 166 87 145 1547
internal_count=9882 4825 5057 2322 2244 2813 1266 894 2503 1404 1056 344 550 1034 840 205 139 105 904 657 445 574 372 266 377 809 399 309 1345 504 152 175 370 340 255 318 165 68 92 746 501 302 221 120 339 306 69 129 223 81 142 110 270 127 212 1266 194 113 353 321 95 444 78 227 190 193 120 159 121 85 97 136 75 78 248 68 893 406 252 213 157 77 106 65 103 206 73 373 75 71 70 125 166 87 145 1547
is_linear=0
shrinkage=0.023


Tree=8
num_leaves=91
num_cat=0
split_feature=39 42 28 1 28 28 20 8 42 66 20 38 66 19 11 38 20 20 27 66 66 38 66 61 16 7 66 43 66 1 13 1 27 19 10 12 11 32 30 24 11 30 7 20 24 2 13 13 17 1 7 53 58 21 35 11 33 6 64 33 27 27 28 11 38 28 66 52 39 13 42 16 53 54 52 61 22 18 61 61 11 0 13 33 2 19 33 43 27 6
split_gain=2.16698e+06 183465 165814 24508.4 22707.2 16809.8 8074 8685.21 6359.19 6247.21 5644.16 5566.95 7407.51 6882.61 5185.81 4911.84 4812.39 4597.23 4866.8 4051.33 3855.21 3853.55 4149.35 3820.24 3722.67 3486.8 3204.93 3073.25 3971.55 2944.07 2966.2 2669.58 2571.05 3193.12 2532.1 2342.04 2384.19 2314.01 2190.74 2140.03 2795.97 2126.55 2119.03 2087.23 1979.53 1970.36 1965.61 1960.45 1719.88 1686.31 1878.64 2702.24 1605.62 1586.95 1553.96 1545.86 1544.67 1509.5 1472.39 2250.32 1436.23 1376.66 1373 1356.57 1529.24 1867.49 1761.65 1312.66 1298.5 1225.74 1222.44 1360.79 1030.29 987.724 976.443 890.59 815.365 646.399 498.337 1037.37 498.176 376.387 334.311 332.072 278.39 256.029 186.626 95.6568 94.997 1.60838
threshold=0.01373416550345429 14.893394000000002 15.265082000000001 44.572198000000007 25.014752000000005 9.2250840000000007 7.7240520000000048 18.318043970896593 6.8490620000000009 2.1909999999999177 -11.374835999999997 70.030395638534614 5.6455000000000277 -6.5436525000000056 -25.231603999999994 81.570137995764824 -8.5770099999999996 4.8087559999999963 18.025560000000002 3.7659999999997926 3.6319999999999486 75.804284713005572 2.731999999999744 0.38926824123551079 4.6600049999999991 20.357661500000003 2.2000000000002804 89.472705000000019 1.9669999999997574 35.618128000000006 45.137452500000002 40.816966000000008 10.563577500000003 9.2165325000000013 -25.907017499999998 25.307815063264616 -14.174821 0.053852601779734034 2.1525535193418923 0.63548951048951052 -7.157781999999993 1.7358519980651179 52.985786405000006 -2.4698246000000004 0.57066052227342567 2471.8665000000005 50.68413000000001 79.127422500000009 -1.4749302000000015 40.816966000000008 34.753880111111123 15.180699646278535 0.49976642334484805 3.5000000000000004 0.52190476190476198 13.454310000000001 15.500000000000002 54.688564411764709 32.721226000000009 6.5000000000000009 8.267122500000001 36.89269500000001 31.583960000000001 -15.752390400000001 44.680280099266177 11.613108000000006 3.0329999999999449 10.29403102164126 0.34394832197443609 45.700672500000003 28.149654000000002 2.7779850000000015 14.504342159400609 10.526833938139188 1.9168627952157653 0.52842464583822213 4.5000000000000009 11.222939866230105 0.68775790921596902 0.40140858253691514 -4.4651044000000004 55.360830000000014 52.226002500000007 6.5000000000000009 2199.5670000000014 -2.7964650000000026 1.0000000180025095e-35 38.986815000000007 36.89269500000001 53.631401250000003
decision_type=2 2 2 2 2 2 2 2 2 2 2 2 2 2 2 2 2 2 2 2 2 2 2 2 2 2 2 2 2 2 2 2 2 2 2 2 2 2 2 2 2 2 2 2 2 2 2 2 2 2 2 2 2 2 2 2 2 2 2 2 2 2 2 2 2 2 2 2 2 2 2 2 2 2 2 2 2 2 2 2 2 2 2 2 2 2 2 2 2 2
left_child=1 8 5 6 21 10 7 16 -1 34 19 12 13 43 -9 44 31 58 -19 45 24 22 67 86 60 -25 -10 28 32 -18 -31 46 33 -27 89 -30 -37 47 54 40 -32 -29 56 -5 49 83 -3 55 -39 50 51 -16 53 -17 73 -36 63 72 -11 81 -8 70 -6 -15 65 -65 -66 -4 -50 -28 77 -72 -26 78 -52 -73 -38 -34 79 -24 -49 -60 -71 -2 -51 -67 -12 -62 -87 -7
right_child=2 3 4 11 62 9 20 14 26 17 23 -13 -14 42 15 52 29 18 -20 -21 -22 -23 38 25 57 27 69 41 35 30 39 -33 61 -35 37 36 76 48 -40 -41 -42 -43 -44 -45 -46 -47 -48 80 68 84 74 -53 -54 -55 -56 -57 -58 -59 59 -61 87 -63 -64 64 66 85 -68 -69 -70 82 71 75 -74 -75 -76 -77 -78 -79 -80 -81 -82 -83 -84 -85 -86 88 -88 -89 -90 -91
leaf_value=0.51643186479133352 -0.33176104824243252 -0.2874439174825581 -0.36743378664379411 -0.042197145447265001 -0.45721971922787308 -0.42524674708003468 0.1665333497201347 -0.079824300282952093 0.46486944759201082 -0.066034709527378999 0.047977217519632132 0.37244048600237656 -0.069455139915056655 0.1392543068237421 0.13455799735491605 0.1637353736262997 -0.087564974007452723 0.14144144383882756 -0.15043304222831316 -0.0048887823802688289 0.035157648315765032 -0.44481695829509998 -0.16935912631675773 0.14120535574189885 0.28472600581442242 0.10433531548937965 0.4467818422072421 -0.083412939722805834 -0.09923799826162058 0.26737340851964359 -0.051041387527387315 0.030476463530500469 -0.11723235274172579 -0.15483049268800467 -0.3469668547723791 -0.030990763434772025 0.23202713577682271 -0.23705381978839696 -0.051459611626981781 -0.0715758726911562 0.1967721777666035 -0.32380459810198009 0.080943170010902649 0.17534428294110241 -0.017165420658846735 -0.071355384997191573 -0.043938097887063453 -0.20801871951977277 0.05027477669048553 0.23701898872420657 0.065148557559323833 -0.072058221580802467 0.104309803660741 0.40053655075992511 -0.11358456151992025 -0.14093460184947545 0.11243343271956539 0.027899911543531598 -0.35102635921931002 -0.075808982303551209 0.23023686917152719 0.003421567632555592 -0.53513435386094721 0.074700534497537927 0.39442744550632225 0.16069259250447862 0.18053392422594292 -0.16931489399270602 -0.13851304990568841 0.17066917154984204 -0.015492104851928239 -0.045179589580809212 0.095517631040976617 -0.12714113309941522 0.22285766945254371 -0.20605373878408556 0.066917879609834585 -0.25928796849051844 -0.1724386134401589 -0.37365905807897593 -0.075749310024460947 -0.19102963515589783 0.33155329119970489 -0.16992130387105692 0.11949186458196091 0.30912875030359527 0.14283842078829539 0.4386951430633283 0.19535930228539003 -0.23234421065550742
leaf_weight=1392 79 43 834 50 1223 78 37 47 767 41 32 257 36 46 57 40 52 49 58 47 51 288 36 32 39 57 134 47 52 36 34 38 50 34 173 62 33 42 32 48 58 38 35 33 49 33 32 52 32 79 44 63 32 62 44 38 38 40 56 42 32 33 596 33 198 41 44 37 32 33 63 33 40 32 56 57 41 67 38 124 38 53 296 38 44 222 32 67 59 34
leaf_count=1392 79 43 834 50 1223 78 37 47 767 41 32 257 36 46 57 40 52 49 58 47 51 288 36 32 39 57 134 47 52 36 34 38 50 34 173 62 33 42 32 48 58 38 35 33 49 33 32 52 32 79 44 63 32 62 44 38 38 40 56 42 32 33 596 33 198 41 44 37 32 33 63 33 40 32 56 57 41 67 38 124 38 53 296 38 44 222 32 67 59 34
internal_value=0 0.345036 -0.331812 0.194735 -0.428591 -0.152024 0.122693 0.0871915 0.476648 -0.228389 -0.0856982 0.273852 0.240516 0.255013 0.141328 0.161954 -0.00476566 -0.139063 -0.0160728 -0.193532 0.224159 -0.35673 -0.332547 -0.0562564 0.259841 -0.0720365 0.428825 -0.0837191 -0.0631395 0.055766 0.10004 -0.123064 -0.104058 0.00296299 -0.277164 0.0231815 0.0728204 -0.241265 -0.246304 0.0457371 0.107938 -0.208241 0.277849 0.0512235 0.116954 -0.249523 -0.19694 -0.274987 -0.133756 0.136138 0.0926458 0.027992 0.280589 0.325022 -0.267052 -0.315921 0.28697 0.150962 -0.20439 -0.237034 0.342406 -0.135587 -0.484798 0.295871 0.306073 0.261321 0.362055 -0.360521 -0.0483137 0.362778 -0.152303 -0.101092 0.205374 -0.291917 0.162833 -0.155118 0.155053 -0.209216 -0.312967 -0.337225 -0.162281 -0.290301 0.319539 -0.292449 0.204203 0.278296 0.105499 0.39197 0.290873 -0.38468
internal_weight=0 4934 5062 2312 3284 1778 1220 914 2622 818 960 1092 835 799 573 526 341 299 107 197 306 1465 1177 763 255 699 1230 667 582 228 176 113 394 91 519 188 136 407 306 140 92 85 716 83 392 150 75 301 106 343 220 120 134 102 274 211 681 119 192 151 136 303 1819 643 597 355 242 871 64 463 270 153 79 230 100 90 74 117 198 160 90 109 329 117 123 322 64 99 281 112
internal_count=9996 4934 5062 2312 3284 1778 1220 914 2622 818 960 1092 835 799 573 526 341 299 107 197 306 1465 1177 763 255 699 1230 667 582 228 176 113 394 91 519 188 136 407 306 140 92 85 716 83 392 150 75 301 106 343 220 120 134 102 274 211 681 119 192 151 136 303 1819 643 597 355 242 871 64 463 270 153 79 230 100 90 74 117 198 160 90 109 329 117 123 322 64 99 281 112
is_linear=0
shrinkage=0.023


Tree=9
num_leaves=103
num_cat=0
split_feature=39 14 14 42 40 14 14 20 14 24 20 13 27 42 66 66 43 19 53 19 66 66 7 14 27 66 13 1 10 9 52 2 66 19 13 8 28 66 40 19 20 58 8 20 20 9 17 66 13 52 0 2 19 1 54 20 63 39 62 19 64 7 39 6 2 18 18 13 66 19 52 54 39 52 29 32 20 9 51 2 43 7 66 14 2 21 19 17 66 27 49 66 13 1 0 53 20 10 0 11 53 14
split_gain=2.07124e+06 176134 165064 36211.1 35798.7 11793 11593.6 9273.74 8609.06 7664.78 6651.05 5983.78 5116.9 5067.29 5026.56 4885.73 4548.9 5175.81 5422.04 4508.12 3927.68 5757.62 4668.44 4411.39 3870.84 3677.6 3577.49 3476 3398.11 2939.99 4699.41 3557.19 2901.88 5120.6 2804.28 2787.25 2680.74 2680.35 2675.37 2533.47 2475.23 2451.37 2506.89 2435.37 2336.91 2211.7 2743.44 2203.58 2203.34 2194.16 3619.23 2121.97 2054.83 1937.97 1848.64 1824.14 1772.69 1714.81 1646.49 1861.77 3163.56 1574.25 1501.87 1498.78 1460.86 1448.33 1429.11 1422.45 1420.74 1684.87 1392.28 1385.26 1380.6 1294.93 1246.68 2902.13 2403.19 1397.19 1168.64 1360.7 1029.87 982.933 970.182 957.692 922.462 912.159 786.845 755.251 716.559 710.458 694.449 627.996 534.89 415.574 399.98 328.136 272.453 200.226 137.452 60.5347 38.9604 20.846
threshold=0.01373416550345429 53.529430000000005 15.6043 21.884304 44.002188000000011 7.3574300000000017 24.110828000000001 6.8253980000000007 64.081323200000014 0.53896761133603255 -11.374835999999997 30.792877500000003 18.371377500000001 14.400598000000004 1.9010000000001528 5.6455000000000277 97.104241500000015 10.354627500000001 3.6920473621189811 6.9598200000000014 2.0330000000005843 1.0000000180025095e-35 19.253402888888893 27.953644000000004 18.371377500000001 3.7659999999997926 11.400795 38.294200000000011 8.3217750000000041 15.403756899525527 1.3585031235215428 1946.9000000000003 3.6319999999999486 14.054564999999995 71.560282500000014 14.230737589300521 20.630656000000005 1.0000000180025095e-35 26.587422000000004 0.11854499999999747 -9.9133187999999972 0.32966700323956505 26.545666672765091 -6.4869007999999999 10.982339999999999 19.734719100419245 -3.9286660000000011 1.3469999999999909 23.347275000000003 6.1117454104503457 46.673130000000008 2934.5335000000005 -6.3695624999999998 19.696744000000006 11.157331575141841 6.0458800000000084 66.09630300000002 -0.27083386132292436 4.5000000000000009 1.1533199999999992 58.179106800000007 32.321181055555563 -0.36734061772225529 48.154429915540554 2507.3165000000004 12.55355037581349 28.510578944135236 66.89481750000003 2.0670000000002351 -1.7377499999999981 1.4534740202013332 5.2136912405907943 -0.10639671864466022 1.7627180779994795 1.7510389968164397 0.042548415922807691 4.3075959999999975 14.325808434156585 16.46650000000005 1910.9890000000003 79.536502500000012 36.61600686293707 1.8999999999997501 30.823652000000006 2471.8665000000005 25.500000000000004 -4.5034499999999964 -10.768235199999999 1.0320000000000962 26.941267500000006 1.4731999999999987 2.7330000000002888 45.700672500000003 29.002204000000003 66.281250000000014 24.395205437191631 10.639908999999998 22.097827500000005 63.736785000000005 -0.3285420000000005 2.0086271768831048 46.801102000000007
decision_type=2 2 2 2 2 2 2 2 2 2 2 2 2 2 2 2 2 2 2 2 2 2 2 2 2 2 2 2 2 2 2 2 2 2 2 2 2 2 2 2 2 2 2 2 2 2 2 2 2 2 2 2 2 2 2 2 2 2 2 2 2 2 2 2 2 2 2 2 2 2 2 2 2 2 2 2 2 2 2 2 2 2 2 2 2 2 2 2 2 2 2 2 2 2 2 2 2 2 2 2 2 2
left_child=1 3 5 13 10 88 -5 9 14 27 25 84 19 37 -3 28 17 24 -19 40 21 23 -22 -13 29 64 -26 35 55 31 -31 -12 33 49 71 -8 -16 -1 -14 43 -11 57 90 -30 53 74 -47 -7 73 50 -9 92 -50 97 66 68 93 62 59 80 -61 -32 -29 -42 87 94 -49 -46 69 -15 -34 -20 96 -28 76 -76 77 -24 -40 -80 -37 -70 95 89 99 101 -45 -4 -2 -58 -43 -83 -38 -54 -55 100 -52 -23 -67 -6 -59 -41
right_child=2 8 4 6 11 47 7 32 -10 12 16 20 38 15 36 -17 -18 18 34 -21 22 44 45 -25 26 -27 48 41 39 30 61 -33 70 -35 -36 58 51 -39 78 85 63 42 -44 86 67 46 -48 54 52 -51 72 -53 56 65 -56 -57 83 82 -60 60 -62 -63 -64 -65 -66 98 -68 -69 81 -71 -72 -73 -74 -75 75 -77 -78 -79 79 -81 -82 91 -84 -85 -86 -87 -88 -89 -90 -91 -92 -93 -94 -95 -96 -97 -98 -99 -100 -101 -102 -103
leaf_value=0.20137113350906122 -0.5514086526132389 0.47633699252404327 -0.1333076031107939 -0.25380324275714278 -0.32584324747914739 -0.43685702025835016 -0.11356848626367509 0.44714739470727344 0.53504136940021718 -0.31479113122882801 -0.12555342209504952 -0.19864463003009808 0.18943810964882118 0.15306921236145793 0.22072233170877828 0.0095978830388114365 -0.28798834603554724 0.045414592907129347 -0.14849915927884302 0.11508504394356531 0.065238389563883406 -0.41375588826533166 -0.17003130556082402 0.098663826179193795 0.14378018372645904 -0.013759394860288815 -0.27747770983450892 0.18607759941565363 -0.02178723577087072 -0.072024745514206859 0.34240344789357219 0.12658474802116135 0.16499981676674363 0.044348840225020003 -0.052179266729666246 0.11313847223440533 0.46996600224402868 0.48956407822095432 -0.074904000095981152 0.16760025430882758 -0.1787650907143174 0.054694489722808007 0.19999439249072973 0.25801987523833908 -0.029618269825311561 0.016452621688586654 -0.20664089332620644 -0.36782038364986963 0.11318175685723723 0.092246763954939137 0.14818775573152926 0.16315193443011142 -0.028753384066489158 -0.071285912240099975 -0.18235181883684892 0.3999645699940732 -0.21517629711716263 0.14684313569574375 -0.0055529803266724242 -0.076443607927964244 0.19567205781158681 0.12573490873047621 -0.011583690821896983 0.01887199499486035 -0.084560494373121797 -0.36170121833482788 -0.16312124543597462 -0.23526165167047333 0.058311437762552702 0.355454461829465 -0.031735506197271758 -0.37464738166582978 0.077205627237696917 -0.060671856457950507 -0.25782538033114494 -0.015975002934067246 -0.089755839918622904 -0.38312078874519812 0.14242199955951601 -0.041638636213378342 0.30190574057987934 0.11234711249669393 0.33181046619213383 -0.019746881812482402 -0.2134981708939141 0.11628990817703221 0.08866578978842031 -0.31760973960828198 -0.4658337491639305 -0.07673199119711778 -0.081300646920543895 0.29698110073371897 0.36652606698337625 0.07091344404299528 -0.19612524192606848 0.09272183079503607 0.30821472385942034 -0.27336385637700966 -0.20413076387172907 -0.47442959759883957 0.26907645365083477 0.29313295648084514
leaf_weight=38 379 875 32 37 139 437 33 84 918 36 61 77 62 45 86 37 32 58 42 32 37 158 44 33 39 49 32 44 40 35 34 45 33 54 44 51 198 111 46 37 33 33 44 41 32 56 51 661 33 32 32 34 37 34 58 175 44 46 61 45 33 58 32 38 34 60 36 42 33 151 32 45 34 32 51 50 38 80 41 33 32 32 73 46 51 36 38 91 1190 54 32 34 420 38 55 33 65 80 47 71 34 205
leaf_count=38 379 875 32 37 139 437 33 84 918 36 61 77 62 45 86 37 32 58 42 32 37 158 44 33 39 49 32 44 40 35 34 45 33 54 44 51 198 111 46 37 33 33 44 41 32 56 51 661 33 32 32 34 37 34 58 175 44 46 61 45 33 58 32 38 34 60 36 42 33 151 32 45 34 32 51 50 38 80 41 33 32 32 73 46 51 36 38 91 1190 54 32 34 420 38 55 33 65 80 47 71 34 205
internal_value=0 0.337324 -0.324402 0.195371 -0.179665 -0.444225 0.115511 0.127281 0.471139 0.0880688 -0.0767213 -0.260005 -0.00334244 0.296234 0.43251 0.271056 -0.0460777 -0.0334977 -0.135758 -0.105495 -0.231454 -0.269536 -0.169844 -0.108667 0.000594723 -0.191261 -0.0468483 0.134477 0.282015 0.0722022 0.143746 -0.0170513 0.224972 0.254881 -0.214301 0.0662195 0.37636 0.42905 0.0756134 0.223125 -0.174801 0.179149 0.0796972 0.122315 -0.302293 -0.19422 -0.0960867 -0.382681 -0.0731617 0.298223 0.324741 0.394183 -0.0397913 -0.323959 -0.347411 0.327536 -0.0658512 0.217156 0.0958098 0.132926 0.0453058 0.225325 0.108854 -0.0807961 -0.243447 -0.249181 -0.359081 -0.157262 0.275873 0.316266 0.0744023 -0.285663 0.226625 -0.186708 -0.230387 -0.147457 -0.273367 -0.321341 0.00913246 0.0636894 0.204694 0.179459 0.255508 -0.111307 -0.362697 0.261963 0.191216 -0.279993 -0.488977 -0.149717 -0.0133877 0.227879 0.404803 0.0232759 -0.157692 0.18888 0.26971 -0.376199 -0.310147 -0.390436 0.217212 0.279502
internal_weight=0 4934 5062 2403 2301 2761 1350 1313 2531 947 1015 1286 321 1053 1613 904 809 777 189 139 1025 618 407 110 588 206 355 626 867 233 127 106 366 301 131 255 738 149 182 397 107 371 109 119 508 370 107 1192 316 247 215 652 252 434 755 470 219 262 222 161 78 92 76 71 157 196 697 74 295 196 65 87 131 64 263 101 162 124 120 74 83 99 186 144 261 278 79 123 1569 98 65 66 618 75 89 113 97 238 107 210 80 242
internal_count=9996 4934 5062 2403 2301 2761 1350 1313 2531 947 1015 1286 321 1053 1613 904 809 777 189 139 1025 618 407 110 588 206 355 626 867 233 127 106 366 301 131 255 738 149 182 397 107 371 109 119 508 370 107 1192 316 247 215 652 252 434 755 470 219 262 222 161 78 92 76 71 157 196 697 74 295 196 65 87 131 64 263 101 162 124 120 74 83 99 186 144 261 278 79 123 1569 98 65 66 618 75 89 113 97 238 107 210 80 242
is_linear=0
shrinkage=0.023


Tree=10
num_leaves=104
num_cat=0
split_feature=39 14 14 42 40 14 14 20 14 24 20 13 42 66 66 43 19 53 36 66 11 20 66 7 38 65 39 13 2 45 66 19 42 13 45 66 20 29 66 66 18 29 16 19 20 24 0 39 18 0 20 13 14 66 52 0 21 19 14 39 39 66 14 2 24 20 11 54 13 12 24 6 31 39 2 52 54 66 31 11 51 49 20 62 66 66 63 14 17 5 28 29 2 0 28 38 18 51 57 16 32 66 20
split_gain=1.98019e+06 167827 157242 34629.8 34283.2 11239.9 11145 8892.78 8196.93 7371.05 6373.28 5779.44 4857.28 4767.29 4677.17 4381.42 4975.18 5209.25 3703.98 3526.04 3474.83 2945.88 4379.34 2916.75 2894.2 2829.34 2824.09 2805 2786.42 4873.55 2778.36 4910.68 2700.65 2694.42 2678.85 3202.75 3923.74 2556.85 2547.57 2451.76 2680.39 2750.75 2355.5 6139.28 3184.61 2303.24 2265.68 4098.14 2959.25 2222.25 2149.18 3409.82 2300.55 2101.57 2098.31 3455.11 2093.57 2281.55 2644.19 2146.62 2075.51 1957.86 1915.96 1906.18 1886.22 1865.54 1768.81 1761.37 1635.94 1586.26 1929.82 1484.72 1483.9 1459.77 1395.92 1340.5 1329.77 1248.33 2765.18 1164.03 1132.24 1111.8 1067.88 986.78 924.195 878.236 869.418 802.556 715.639 674.764 659.445 567.76 560.413 540.678 525.034 511.003 484.409 459.834 401.549 276.231 179.956 172.984 105.089
threshold=0.01373416550345429 53.529430000000005 15.6043 21.884304 44.002188000000011 7.3574300000000017 24.110828000000001 6.8253980000000007 64.081323200000014 0.53896761133603255 -11.374835999999997 52.810012500000006 14.400598000000004 1.9010000000001528 5.6455000000000277 97.104241500000015 10.354627500000001 3.6920473621189811 0.97222222222222232 3.7659999999997926 -25.231603999999994 12.410714000000006 3.0659999999998893 53.858792533333336 63.819144743683133 314.85477096969015 -0.058418782089793696 50.297415000000008 711.21700000000021 3.5000000000000004 3.6319999999999486 14.054564999999995 18.573826000000004 71.560282500000014 1.5000000000000002 1.3000000000001963 -2.4698246000000004 1.398179045675179 1.0000000180025095e-35 3.3389999999998285 12.710064941018087 0.94577379571491427 -0.21316749999999904 -2.3692724999999935 -1.2617399999999994 0.63003220611916277 31.301392500000006 0.12656395761385422 7.0932147475094087 55.620652500000013 4.8087559999999963 70.408065000000008 23.504472000000003 1.3469999999999909 6.1117454104503457 46.673130000000008 21.500000000000004 -11.091307500000001 38.940948000000006 -0.24664347412751744 -0.35110486430171739 0.41999999999984544 44.380744000000007 2403.3500000000008 0.44849690539345716 -2.2071440000000027 1.4644139999999972 9.0403336090906077 68.623537500000012 32.686280611808535 0.38379705400982006 50.336502037500004 1.8947563847077957 -0.022682216840315794 2507.3165000000004 1.4534740202013332 5.2136912405907943 2.7330000000002888 1.6913647114002199 -5.5798759999999978 100.18349999999994 1.6597999999999733 2.7469994000000004 5.5000000000000009 3.0329999999999449 1.8335000000001858 74.404512000000011 2.2904100000000018 -10.768235199999999 37.500000000000007 20.630656000000005 0.70382171277059147 2837.2330000000006 81.957697500000009 13.843983999999999 56.805080811173504 28.510578944135236 28.316499999999682 0.22567480664327635 4.8687240000000065 0.061480925779767152 0.96599999999966368 -4.0484479999999978
decision_type=2 2 2 2 2 2 2 2 2 2 2 2 2 2 2 2 2 2 2 2 2 2 2 2 2 2 2 2 2 2 2 2 2 2 2 2 2 2 2 2 2 2 2 2 2 2 2 2 2 2 2 2 2 2 2 2 2 2 2 2 2 2 2 2 2 2 2 2 2 2 2 2 2 2 2 2 2 2 2 2 2 2 2 2 2 2 2 2 2 2 2 2 2 2 2 2 2 2 2 2 2 2 2
left_child=1 3 5 12 10 87 -5 9 13 18 19 25 38 -3 23 16 21 -18 20 74 -8 39 -23 42 27 -6 34 -15 29 -13 31 54 61 76 -11 65 45 -28 -1 40 46 -42 68 44 -44 -37 -12 48 -48 -50 52 -52 72 -7 55 -9 57 -22 69 60 -60 -30 -45 83 -43 -36 77 96 98 73 -71 -41 93 -59 88 -32 -19 100 94 -49 85 -58 101 -57 -63 -64 -53 -2 -4 -68 -29 -81 -92 97 -79 -69 -55 -34 -14 -66 -27 -61 -89
right_child=2 8 4 6 11 53 7 30 -10 26 15 28 14 24 -16 -17 17 33 -20 -21 56 22 -24 -25 -26 66 37 90 32 -31 75 -33 50 -35 35 36 -38 -39 -40 71 41 64 43 62 -46 -47 47 79 49 -51 51 86 -54 67 -56 63 81 58 59 82 -62 84 80 -65 99 -67 89 95 -70 70 -72 -73 -74 -75 -76 -77 -78 78 -80 91 -82 -83 -84 -85 -86 -87 -88 102 -90 -91 92 -93 -94 -95 -96 -97 -98 -99 -100 -101 -102 -103 -104
leaf_value=0.19748596012987049 -0.52112281447992592 0.46547188209798968 -0.13081105446769992 -0.24892769951314475 -0.11196906651385954 -0.42697439404763321 -0.055388305654105963 0.437685305675306 0.52283249555465838 0.20631987817783912 -0.15260870970148963 0.069400644125496749 0.43419947397771491 0.10427345357683927 0.0094135079534543569 -0.28259497503591252 0.04448682633558057 -0.14558941786475935 -0.031904263693950594 -0.013483962625543029 0.35354871402341143 0.23075492070749476 -0.081762275107888971 0.047339145758073152 0.4492421203723424 -0.3286599676391404 0.026403246250899948 0.20692775463511784 -0.11383170928273884 -0.21158547105308084 0.16189225482585709 0.043450286284599571 -0.18955584786365665 -0.051149920414530516 0.19779911128330413 -0.0046208127046776489 0.094630980036034457 -0.21552780959887979 0.47899893846032182 0.16966541496401411 0.059937547342164527 -0.035754541022995599 -0.033517439035107822 0.11609344557570696 0.21645320163596243 -0.25243695809257183 -0.044709042412027833 -0.12951879829237845 0.33113825579635969 0.07106084709366163 0.070188922144117816 -0.062289784655468118 -0.039419686301333995 -0.36016586690241126 0.090519191399785412 0.16036620482112288 0.11601270811794739 0.088205523943130054 0.19121040939922024 0.18966041578522211 -0.038785555101836303 -0.35087162846347025 0.35320354909033547 0.054550711168230473 -0.28147532777569845 -0.015573598425439063 -0.42316241215997874 -0.1190460699862376 0.19372050152212944 0.026157222361791702 0.23732803235267105 -0.020325227806754147 -0.092590755612451878 -0.089428801427056365 -0.082959372105379084 -0.031141172354761274 -0.36723323768685018 -0.14460522982245641 -0.01021997412238225 0.06186579105463174 0.14856514164184292 -0.049684977514749873 0.11008084356784821 0.35208711624365047 -0.179136096953699 0.24774022079029631 -0.22584097296048952 -0.40649286080486458 -0.3108472051895162 -0.21417986922793919 0.36597598305324469 -0.058220269425224715 0.18752033333432799 -0.14753925362767761 -0.33130013317764495 -0.27258504264461803 -0.18413789123814395 -0.37533289709398826 0.25365097266732112 -0.13127363559906646 -0.18095994746577393 0.33344373201716127 -0.48584137184732368
leaf_weight=38 612 875 32 37 46 437 37 84 918 34 36 51 126 37 37 32 58 42 63 49 37 56 33 32 232 207 38 56 41 71 33 54 39 44 45 32 44 46 111 44 32 43 57 46 41 47 33 57 32 41 41 35 34 641 32 51 42 53 42 48 32 155 238 33 42 35 158 46 51 41 52 35 34 34 34 32 45 35 34 37 45 32 34 47 48 180 53 517 91 35 378 32 35 32 36 35 33 64 51 35 37 79 440
leaf_count=38 612 875 32 37 46 437 37 84 918 34 36 51 126 37 37 32 58 42 63 49 37 56 33 32 232 207 38 56 41 71 33 54 39 44 45 32 44 46 111 44 32 43 57 46 41 47 33 57 32 41 41 35 34 641 32 51 42 53 42 48 32 155 238 33 42 35 158 46 51 41 52 35 34 34 34 32 45 35 34 37 45 32 34 47 48 180 53 517 91 35 378 32 35 32 36 35 33 64 51 35 37 79 440
internal_value=0 0.329829 -0.31719 0.191261 -0.17592 -0.43414 0.113161 0.124702 0.460452 0.0863022 -0.0751778 -0.254543 0.289899 0.42274 0.265249 -0.0451791 -0.0328328 -0.133091 0.131813 -0.187302 0.150347 0.000591482 0.117225 0.275971 0.367981 -0.309877 -0.00333774 0.324819 -0.205171 -0.0966596 0.220367 0.249636 -0.226617 -0.210078 0.0374531 0.00288053 -0.069335 -0.112471 0.419928 -0.0215557 -0.0438983 -0.118616 0.28422 0.25292 0.0785994 -0.161204 0.000416927 0.0281895 0.129252 0.205093 -0.176145 -0.0943723 -0.22292 -0.374042 0.292081 0.31802 0.165422 0.183873 0.16284 0.213616 0.0969176 -0.288089 0.284852 0.222069 -0.167118 0.110689 -0.324921 -0.339579 0.357019 0.0906852 0.15314 0.0906266 -0.256545 0.0169924 -0.238402 0.0729932 -0.28003 -0.279047 -0.186377 -0.0590807 0.299508 0.0460493 0.260587 0.270567 -0.318001 0.312875 -0.170788 -0.47784 -0.274138 -0.394566 0.340305 0.00563038 0.354427 -0.290808 -0.261623 -0.202701 -0.353646 -0.3224 0.394409 -0.230755 -0.312262 0.292535 -0.446401
internal_weight=0 4934 5062 2403 2301 2761 1350 1313 2531 947 1015 1286 1053 1613 904 809 777 189 626 206 563 588 89 867 738 588 321 506 698 122 366 301 576 131 237 203 123 84 149 499 420 152 835 607 98 79 268 232 106 73 332 129 203 1192 247 215 526 452 415 235 74 244 509 131 120 80 542 755 228 180 93 79 169 87 157 65 87 349 105 126 463 74 161 98 203 418 88 1569 123 193 469 69 413 135 71 81 674 103 177 77 244 127 957
internal_count=9996 4934 5062 2403 2301 2761 1350 1313 2531 947 1015 1286 1053 1613 904 809 777 189 626 206 563 588 89 867 738 588 321 506 698 122 366 301 576 131 237 203 123 84 149 499 420 152 835 607 98 79 268 232 106 73 332 129 203 1192 247 215 526 452 415 235 74 244 509 131 120 80 542 755 228 180 93 79 169 87 157 65 87 349 105 126 463 74 161 98 203 418 88 1569 123 193 469 69 413 135 71 81 674 103 177 77 244 127 957
is_linear=0
shrinkage=0.023


Tree=11
num_leaves=98
num_cat=0
split_feature=39 14 14 42 40 14 14 20 14 8 20 20 13 42 43 19 53 19 58 35 1 27 28 13 13 10 19 28 14 13 9 52 2 7 38 17 13 31 13 52 39 40 14 31 61 61 13 40 13 7 54 27 19 27 17 19 29 2 63 27 7 39 8 7 54 57 52 14 64 13 2 14 13 14 65 40 21 14 27 20 13 7 7 16 20 6 61 54 1 7 9 63 61 7 8 11 14
split_gain=1.89322e+06 159940 149854 33100.4 32815.5 10720.8 10713.9 8530.49 7801.56 6819.24 6229.7 6106 5595.74 4659.93 4219.63 4781.07 5004.82 4117.11 5286.75 4038.09 3703.08 3656.87 3434.6 3426.23 3329.44 3182.84 3047.64 2879.85 4071.51 3317.57 2835.49 4473 3376.73 2762.59 2709.06 2630.38 2588.87 2558.56 2546.3 3522.39 2501.29 2320.18 2538.75 2475.04 2260.13 2178.42 2172.12 2220.93 2103.49 2006.76 1993.19 3500.34 1966.31 1812.79 1782.44 1736.15 1712.26 1752.12 1679.12 1653.87 1616.5 1605.27 1561.26 1525.38 1276.49 1269.01 1256.36 1063.02 972.246 925.475 913.943 899.233 898.249 895.185 888.329 884.351 774.237 714.802 685.525 651.045 644.721 616.794 1674.38 580.62 563.088 495.329 447.952 446.239 387.953 380.57 345.53 322.682 252.231 209.172 577.348 71.7278 2.77326
threshold=0.01373416550345429 53.529430000000005 15.6043 21.884304 44.002188000000011 7.8095960000000035 24.110828000000001 6.8253980000000007 64.081323200000014 18.147829242783057 -9.6021780000000039 -11.374835999999997 30.792877500000003 14.400598000000004 97.104241500000015 10.354627500000001 3.6920473621189811 -4.364325 0.039084919405728585 0.93750000000000011 35.618128000000006 18.371377500000001 16.826804000000003 11.400795 22.742422500000004 8.3217750000000041 6.4032675000000028 15.394146000000003 48.612418000000012 60.955335000000012 15.403756899525527 1.3585031235215428 1946.9000000000003 30.570669506031752 63.819144743683133 3.9250007999999981 71.560282500000014 1.8543836215933427 74.505165000000019 6.7171627411892905 -0.25224639580407621 47.549000000000007 26.131074000000005 2.1245571083751948 0.46452958361221469 0.5080686146461334 41.783070000000009 25.900418000000005 23.347275000000003 24.094070128571428 4.4351885223473255 37.520752500000008 -6.3695624999999998 8.4374850000000041 -8.0675426666666663 6.2370000000000063 1.9949552655161982 2199.5670000000014 66.09630300000002 18.193192500000013 27.844535449999999 -0.13558204017675482 21.658438405431948 32.321181055555563 5.2136912405907943 0.47827149717698886 1.7627180779994795 2.2904100000000018 56.736007400000013 48.651382500000004 2471.8665000000005 30.823652000000006 82.198357500000014 20.862604000000005 4468.2315470194926 26.180306000000002 19.500000000000004 48.288840000000008 26.941267500000006 10.982339999999999 84.442785000000015 35.45551696793985 32.819508884878317 0.25553499999999835 -4.0484479999999978 53.631401250000003 0.5532541740255229 16.151868320834058 29.002204000000003 35.812197166666671 19.294420301590939 36.249932250000008 0.45730182696629268 36.167649856248254 29.845120920407137 -0.3285420000000005 20.862604000000005
decision_type=2 2 2 2 2 2 2 2 2 2 2 2 2 2 2 2 2 2 2 2 2 2 2 2 2 2 2 2 2 2 2 2 2 2 2 2 2 2 2 2 2 2 2 2 2 2 2 2 2 2 2 2 2 2 2 2 2 2 2 2 2 2 2 2 2 2 2 2 2 2 2 2 2 2 2 2 2 2 2 2 2 2 2 2 2 2 2 2 2 2 2 2 2 2 2 2 2
left_child=1 3 5 13 11 67 -5 9 34 10 45 37 70 96 15 21 -17 18 22 87 -12 30 33 -23 50 27 35 28 29 83 32 -32 -13 -14 69 56 64 44 39 53 60 42 49 72 -4 -8 -22 -48 66 -19 51 -11 -50 68 -46 -55 57 76 88 -49 -27 -59 -28 -33 -18 81 -25 -2 -9 -3 95 78 79 -51 -40 -64 85 -29 -60 93 86 82 -62 -15 -69 -26 92 -7 -54 -67 -74 -47 -75 94 -43 -6 -1
right_child=2 8 4 6 12 19 7 38 -10 24 20 14 17 25 -16 16 36 41 -20 -21 46 23 -24 48 26 40 62 77 -30 -31 31 63 -34 -35 -36 -37 -38 -39 74 -41 -42 43 -44 -45 54 91 47 59 52 73 -52 -53 58 55 -56 -57 -58 61 71 -61 65 -63 75 -65 -66 89 -68 84 -70 -71 -72 -73 90 80 -76 -77 -78 -79 -80 -81 -82 -83 -84 -85 -86 -87 -88 -89 -90 -91 -92 -93 -94 -95 -96 -97 -98
leaf_value=0.46771859459344894 -0.50927827065439113 0.20393532425497657 -0.045985699258081179 -0.24414581848051964 -0.31312500429414181 -0.37500461768012772 0.016945384652088061 0.075915776566413587 0.51090222637825411 0.27458671291585202 -0.097240866069165974 -0.12310928939747602 0.19444312336870817 0.43550538937402733 -0.27730261398635747 0.043578015416632386 -0.142736695071807 -0.053876044387799152 -0.2923201959492881 -0.094189901196223919 0.25294497455942966 0.14099508858396476 -0.18857149692384514 -0.2715572938785602 0.25454158320776005 0.05235987711394486 0.049601726533795958 0.17571648467284731 0.0323552537961403 0.095506731254729568 -0.070085749429591157 0.33509249901980814 0.12255949897588325 -0.048797930448015107 0.46378119079701136 -0.089817658999307409 -0.050140881451830759 -0.043036628690022991 0.15265817285149019 0.019086585667448797 0.035310424096725641 -0.36215617604010525 0.0081698321579521862 -0.069733262789164877 -0.12948690550262909 -0.24873086713609241 -0.03721428814624983 0.2163267764651963 0.11092647149585762 -0.095724756611031137 0.32853021146889727 -0.0071683166556444954 -0.027715441663970258 0.37940115985720257 -0.34560337901560784 0.16767398926434596 -0.024027532986126272 0.11682463267302895 -0.2098520088021518 0.027773335525668335 0.20081402183792368 -0.086217924845277821 0.30641826769817859 0.12230091417730311 -0.35996580989992188 0.34454502112700541 -0.058481839285552055 -0.39468719063005459 0.25094818150111597 0.38581826786190898 -0.20335575961432775 -0.019604091335185866 -0.22732567181677871 -0.23389166375152939 0.0083620808409783434 0.14057726128893253 0.052370274598513553 0.36908058687994189 -0.074221881053381608 -0.17351935638029053 -0.11761707545953709 0.21568111275101648 -0.015914570308283658 0.23684071742374718 -0.475314043354993 0.10973346948623657 -0.31932032827116758 -0.20898666103337016 0.068578375141089068 0.2213237440876859 -0.095158961729238961 -0.10585064299644963 -0.097911255954179446 -0.232784844128097 -0.18223747848618962 -0.45662542998866862 0.29517214559739635
leaf_weight=85 612 42 32 37 139 1043 33 46 918 40 51 61 33 45 32 58 42 45 55 35 39 39 42 32 47 32 42 32 50 47 35 34 45 58 604 50 44 56 56 32 45 230 32 35 45 41 62 50 33 35 59 45 37 115 73 47 57 35 44 48 32 33 45 58 45 78 32 558 33 967 51 46 67 32 37 63 32 259 54 47 33 74 34 58 473 42 95 40 38 118 32 33 32 87 35 71 64
leaf_count=85 612 42 32 37 139 1043 33 46 918 40 51 61 33 45 32 58 42 45 55 35 39 39 42 32 47 32 42 32 50 47 35 34 45 58 604 50 44 56 56 32 45 230 32 35 45 41 62 50 33 35 59 45 37 115 73 47 57 35 44 48 32 33 45 58 45 78 32 558 33 967 51 46 67 32 37 63 32 259 54 47 33 74 34 58 473 42 95 40 38 118 32 33 32 87 35 71 64
internal_value=0 0.322497 -0.310154 0.187221 -0.17224 -0.424325 0.110863 0.122179 0.450015 0.0845683 0.00487254 -0.0736753 -0.249161 0.283658 -0.0443105 -0.0321939 -0.130477 -0.221594 -0.117161 -0.362377 0.0676045 0.000571158 -0.033122 -0.0455408 0.132104 0.259519 0.0981421 0.302206 0.218773 0.27638 0.0701725 0.140439 -0.017436 0.0470656 0.413203 0.052968 -0.205939 -0.183425 0.215877 0.251542 0.204348 -0.243808 -0.183373 -0.275291 -0.231261 -0.136453 0.111909 0.0678568 -0.0712976 -0.205615 0.227327 0.136404 -0.0386964 0.280846 -0.275715 0.327989 0.0838324 0.116163 -0.0641949 0.13252 0.223869 0.0191779 0.180544 0.220026 -0.274508 0.238675 -0.182238 -0.464674 0.16434 0.379789 -0.348362 -0.108434 -0.288476 -0.232981 0.100266 0.224902 0.166295 0.352715 -0.145662 -0.307878 -0.253464 0.168157 0.0983863 0.346923 -0.434781 0.199943 -0.275119 -0.370334 0.0225493 0.281085 -0.19429 -0.200523 -0.18321 -0.321865 -0.344 -0.375458 0.410999
internal_weight=0 4934 5062 2403 2301 2761 1350 1313 2531 947 357 1015 1286 1053 809 777 189 1025 188 1118 250 588 133 355 590 904 446 491 200 150 233 127 106 91 1613 296 131 206 366 273 413 837 304 533 150 107 199 160 316 272 144 85 252 241 118 162 246 189 219 98 368 68 150 92 87 336 64 1643 79 1009 261 144 498 227 93 108 121 291 98 399 192 140 66 103 1031 89 159 1083 75 196 99 74 64 352 265 210 149
internal_count=9996 4934 5062 2403 2301 2761 1350 1313 2531 947 357 1015 1286 1053 809 777 189 1025 188 1118 250 588 133 355 590 904 446 491 200 150 233 127 106 91 1613 296 131 206 366 273 413 837 304 533 150 107 199 160 316 272 144 85 252 241 118 162 246 189 219 98 368 68 150 92 87 336 64 1643 79 1009 261 144 498 227 93 108 121 291 98 399 192 140 66 103 1031 89 159 1083 75 196 99 74 64 352 265 210 149
is_linear=0
shrinkage=0.023


Tree=12
num_leaves=108
num_cat=0
split_feature=39 14 14 1 1 14 14 13 11 28 19 13 2 38 19 13 39 58 60 35 14 43 66 14 61 24 55 42 7 66 17 66 10 7 19 66 39 14 7 58 38 19 55 12 66 66 5 17 17 63 65 58 7 0 0 52 66 23 30 7 21 13 0 14 14 66 2 66 11 40 14 31 1 38 19 0 51 12 61 51 39 0 62 10 33 10 13 7 13 19 24 14 52 7 38 7 13 38 21 43 10 38 29 65 14 39 66
