tree
version=v4
num_class=1
num_tree_per_iteration=1
label_index=0
max_feature_idx=30
objective=regression
feature_names=total_actions num_passes num_successful_passes pass_success_rate num_carries carry_ratio num_recoveries num_tackles num_interceptions unique_players last_end_x last_end_y last_pass_end_x last_pass_end_y field_zone_x field_zone_y distance_to_goal distance_from_center avg_pass_distance max_pass_distance min_pass_distance avg_pass_dx avg_pass_dy avg_pass_forward forward_pass_ratio total_x_progress total_y_progress duration avg_action_interval is_home team_id
feature_infos=[1:269] [1:147] [0:134] [0:1] [0:68] [0:0.5] [0:20] [0:10] [0:12] [1:24] [0:105] [0:68] [0:105] [0:68] [0:2] [0:2] [0.18974828064833804:109.45426451774894] [0.30556289912389728:62.547981582142199] [0:88.552441124848087] [0:92.550628697040537] [0:88.552441124848087] [-61.786063499999997:88.075364999999991] [-65.665471600000004:61.492617600000003] [-61.786063499999997:88.075364999999991] [0:1] [-98.573307:95.518647000000001] [-67.050651999999999:66.895193800000001] [0:622.5329999999999] [0:17.014285714285766] [0:1] [316:4657]
tree_sizes=3868 4296 4557 3948 3816 3888 3890 4071 4131 4216 4391 4432 4484 4125 4595 3889 4032 4663 4380 4559 4215 4421 3982 4229 4076 4148 3575 4320 4145 3825 3994 3793 4140 4097 4317 4488 4229 4383 3833 3973 4147 4290 3488 4316 4493 4228 4240 4353 3904 4495 4316 4158 4487 4484 4484 4065 4420 4580 4400 4329 4691 3681 3902 4240 4079 4067 4243 3904 4493 3762 4493 4185 4071 4424 4325 4004 4248 4232 3985 4350 4170 4338 3989 4255 3654 3741 4492 3728 4508 3782 3747 4597 4193 4344 4242 3879 3914 3833 3703 4261 4187 4354 3587 4004 4181 4183 3977 4194 4447 4611 4453 4463 3762 4306 2490 4206 4129 4627 4349 4054 3922 3930 3419 4302 3366 3525 4031 4034 4199 3700 3521 4043 4108 3254 3616 4017 4583 3789 4108 4621 4608 4125 4376 4145 4443 4203 4445 4092 3222 4028 3849 3364 3529 3851 4271 3712 3796 4730 4112 3723 4622 4877 2560 4533 3098 4031 3933 3599 4487 3184 4748 4286 4170 4167 3272 4797 4795 4216 4130 2659 2943 4372 3449 3286 4293 3907 3699 3620 4533 4038 4108 4444 4207 2416 3864 4380 4209 3700 4705 3033 4352 4388 3367 2484 4033 3467 4039 4362 3366 2761 4197 3527 3294 3540 3600 4153 3762 3843 3259 3713 3111 3939 3766 4279 2662 3092 4207 4154 3188 3262 3792 3275 3537 3338 3779 2333 3690 2919 2157 2850 3349 3874 3942 4123 2827 3044 3775 4068 4003 3947 2413 3108 2504 2497 3957 2944 3346 3529 3516 3594 3370 3275 2669 3637 3352 1971 3533 3262 3079 2498 2914 3445 2262 3789 3889 3598 4210 1558 3018 2757 3006 3689 3358 3026 2234 2736 3267 2479 1729 1811 1738 1808 3699 2867 1125 3681 1533 3365 2052 1371 2249 3788 2226 2765 3211 3629 3793 3536 1301 1466 4297 2964 1978 3463 3800 1629 4050 3287 4204 3036 1626 2987 2414 2236 3783 1291 3000 4039 2844 2600 2847 1894 2840 2909 2342 3278 2396 2406 2306 1017 2965 2684 3613 3016 2615 2582 1104 3203 3095 2839 2922 2754 3108 2849 3610 1366 2753 2417 2142 2594 1546 3182 1093 3366 1911 2526 3552 2320 1186 3346 1819 3258 3007 3457 2852 2763 1461 2245 3077 1708 3972 3789 3460 3461 1539 1610 1657 3266 1378 3861 2664 3175 3766 2862 3202 2664 2913 2930 2303 2485 1550 3354 3354 3101 2231 2525 2420 2846 3286 1203 4139 1192 3171 3265 1109 3113 2326 1556 3357 1285 2233 1029 944 3020 1958 1879 3606 2925 3020 3093 2934 3277 1786 2650 3079 1874 3553 2837 3360 2932 1864 2491 1887 2062 3264 1901 3015 3442 3463 3373 2053 3285 2394 2651 2414 1882 2009 3279 1979 2605 2392 2321 2054 2237 2421 2674 1273 2691 1884 2567 2575 2549 1883 2509 2162 1789 2947 2064 2869 2061 2220 1796 2326 2938 3636 3286 1710 3105 1884 2309 2581 2150 1721 857 1714 1465 3266 2087 3287 1364 2593 1802 2425 1980 4234 3446 3531 3452 2677 3290 2671 771 2922 1716 2331 1711 3637 2936 2815 1947 3456

Tree=0
num_leaves=46
num_cat=0
split_feature=11 11 11 11 11 11 11 13 13 3 12 13 13 13 11 11 11 13 11 13 10 11 12 10 13 10 17 16 13 11 11 13 10 10 13 10 4 17 11 13 17 26 16 19 3
split_gain=3.29784e+06 347168 281273 41035.4 38519.2 30290.8 23960.9 17647.4 16124.5 15376.5 13309.6 11280 11220.7 11210.8 9961.88 8823.3 8622.04 8367.61 9042.06 8323.66 8221.22 7817.92 7787.27 7102.11 7094.41 7086.24 6837.95 6069.27 5930.27 5417.29 5268.15 5067.12 4971.83 4514.59 4286.55 3131.53 3043.41 2730.29 2722.22 2133.33 1952.09 1599.68 971.679 842.105 560.072
threshold=33.369640000000011 53.201806000000012 15.484484 25.380252000000006 43.168066000000003 2.7264600000000034 61.078926000000003 3.9622919999999984 35.447448000000009 0.95579975579975596 33.096840000000007 43.215394000000011 60.684424000000007 15.670872000000001 36.637482000000013 66.386836000000002 10.522762000000002 53.424540000000007 46.858460000000001 23.781538000000001 67.490692500000009 29.225278000000003 28.735140000000005 17.3736675 61.181300000000007 75.939517500000008 29.576345249237956 38.742794757769367 10.479106 18.722372000000004 57.250526000000008 36.466530000000013 17.3736675 12.963982500000002 9.260647999999998 59.87861250000001 1.5000000000000002 21.064279626129657 0.52587799999999885 15.864604000000002 30.545988826431181 7.4510659999999964 94.719333507244656 13.060835460538684 0.91596045197740128
decision_type=2 2 2 2 2 2 2 2 2 2 2 2 2 2 2 2 2 2 2 2 2 2 2 2 2 2 2 2 2 2 2 2 2 2 2 2 2 2 2 2 2 2 2 2 2
left_child=2 4 5 13 11 12 24 -8 16 27 32 14 38 20 31 34 36 18 -12 -5 -4 33 -16 42 30 -19 -13 -10 -18 -25 37 -2 -6 -21 -9 -23 -7 -3 44 -32 -34 -17 -15 -40 -1
right_child=1 6 3 19 10 8 7 15 9 -11 17 26 -14 23 22 41 28 25 -20 21 -22 35 -24 29 -26 -27 -28 -29 -30 -31 39 -33 40 -35 -36 -37 -38 -39 43 -41 -42 -43 -44 -45 -46
leaf_value=33.10841480026302 33.617903133982843 33.926174918755777 33.632661596973897 33.630462238972328 33.928643757169134 33.208447225504635 33.733746930360688 33.817706460374431 33.236256248382134 33.53517856904292 33.681974473614829 33.444353444531714 33.357305186835063 33.334129899510138 33.804110687169725 34.031064449474108 33.419394501302172 33.54276152613928 33.767912505721057 33.347878302257463 33.418895565393399 33.573093251313331 33.66477277365393 33.358628823268837 33.753554352673703 33.726841881553192 33.622556670829795 33.369187819953694 33.287627679813298 33.421245237586824 33.841772045995732 33.483469904944606 33.838881214711051 33.477002609455823 33.940861095965893 33.501915315623279 33.254837530121321 33.837655419345261 33.156593016674087 33.918549221112691 33.74252634797498 33.981881965589622 33.262791294112006 33.193667875229714 33.154753086606597
leaf_weight=137 292 79 67 112 78 402 73 59 115 80 375 90 67 77 92 237 76 87 676 63 75 263 559 411 99 78 80 165 596 808 84 68 87 349 1070 226 925 546 170 501 80 300 76 460 89
leaf_count=137 292 79 67 112 78 402 73 59 115 80 375 90 67 77 92 237 76 87 676 63 75 263 559 411 99 78 80 165 596 808 84 68 87 349 1070 226 925 546 170 501 80 300 76 460 89
internal_value=33.5707 33.8112 33.3361 33.4473 33.6935 33.2504 33.9132 33.9474 33.2771 33.3636 33.7417 33.6339 33.1823 33.4011 33.6517 33.9567 33.2615 33.7227 33.7373 33.5164 33.5198 33.5023 33.6845 33.3888 33.8679 33.6297 33.5283 33.3146 33.3025 33.4001 33.8772 33.5925 33.836 33.4572 33.9344 33.5402 33.2408 33.8489 33.1686 33.9075 33.7928 34.0036 33.2987 33.1837 33.1266
internal_weight=0 5690 5809 2527 2642 3282 3048 1739 2359 360 1461 1181 923 1514 1011 1666 1999 1216 1051 1013 142 901 651 1372 1309 165 170 280 672 1219 1210 360 245 412 1129 489 1327 625 856 585 167 537 153 630 226
internal_count=11499 5690 5809 2527 2642 3282 3048 1739 2359 360 1461 1181 923 1514 1011 1666 1999 1216 1051 1013 142 901 651 1372 1309 165 170 280 672 1219 1210 360 245 412 1129 489 1327 625 856 585 167 537 153 630 226
is_linear=0
shrinkage=1


Tree=1
num_leaves=49
num_cat=0
split_feature=13 13 13 13 13 3 9 16 16 6 16 13 3 3 12 8 9 0 13 16 16 3 9 9 16 16 1 13 18 3 21 0 12 24 3 13 24 16 13 1 16 22 1 27 13 27 21 27
split_gain=1.65147e+06 177001 159642 53967.8 47754 45186.3 42148.3 25866.1 24693.9 24361.7 22798.6 19640.6 14521 12570.1 12243.1 10873.3 9950.04 9741.45 9205.61 8002.63 7696.61 6662.26 6465.32 6122.87 5978.09 5977.37 5905.03 5762.47 3631.68 3648.51 3626.69 3519 3387.29 3357.83 3187.96 3139.77 2516.46 3643.85 2492.25 4271.28 2191.08 1895.91 1861.28 1675.18 662.172 625.359 547.181 288.028
threshold=33.653064000000008 59.141572000000004 5.4368719999999984 27.046388000000004 46.814498000000007 0.92805383022774335 3.5000000000000004 73.180811254331488 44.848624225539972 1.0000000180025095e-35 84.596274531063059 17.179826000000006 0.96824596774193561 0.82998795664391822 33.096840000000007 1.0000000180025095e-35 2.5000000000000004 7.5000000000000009 66.346869000000012 42.66896378261773 71.418148807956641 0.96396103896103902 3.5000000000000004 3.5000000000000004 67.580235354288547 73.508090365450315 4.5000000000000009 65.132504600000019 15.939396824989586 0.87367021276595758 5.3078897006578947 9.5000000000000018 8.3745900000000031 0.67799539170506928 0.73993558776167478 2.090727999999999 0.32666666666666672 40.367594303364037 37.099950000000007 3.5000000000000004 94.719333507244656 -0.67551638150943372 2.5000000000000004 4.6670000000000877 67.988198192000013 3.4665000000001744 -1.0747041666666679 3.1725000000003551
decision_type=2 2 2 2 2 2 2 2 2 2 2 2 2 2 2 2 2 2 2 2 2 2 2 2 2 2 2 2 2 2 2 2 2 2 2 2 2 2 2 2 2 2 2 2 2 2 2 2
left_child=2 4 9 5 14 10 27 12 18 15 16 17 19 25 38 35 -4 -7 21 -6 -13 -8 -11 -14 -15 -10 31 34 43 -30 40 -24 -5 -28 -3 42 -34 -38 -2 -40 -9 -12 -1 -16 45 -29 -36 -37
right_child=1 6 3 32 7 11 8 30 13 22 41 20 23 24 28 -17 -18 -19 -20 -21 -22 -23 26 -25 -26 -27 33 44 29 -31 -32 -33 36 -35 46 47 37 -39 39 -41 -42 -43 -44 -45 -46 -47 -48 -49
leaf_value=-0.42946686377272519 0.070934608460070311 0.24134765233053126 -0.24737561882156325 -0.12803851266271557 0.052983761222256218 -0.29223975844807748 0.081497438928281679 0.26309897143642669 0.14352502405844417 -0.37259708462393515 -0.32382388694793851 -0.11432796332715772 0.25390562325787214 0.27408582374495472 0.077035982898366329 -0.18127111948215355 -0.075164642542739371 -0.20405222790079017 0.30310113697696128 0.13604380158835019 -0.22669786229623939 0.19549881688591053 -0.2145358103278748 0.15806680274819113 0.35435159540318817 0.30364925906403634 -0.26963660619577356 0.43444579230486374 0.02287337168159163 0.088521590776010503 0.1794710110926426 -0.075538776028872268 -0.086375820551151436 -0.19228696562496911 0.32561874335777763 -0.37000214887591332 -0.041746087965329158 0.022149421972199209 0.063284407209084084 0.19201564410956626 0.35158324363057109 -0.22130312187898371 -0.35679787700088456 0.0070107753440532029 0.4665536347763658 0.38497761345700893 0.37891998010889705 -0.33334396049922049
leaf_weight=213 95 57 69 57 422 385 237 232 170 67 63 533 180 486 76 63 1547 688 71 498 155 176 75 487 294 63 411 132 286 400 83 69 89 152 58 57 325 382 71 179 73 83 105 585 66 87 124 223
leaf_count=213 95 57 69 57 422 385 237 232 170 67 63 533 180 486 76 63 1547 688 71 498 155 176 75 487 294 63 411 132 286 400 83 69 89 152 58 57 325 382 71 179 73 83 105 585 66 87 124 223
internal_value=0 0.170444 -0.16579 -0.123684 0.112349 -0.147924 0.275851 0.159205 0.237939 -0.294187 -0.0976939 -0.19818 0.134095 0.277328 0.0576521 -0.35675 -0.0825216 -0.2357 0.155487 0.0979514 -0.139653 0.130095 -0.240749 0.18394 0.304348 0.186848 -0.228246 0.384147 0.038549 0.0611615 0.26189 -0.147977 -0.023562 -0.248765 0.333228 -0.375226 -0.0160727 -0.00721365 0.132219 0.155481 0.284298 -0.265585 -0.405492 0.0150717 0.426825 0.414823 0.361969 -0.340829
internal_weight=0 5688 5811 4376 3667 3523 2021 1975 1497 1435 1762 1761 1587 1013 1692 661 1616 1073 484 920 688 413 774 667 780 233 707 524 1347 686 388 144 853 563 239 598 796 707 345 250 305 146 318 661 285 219 182 280
internal_count=11499 5688 5811 4376 3667 3523 2021 1975 1497 1435 1762 1761 1587 1013 1692 661 1616 1073 484 920 688 413 774 667 780 233 707 524 1347 686 388 144 853 563 239 598 796 707 345 250 305 146 318 661 285 219 182 280
is_linear=0
shrinkage=0.0140275


Tree=2
num_leaves=52
num_cat=0
split_feature=13 13 13 13 13 9 14 10 10 6 14 10 14 10 17 17 10 14 10 8 10 17 13 10 9 1 13 17 13 17 24 10 5 19 0 18 13 24 13 20 10 20 0 9 30 24 1 13 21 5 13
split_gain=1.60547e+06 172070 155196 52464.3 46423.5 40974.2 29963.4 102224 43425.1 23682.8 23463.3 85325.6 22397.8 85169.3 18118.8 15936.8 15456.2 10929 11756.1 10570.1 9914.81 9668.29 8219.93 7439.07 6284.96 5740.26 5601.58 4576.5 4283.78 3822.24 3794.99 3759.53 3454.88 4188.55 3420.84 3375.2 3324.79 3264.07 3051.96 2728.06 2687.42 3450.64 3242.95 2525 2474.59 2117.35 1809.07 643.333 616.502 552.176 292.757
threshold=33.653064000000008 59.141572000000004 5.4368719999999984 27.046388000000004 46.814498000000007 3.5000000000000004 1.0000000180025095e-35 35.160510000000009 59.87861250000001 1.0000000180025095e-35 1.0000000180025095e-35 35.160510000000009 1.5000000000000002 56.014980000000008 21.731833748561865 30.667778156368762 45.964695000000013 1.0000000180025095e-35 34.127782500000009 1.0000000180025095e-35 70.21675500000002 31.681434932468317 51.451588000000008 63.534922500000008 3.5000000000000004 4.5000000000000009 65.132504600000019 21.217892178044163 13.641412000000001 45.878469965391403 0.68857758620689669 50.729962500000006 0.17262664963814392 27.602279903980129 9.5000000000000018 12.942715520400471 53.148936000000006 0.67799539170506928 2.090727999999999 5.2204409167332786 50.364615000000008 6.0091023936536052 14.500000000000002 2.5000000000000004 4647.0000000000009 0.56430934656741127 2.5000000000000004 67.988198192000013 6.2592615441176465 0.26546556122448989 62.449404800000003
decision_type=2 2 2 2 2 2 2 2 2 2 2 2 2 2 2 2 2 2 2 2 2 2 2 2 2 2 2 2 2 2 2 2 2 2 2 2 2 2 2 2 2 2 2 2 2 2 2 2 2 2 2
left_child=2 4 9 6 17 26 8 21 28 19 16 36 15 39 -9 23 29 32 30 38 -17 -8 -13 -7 -11 34 43 40 -4 -6 -19 -20 -2 -34 -26 -15 -12 -27 46 -14 41 -5 -42 50 45 -29 -1 48 -28 -40 -3
right_child=1 5 3 27 10 12 7 14 -10 24 11 22 13 35 -16 20 -18 18 31 -21 -22 -23 -24 -25 25 37 47 44 -30 -31 -32 -33 33 -35 -36 -37 -38 -39 49 -41 42 -43 -44 -45 -46 -47 -48 -49 -50 -51 -52
leaf_value=-0.42344250415431378 0.19571689673142076 0.34791018550726205 -0.31142412665452862 0.14141679165418602 0.26516031720572936 0.22432378152884175 0.0016130453012053174 -0.0992407213235936 0.12123024550752301 -0.36737046928222883 -0.13893732202965775 0.11632592917341064 -0.23923888940061827 0.3441674630656501 -0.17848100167663894 0.3274273584129479 0.044070149798518643 -0.15236443794173923 0.0098603481984855627 -0.17872833129984661 0.15459095144472834 0.1919122354102166 0.18741797267060642 0.050794311895058904 -0.2115264046531268 -0.26585427164239417 0.42340107472570671 -0.074512698143305009 -0.23556980024409871 0.38343517772167557 -0.0032649735341346727 0.066905816022970452 0.024447111751206538 0.13945347539129407 -0.074479153996911338 0.23823839568226113 -0.28056727314004837 -0.18958965329437236 -0.35540303473225671 -0.1045241646164273 0.043492268166822889 0.0027331967020241708 -0.060033316563223589 0.27894537096729149 -0.1245884798042613 -0.0083043865225792216 -0.35179287986878438 0.46000900398549627 0.36893210281246225 -0.31521331337083097 0.39190092377956964
leaf_weight=213 98 62 242 60 279 194 73 844 63 67 65 482 57 72 1738 632 60 75 307 63 73 188 956 65 75 411 161 174 375 67 61 879 97 175 69 342 66 152 145 62 103 86 141 110 79 210 105 66 58 135 67
leaf_count=213 98 62 242 60 279 194 73 844 63 67 65 482 57 72 1738 632 60 75 307 63 73 188 956 65 75 411 161 174 375 67 61 879 97 175 69 342 66 152 145 62 103 86 141 110 79 210 105 66 58 135 67
internal_value=0 0.168053 -0.163465 -0.121949 0.110773 0.271982 -0.145849 -0.125837 -0.229509 -0.290061 0.156972 0.132368 0.234602 0.161602 -0.152582 0.274957 0.252036 0.0568437 0.0379762 -0.351746 0.30954 0.138711 0.163593 0.180798 -0.237373 -0.225044 0.378759 -0.0232316 -0.265332 0.288082 -0.0855356 0.0521448 0.12424 0.0984635 -0.145902 0.256676 -0.210341 -0.245275 -0.369963 -0.169105 0.0121575 0.05977 -0.0163059 0.328554 -0.0530547 -0.0383216 -0.399805 0.420838 0.409005 -0.336049 0.370807
internal_weight=0 5688 5811 4376 3667 2021 3523 2843 680 1435 1975 1569 1497 533 2582 964 406 1692 1322 661 705 261 1438 259 774 707 524 853 617 346 136 1186 370 272 144 414 131 563 598 119 390 146 244 239 463 384 318 285 219 280 129
internal_count=11499 5688 5811 4376 3667 2021 3523 2843 680 1435 1975 1569 1497 533 2582 964 406 1692 1322 661 705 261 1438 259 774 707 524 853 617 346 136 1186 370 272 144 414 131 563 598 119 390 146 244 239 463 384 318 285 219 280 129
is_linear=0
shrinkage=0.0140275


Tree=3
num_leaves=45
num_cat=0
split_feature=11 11 11 11 11 11 11 13 7 13 16 13 13 13 16 11 13 11 13 11 11 11 16 13 17 16 17 13 11 13 11 16 7 13 13 17 11 4 11 13 7 26 26 2
split_gain=3.1001e+06 326484 264409 38446.4 36323.5 28071.4 22056.1 15077 13553 27268 16556.8 12740.6 11393.7 11268.6 10106.5 9628.88 9564.72 9126.82 8510.27 8468.76 7409.64 7293.66 7286.38 7156.98 6557.7 5282.32 5071.35 4997.26 4994.53 4568.67 4397.53 3757.05 3189.54 2993.3 2905.96 2733.62 2540.4 2428.5 2122.34 1630.66 910.618 786.563 783.153 210.341
threshold=33.369640000000011 53.201806000000012 15.484484 25.380252000000006 43.168066000000003 2.7264600000000034 61.078926000000003 3.9622919999999984 1.0000000180025095e-35 35.447448000000009 37.317968384164026 53.424540000000007 43.215394000000011 15.670872000000001 83.48174823667047 36.637482000000013 62.184765800000008 49.79993600000001 23.781538000000001 66.955917800000023 29.225278000000003 11.385512 76.875761212133028 61.181300000000007 29.576345249237956 94.719333507244656 31.128523561342686 36.466530000000013 57.250526000000008 11.772364000000005 18.722372000000004 47.315811510091365 1.0000000180025095e-35 33.653064000000008 29.535970000000006 21.064279626129657 1.0000000180025095e-35 1.5000000000000002 10.522762000000002 15.864604000000002 1.5000000000000002 11.003171800000001 12.700258000000003 1.5000000000000002
decision_type=2 2 2 2 2 2 2 2 2 2 2 2 2 2 2 2 2 2 2 2 2 2 2 2 2 2 2 2 2 2 2 2 2 2 2 2 2 2 2 2 2 2 2 2
left_child=2 4 5 13 12 16 23 -8 21 38 -11 14 15 31 17 27 36 -6 -5 32 34 37 -17 28 -14 30 -13 -2 35 -23 -15 -4 -9 -22 -20 -3 43 -7 -10 -30 -38 -16 -21 -1
right_child=1 6 3 18 11 8 7 19 9 10 -12 26 24 25 41 22 -18 -19 20 42 33 29 -24 -25 -26 -27 -28 -29 39 -31 -32 -33 -34 -35 -36 -37 40 -39 -40 -41 -42 -43 -44 -45
leaf_value=-0.45535844884428706 0.046108674713722674 0.3477650291445627 -0.12848009623345064 0.062608889521947611 0.14056325076023013 -0.352915928700751 0.16743958589574257 0.37063943543064298 -0.30218439265456704 -0.27707264442325791 0.014843016266309128 -0.019802257653348199 -0.12714679602339937 -0.20613580003562273 0.26839750973226534 0.092247045424409563 -0.20147585675692917 0.22420808026351902 -0.07797962847287776 0.45209038481495095 -0.00528933688568095 -0.1478461262918688 0.2270321068203344 0.17382145858440468 0.047362722978087864 -0.28887612835404458 0.13123480068483542 -0.087395250942877242 0.26996828034424192 -0.27792748983183929 -0.15138855426901893 0.01722411620258334 0.32170485810659388 -0.078713220805698494 -0.15318143643183521 0.2591999504272216 -0.38222855460317701 -0.31074461674642539 -0.24724196800022391 0.33718529126058838 -0.32926281776348498 0.33991469550982373 0.40992877373056225 -0.41866271053923698
leaf_weight=90 292 79 61 112 777 438 73 934 370 57 116 90 90 437 68 559 58 384 232 203 324 62 92 99 80 78 85 68 84 381 857 81 368 165 180 546 645 711 224 501 73 57 161 57
leaf_count=90 292 79 61 112 777 438 73 934 370 57 116 90 90 437 68 559 58 384 232 203 324 62 92 99 80 78 85 68 84 381 857 81 368 165 180 546 645 711 224 501 73 57 161 57
internal_value=0 0.233234 -0.227439 -0.119581 0.119101 -0.310483 0.332162 0.364914 -0.28481 -0.236334 -0.0813006 0.165867 0.0612414 -0.164339 0.18115 0.07911 -0.37609 0.168234 -0.052681 0.373563 -0.0670193 -0.308161 0.111305 0.288646 -0.0449873 -0.176652 0.0535223 0.0208736 0.298035 -0.259736 -0.169882 -0.0453224 0.356813 -0.0300773 -0.11085 0.270405 -0.38779 -0.326826 -0.281476 0.327544 -0.376852 0.30106 0.433459 -0.441173
internal_weight=0 5690 5809 2527 2642 3282 3048 1739 2359 767 173 1461 1181 1514 1286 1011 923 1161 1013 1666 901 1592 651 1309 170 1372 175 360 1210 443 1294 142 1302 489 412 625 865 1149 594 585 718 125 364 147
internal_count=11499 5690 5809 2527 2642 3282 3048 1739 2359 767 173 1461 1181 1514 1286 1011 923 1161 1013 1666 901 1592 651 1309 170 1372 175 360 1210 443 1294 142 1302 489 412 625 865 1149 594 585 718 125 364 147
is_linear=0
shrinkage=0.0140275


Tree=4
num_leaves=43
num_cat=0
split_feature=11 11 11 11 11 11 11 13 13 13 13 13 11 13 11 11 13 10 13 13 11 12 10 11 11 11 13 10 21 12 12 8 13 11 13 13 11 25 13 27 13 13
split_gain=2.98628e+06 310678 249889 39160.4 35539.2 27894.8 22039.1 18622.9 13166.7 12260.2 11401.8 10119.6 9559.49 14488.9 9180.34 8433.32 8303.27 7832.75 7293.51 6957.36 6940.22 6382.54 6378.66 6308.37 5862.03 5686.14 5091.1 5018.22 5014.72 4933.16 4914.23 4698.13 4085.63 4210.64 3985.18 3931.9 2218.4 2194.6 2111.7 2041.34 1736.88 703.709
threshold=33.369640000000011 53.486386000000003 15.484484 43.168066000000003 25.380252000000006 7.3410759999999984 62.740434600000007 62.184765800000008 3.9622919999999984 53.424540000000007 15.670872000000001 43.215394000000011 48.669062000000004 48.71227600000001 36.294796000000005 2.4074719999999989 23.781538000000001 67.764952500000007 48.050806000000009 62.927788200000009 29.518392000000002 65.950132500000009 11.249437500000001 57.250526000000008 66.955917800000023 18.722372000000004 34.395522000000007 75.939517500000008 0.88391333333333277 19.721047500000005 67.757287500000018 1.0000000180025095e-35 7.0011780000000039 12.511795999999999 12.850129999999998 18.024454000000002 1.0000000180025095e-35 24.273900000000008 36.12064800000001 9.5795000000001682 14.704422000000001 52.637440000000005
decision_type=2 2 2 2 2 2 2 2 2 2 2 2 2 2 2 2 2 2 2 2 2 2 2 2 2 2 2 2 2 2 2 2 2 2 2 2 2 2 2 2 2 2
left_child=2 3 5 11 10 7 19 15 -8 12 17 14 13 -5 38 36 31 -4 32 23 28 -20 -12 40 37 -24 -22 -11 -18 -16 -13 -6 -7 -34 -25 -14 -1 -10 -2 -17 -3 -26
right_child=1 6 4 9 16 18 8 -9 24 27 22 30 35 -15 29 39 20 -19 21 -21 26 -23 25 34 41 -27 -28 -29 -30 -31 -32 -33 33 -35 -36 -37 -38 -39 -40 -41 -42 -43
leaf_value=-0.43563661668508152 0.032052800926769313 0.19600369652109048 0.062189589039345503 0.1689931872850286 0.14806547142817542 -0.17493287786404391 0.17875742018578372 -0.16084701666435544 0.37266490941994468 -0.0021541151311617011 -0.28749820304447787 -0.10093564654019603 0.12458507263676552 -0.04223069397575005 0.21561154807222188 -0.35679938669211281 -0.16779128236022037 -0.14470664944895897 -0.076051744900914264 0.185195070102563 0.0062733455533361179 -0.24610975949558039 -0.20721895290608394 0.24262434722434534 0.46743841922685186 -0.1446578263830309 -0.091870571392728306 0.1454863244544943 -0.070942344678818312 0.092147278481140127 0.061074947881927577 -0.028991745598484022 -0.29703680532629423 -0.23987969659093122 0.33495322502656599 0.23655203207323139 -0.37430118007560603 0.32543864692394453 -0.057944942199947287 -0.31166758311625026 0.27318695146391908 0.41639638640705756
leaf_weight=145 258 65 71 635 57 85 69 108 725 106 91 104 70 71 71 274 170 73 77 112 284 100 433 105 68 846 164 79 277 626 57 61 695 402 775 538 615 268 64 730 533 294
leaf_count=145 258 65 71 635 57 85 69 108 725 106 91 104 70 71 71 274 170 73 77 112 284 100 433 105 68 846 164 79 277 626 57 61 695 402 775 538 615 268 64 730 533 294
internal_value=0 0.230156 -0.22291 0.120239 -0.118414 -0.304636 0.327854 -0.339765 0.367953 0.167825 -0.161446 0.0597831 0.18288 0.147742 0.0761139 -0.350715 -0.0540926 -0.0426512 -0.256243 0.291937 -0.0686783 -0.172166 -0.173928 0.300022 0.377583 -0.165843 -0.0296402 0.060858 -0.107789 0.104733 -0.0435384 0.0564821 -0.268828 -0.276097 0.323944 0.223672 -0.386012 0.359925 0.0141453 -0.323991 0.264808 0.426002
internal_weight=0 5693 5758 2679 2527 3231 3014 1872 1424 1499 1514 1180 1314 706 1019 1764 1013 144 1359 1590 895 177 1370 1478 1355 1279 448 185 447 697 161 118 1182 1097 880 608 760 993 322 1004 598 362
internal_count=11451 5693 5758 2679 2527 3231 3014 1872 1424 1499 1514 1180 1314 706 1019 1764 1013 144 1359 1590 895 177 1370 1478 1355 1279 448 185 447 697 161 118 1182 1097 880 608 760 993 322 1004 598 362
is_linear=0
shrinkage=0.0140275


Tree=5
num_leaves=44
num_cat=0
split_feature=11 11 11 11 11 11 11 13 13 13 13 26 13 11 13 11 11 13 10 13 11 17 10 11 11 11 13 10 10 12 8 10 23 5 13 13 17 5 11 13 27 13 10
split_gain=2.9031e+06 302023 242928 38069.3 34549 27117.3 21424.9 18103.9 12799.6 11918.6 11084.2 10461.4 9837.67 9293.08 14085.4 8924.6 8198.08 8071.92 7614.58 6763.3 6746.88 6301.99 6200.8 6132.35 5698.41 5527.58 4951.55 4935.95 4878.47 4795.64 4567.3 4342.96 5767.55 4302.74 3873.87 3822.16 2485.69 2207.38 2156.25 2052.89 1984.18 683.724 564.607
threshold=33.369640000000011 53.486386000000003 15.484484 43.168066000000003 25.380252000000006 7.3410759999999984 62.740434600000007 62.184765800000008 3.9622919999999984 53.424540000000007 15.670872000000001 16.830238000000012 43.215394000000011 48.669062000000004 48.71227600000001 36.294796000000005 2.4074719999999989 23.781538000000001 67.764952500000007 62.927788200000009 29.518392000000002 30.78621985087165 11.249437500000001 57.250526000000008 66.955917800000023 18.722372000000004 33.653064000000008 18.646687500000002 75.939517500000008 19.721047500000005 1.0000000180025095e-35 36.852007500000006 -0.36884884615384655 0.24718532574320054 12.850129999999998 18.024454000000002 20.885921354047433 0.1438923395445135 1.0000000180025095e-35 36.12064800000001 9.5795000000001682 52.637440000000005 15.732622500000007
decision_type=2 2 2 2 2 2 2 2 2 2 2 2 2 2 2 2 2 2 2 2 2 2 2 2 2 2 2 2 2 2 2 2 2 2 2 2 2 2 2 2 2 2 2
left_child=2 3 5 12 10 7 19 16 -8 13 18 31 15 14 -5 39 38 30 -4 23 27 -14 -12 36 37 -24 -22 -19 -11 -17 -6 42 -33 -13 -25 -15 -3 -10 -1 -2 -18 -26 -7
right_child=1 6 4 9 17 11 8 -9 24 28 22 33 21 35 -16 29 40 20 -20 -21 26 -23 25 34 41 -27 -28 -29 -30 -31 -32 32 -34 -35 -36 -37 -38 -39 -40 -41 -42 -43 -44
leaf_value=-0.42952571064835171 0.031603178947617154 0.3380385497113837 0.061317220894858193 0.16662263127282123 0.14598848080144594 -0.34702313494051035 0.17624990094898274 -0.15859073002299684 0.38901095501724858 -0.0021239031180420339 -0.28346531355341614 -0.20702207394078029 -0.11799481368933512 0.12283745194514366 -0.041638302114536341 0.212587050226305 -0.35179437047439366 -0.19605261749668776 -0.14267677375330312 0.18259724114756981 0.0072229515139272445 0.05964558983842095 -0.20431218168242316 0.23922092486819818 0.46088139657054755 -0.14262863364605119 -0.088863329049127443 -0.082030581349280693 0.14344550925088559 0.090854679825523366 -0.028585063696098083 -0.17948102553537773 -0.2673919908627127 -0.039282422613945892 0.33025465847114754 0.23323379127213198 0.25038252947546974 0.34192526627813236 -0.3690506588564213 -0.05713211853693069 -0.30729565530988517 0.41055537550777854 -0.30153477667261069
leaf_weight=145 258 73 71 635 57 79 69 108 273 106 91 64 93 70 71 71 274 95 73 112 278 68 433 105 68 846 170 352 79 626 61 181 790 57 775 538 525 720 615 64 730 294 188
leaf_count=145 258 73 71 635 57 79 69 108 273 106 91 64 93 70 71 71 274 95 73 112 278 68 433 105 68 846 170 352 79 626 61 181 790 57 775 538 525 720 615 64 730 294 188
internal_value=0 0.226928 -0.219784 0.118552 -0.116753 -0.300363 0.323255 -0.334999 0.362792 0.165471 -0.159182 -0.252649 0.0589446 0.180315 0.14567 0.0750463 -0.345796 -0.0533339 -0.0420523 0.287842 -0.067715 -0.0429271 -0.171488 0.295813 0.372287 -0.163516 -0.0292242 -0.106278 0.0600038 0.103264 0.055689 -0.264821 -0.251011 -0.128057 0.3194 0.220534 0.261094 0.354877 -0.380597 0.0139466 -0.319446 0.420026 -0.315018
internal_weight=0 5693 5758 2679 2527 3231 3014 1872 1424 1499 1514 1359 1180 1314 706 1019 1764 1013 144 1590 895 161 1370 1478 1355 1279 448 447 185 697 118 1238 971 121 880 608 598 993 760 322 1004 362 267
internal_count=11451 5693 5758 2679 2527 3231 3014 1872 1424 1499 1514 1359 1180 1314 706 1019 1764 1013 144 1590 895 161 1370 1478 1355 1279 448 447 185 697 118 1238 971 121 880 608 598 993 760 322 1004 362 267
is_linear=0
shrinkage=0.0140275


Tree=6
num_leaves=44
num_cat=0
split_feature=15 15 6 9 12 10 8 17 10 17 3 3 12 10 26 22 12 12 10 12 10 10 26 26 3 17 28 9 23 6 24 17 12 22 2 27 22 9 4 24 17 23 12
split_gain=1.29289e+06 282804 66370.6 62376.7 43290 126362 32275.3 21791.9 20989.6 20038.5 16715.3 15145 12299.5 22932.4 12185.4 11789.3 9176.63 7709.56 13534.6 7639.85 58974.2 13696.8 7041.69 6991.07 6046.45 4515.46 4381.38 4196.75 4126.82 3651.28 3653.12 2710.17 2694.07 2281.31 2083.14 2074 1847.04 1670.44 1157.42 958.96 840.364 826.515 674.922
threshold=1.5000000000000002 1.0000000180025095e-35 1.0000000180025095e-35 3.5000000000000004 33.096840000000007 33.619267500000007 1.0000000180025095e-35 28.640903673163564 40.82137500000001 21.370499904690231 0.88516483516483524 0.64852941176470602 21.791122500000004 22.040130000000001 -31.386800799999996 -0.44005927260869565 70.726635000000002 59.959357500000003 45.964695000000013 43.86816000000001 45.078232500000006 45.671640000000004 4.7911100000000042 21.413608000000004 0.90733452593917718 33.685697098724496 1.0736285714286258 2.5000000000000004 -1.9347015624999993 6.5000000000000009 0.5956959706959708 34.775252032556651 81.727275000000006 -1.4554039999999977 1.5000000000000002 7.3329999999999709 -2.9809673124324321 2.5000000000000004 3.5000000000000004 0.67928571428571438 20.885921354047433 3.1098266666666672 87.686025000000015
decision_type=2 2 2 2 2 2 2 2 2 2 2 2 2 2 2 2 2 2 2 2 2 2 2 2 2 2 2 2 2 2 2 2 2 2 2 2 2 2 2 2 2 2 2
left_child=1 2 6 15 8 24 9 11 31 36 12 -7 -4 -14 33 27 -9 18 -8 21 -21 -12 -11 29 32 34 -25 41 -28 30 -16 38 -6 40 37 42 -1 -17 -5 -33 -3 -2 -27
right_child=3 14 10 4 5 7 17 16 -10 22 19 -13 13 -15 23 25 -18 -19 -20 20 -22 -23 -24 26 -26 35 28 -29 -30 -31 -32 39 -34 -35 -36 -37 -38 -39 -40 -41 -42 -43 -44
leaf_value=-0.18811857016902211 0.31148381132974079 -0.18460563043984365 -0.25806283098020144 0.3057914055796101 -0.12844718482238418 -0.050504783732436533 -0.30503929197811958 0.2549397358500135 0.072115179114999026 -0.31387277006244862 -0.27183271285834859 0.14693093384171782 0.14080814959043136 -0.11154518480066589 -0.028350442534632998 0.3018582109219618 0.18417245966776255 0.013069864674434621 -0.0066003340000024835 0.094873535472138268 -0.2017147280809585 -0.037640775173665091 -0.20268245106398058 -0.062186943977032227 -0.055024364755089643 0.39163010326308462 0.17466537462379411 0.15796038759063161 0.049571244060132372 0.084253429605501709 0.0084746339797203869 0.32731681056042394 -0.2427382467437853 -0.052804508804496303 0.34770881760425804 0.29396020628874187 -0.088399015320028335 0.19958773221766307 0.21836642480413537 0.3878043683902746 -0.10926798540232156 0.23827961085571023 0.33913745621084601
leaf_weight=63 68 61 101 59 72 83 63 641 79 1040 296 962 75 1277 1066 65 827 82 57 155 885 59 126 59 100 276 60 106 387 84 1054 300 94 85 70 63 88 62 62 64 57 57 61
leaf_count=63 68 61 101 59 72 83 63 641 79 1040 296 962 75 1277 1066 65 827 82 57 155 885 59 126 59 100 276 60 106 387 84 1054 300 94 85 70 63 88 62 62 64 57 57 61
internal_value=0 -0.11055 -0.181957 0.19919 0.172188 0.149443 -0.256842 0.180218 0.284251 -0.282168 -0.142014 0.131243 -0.108704 -0.0975416 -0.00349971 0.308199 0.215077 -0.0916929 -0.163334 -0.176704 -0.157506 -0.232929 -0.301863 0.00435029 -0.141281 0.341145 0.0513734 0.223027 0.0663766 -0.00644252 -0.0100391 0.318792 -0.193204 -0.108327 0.286028 0.368274 -0.130046 0.251981 0.261048 0.337969 -0.148268 0.278154 0.382147
internal_weight=0 7280 4367 4171 3343 2779 1519 2513 564 1317 2848 1045 1453 1352 2913 828 1468 202 120 1395 1040 355 1166 2710 266 597 506 231 447 2204 2120 485 166 203 197 400 151 127 121 364 118 125 337
internal_count=11451 7280 4367 4171 3343 2779 1519 2513 564 1317 2848 1045 1453 1352 2913 828 1468 202 120 1395 1040 355 1166 2710 266 597 506 231 447 2204 2120 485 166 203 197 400 151 127 121 364 118 125 337
is_linear=0
shrinkage=0.0140275


Tree=7
num_leaves=46
num_cat=0
split_feature=11 11 11 11 11 11 11 7 13 13 13 3 13 13 11 13 11 13 11 13 10 13 11 10 11 10 11 13 11 10 8 13 10 13 13 25 7 11 25 25 13 11 25 3 2
split_gain=2.77582e+06 288419 232271 35998.1 32793 26290 20423.3 12362.9 27243.6 11864.4 11778.9 11393.7 10909.9 9808.75 8865.63 13870.8 8685.47 8043.04 7863.2 7834.32 7354.29 6665.44 6602.83 5988.04 5922.44 5836.9 5565.96 5309.43 5260.3 4733.42 4483.44 3763.77 3735.45 3496.71 3462.41 3107.39 2553.04 2412.98 2254.28 2200.87 2008.47 1860.98 947.697 527.774 160.443
threshold=33.369640000000011 53.486386000000003 15.484484 43.168066000000003 25.380252000000006 2.7264600000000034 62.740434600000007 1.0000000180025095e-35 48.050806000000009 3.9622919999999984 53.424540000000007 0.92546296296296304 15.670872000000001 43.215394000000011 48.669062000000004 48.71227600000001 36.294796000000005 23.781538000000001 11.661829999999997 62.184765800000008 67.764952500000007 62.927788200000009 27.896762000000003 11.249437500000001 57.250526000000008 22.756177500000003 67.245842600000017 33.653064000000008 18.722372000000004 75.939517500000008 1.0000000180025095e-35 12.048579999999999 20.105347500000004 18.024454000000002 12.850129999999998 10.280340000000002 1.0000000180025095e-35 1.0000000180025095e-35 20.015152500000003 6.4506224999999953 36.12064800000001 7.869538000000003 -9.3376184999999943 0.82998795664391822 1.5000000000000002
decision_type=2 2 2 2 2 2 2 2 2 2 2 2 2 2 2 2 2 2 2 2 2 2 2 2 2 2 2 2 2 2 2 2 2 2 2 2 2 2 2 2 2 2 2 2 2
left_child=2 3 5 13 12 19 21 18 39 -8 14 -10 20 16 15 -5 40 30 41 37 -4 24 25 -14 36 -19 38 -24 -25 -12 -6 -20 -18 -16 -26 -15 -3 44 -11 -9 -2 -7 -39 -28 -1
right_child=1 6 4 10 17 7 9 8 11 26 29 -13 23 35 33 -17 32 22 31 -21 -22 -23 27 28 34 -27 43 -29 -30 -31 -32 -33 -34 -35 -36 -37 -38 42 -40 -41 -42 -43 -44 -45 -46
leaf_value=-0.43407811584959122 0.031280702825971549 0.27575823860111787 0.062276036271196551 0.16331185588706618 0.14590157087484376 -0.32400042739443347 0.17501265910156696 -0.28875920158070906 -0.1553999481727586 0.36332429475253009 -0.0044416258976859762 0.099604034064232058 -0.27776542935193826 -0.099851097565016589 0.12218556187722489 -0.043356573500651835 0.18133556542483001 -0.25245739784760091 -0.13848403510340571 -0.1987870840294958 -0.13820216677498545 0.17696199986420957 -0.013468883593435534 -0.19968907973711125 0.23671376880136899 -0.091068719122976496 0.44029907701137988 -0.098305722738700821 -0.13951376736999091 0.13894869464236484 -0.027059847160598383 -0.25687657349673887 0.088617518649150892 0.22779070226103515 0.32279885999290581 0.023883699601431555 0.21404983080693477 -0.31853453350473243 0.31965641202996697 -0.23672252090987467 -0.056489155961310489 -0.28653757429022231 -0.36499899657658258 0.40057893208791667 -0.40140843329482029
leaf_weight=88 258 399 71 635 57 736 69 315 81 732 106 60 91 88 70 71 100 57 63 57 73 112 420 433 105 196 135 222 846 79 61 336 597 538 775 73 199 104 346 330 64 411 593 142 57
leaf_count=88 258 399 71 635 57 736 69 315 81 732 106 60 91 88 70 71 100 57 63 57 73 112 420 433 105 196 135 222 846 79 61 336 597 538 775 73 199 104 346 330 64 411 593 142 57
internal_value=0 0.221884 -0.214925 0.115978 -0.114179 -0.293717 0.316018 -0.268862 -0.223531 0.35462 0.161602 -0.0468426 -0.155516 0.0580138 0.176359 0.142519 0.0740919 -0.0523926 -0.291905 -0.358184 -0.0393112 0.281442 -0.0667479 -0.167725 0.289355 -0.127454 0.363761 -0.0428149 -0.159891 0.0567556 0.0564355 -0.238199 0.101929 0.215643 0.312535 -0.0437083 0.255234 -0.368967 0.349314 -0.262146 0.013816 -0.310582 -0.358075 0.41996 -0.421279
internal_weight=0 5693 5758 2679 2527 3231 3014 2332 786 1424 1499 141 1514 1180 1314 706 1019 1013 1546 899 144 1590 895 1370 1478 253 1355 642 1279 185 118 399 697 608 880 161 598 842 1078 645 322 1147 697 277 145
internal_count=11451 5693 5758 2679 2527 3231 3014 2332 786 1424 1499 141 1514 1180 1314 706 1019 1013 1546 899 144 1590 895 1370 1478 253 1355 642 1279 185 118 399 697 608 880 161 598 842 1078 645 322 1147 697 277 145
is_linear=0
shrinkage=0.0140275


Tree=8
num_leaves=47
num_cat=0
split_feature=11 11 11 11 11 11 11 10 13 13 13 13 13 11 16 13 11 10 10 12 10 16 11 11 11 13 13 10 11 13 28 13 11 13 20 13 5 5 10 13 17 11 5 22 13 2
split_gain=2.73808e+06 281270 218132 35832 30484.3 23356 20536.9 12119.8 10813.7 10049.3 9580.33 9516.5 9044.16 8861.44 8838.53 7869.6 7681.18 7603.84 7228.23 6821.3 6684.9 6577.49 6550.12 6086.81 5813.52 5802.97 5358 5230.13 5059.93 4951.4 4703.92 4559.9 4878.73 3337.18 2813.16 2689.78 2174.01 1888.27 1864.62 1727.64 1654.44 1526.79 939.737 842.07 709.995 385.952
threshold=32.996354000000004 52.433338000000006 14.164366000000006 25.380252000000006 43.168066000000003 61.078926000000003 2.1250679999999922 22.756177500000003 52.347658000000003 7.2643719999999989 43.215394000000011 36.466530000000013 61.940921200000012 36.637482000000013 38.154771930165829 23.781538000000001 46.858460000000001 35.160510000000009 50.066362500000004 28.735140000000005 75.939517500000008 38.992183547349185 27.896762000000003 57.018408000000008 66.955917800000023 60.155384000000005 40.854706000000007 22.756177500000003 10.522762000000002 10.479106 2.1563736263736257 12.563136000000002 21.161294000000005 56.922188000000006 5.0031688429056018 36.754408000000005 0.060661764705882359 0.060661764705882359 10.497616500000001 15.864604000000002 44.769126636458758 0.52587799999999885 0.27232854864433814 1.2719732305263169 50.842240000000011 2.5000000000000004
decision_type=2 2 2 2 2 2 2 2 2 2 2 2 2 2 2 2 2 2 2 2 2 2 2 2 2 2 2 2 2 2 2 2 2 2 2 2 2 2 2 2 2 2 2 2 2 2
left_child=2 4 6 17 10 12 25 38 16 34 13 28 23 35 43 -5 -9 26 -16 -15 -10 -12 27 33 36 41 40 -17 37 -30 -24 -19 -33 -3 -7 -2 -11 -8 -6 -25 -4 45 -43 -13 -26 -1
right_child=1 5 3 15 7 9 11 8 20 24 21 14 -14 19 18 22 -18 31 -20 -21 -22 -23 30 39 44 -27 -28 -29 29 -31 -32 32 -34 -35 -36 -37 -38 -39 -40 -41 -42 42 -44 -45 -46 -47
leaf_value=-0.42065331558917307 0.035780188364291955 0.2567223675717491 -0.22606549427441655 0.055069043720787199 0.34180736466243133 0.29973867019124067 -0.33836153007036918 0.10931674881251852 -0.047457638831340583 0.37880317759946103 0.082616652803087276 -0.32970197236289206 0.13881459739937446 0.21961057592614275 -0.051780042287000332 -0.24480602610381075 0.18825903271889327 -0.047752459169313879 -0.22159816499016435 0.08689811146236659 0.1329435945331581 -0.10217129463043358 -0.062045733435430829 0.24950944751389584 0.44899409803380808 -0.22636120372653901 -0.13088203272990437 -0.095274404994471276 -0.1362298301291667 -0.26713951096802857 0.047289686085154388 -0.17327116665256742 -0.11501947284489727 0.15450392863657403 0.16940239542498062 -0.067027601004233925 0.32890653859814262 -0.29473973501765344 0.23537704522626904 0.31630773586471844 -0.30019990999512042 -0.37205232616052858 -0.32656930339883045 -0.25774231668808995 0.39374413615000048 -0.38179620683577992
leaf_weight=129 330 645 214 110 58 57 234 398 89 209 57 72 104 88 86 60 623 86 116 573 74 113 517 90 57 57 107 199 66 420 91 832 430 70 77 59 1023 1257 75 536 83 322 128 60 283 92
leaf_count=129 330 645 214 110 58 57 234 398 89 209 57 72 104 88 86 60 623 86 116 573 74 113 517 90 57 57 107 199 66 420 91 832 430 70 77 59 1023 1257 75 536 83 322 128 60 283 92
internal_value=0 0.217959 -0.21578 -0.124745 0.108022 0.306471 -0.297527 0.154825 0.140552 0.341632 0.0574929 -0.277049 0.264955 0.0733119 -0.207726 -0.056668 0.157492 -0.162704 -0.149331 0.104576 0.0344034 -0.0401756 -0.0708519 0.274733 0.351579 -0.362526 -0.216118 -0.129939 -0.288757 -0.249375 -0.0456709 -0.146691 -0.153428 0.246724 0.224891 0.0201709 0.337376 -0.30159 0.281838 0.306714 -0.246805 -0.374084 -0.359129 -0.297041 0.403025 -0.404506
internal_weight=0 5688 5768 2729 2537 3151 3039 1317 1184 1706 1220 2311 1445 1050 334 977 1021 1752 202 661 163 170 867 1341 1572 728 404 259 1977 486 608 1348 1262 715 134 389 1232 1491 133 626 297 671 450 132 340 221
internal_count=11456 5688 5768 2729 2537 3151 3039 1317 1184 1706 1220 2311 1445 1050 334 977 1021 1752 202 661 163 170 867 1341 1572 728 404 259 1977 486 608 1348 1262 715 134 389 1232 1491 133 626 297 671 450 132 340 221
is_linear=0
shrinkage=0.0140275


Tree=9
num_leaves=48
num_cat=0
split_feature=11 11 11 11 11 11 11 12 13 13 3 13 13 3 13 10 13 11 11 11 13 13 10 13 11 11 13 11 11 11 13 10 12 13 12 12 27 3 11 19 13 26 26 21 11 12 11
split_gain=2.66181e+06 273522 212055 34833.9 26953.5 25380 20011.3 12767.8 10619.1 9889.78 11592.8 9083.67 8134.22 16166.1 7650.43 7391.94 7140.24 7011.69 6367.66 5582.95 14860 5208.57 5084.31 4682.66 7408.94 4604.64 4432.74 4742.68 4386.65 4193.16 4813.24 4125.97 3975.28 3940.51 2672.5 2405.8 2222.47 2115.6 2027.07 1900.99 1793.87 1447.34 1165.59 886.912 791.627 535.558 255.301
threshold=32.996354000000004 51.528462000000012 14.164366000000006 25.380252000000006 59.793998000000009 40.352050000000013 2.7264600000000034 32.641087500000005 40.078588000000003 7.2643719999999989 0.90219990435198483 62.449404800000003 36.466530000000013 0.90733452593917718 23.781538000000001 35.160510000000009 61.181300000000007 66.386836000000002 27.896762000000003 54.475276000000008 54.505944000000007 40.854706000000007 22.756177500000003 52.080554000000006 46.858460000000001 36.637482000000013 12.563136000000002 21.161294000000005 8.097032000000004 10.522762000000002 10.479106 75.939517500000008 65.409067500000006 32.852942000000006 43.574422500000004 37.561177500000007 6.8339999999997199 0.72474747474747481 45.76651600000001 20.326790199363792 12.563136000000002 6.4277238000000052 7.4510659999999964 1.3049482894736786 1.2955699999999981 20.467912500000004 1.0000000180025095e-35
decision_type=2 2 2 2 2 2 2 2 2 2 2 2 2 2 2 2 2 2 2 2 2 2 2 2 2 2 2 2 2 2 2 2 2 2 2 2 2 2 2 2 2 2 2 2 2 2 2
left_child=2 5 6 15 16 8 11 38 25 10 -6 37 29 28 -5 21 19 39 22 20 -3 41 -16 24 -9 34 -17 -28 -14 36 -31 -25 -10 -20 -2 -27 -8 46 43 -11 -21 -4 -19 -7 -39 -40 -1
right_child=1 4 3 14 9 7 12 23 32 17 -12 -13 13 -15 18 26 -18 42 33 40 -22 -23 -24 31 -26 35 27 -29 -30 30 -32 -33 -34 -35 -36 -37 -38 44 45 -41 -42 -43 -44 -45 -46 -47 -48
leaf_value=-0.42156527695563872 0.090424974372214875 0.25109827553260522 -0.22570948736636562 0.054296559851161198 0.32096152916956283 0.14585932915428071 -0.32946446743612862 0.096306938103983761 -0.10880142932932309 0.35144602473618591 0.06457977427099762 -0.17686979003673628 -0.34548023552896961 -0.064752392665951647 -0.2413720022134267 -0.047082610341548287 0.13019572605925597 0.41001624393388053 -0.01744464866900558 0.21826226661235401 0.01586529052223146 -0.12904608091007772 -0.093937940874580114 -0.026754790362130108 0.16860181708824082 0.18675992769269084 -0.17084059963055512 -0.11340603397781562 -0.21525064220709575 -0.1343188653928139 -0.2633922027310987 0.11891197065041489 0.030873067567427033 -0.091302056993833078 0.0072419002856011095 0.086061217246230073 -0.28474646402785425 -0.36565906089792372 0.29603194690489681 0.3127739562614818 0.28820762271453731 -0.29835876315381393 0.36666933744563501 0.22364264866689776 -0.33472294448230766 0.23881609707119195 -0.3859914296352856
leaf_weight=87 107 398 225 110 89 60 279 651 110 349 57 57 97 108 60 86 91 217 381 81 61 107 199 78 489 57 832 430 108 66 420 75 63 227 263 262 1053 305 59 918 727 72 293 57 371 76 88
leaf_count=87 107 398 225 110 89 60 279 651 110 349 57 57 97 108 60 86 91 217 381 81 61 107 199 78 489 57 832 430 108 66 420 75 63 227 263 262 1053 305 59 918 727 72 293 57 371 76 88
internal_value=0 0.214902 -0.212754 -0.122995 0.298219 0.101328 -0.293354 0.135353 0.0403357 0.332016 0.220911 -0.348523 -0.269844 -0.203721 -0.0558731 -0.160422 0.250357 0.341141 -0.0698581 0.258982 0.21985 -0.213087 -0.128117 0.117541 0.127323 0.0650109 -0.144633 -0.151276 -0.276902 -0.281225 -0.245877 0.044609 -0.0579006 -0.0450301 0.0313147 0.104074 -0.294118 -0.360013 0.226723 0.323431 0.281204 -0.243343 0.385125 0.183808 -0.34869 0.263869 -0.403713
internal_weight=0 5688 5768 2729 3281 2407 3039 1545 862 1923 146 908 2131 313 977 1752 1358 1777 867 1267 459 404 259 1293 1140 689 1348 1262 205 1818 486 153 173 608 370 319 1332 851 252 1267 808 297 510 117 676 135 175
internal_count=11456 5688 5768 2729 3281 2407 3039 1545 862 1923 146 908 2131 313 977 1752 1358 1777 867 1267 459 404 259 1293 1140 689 1348 1262 205 1818 486 153 173 608 370 319 1332 851 252 1267 808 297 510 117 676 135 175
is_linear=0
shrinkage=0.0140275


Tree=10
num_leaves=50
num_cat=0
split_feature=11 11 11 11 11 11 11 12 7 13 16 13 13 7 13 13 17 17 11 13 10 11 13 11 7 16 11 11 13 11 10 10 1 12 25 10 13 12 4 11 11 13 28 4 23 19 13 17 2
split_gain=2.58766e+06 265902 206148 33863.4 26227.2 24672.8 19453.6 12412.2 11572.8 21413.8 10447.7 10323.3 9507.08 16373.7 8830.34 8665.81 7580.1 7541.09 7479.82 7437.39 7185.93 6238.38 5687.73 5516.98 5381.26 4691.85 4486.74 4476.31 4309.13 4630.76 4065.7 3690.43 2608.8 2598.02 2510.16 2451.97 2358.23 2338.69 2201.05 1970.4 1966.75 1868.91 1602.84 1594.68 862.04 849.322 683.875 612.231 221.548
threshold=32.996354000000004 51.528462000000012 14.164366000000006 25.380252000000006 61.078926000000003 40.352050000000013 2.7264600000000034 32.641087500000005 1.0000000180025095e-35 36.466530000000013 41.094876265101398 40.078588000000003 7.2643719999999989 1.0000000180025095e-35 62.449404800000003 61.181300000000007 10.790184870336573 30.78621985087165 56.77779000000001 23.781538000000001 35.160510000000009 29.518392000000002 56.613400000000006 66.955917800000023 1.0000000180025095e-35 36.575688608647773 11.661829999999997 36.637482000000013 12.563136000000002 18.722372000000004 12.963982500000002 59.87861250000001 15.500000000000002 43.574422500000004 6.4506224999999953 79.268805000000015 15.864604000000002 37.561177500000007 3.5000000000000004 45.76651600000001 1.0000000180025095e-35 12.304770000000003 1.7853906249999938 1.5000000000000002 1.3049482894736786 12.2301991200933 50.842240000000011 34.775252032556651 1.5000000000000002
decision_type=2 2 2 2 2 2 2 2 2 2 2 2 2 2 2 2 2 2 2 2 2 2 2 2 2 2 2 2 2 2 2 2 2 2 2 2 2 2 2 2 2 2 2 2 2 2 2 2 2
left_child=2 5 6 20 15 11 14 39 26 34 -11 27 13 -6 40 18 -9 -13 22 -5 24 30 -3 38 42 -18 43 33 -22 -30 -21 -23 -26 -2 -10 -17 -20 -29 -14 44 48 -28 -4 -8 -7 -42 -25 -41 -1
right_child=1 4 3 19 12 7 8 16 9 10 -12 17 23 -15 -16 35 25 -19 36 21 28 31 -24 46 32 -27 41 37 29 -31 -32 -33 -34 -35 -36 -37 -38 -39 -40 47 45 -43 -44 -45 -46 -47 -48 -49 -50
leaf_value=-0.41666106750303822 0.089156536912132933 0.24551023455719292 -0.2144690158524826 0.053534915864434006 0.39885712861658168 0.14381328466723481 -0.32066459768098765 0.2313886524517148 -0.28887737261323065 -0.20673732003050427 0.037990221726117684 -0.13163706455191079 0.344990564914326 0.085087067734447797 -0.17438874168744939 0.07289715018632037 0.13741619583296324 0.057931432047767711 0.23236429612534301 -0.20322245413001028 -0.046422157517694441 0.0096158114895941033 0.11853281571986635 0.43707231792838319 -0.090239660649091627 0.081244279243411113 -0.17142682288119013 0.18414014671115173 -0.17907282412677222 -0.12496989822241826 -0.086860611814085803 -0.074317193185210503 -0.21340409676968122 0.0071403143495365959 -0.22830097883884459 0.20101480620074294 0.30824693673688008 0.084853990526249271 0.30711289392541474 0.23179696488208162 -0.3714310440804533 -0.25780963812053115 -0.28415796171777208 -0.28708712163040828 0.22050549219180954 -0.33591638963116671 0.38283892135582942 0.29249085105614697 -0.37922291104685091
leaf_weight=89 107 724 138 110 57 60 464 103 270 59 82 105 679 77 57 59 522 68 95 70 86 221 77 57 84 668 66 57 564 698 383 193 57 263 272 59 561 262 553 72 184 201 125 717 57 521 283 63 57
leaf_count=89 107 724 138 110 57 60 464 103 270 59 82 105 679 77 57 59 522 68 95 70 86 221 77 57 84 668 66 57 564 698 383 193 57 263 272 59 561 262 553 72 184 201 125 717 57 521 283 63 57
internal_value=0 0.211887 -0.20977 -0.12127 0.294036 0.0999068 -0.289239 0.133455 -0.266059 -0.218424 -0.0643685 0.0397702 0.332155 0.218604 -0.343634 0.252743 0.115892 -0.0570879 0.262112 -0.0550895 -0.158172 -0.0688785 0.233312 0.341831 -0.210098 0.10589 -0.288524 0.0640993 -0.142605 -0.149154 -0.104855 -0.029497 -0.140075 0.0308757 -0.258489 0.13701 0.297268 0.102615 0.327994 0.223544 -0.354963 -0.23648 -0.247615 -0.300285 0.18123 -0.345194 0.39195 0.260168 -0.402088
internal_weight=0 5688 5768 2729 3281 2407 3039 1545 2131 683 141 862 1706 134 908 1575 1293 173 1457 977 1752 867 801 1572 404 1190 1448 689 1348 1262 453 414 141 370 542 118 656 319 1232 252 851 267 263 1181 117 705 340 135 146
internal_count=11456 5688 5768 2729 3281 2407 3039 1545 2131 683 141 862 1706 134 908 1575 1293 173 1457 977 1752 867 801 1572 404 1190 1448 689 1348 1262 453 414 141 370 542 118 656 319 1232 252 851 267 263 1181 117 705 340 135 146
is_linear=0
shrinkage=0.0140275


Tree=11
num_leaves=50
num_cat=0
split_feature=26 26 26 27 16 17 16 17 10 3 17 16 26 8 10 26 17 16 10 17 16 10 26 21 17 27 17 21 10 16 16 16 3 18 27 26 18 17 17 10 21 5 26 30 12 29 10 6 5
split_gain=470979 73345.7 60092.1 31071.2 31006.6 45437.4 24636.6 35895.9 23908.5 22068.1 15659.9 33969.4 20410.2 15046.1 14537.1 13814 11619.2 10886.9 18791 17210.9 9099.92 11044.9 8032.12 7575.21 7153.39 7072.37 6764.11 6613.36 6556.59 5767.66 5631.75 5371.61 4913.73 4018.67 5476.53 3808.23 3429.74 3223.8 3155.84 2845.03 2040.91 2120.82 1999.94 1521.39 1881.07 1427.68 1221.65 877.884 810.757
threshold=0.39286999999999678 20.199128000000002 -23.072807999999998 1.7000000000001594 33.038348089060143 31.128523561342686 28.449361365917646 26.896646649794313 23.949817500000005 0.96638418079096056 27.064335568528197 33.547163927566409 -9.1760526000000002 1.0000000180025095e-35 77.40547500000001 2.0945189999999996 21.731833748561865 34.338786646631888 51.70483500000001 29.296712090981895 46.821353349145262 68.475225000000009 17.572389999999999 3.021760921875003 17.257172569785897 6.3919999999997978 18.396733164784585 5.8646987043343666 63.885045000000005 36.834642192808822 38.742794757769367 47.630605348127879 0.87841832963784194 8.6251462000524679 12.434000000000085 -31.386800799999996 18.4877849638663 35.915572261233869 36.359857192849212 51.336862500000009 1.5882238749999997 0.12632978723404256 28.579006000000003 4640.5000000000009 80.97159000000002 1.0000000180025095e-35 23.949817500000005 2.5000000000000004 0.20710681244743484
decision_type=2 2 2 2 2 2 2 2 2 2 2 2 2 2 2 2 2 2 2 2 2 2 2 2 2 2 2 2 2 2 2 2 2 2 2 2 2 2 2 2 2 2 2 2 2 2 2 2 2
left_child=2 4 9 29 37 22 14 24 25 17 33 23 -13 31 -3 -10 35 18 -1 36 21 -18 27 -12 39 -7 -24 -6 -26 -4 -15 -9 -21 -5 -35 -11 -19 43 -31 -8 45 -42 -16 48 -45 -39 -22 -20 -2
right_child=1 6 3 10 5 8 7 13 15 16 11 12 -14 30 42 -17 20 19 47 32 46 -23 26 -25 28 -27 -28 -29 -30 38 -32 -33 -34 34 -36 -37 -38 40 -40 -41 41 -43 -44 44 -46 -47 -48 -49 -50
leaf_value=0.13478537696587767 -0.0018816948953364681 -0.12855764943378101 -0.10695044060732864 0.09901441681687162 -0.011357325940197338 0.17394170612826604 -0.014696701934253055 0.19902357068338067 0.058574688885934673 -0.16169080318598561 0.06466040382340521 -0.17139467690950053 -0.062877461440800322 0.085719853630863221 0.036132783874319688 0.21720160757916096 0.005755449586723884 -0.091489140967443525 -0.14475093550934631 -0.14844465380144523 -0.21293742359066947 -0.20960810329150817 0.0070934741428311477 -0.025997161694076502 0.16481378566378618 0.0019831282471935371 0.20466924309579576 0.057672871212787566 0.055397349004136953 -0.19974580895309879 0.18258551633482775 0.27905079431370405 -0.23102033750270651 -0.066082632364836399 0.0061286938166800276 -0.031783399899910317 -0.010928854742102987 -0.057556951429732918 -0.3353853572549047 0.072972347159300052 0.015663680350970946 -0.065678971567815853 0.1333170862903196 -0.082606436924223064 0.0260757600579367 -0.1497588637725541 -0.27721699166131675 -0.082010097639080473 0.066492860666979486
leaf_weight=91 63 85 58 71 900 59 129 250 133 91 308 560 873 155 69 578 60 376 88 383 71 213 59 441 284 233 81 392 174 62 500 490 226 264 951 87 144 64 75 167 94 191 106 68 58 69 349 89 74
leaf_count=91 63 85 58 71 900 59 129 250 133 91 308 560 873 155 69 578 60 376 88 383 71 213 59 441 284 233 81 392 174 62 500 490 226 264 951 87 144 64 75 167 94 191 106 68 58 69 349 89 74
internal_value=0 0.0927812 -0.0872171 -0.0520803 0.0478393 0.0712412 0.15091 0.166514 0.143646 -0.143963 -0.0423904 -0.0652744 -0.105289 0.208666 0.021913 0.187538 -0.199388 -0.109403 -0.0289982 -0.128483 -0.225361 -0.162252 0.0205232 0.0112741 0.0885187 0.0367499 0.121451 0.00958191 0.123259 -0.224379 0.159673 0.252023 -0.179099 -0.00355731 -0.00955644 -0.0982324 -0.0691924 -0.0358276 -0.274047 0.0347438 -0.0600375 -0.0388279 0.095035 0.00262636 -0.0325277 -0.105439 -0.266366 -0.113239 0.0350042
internal_weight=0 5525 5931 3663 3116 2435 2409 2149 1003 2268 3468 2182 1433 1395 260 711 871 1397 268 1129 693 273 1432 749 754 292 140 1292 458 195 655 740 609 1286 1215 178 520 681 137 296 418 285 175 263 126 133 420 177 137
internal_count=11456 5525 5931 3663 3116 2435 2409 2149 1003 2268 3468 2182 1433 1395 260 711 871 1397 268 1129 693 273 1432 749 754 292 140 1292 458 195 655 740 609 1286 1215 178 520 681 137 296 418 285 175 263 126 133 420 177 137
is_linear=0
shrinkage=0.0140275


Tree=12
num_leaves=51
num_cat=0
split_feature=11 11 11 11 11 11 11 12 7 17 7 12 11 11 11 12 11 11 7 3 22 11 22 28 25 21 7 11 28 25 29 21 28 19 21 17 17 3 20 22 19 20 20 12 3 22 11 11 3 11
split_gain=2.47588e+06 258813 202750 29028.5 27827.2 22473.8 21550.8 12036.2 11996.1 8464.07 7781.27 7564.48 6595.06 6193.17 5729 6210.92 5696.4 4763.09 4665.94 5024.82 4023.37 3968.5 3949.94 3926.5 3391.28 2933.66 2784.74 2675.98 2650 2540.99 2520.8 2368.12 2169.11 2153.49 2197.74 1956.66 1919.47 1849.86 1815.02 1665.25 1631.59 1624.96 1565.38 1558.35 1534.39 1453.95 1428.9 1078.07 556.272 141.954
threshold=32.996354000000004 52.433338000000006 15.484484 43.168066000000003 27.476726000000003 2.7264600000000034 62.740434600000007 21.164535000000004 1.0000000180025095e-35 11.970586785587928 1.0000000180025095e-35 15.276082500000003 22.045532000000001 57.250526000000008 36.637482000000013 24.998715000000004 7.869538000000003 66.955917800000023 1.0000000180025095e-35 0.94935897435897443 -1.676770349999998 46.858460000000001 4.4524345704545469 2.1714285714286272 -11.343727499999995 3.3897058920454541 1.0000000180025095e-35 67.245842600000017 2.1500000000000106 -20.017829999999993 1.0000000180025095e-35 -0.36884884615384655 1.7708125000000148 27.992829977364586 -0.64139934482758532 24.94610836588598 29.184581417816286 0.73993558776167478 7.7402204674313397 0.31472911907407392 16.110789543005858 11.025799314280539 2.7937714916839806 43.86816000000001 0.71240601503759404 -0.74638720000000036 1.2955699999999981 1.6994899999999975 0.82998795664391822 0.52587799999999885
decision_type=2 2 2 2 2 2 2 2 2 2 2 2 2 2 2 2 2 2 2 2 2 2 2 2 2 2 2 2 2 2 2 2 2 2 2 2 2 2 2 2 2 2 2 2 2 2 2 2 2 2
left_child=2 3 5 14 11 18 13 -5 16 -9 27 32 29 28 38 -16 44 20 37 46 -12 -11 30 33 -14 -17 45 40 43 -13 -10 -18 -4 34 -6 -35 -28 49 42 -30 -8 -40 -2 -3 -7 -15 -20 -39 -29 -1
right_child=1 6 4 7 23 8 10 9 22 21 17 12 24 26 15 25 31 -19 19 -21 -22 -23 -24 -25 -26 -27 36 48 39 -31 -32 -33 -34 35 -36 -37 -38 47 41 -41 -42 -43 -44 -45 -46 -47 -48 -49 -50 -51
leaf_value=-0.4094520223524542 -0.024332234761884154 0.27549221095127363 -0.17885771713582657 0.2901004402396184 0.043031184142624079 -0.34755440404523452 0.37253446020722181 0.27126001900511609 -0.24439596370558533 0.088979859374543058 0.14806065679082328 -0.21781303061397478 -0.031796274479323983 0.33360819064642044 0.17854123509598671 0.033532592058917114 -0.21001659999311967 0.37027520733399771 -0.37782697882319932 -0.19556626143489705 0.27790553899759318 0.14458815065674402 -0.10223835843339382 0.047575070046015848 -0.11206597110694159 0.091126547265472521 0.29651689015624638 0.41724954165060724 0.23163369164230166 -0.14597938979376945 -0.19141641898154618 -0.26463963094532267 -0.2878748089269067 -0.1060995040535718 -0.044590254501443313 -0.039531116911773814 0.22544609064791338 -0.35819261189050861 -0.067665146870534598 0.13309115894234938 0.32815464895024432 0.018815747496581187 0.05480125246839343 0.22723842871893965 -0.2948815917112424 0.28633786412350215 -0.29113859900517802 -0.31533748502234099 0.3718558978137384 -0.38065086160123757
leaf_weight=92 65 189 69 108 80 134 231 84 361 389 58 110 127 184 101 368 209 89 70 84 252 724 63 97 567 331 115 118 58 841 350 635 76 167 190 182 219 316 83 82 580 88 201 449 621 440 83 188 105 70
leaf_count=92 65 189 69 108 80 134 231 84 361 389 58 110 127 184 101 368 209 89 70 84 252 724 63 97 567 331 115 118 58 841 350 635 76 167 190 182 219 316 83 82 580 88 201 449 621 440 83 188 105 70
internal_value=0 0.207509 -0.204273 0.102069 -0.109295 -0.276925 0.292086 0.148223 -0.25425 0.135416 0.332364 -0.13886 -0.13029 0.258834 0.0533721 0.0756853 -0.276205 0.279666 -0.336507 -0.282923 0.253632 0.125158 -0.208884 -0.0353745 -0.097386 0.0608144 0.282739 0.352693 0.22939 -0.154295 -0.218325 -0.251121 -0.236042 -0.0483833 -0.0186048 -0.071403 0.249936 -0.355565 0.0125096 0.173961 0.340803 -0.0231232 0.0354403 0.241543 -0.304239 0.300287 -0.330841 -0.34222 0.395904 -0.397046
internal_weight=0 5711 5782 2542 2506 3276 3169 1305 2373 1197 1433 1790 1645 1736 1237 800 1599 399 903 237 310 1113 774 716 694 699 958 1034 778 951 711 844 145 619 270 349 334 666 437 140 811 171 266 638 755 624 153 504 223 162
internal_count=11493 5711 5782 2542 2506 3276 3169 1305 2373 1197 1433 1790 1645 1736 1237 800 1599 399 903 237 310 1113 774 716 694 699 958 1034 778 951 711 844 145 619 270 349 334 666 437 140 811 171 266 638 755 624 153 504 223 162
is_linear=0
shrinkage=0.0140275


Tree=13
num_leaves=47
num_cat=0
split_feature=11 11 11 11 11 11 11 13 13 13 7 13 16 10 16 11 13 11 13 13 11 11 10 16 11 13 13 13 11 10 13 14 13 16 27 30 10 9 13 10 11 2 28 2 13 2
split_gain=2.40691e+06 251603 197102 28219.8 27052 21847.7 20950.2 13750.8 11870.8 11695.5 11661.6 23613 15027.8 11644.2 9549.95 9221.4 7859.57 9114 7714.34 6828.8 7417.73 6590.54 6150.12 5915.68 5537.46 5447.76 5396.41 5696.74 5015.16 4375.77 4071.44 3946.2 3566.51 3204.12 3590.83 2823.2 2537.55 2390.19 2314.05 2029.79 1912.88 1463.01 1328.71 999.946 564.526 194.452
threshold=32.996354000000004 52.433338000000006 15.484484 43.168066000000003 27.476726000000003 2.7264600000000034 62.740434600000007 52.347658000000003 43.215394000000011 3.9622919999999984 1.0000000180025095e-35 35.447448000000009 37.317968384164026 13.515022500000002 83.48174823667047 36.637482000000013 15.421516000000002 21.774960000000004 62.449404800000003 62.927788200000009 57.250526000000008 46.858460000000001 75.939517500000008 76.875761212133028 7.869538000000003 57.378638000000002 32.852942000000006 36.466530000000013 67.245842600000017 68.768437500000019 36.754408000000005 1.5000000000000002 7.8743660000000029 41.344665925041539 58.839000000000155 4640.5000000000009 45.078232500000006 7.5000000000000009 10.479106 56.857132500000013 1.0000000180025095e-35 2.5000000000000004 1.5084047619047649 2.5000000000000004 54.993810000000011 1.5000000000000002
decision_type=2 2 2 2 2 2 2 2 2 2 2 2 2 2 2 2 2 2 2 2 2 2 2 2 2 2 2 2 2 2 2 2 2 2 2 2 2 2 2 2 2 2 2 2 2 2
left_child=2 3 5 8 13 18 19 14 15 -8 24 39 -13 35 21 30 29 -18 40 20 25 -5 -9 -17 41 -3 33 -28 37 -15 -2 -10 -26 42 -35 -4 -29 -11 -22 -12 45 -7 -6 -42 -30 -1
right_child=1 6 4 7 26 10 9 22 31 28 11 12 -14 16 -16 23 17 -19 -20 -21 38 -23 -24 -25 32 -27 27 36 44 -31 -32 -33 -34 34 -36 -37 -38 -39 -40 -41 43 -43 -44 -45 -46 -47
leaf_value=-0.40324672251229843 0.036608389050121176 0.24128472097839809 -0.18727984886317522 0.10624700533020309 -0.0098176047793307325 -0.32443889044821661 0.14515212943065656 -0.042200850944846692 -0.10487244055892195 0.34130345534246342 -0.27524788897318286 -0.24231600891703467 0.036258760791637604 0.059060951434580587 0.286144457560355 0.084655659700198296 -0.16736120983672181 -0.098039494119210091 -0.17360535166498769 0.14758236820506032 0.2225531622674729 0.17907410848197924 0.1299375433166938 0.20322284630597789 -0.14312242080357293 0.1028048977655953 -0.17907614455288554 0.034739522159118449 0.42811220361418417 -0.099672234475052149 -0.0839458114977297 0.037613576397294748 -0.2555858410846405 -0.004658668689098238 0.11469386179111712 -0.31004771151602267 -0.083315211098438702 0.29925457577668968 0.29795225829069832 -0.22342835083934759 -0.35494151796122198 -0.2841782363502724 -0.081924291610785613 -0.31987422812775984 0.37898184594466705 -0.36782571757045279
leaf_weight=87 334 691 67 406 91 296 66 100 112 615 274 58 111 65 113 570 809 694 57 109 90 617 69 97 60 61 88 59 62 72 66 58 784 209 65 83 91 476 785 331 259 459 113 443 214 57
leaf_count=87 334 691 67 406 91 296 66 100 112 615 274 58 111 65 113 570 809 694 57 109 90 617 69 97 60 61 88 59 62 72 66 58 784 209 65 83 91 476 785 331 259 459 113 443 214 57
internal_value=0 0.204599 -0.201408 0.100637 -0.107762 -0.273041 0.287989 0.146144 0.0526236 0.327702 -0.250684 -0.205954 -0.0593092 -0.136912 0.163708 0.0699714 -0.126084 -0.135357 -0.331787 0.255203 0.262409 0.150177 0.0280429 0.101908 -0.272331 0.23006 -0.0348783 -0.0894569 0.336511 -0.0243145 0.0167011 -0.0562222 -0.247598 -0.00768987 0.0236317 -0.255254 -0.036838 0.322963 0.290204 -0.246908 -0.342437 -0.299971 -0.0497902 -0.332821 0.390041 -0.38927
internal_weight=0 5711 5782 2542 2506 3276 3169 1305 1237 1433 2373 774 169 1790 1136 1067 1640 1503 903 1736 1627 1023 169 667 1599 752 716 238 1367 137 400 170 844 478 274 150 150 1091 875 605 846 755 204 702 276 144
internal_count=11493 5711 5782 2542 2506 3276 3169 1305 1237 1433 2373 774 169 1790 1136 1067 1640 1503 903 1736 1627 1023 169 667 1599 752 716 238 1367 137 400 170 844 478 274 150 150 1091 875 605 846 755 204 702 276 144
is_linear=0
shrinkage=0.0140275


Tree=14
num_leaves=52
num_cat=0
split_feature=11 11 11 11 11 11 11 16 7 15 12 7 15 17 3 11 15 11 16 12 7 15 11 12 11 15 11 7 25 15 11 17 24 11 24 21 12 15 11 27 3 7 27 8 3 27 11 11 26 22 11
split_gain=2.33987e+06 244594 191611 27433.6 26335.4 21238.9 20379.6 11763.3 11336.5 22057.1 12199.8 10144 13385.7 8351.82 6586.74 5410.32 7119.83 5382.96 5131.74 4693.25 4480.67 8203.92 4263.62 3746.35 3712.44 4649.19 3466.02 3181.41 3087.46 3000.82 2665.03 2656.23 2590.22 2575.29 3529.85 2306.35 2035.15 2025.51 1898.83 1825.65 1774.14 1598.96 1937.59 1486.76 1475.16 1260.94 1041.8 1018.35 990.645 492.638 130.003
threshold=32.996354000000004 52.433338000000006 15.484484 43.168066000000003 25.380252000000006 2.7264600000000034 59.027774000000001 83.48174823667047 1.0000000180025095e-35 1.5000000000000002 69.927742500000008 1.0000000180025095e-35 1.0000000180025095e-35 11.970586785587928 0.88762626262626265 36.637482000000013 1.5000000000000002 7.869538000000003 97.279611557247861 27.231435000000001 1.0000000180025095e-35 1.0000000180025095e-35 66.263263000000009 13.134607500000001 18.722372000000004 1.0000000180025095e-35 46.858460000000001 1.0000000180025095e-35 5.9384849999999973 1.0000000180025095e-35 54.221364000000008 16.297178418562684 0.5913729128014843 27.896762000000003 0.48808848553601819 -0.36884884615384655 46.180102500000004 1.0000000180025095e-35 63.941083400000004 30.751500000000195 0.73993558776167478 1.0000000180025095e-35 6.5340000000002201 1.0000000180025095e-35 0.71240601503759404 48.783499999999897 1.6994899999999975 67.988198192000013 6.1790206000000074 -2.3034024557894734 0.52587799999999885
decision_type=2 2 2 2 2 2 2 2 2 2 2 2 2 2 2 2 2 2 2 2 2 2 2 2 2 2 2 2 2 2 2 2 2 2 2 2 2 2 2 2 2 2 2 2 2 2 2 2 2 2 2
left_child=2 3 5 15 18 20 27 13 17 28 -11 22 14 -5 -13 41 19 44 24 -17 40 49 37 -6 31 -26 -15 30 -10 -29 43 -4 -32 39 -35 -19 -31 -8 -14 -25 50 42 -2 -3 -7 -43 -42 -24 -9 -22 -1
right_child=1 6 4 7 23 8 11 48 9 10 -12 12 38 26 -16 16 -18 35 -20 -21 21 -23 47 33 25 -27 -28 29 -30 36 32 -33 -34 34 -36 -37 -38 -39 -40 -41 46 45 -44 -45 -46 -47 -48 -49 -50 -51 -52
leaf_value=-0.39836387230596598 0.065707121960972892 0.18016084659491027 -0.2575584810319409 0.2655023825723295 -0.13321907179902803 -0.33823757658367209 0.37104283588322995 0.23566727130911627 -0.2725000796465315 0.063996495583711524 -0.18528706354957872 0.22913866963965793 0.26824201159031669 0.086472822722740136 0.034444233784508733 0.17362860434082764 -0.048558626352482905 -0.20356082907677353 -0.25950325225500664 0.072834247735358931 -0.2948395306184739 -0.14160724724206894 0.35289777598028144 -0.04011949636355578 -0.085620984358073679 -0.14903465993118961 0.13867386365877066 0.12568814017982893 -0.20967626839167502 0.27571750143529733 0.29893747167570606 -0.15595414428902091 0.23676790627854122 0.041390533660529111 -0.041942668896206008 -0.25746637071334261 0.19513202541231911 0.3069583655787389 0.32388418859781826 -0.11147241959921018 -0.34844163708409293 0.097396615315919477 -0.024890652329813769 0.26291655678477316 -0.28658783843369151 0.014057042428603882 -0.30631107964422105 0.40085335859872867 0.31666275531991961 -0.34492524008134845 -0.3706698114918327
leaf_weight=92 58 132 57 84 96 134 110 61 304 82 73 75 237 387 63 107 84 209 71 609 65 66 324 141 418 501 713 82 315 94 266 470 265 126 484 635 183 900 251 142 316 63 233 64 621 83 188 123 60 106 70
leaf_count=92 58 132 57 84 96 134 110 61 304 82 73 75 237 387 63 107 84 209 71 609 65 66 324 141 418 501 713 82 315 94 266 470 265 126 484 635 183 900 251 142 316 63 233 64 621 83 188 123 60 106 70
internal_value=0 0.201729 -0.198583 0.0992255 -0.106251 -0.269211 0.283949 0.144094 -0.247167 -0.203065 -0.0533671 0.309644 0.262369 0.13062 0.140302 0.0518855 0.0735692 -0.268511 -0.14297 0.087906 -0.327133 -0.274622 0.329952 -0.0499218 -0.137244 -0.120198 0.120314 0.234659 -0.24054 0.200406 0.251565 -0.166956 0.267923 -0.0409601 -0.0247192 -0.244125 0.222502 0.313944 0.296874 -0.0759445 -0.34581 0.0121752 -0.00681154 0.207216 -0.295763 0.0500621 -0.332739 0.366108 0.275883 -0.325924 -0.386437
internal_weight=0 5711 5782 2542 2506 3276 3169 1305 2373 774 155 2083 626 1184 138 1237 800 1599 1517 716 903 237 1457 989 1446 919 1100 1086 619 359 727 527 531 893 610 844 277 1010 488 283 666 437 291 196 755 146 504 447 121 171 162
internal_count=11493 5711 5782 2542 2506 3276 3169 1305 2373 774 155 2083 626 1184 138 1237 800 1599 1517 716 903 237 1457 989 1446 919 1100 1086 619 359 727 527 531 893 610 844 277 1010 488 283 666 437 291 196 755 146 504 447 121 171 162
is_linear=0
shrinkage=0.0140275


Tree=15
num_leaves=44
num_cat=0
split_feature=15 15 3 16 10 17 10 0 0 16 10 17 0 3 17 16 16 10 10 3 10 17 22 10 16 28 30 22 10 16 18 22 22 28 7 28 21 28 12 19 16 3 19
split_gain=1.029e+06 235761 41752 38742.6 139794 28935.7 27101.1 23445.4 18826.7 18545.1 55371.9 21457.7 13629.1 12564.1 9015.43 6985.14 6725.48 34352 6664.07 5760.77 5365.33 4830.83 4825.94 6243.81 5486.27 4491.03 4043 3896.31 3838.9 3491.68 2764.7 4025.7 2384.4 2358.28 2297.79 1860.01 1722.92 1453.13 1328.33 886.851 749.218 745.656 110.639
threshold=1.5000000000000002 1.0000000180025095e-35 0.94082633053221298 73.180811254331488 34.64858250000001 28.640903673163564 69.951630000000009 3.5000000000000004 4.5000000000000009 35.430522025812927 62.675497499999999 27.983302602836606 5.5000000000000009 0.64852941176470602 22.801769711414185 38.742794757769367 58.120893359760849 45.078232500000006 59.011260000000007 0.92365967365967372 63.534922500000008 33.378988411133214 -2.2009899999999982 11.945850000000002 83.48174823667047 1.7308733766233619 3287.0000000000005 2.2398459555555559 78.373470000000012 32.351745994182515 21.025347724646888 -8.3166142000000018 -0.64085750000000208 1.5972283697632033 1.0000000180025095e-35 1.9980833333333308 -2.6579379374999959 1.2002916666666581 29.215777500000005 22.519126076502175 22.562717781751012 0.90733452593917718 8.3686856009691493
decision_type=2 2 2 2 2 2 2 2 2 2 2 2 2 2 2 2 2 2 2 2 2 2 2 2 2 2 2 2 2 2 2 2 2 2 2 2 2 2 2 2 2 2 2
left_child=1 2 7 4 19 13 21 32 29 10 -9 -11 14 -6 -4 -10 17 -14 -18 34 -15 38 28 33 26 -26 -25 -16 30 -7 36 -32 -1 -24 -2 -35 -3 42 -5 -39 -30 -40 -23
right_child=3 22 12 6 5 8 -8 9 15 11 -12 -13 16 20 27 -17 18 -19 -20 -21 -22 37 23 24 25 -27 -28 -29 40 -31 31 -33 -34 35 -36 -37 -38 39 41 -41 -42 -43 -44
leaf_value=-0.33906523770748409 -0.24240995940657928 -0.12254584709022928 -0.095573362571061152 0.1679944294533085 -0.016136462503266367 0.22299665085250492 -0.015431989155817515 0.19463711309469145 0.15745260226728205 -0.070406275504082239 -0.1491720147744684 -0.17282478349149039 0.072930543015081409 0.16429627446468403 -0.29646032746525081 0.21883663481193302 -0.23778294883281004 -0.19315146195105287 -0.078146033839179563 -0.058332938485379855 0.098154097715371411 0.36255520963535987 0.00067826058219488581 -0.025397364424732425 0.19069050212768229 0.029441263341340972 0.021637824914561263 -0.20434615444521215 0.0020881242968563427 0.32498224424689814 -0.073961895207152364 0.074031502271347041 -0.22301717774387239 -0.1586004899236195 -0.14230073268633611 -0.049270865794746342 -0.053293730105104339 0.25089074089040331 0.21062143818240267 0.30259368468562242 0.061654180820407863 0.27991569193258803 0.3331021153250589
leaf_weight=89 96 88 58 60 109 85 64 145 628 686 253 975 108 712 479 874 541 821 57 91 366 63 62 491 61 77 1343 112 110 304 69 76 58 63 86 60 364 81 57 377 67 69 58
leaf_count=89 96 88 58 60 109 85 64 145 628 686 253 975 108 712 479 874 541 821 57 91 366 63 62 491 61 77 1343 112 110 304 69 76 58 63 86 60 364 81 57 377 67 69 58
internal_value=0 -0.100017 -0.165156 0.175894 0.154648 0.181632 0.261766 -0.122145 0.215712 -0.109921 -0.023899 -0.130529 -0.208757 0.127333 -0.262631 0.193176 -0.185856 -0.162212 -0.222577 -0.149561 0.141846 0.284965 -0.0026285 0.0081514 0.015464 0.100764 0.00904206 -0.279015 -0.0326784 0.302714 -0.0496923 0.00356327 -0.293321 -0.0697623 -0.19514 -0.105321 -0.0667905 0.304974 0.222645 0.293464 0.0246716 0.248619 0.34849
internal_weight=0 7313 4382 4180 3351 3078 829 2206 1891 2059 398 1661 2176 1187 649 1502 1527 929 598 273 1078 765 2931 2157 1972 138 1834 591 774 389 597 145 147 185 182 123 452 579 186 458 177 126 121
internal_count=11493 7313 4382 4180 3351 3078 829 2206 1891 2059 398 1661 2176 1187 649 1502 1527 929 598 273 1078 765 2931 2157 1972 138 1834 591 774 389 597 145 147 185 182 123 452 579 186 458 177 126 121
is_linear=0
shrinkage=0.0140275


Tree=16
num_leaves=46
num_cat=0
split_feature=11 11 11 11 11 11 11 13 13 26 3 13 11 13 13 11 13 11 12 11 11 13 12 11 13 13 11 5 13 13 12 13 21 13 12 11 13 13 13 18 3 25 13 5 11
split_gain=2.22268e+06 219282 191731 29375.8 28109.5 19828.8 15513.8 10210.6 10091.8 10073.8 13753.9 8981.91 7914.83 10300 7166.1 6978.15 6533.27 6287.7 6097.24 5806.46 5717.55 4652.12 4539.66 4946.5 4349.82 4262.29 4045.75 3926.41 3793.4 3649.95 3590.28 3500.25 3473.92 3397.49 3066.49 2361.6 2357.98 2274.37 1997.03 1798.33 1687.34 925.976 626.547 612.305 81.8923
threshold=33.369640000000011 53.486386000000003 15.484484 25.380252000000006 43.168066000000003 2.1250679999999922 65.215821600000012 53.424540000000007 43.215394000000011 18.016668000000003 0.91596045197740128 15.670872000000001 49.495670000000011 48.71227600000001 23.781538000000001 35.964928000000008 5.9045760000000032 10.522762000000002 23.135332500000004 27.896762000000003 57.250526000000008 57.378638000000002 10.062764249999999 18.722372000000004 10.479106 33.195900000000009 9.294172000000005 0.25446570972886767 7.2643719999999989 65.609660600000012 67.757287500000018 59.663472000000006 3.9268845000000003 19.209422000000004 64.307985000000016 67.245842600000017 57.378638000000002 29.535970000000006 35.447448000000009 20.704578407828517 0.73993558776167478 18.319927500000009 54.993810000000011 0.27232854864433814 1.0000000180025095e-35
decision_type=2 2 2 2 2 2 2 2 2 2 2 2 2 2 2 2 2 2 2 2 2 2 2 2 2 2 2 2 2 2 2 2 2 2 2 2 2 2 2 2 2 2 2 2 2
left_child=2 4 5 11 8 31 20 12 15 17 26 34 13 -6 32 38 -8 36 -17 37 21 39 -13 -24 -19 -21 -11 -9 -22 -30 -10 40 -5 -14 -4 41 -7 -16 -2 -3 44 -18 -37 -42 -1
right_child=1 6 3 14 7 9 16 27 30 10 -12 22 33 -15 19 18 35 24 -20 25 28 -23 23 -25 -26 -27 -28 -29 29 -31 -32 -33 -34 -35 -36 42 -38 -39 -40 -41 43 -43 -44 -45 -46
leaf_value=-0.3873185627424553 0.036479495439244669 0.24869118029188475 0.028364817626966844 0.1279199096204745 0.15388132139102995 -0.27272957977101803 0.18687005280780827 0.11814792869865898 -0.098477572025189225 -0.29812057319528451 0.032975028843167054 -0.25548364152564274 0.10850071203528436 0.012016621853460105 -0.07723332448145126 0.20467986611070269 0.33589684632145994 -0.1171257993556091 0.07892199694467647 -0.0072304723629954323 0.18856907560570407 0.11662952477005242 -0.18293517515412031 -0.12518007079290794 -0.23074429119374196 -0.082916689274240549 -0.14065655327364662 -0.013229699276895006 0.28551187715484111 0.18062989713454994 0.040216407207045855 -0.22369244127586788 -0.022029102046222247 0.21911591279359358 -0.1025846925198811 0.4169322488993204 -0.1918724039333678 -0.16168528901002027 -0.044074376436083237 0.17773610920560834 -0.33564318075228666 0.29676219962314143 0.36329182424752415 -0.30206663037989079 -0.36493655167906569
leaf_weight=86 199 454 74 65 691 1528 59 83 103 71 58 78 63 118 149 86 394 74 649 413 95 71 447 845 658 227 59 97 1337 69 57 58 57 424 67 57 75 109 87 84 339 176 203 164 81
leaf_count=86 199 454 74 65 691 1528 59 83 103 71 58 78 63 118 149 86 394 74 649 413 95 71 447 845 658 227 59 97 1337 69 57 58 57 424 67 57 75 109 87 84 339 176 203 164 81
internal_value=0 0.198346 -0.192765 -0.101213 0.105548 -0.26404 0.28056 0.146364 0.0545328 -0.245421 -0.146557 -0.140479 0.160116 0.133197 -0.0430389 0.070768 0.329739 -0.253378 0.0936452 -0.056747 0.259836 0.223529 -0.151452 -0.145167 -0.219267 -0.0340853 -0.226705 0.0473147 0.274563 0.280369 -0.0490282 -0.328559 0.0578097 0.204819 -0.0338144 0.339887 -0.26895 -0.112937 0.0119531 0.237624 -0.337627 0.323824 0.375076 -0.324708 -0.376501
internal_weight=0 5656 5782 2531 2657 3251 2999 1476 1181 2523 188 1511 1296 809 1020 1021 889 2335 735 898 2110 609 1370 1292 732 640 130 180 1501 1406 160 728 122 487 141 830 1603 258 286 538 670 570 260 503 167
internal_count=11438 5656 5782 2531 2657 3251 2999 1476 1181 2523 188 1511 1296 809 1020 1021 889 2335 735 898 2110 609 1370 1292 732 640 130 180 1501 1406 160 728 122 487 141 830 1603 258 286 538 670 570 260 503 167
is_linear=0
shrinkage=0.0140275


Tree=17
num_leaves=53
num_cat=0
split_feature=11 11 11 11 11 11 11 7 15 16 16 7 15 16 3 11 10 10 10 11 10 11 10 11 15 11 15 15 15 7 7 3 25 23 11 23 3 23 25 25 24 15 18 3 10 15 3 11 11 28 25 16
split_gain=2.16077e+06 213173 186390 28557.2 27326.4 19276.3 15081.5 11250.4 21929 12568 8416.3 8115.6 11163.3 6770.07 6704.01 6163.78 6144.75 4977.46 5364.86 4849.15 4337.42 4186.96 3969.12 3732.96 4062.16 3646.4 4384.04 3485.12 6043.18 3458.8 3392.12 3604.16 3341.73 2950.22 2395.49 2321.83 2292.98 2244.93 2181.34 2049.04 1682.28 1669.97 1658.01 1510.26 1201.05 1168.42 1102.81 1027.13 970.05 854.942 513.275 79.271
threshold=33.369640000000011 53.486386000000003 15.484484 25.380252000000006 43.168066000000003 2.1250679999999922 65.215821600000012 1.0000000180025095e-35 1.5000000000000002 44.109537366697758 73.180811254331488 1.0000000180025095e-35 1.0000000180025095e-35 84.596274531063059 0.92805383022774335 11.661829999999997 9.7641337500000009 15.732622500000007 60.160905000000007 38.781114000000009 41.175277500000014 57.640642000000007 14.738745000000003 66.955917800000023 1.0000000180025095e-35 46.858460000000001 1.5000000000000002 1.5000000000000002 1.0000000180025095e-35 1.0000000180025095e-35 1.0000000180025095e-35 0.99193548387096786 -12.192074999999994 -2.279812500000006 29.518392000000002 1.2273450000000008 0.75277777777777788 -2.8600753125000007 28.679490000000005 5.9384849999999973 0.51787994891443179 1.0000000180025095e-35 12.783296613263952 0.5590277777777779 82.473405000000028 1.0000000180025095e-35 0.48076923076923084 0.99905600000000316 67.988198192000013 1.1731821428571367 9.0122025000000026 61.205381475784414
decision_type=2 2 2 2 2 2 2 2 2 2 2 2 2 2 2 2 2 2 2 2 2 2 2 2 2 2 2 2 2 2 2 2 2 2 2 2 2 2 2 2 2 2 2 2 2 2 2 2 2 2 2 2
left_child=2 4 5 16 13 30 11 15 39 -10 25 21 14 19 -13 43 -4 32 34 38 -14 40 -12 24 -8 26 -6 28 -18 -29 45 47 -5 -27 -19 -24 -17 -15 -2 -9 -3 -23 -21 -7 -20 46 -1 -32 50 -26 -25 -50
right_child=1 6 3 17 10 7 23 8 9 -11 22 12 20 37 -16 36 27 18 44 42 -22 41 35 48 49 33 -28 29 -30 -31 31 -33 -34 -35 -36 -37 -38 -39 -40 -41 -42 -43 -44 -45 -46 -47 -48 -49 51 -51 -52 -53
leaf_value=-0.37656886723634475 -0.0027609086395504706 0.27552529623765926 -0.25165878020262478 -0.17628916906054223 0.13044556391411624 -0.31953498703276861 0.1979050522132057 -0.26233792233389985 -0.17365721019197058 0.071978838602421991 0.31132725651912407 0.18815158986894895 0.30997513812178457 0.081328273129179077 -0.0013101816745047818 -0.14445847444181067 -0.11590737468477851 -0.024240304752943632 -0.080485544964597269 0.022950734160796665 0.22226363222965234 0.34478976532794714 0.12524473118070156 0.35906988418710017 0.35482904752328098 0.24345537773129336 0.034849246490014772 -0.13611188161198906 -0.17951972479684902 0.00085470047901326223 -0.36027685535246012 -0.18700048970521344 -0.046028969515774093 0.13865867380318747 0.04355844999356126 0.22538340838801946 -0.23045426665032109 0.19803248170042426 0.05650254753420822 -0.21173041754665622 0.22035704217531993 0.28604739633331516 0.089021317864087873 -0.27167574596404387 -0.033256519019843313 -0.39649546096806487 -0.32291417004208844 -0.27966332999601168 0.39597637839301086 0.30622787316597477 0.31405397269505292 0.37197994140558016
leaf_weight=97 410 177 89 83 250 148 66 302 84 80 66 90 154 57 62 75 817 220 281 94 402 109 77 123 91 57 152 71 460 74 58 64 73 761 192 113 338 76 174 334 289 827 370 1162 171 69 370 70 95 367 90 57
leaf_count=97 410 177 89 83 250 148 66 302 84 80 66 90 154 57 62 75 817 220 281 94 402 109 77 123 91 57 152 71 460 74 58 64 73 761 192 113 338 76 174 334 289 827 370 1162 171 69 370 70 95 367 90 57
internal_value=0 0.195564 -0.190062 -0.0997933 0.104068 -0.260336 0.276625 -0.241978 -0.198474 -0.053796 0.144311 0.256192 0.217436 0.053768 0.110829 -0.262174 -0.138509 -0.0424354 -0.0292584 0.0417949 0.246569 0.275759 0.217471 0.325114 0.301049 0.128954 0.0943155 -0.131422 -0.138827 -0.0661679 -0.32395 -0.273194 -0.115375 0.145969 0.00733982 0.184834 -0.214853 0.148064 0.0148855 -0.235771 0.241325 0.292895 0.07565 -0.277088 -0.062632 -0.34212 -0.334072 -0.316241 0.359644 0.315898 0.340079 0.38702
internal_weight=0 5656 5782 2531 2657 3251 2999 2523 800 164 1476 2110 708 1181 152 1723 1511 1020 864 1048 556 1402 256 889 524 1220 402 1422 1277 145 728 192 156 818 412 190 413 133 584 636 466 936 464 1310 452 536 467 128 365 458 213 152
internal_count=11438 5656 5782 2531 2657 3251 2999 2523 800 164 1476 2110 708 1181 152 1723 1511 1020 864 1048 556 1402 256 889 524 1220 402 1422 1277 145 728 192 156 818 412 190 413 133 584 636 466 936 464 1310 452 536 467 128 365 458 213 152
is_linear=0
shrinkage=0.0140275


Tree=18
num_leaves=50
num_cat=0
split_feature=11 11 11 11 11 11 11 26 12 3 17 11 16 11 12 11 11 11 11 26 11 17 5 12 3 17 17 3 26 5 11 4 21 19 26 16 18 12 0 21 3 25 4 11 1 12 25 26 26
split_gain=2.10058e+06 207235 181197 27761.5 26565.1 18799.4 14661.3 10394.5 8637.54 8506.82 7214.96 6598.08 6581.49 5460.34 5237.74 5010.76 4714.08 3853.03 3628.73 4360.08 3472.2 3411.98 3288.15 3091.95 2696.67 2634.35 2603.91 2433.42 3153.52 2425.28 2296.16 2696.93 2182.26 2161.51 1977.74 1762.47 1611.76 1596.19 1312.62 1251.47 1046.78 994.676 982.592 942.712 937.742 711.758 499.176 313.153 246.691
threshold=33.369640000000011 53.486386000000003 15.484484 25.380252000000006 43.168066000000003 5.6250280000000012 65.215821600000012 16.830238000000012 32.641087500000005 0.84877072612921689 11.970586785587928 0.99905600000000316 84.596274531063059 57.250526000000008 10.062764249999999 46.858460000000001 38.781114000000009 18.722372000000004 66.955917800000023 -2.4473539999999985 12.511795999999999 16.297178418562684 0.17262664963814392 13.134607500000001 0.75277777777777788 11.167391182708338 20.885921354047433 0.73993558776167478 4.0765693999999941 0.16035714285714289 27.896762000000003 5.5000000000000009 -2.8600753125000007 18.920236640301781 24.543546000000003 91.399572683591842 12.783296613263952 11.044635000000005 9.5000000000000018 1.2273450000000008 0.89927536231884064 19.040437500000003 1.5000000000000002 67.988198192000013 2.5000000000000004 69.030202500000016 6.992002499999999 -24.661199599999996 9.5583520000000011
decision_type=2 2 2 2 2 2 2 2 2 2 2 2 2 2 2 2 2 2 2 2 2 2 2 2 2 2 2 2 2 2 2 2 2 2 2 2 2 2 2 2 2 2 2 2 2 2 2 2 2
left_child=2 4 5 14 12 11 13 20 37 -9 -10 40 16 26 -4 -12 33 21 19 -8 38 -16 45 -5 -22 -19 -3 42 -29 -28 31 -25 -14 -2 -32 -24 -18 -6 -7 -39 47 -21 -13 46 -42 -15 -20 -1 -45
right_child=1 6 3 23 8 7 18 9 10 -11 15 27 32 22 17 -17 36 25 43 41 24 -23 35 30 -26 -27 29 28 -30 -31 34 -33 -34 -35 -36 -37 -38 39 -40 -41 44 -43 -44 48 -46 -47 -48 -49 -50
leaf_value=-0.33864560654406634 -0.037279390057004022 0.29716471108668369 -0.24859861812765222 -0.11635868542042987 0.28122129064428486 -0.26886300358499676 0.18296860957309408 -0.21872907187180349 0.25026547813455285 -0.0037465386528804196 0.073612031209830481 -0.34944720190227463 0.080187440636502613 0.3099647815804995 -0.26232293560349129 0.13729307435449961 0.022628794346178337 -0.1868828780312986 0.35533721827854164 0.32456839338074567 -0.11848171096739651 -0.1480878136865299 0.24735379204770619 -0.031215427654173379 -0.21603028229563759 -0.10516806857160489 0.25546392666384798 -0.27542999257278394 -0.19364154962773156 0.18830179954374446 -0.010810489980450987 -0.11989801414308787 0.19525457443315331 0.02869583305358878 -0.091911130447770675 0.32379213525307171 0.087772568590777145 0.1545528592001954 -0.23670523540870533 0.22852271543744973 -0.35705264728607389 0.2790146993409775 -0.28342403690586015 0.3960663956449062 -0.29202879106650409 0.2752473222202706 0.31129190929818912 -0.37954440226319608 0.35735432718466509
leaf_weight=57 124 71 78 99 60 392 59 72 87 73 352 110 57 305 58 790 94 86 116 329 66 468 936 166 371 821 146 904 104 392 575 114 76 460 66 64 370 78 712 109 77 136 77 95 106 196 97 130 57
leaf_count=57 124 71 78 99 60 392 59 72 87 73 352 110 57 305 58 790 94 86 116 329 66 468 936 166 371 821 146 904 104 392 575 114 76 460 66 64 370 78 712 109 77 136 77 95 106 196 97 130 57
internal_value=0 0.192821 -0.187396 -0.0983937 0.102609 -0.256685 0.272745 -0.224169 0.142287 -0.11054 0.127062 -0.29171 0.053014 0.252598 -0.136566 0.11767 0.0412087 -0.130463 0.320554 0.296826 -0.234857 -0.160696 0.26699 -0.0418404 -0.201312 -0.112923 0.217116 -0.275656 -0.266998 0.20654 -0.0338234 -0.0673446 0.145988 0.0146765 -0.0191709 0.252252 0.074589 0.218017 -0.248129 0.197703 -0.343543 0.311259 -0.322295 0.3546 -0.319423 0.296395 0.335309 -0.367112 0.381591
internal_weight=0 5656 5782 2531 2657 3251 2999 1686 1476 145 1229 1565 1181 2110 1511 1142 1048 1433 889 524 1541 526 1501 1020 437 907 609 1195 1008 538 921 280 133 584 641 1000 464 247 1104 187 370 465 187 365 183 501 213 187 152
internal_count=11438 5656 5782 2531 2657 3251 2999 1686 1476 145 1229 1565 1181 2110 1511 1142 1048 1433 889 524 1541 526 1501 1020 437 907 609 1195 1008 538 921 280 133 584 641 1000 464 247 1104 187 370 465 187 365 183 501 213 187 152
is_linear=0
shrinkage=0.0140275


Tree=19
num_leaves=52
num_cat=0
split_feature=13 13 13 13 3 12 10 13 0 0 12 10 12 10 10 10 13 13 13 13 17 12 6 6 12 10 10 13 10 13 2 13 17 17 3 28 17 28 6 10 0 3 10 13 21 0 7 1 5 13 18
split_gain=1.00685e+06 106006 87421.6 42022.9 27890.2 25812.8 45107 22512.7 21872.5 21441.3 13922.7 50419.1 13541.5 33542.1 13043.3 11103 10460.1 7715.51 7665.73 6584.35 5847.25 5808.82 5571.01 4608.27 4372.78 16783.1 13714.5 4154.59 4141.87 3987.21 3817.92 3740.86 3486.39 2949.1 2850.37 2687.56 2726.55 3462.25 2087.33 2070.93 1808.04 3907.47 1533.01 1412.79 1388.17 1112.86 1101.16 672.643 359.664 322.178 15.9863
threshold=35.829812000000004 6.795274 59.141572000000004 27.046388000000004 0.92805383022774335 33.096840000000007 34.64858250000001 50.237992000000013 6.5000000000000009 6.5000000000000009 34.43721750000001 34.64858250000001 32.196675000000006 33.286522499999997 32.370817500000008 70.53863250000002 17.179826000000006 64.208224800000025 45.807724000000007 3.9622919999999984 34.556244061294926 34.843462500000008 1.0000000180025095e-35 1.0000000180025095e-35 60.660652500000005 64.241835000000023 58.730437500000015 65.132504600000019 78.726480000000024 0.59374199999999899 3.5000000000000004 51.154904000000009 40.076124033350091 45.878469965391403 0.99193548387096786 2.2114458874458847 38.792577081555322 1.225844444444417 1.0000000180025095e-35 31.135545000000004 2.5000000000000004 0.64852941176470602 38.692500000000003 67.204369400000004 6.179951749999999 5.5000000000000009 1.0000000180025095e-35 1.5000000000000002 0.24025316455696205 2.090727999999999 10.526180724478566
decision_type=2 2 2 2 2 2 2 2 2 2 2 2 2 2 2 2 2 2 2 2 2 2 2 2 2 2 2 2 2 2 2 2 2 2 2 2 2 2 2 2 2 2 2 2 2 2 2 2 2 2 2
left_child=1 9 5 4 12 15 20 28 27 29 39 -12 14 -14 -3 18 23 -13 32 30 46 -18 -9 -6 26 -26 -21 34 -8 50 -11 -22 -2 -20 -4 36 37 -5 -32 48 49 -42 -37 44 -29 -38 -7 -36 -10 -31 -1
right_child=2 3 8 35 16 6 7 22 10 19 11 17 13 -15 -16 -17 21 -19 33 24 31 -23 -24 -25 25 -27 -28 43 -30 40 38 -33 -34 -35 47 42 45 -39 -40 -41 41 -43 -44 -45 -46 -47 -48 -49 -50 -51 -52
leaf_value=-0.35218186472235236 0.17958172759838922 -0.22041694056918343 0.17030811804114043 0.049232902991535508 -0.21501663262273316 -0.067570956971408636 0.044027743688068791 0.19392327178836793 0.29622343936088674 -0.12637323600962472 -0.11800251484455011 0.1565700572624974 0.13686566933891825 -0.079134226176398342 0.017383712643648207 -0.0098576316085276904 -0.18635153689449085 0.23148687690564201 0.21659806817853819 -0.2476536777308907 -0.091608135377995142 -0.09016703342102278 0.1241561454144349 -0.15225754705441738 0.11091974988855159 -0.17340647058296071 -0.00077399661800103337 0.32604171379621466 0.097279590810845015 -0.33373948257586117 -0.26261544743688492 -0.23998780403412845 0.070339402218846617 0.31924796098829 0.29347385776889018 -0.0097851711281592164 -0.015141771820836578 -0.023856242260102661 -0.20458062228548174 0.21924437212293574 -0.14476024340237784 -0.27271734085727245 0.085321979559302305 0.36295370723869103 0.24210673155806775 -0.087688634139769558 0.013143812819097407 0.24317034210184502 0.34078479361790903 -0.28887870445722719 -0.36850519308012492
leaf_weight=57 136 196 70 161 475 69 987 321 86 97 112 534 160 1220 59 57 161 550 280 162 73 534 759 449 58 138 61 122 406 69 173 62 100 69 133 57 59 613 423 62 57 273 80 112 58 143 64 90 67 65 59
leaf_count=57 136 196 70 161 475 69 987 321 86 97 112 534 160 1220 59 57 161 550 280 162 73 534 759 449 58 138 61 122 406 69 173 62 100 69 133 57 59 613 423 62 57 273 80 112 58 143 64 90 67 65 59
internal_value=0 -0.123395 0.140291 -0.0868705 -0.11232 0.0968499 0.0780931 0.0968273 0.213916 -0.21766 0.184004 0.165309 -0.0714465 -0.0540862 -0.165371 0.176921 -0.153593 0.194587 0.195131 -0.181581 -0.0947544 -0.112458 0.144898 -0.184527 -0.137638 -0.0892367 -0.18015 0.286053 0.0595529 -0.286821 -0.20814 -0.1598 0.13332 0.236911 0.24864 -0.0124605 -0.0206317 -0.00864474 -0.221437 0.28797 -0.268378 -0.250635 0.0457055 0.323571 0.299031 -0.0665306 -0.028683 0.2732 0.315779 -0.312026 -0.360539
internal_weight=0 6059 5379 4367 3254 3383 2741 2473 1996 1692 1411 1196 1635 1380 255 642 1619 1084 585 1112 268 695 1080 924 419 196 223 585 1393 580 693 135 236 349 293 1113 976 774 596 215 464 330 137 292 180 202 133 223 153 134 116
internal_count=11438 6059 5379 4367 3254 3383 2741 2473 1996 1692 1411 1196 1635 1380 255 642 1619 1084 585 1112 268 695 1080 924 419 196 223 585 1393 580 693 135 236 349 293 1113 976 774 596 215 464 330 137 292 180 202 133 223 153 134 116
is_linear=0
shrinkage=0.0140275


Tree=20
num_leaves=48
num_cat=0
split_feature=11 11 11 11 11 11 11 13 13 13 13 26 3 16 11 16 11 11 13 11 13 11 13 3 13 16 3 16 16 13 11 21 11 13 16 28 11 11 3 18 26 25 21 28 30 13 11
split_gain=2.0289e+06 211634 170238 26366.5 25024.5 18968.2 14485.2 12034.9 11567.1 9082.28 8868.06 8249.68 10462.4 7812.68 7098.03 9677.33 5843.97 5659.86 8494.81 5342.85 5279.32 5233.4 5556.47 8959.13 4937.64 4841.21 4045.33 4026.88 3890.9 3862.65 3422.37 3375.95 3132.23 2971.64 2932.77 2630.89 2451.65 1923.25 1874.25 1829.25 1707.02 878.426 680.198 677.929 376.1 267.194 165.398
threshold=33.369640000000011 53.486386000000003 15.484484 25.380252000000006 44.191466000000005 2.7264600000000034 66.386836000000002 53.424540000000007 44.22264400000001 15.670872000000001 23.781538000000001 18.016668000000003 0.91596045197740128 83.48174823667047 38.781114000000009 85.775921154072023 27.896762000000003 12.511795999999999 12.563136000000002 49.79993600000001 62.184765800000008 57.250526000000008 7.2643719999999989 0.88762626262626265 57.378638000000002 47.315811510091365 0.89769754055468354 90.008169746232269 40.656254475324722 33.195900000000009 18.722372000000004 3.4239169802036202 9.294172000000005 58.923666000000004 80.114382248853204 1.1445833333333726 61.078926000000003 67.988198192000013 0.73993558776167478 18.223574715375605 10.380914000000002 -9.0080025000000017 0.97919587500000072 1.1666181818181736 3287.0000000000005 65.737211600000009 1.0000000180025095e-35
decision_type=2 2 2 2 2 2 2 2 2 2 2 2 2 2 2 2 2 2 2 2 2 2 2 2 2 2 2 2 2 2 2 2 2 2 2 2 2 2 2 2 2 2 2 2 2 2 2
left_child=2 4 5 9 8 20 21 13 14 25 31 17 32 19 15 -2 34 33 -19 -6 38 24 23 -23 39 -4 -9 30 -10 -18 -11 -5 -13 -7 -12 -16 -24 43 46 -3 -28 -40 -15 -8 -45 -39 -1
right_child=1 6 3 10 7 11 37 26 28 27 16 12 -14 42 35 -17 29 18 -20 -21 -22 22 36 -25 -26 -27 40 -29 -30 -31 -32 -33 -34 -35 -36 -37 -38 45 41 -41 -42 -43 -44 44 -46 -47 -48
leaf_value=-0.36842814927235135 0.015439200311877338 0.25022539871332689 -0.11944713347842061 0.1475625609501254 0.12005397815175166 -0.25275399851841496 0.34756301115750865 0.12213517975621019 0.033102088491568517 -0.1730424753439502 -0.089782622024955572 -0.28583714157422996 0.010259321794409311 0.23176673360177669 0.040435917187863844 0.190987150280336 -0.010672460319312989 -0.041922998028857558 -0.2180572904653682 0.18487584341247787 -0.17476616716375359 0.28206423088541915 0.25129383100913505 0.050176159148530408 0.10819347192992448 0.045134364686381531 -0.066467458449979686 -0.23137995178624335 -0.11231000116554901 -0.081714792523280358 -0.12366045833105464 -0.00077721876232875295 -0.14277659677286753 -0.15200597577699623 -0.20349812958837579 0.12000344114278724 0.28632695531743163 0.39745991816477244 -0.26657635755774461 0.19311524690881052 0.038915085923848035 -0.3106032753228935 0.30085789604045954 0.33249449810015508 0.29607620809454754 0.35874336850199512 -0.34019736744588858
leaf_weight=91 528 382 64 57 655 1671 113 69 57 414 208 61 61 57 100 70 420 63 376 406 57 74 624 59 70 78 59 103 99 235 836 64 60 60 57 455 1083 71 109 157 62 557 58 82 207 83 95
leaf_count=91 528 382 64 57 655 1671 113 69 57 414 208 61 61 57 100 70 420 63 376 406 57 74 624 59 70 78 59 103 99 235 836 64 60 60 57 455 1083 71 109 157 62 557 58 82 207 83 95
internal_value=0 0.188797 -0.184238 -0.0980333 0.0980407 -0.251275 0.269585 0.140043 0.0542042 -0.135778 -0.0438207 -0.230232 -0.139433 0.156781 0.0695448 0.0359989 -0.0586724 -0.237844 -0.192795 0.144865 -0.305716 0.2549 0.266713 0.179244 0.219198 -0.0289985 0.0364131 -0.14698 -0.059138 -0.0361706 -0.140021 0.0690494 -0.214951 -0.249266 -0.114266 0.105678 0.273524 0.334258 -0.314469 0.233602 -0.0124173 -0.303407 0.266668 0.318009 0.306431 0.376634 -0.354043
internal_weight=0 5680 5797 2536 2675 3261 3005 1366 1309 1495 1041 2352 182 1176 1153 598 920 2170 439 1061 909 2449 1840 133 609 142 190 1353 156 655 1250 121 121 1731 265 555 1707 556 852 539 121 666 115 402 289 154 186
internal_count=11477 5680 5797 2536 2675 3261 3005 1366 1309 1495 1041 2352 182 1176 1153 598 920 2170 439 1061 909 2449 1840 133 609 142 190 1353 156 655 1250 121 121 1731 265 555 1707 556 852 539 121 666 115 402 289 154 186
is_linear=0
shrinkage=0.0140275


Tree=21
num_leaves=50
num_cat=0
split_feature=11 11 11 11 11 11 11 7 15 3 7 15 12 8 10 15 11 12 11 15 11 10 11 10 10 7 15 15 15 5 15 7 15 28 25 11 25 10 5 10 10 15 11 3 5 11 26 26 26
split_gain=1.97238e+06 205738 165496 25631.8 24327.3 18439.7 14081.6 10612.2 19768.9 10114.5 8914.02 15221.7 8496.09 8459.78 6544.29 6293.76 6222.42 8097.68 5473.42 4833.38 4543.34 4358.52 4079.86 4789.86 4373.02 3914.66 6281.52 3246.28 6450.02 3236.58 3783.4 3063.73 2633.54 2597.25 2592.81 2501.14 2229.56 2206.48 2194.71 2043.91 1935.58 1871.34 1869.38 1298.77 759.172 428.325 363.832 261.526 178.069
threshold=33.369640000000011 53.486386000000003 15.484484 25.380252000000006 44.191466000000005 2.7264600000000034 66.386836000000002 1.0000000180025095e-35 1.5000000000000002 0.92546296296296304 1.0000000180025095e-35 1.0000000180025095e-35 22.526122500000007 1.5000000000000002 11.249437500000001 1.5000000000000002 38.781114000000009 19.721047500000005 11.661829999999997 1.0000000180025095e-35 60.338712000000008 41.175277500000014 27.896762000000003 22.756177500000003 59.87861250000001 1.0000000180025095e-35 1.0000000180025095e-35 1.5000000000000002 1.0000000180025095e-35 0.20530382859149984 1.5000000000000002 1.0000000180025095e-35 1.0000000180025095e-35 1.1445833333333726 5.9384849999999973 50.414180000000009 16.201211250000007 22.756177500000003 0.2626059322033899 40.187122500000008 14.243880000000003 1.0000000180025095e-35 67.988198192000013 0.48076923076923084 0.21644144144144148 67.084407200000015 -21.052901999999992 7.7098400000000042 3.2779706000000037
decision_type=2 2 2 2 2 2 2 2 2 2 2 2 2 2 2 2 2 2 2 2 2 2 2 2 2 2 2 2 2 2 2 2 2 2 2 2 2 2 2 2 2 2 2 2 2 2 2 2 2
left_child=2 4 5 14 15 25 10 18 34 -10 20 13 40 -12 -4 16 17 -2 38 -5 37 -13 23 -21 -24 41 46 28 -16 35 -31 -29 -22 -18 -9 -14 -17 -3 -7 -20 -6 43 44 -1 47 -46 -27 -8 -44
right_child=1 6 3 19 12 7 42 8 9 -11 11 21 29 -15 27 36 33 -19 39 22 32 -23 24 -25 -26 26 -28 31 -30 30 -32 -33 -34 -35 -36 -37 -38 -39 -40 -41 -42 -43 48 -45 45 -47 -48 -49 -50
leaf_value=-0.35607629974726779 0.17108876615940444 0.3146676715719976 -0.24661029326385181 0.048470639358201541 0.31046110325626375 -0.27844249191948323 0.34665494834724753 -0.2492667704013154 -0.13646555217367731 0.094207259522854678 0.021802109461823 0.30674259125769077 0.13250553783067559 0.22784393112598303 -0.10905996032340473 -0.091460907168710789 0.032717441199035788 0.013605591133883727 -0.25787057880165859 -0.20582498465318069 0.35628969045939535 0.22248053672546997 -0.0027474945947313046 -0.066722522403185297 -0.075693279558908144 -0.27864966762356563 -0.13590644126995005 -0.12854481178338353 -0.17478386609152086 0.15395958776113272 0.089843112946427772 0.0065457614375020144 0.28221356108947959 0.11092974635726002 -0.19158901395657157 0.20263975652972316 0.02590270988251479 0.23601747909539975 -0.2388748466088419 -0.18507099013379835 0.19537799285979257 -0.38519054721163443 0.3922702942965598 -0.3008873244055485 0.27406983875404539 0.31689598899974836 -0.32086135141332983 0.31363098533843609 0.35899397362976804
leaf_weight=103 73 79 95 102 58 722 118 303 92 63 110 165 270 61 804 72 102 537 102 63 108 457 376 216 284 97 66 65 464 271 549 67 797 468 314 160 57 672 452 304 58 75 57 493 107 87 75 90 97
leaf_count=103 73 79 95 102 58 722 118 303 92 63 110 165 270 61 804 72 102 537 102 63 108 457 376 216 284 97 66 65 464 271 549 67 797 468 314 160 57 672 452 304 58 75 57 493 107 87 75 90 97
internal_value=0 0.186149 -0.181654 -0.0966583 0.0966657 -0.24775 0.265804 -0.227002 -0.184343 -0.0426672 0.251324 0.212613 0.138079 0.0953395 -0.133874 0.0534441 0.0636161 0.0324623 -0.247842 -0.0432062 0.269858 0.244843 -0.0531715 -0.0981555 -0.0341459 -0.301428 -0.252421 -0.126219 -0.133115 0.127412 0.111041 -0.059928 0.291061 0.096945 -0.219924 0.158617 -0.0395533 0.244299 -0.263214 -0.203376 0.252974 -0.318801 0.32957 -0.310436 0.313549 0.293308 -0.297093 0.332396 0.371352
internal_weight=0 5680 5797 2536 2675 3261 3005 2352 772 155 2449 793 1366 171 1495 1309 1180 610 1580 1041 1656 622 939 279 660 909 238 1400 1268 1250 820 132 905 570 617 430 129 751 1174 406 116 671 556 596 402 194 172 208 154
internal_count=11477 5680 5797 2536 2675 3261 3005 2352 772 155 2449 793 1366 171 1495 1309 1180 610 1580 1041 1656 622 939 279 660 909 238 1400 1268 1250 820 132 905 570 617 430 129 751 1174 406 116 671 556 596 402 194 172 208 154
is_linear=0
shrinkage=0.0140275


Tree=22
num_leaves=45
num_cat=0
split_feature=26 26 26 16 27 16 27 22 16 10 10 16 10 12 25 25 22 0 16 25 2 26 10 0 8 25 16 26 26 25 22 23 26 22 1 10 25 24 26 10 10 20 19 12
split_gain=357956 56707.6 39994.9 26735 23814.1 19012 22624.6 18627.3 17011.9 55855.2 15595.7 12372.4 19324.4 12215.8 10530.5 9866.58 7698.61 7292.91 5654.13 6319.05 5426.77 5243.82 4261.77 4043.54 3824.33 3656.06 3620.94 3418.77 2642.96 2767.97 2314.79 2218.48 1888.79 1891.04 2358.1 1624.52 1502.93 1353.15 1320.28 1260.37 1191.43 860.16 808.817 556.905
threshold=0.39286999999999678 20.580710000000003 -30.880159999999997 33.038348089060143 3.1725000000003551 29.029730676189605 1.7000000000001594 -12.429944399999995 47.630605348127879 59.608290000000004 70.21675500000002 34.338786646631888 60.160905000000007 51.047745000000013 3.2127900000000058 5.477115000000004 4.1350679454545469 6.5000000000000009 73.180811254331488 -18.616237499999986 2.5000000000000004 43.705130000000004 77.40547500000001 2.5000000000000004 1.0000000180025095e-35 -32.932546499999994 19.894617765335774 -60.619181399999995 -18.768373999999998 47.570197500000006 -2.142747200000001 2.8914991684782607 2.8281982000000032 -0.81395258800000025 3.5000000000000004 79.268805000000015 -0.90667500000000689 0.6224318658280924 -14.502564000000001 55.735470000000007 72.740535000000008 7.6112372327311357 47.151353547950755 85.47425250000002
decision_type=2 2 2 2 2 2 2 2 2 2 2 2 2 2 2 2 2 2 2 2 2 2 2 2 2 2 2 2 2 2 2 2 2 2 2 2 2 2 2 2 2 2 2 2
left_child=2 3 11 32 23 28 30 36 9 24 18 12 -1 -12 22 -9 -16 39 19 -10 -19 26 -6 31 -3 -20 -11 -22 35 38 41 -5 -2 -34 -35 -4 -8 -26 -30 -13 -31 -7 -23 -14
right_child=1 8 5 4 14 6 7 15 10 21 13 17 43 -15 16 -17 -18 20 25 -21 27 42 -24 -25 37 -27 -28 -29 29 40 -32 -33 33 34 -36 -37 -38 -39 -40 -41 -42 -43 -44 -45
leaf_value=0.13216477743060667 -0.090666218733359089 -0.040310727721957297 0.018048801519033611 0.25651623530370582 0.0057847535618653191 -0.28943991912995648 -0.13226244796438985 -0.026188560766644029 0.061036075439269956 0.024120841459994945 -0.076788322772067263 -0.29132070915762848 -0.15182263752323666 0.17789345246812796 0.055924431566381175 -0.074908624398751081 0.13771022189360549 -0.022189155735746827 0.16891609053429396 0.17473510405143461 -0.23930671781689813 0.21561371998221557 0.10699038642784679 0.1098799600938609 -0.21375225650897653 0.2529796535349797 0.13271835396424822 -0.14287614606755514 0.10363062772920122 0.027083649386628057 -0.14631081096432444 0.15221083400717597 -0.083126474612750217 -0.043631128995224866 0.016455739450531498 -0.074120909624230569 -0.21861364123789667 -0.12167610467814623 0.037094750580726317 -0.20595882434895935 -0.054944891829422422 -0.21407648657815267 0.15388274329475995 -0.10292049586073089
leaf_weight=81 99 78 64 128 909 65 57 1650 112 69 88 71 93 64 899 1623 303 70 163 689 78 166 90 92 60 274 494 1038 73 58 58 59 92 261 253 91 134 67 303 67 87 57 57 93
leaf_count=81 99 78 64 128 909 65 57 1650 112 69 88 71 93 64 899 1623 303 70 163 689 78 166 90 92 60 274 494 1038 73 58 58 59 92 261 253 91 134 67 303 67 87 57 57 93
