{"learner":{"attributes":{"best_iteration":"145","best_score":"14.15337936462613"},"feature_names":["last_start_x","last_start_y","last_time","is_home","period_id","episode_length","seq_mean_x","seq_mean_y","seq_std_x","seq_std_y","progress_x","progress_y","progress_dist","prev_end_x","prev_end_y","recent_pass_count","recent_avg_move_x","recent_avg_move_y","recent_avg_distance","last_recent_move_x","last_recent_move_y","pass_count","carry_count","pass_ratio","success_rate","start_zone_x","start_zone_y","dist_from_center_x","dist_from_center_y","angle_change_last_3","angle_change_last_5","angle_change_last_10","pass_direction_consistency","consecutive_successful_passes","short_pass_ratio","long_pass_ratio","side_pass_ratio","forward_pass_ratio","dist_to_goal","angle_to_goal","dist_to_top_line","dist_to_bottom_line","dist_to_nearest_sideline","dist_to_goal_line","in_penalty_box","field_zone_9","game_minute","is_first_half","is_last_10_min","avg_time_between_actions","is_fast_tempo","episode_duration","avg_pass_velocity","max_pass_velocity","velocity_std","avg_acceleration","is_accelerating","velocity_x","velocity_y","is_attacking_mode","attack_intensity","action_density","same_team_sequence","field_coverage_x","field_coverage_y","field_coverage_area","time_since_last_action"],"feature_types":["float","float","float","int","int","int","float","float","float","float","float","float","float","float","float","int","float","float","float","float","float","int","int","float","float","int","int","float","float","float","float","float","float","int","float","float","float","float","float","float","float","float","float","float","int","int","int","int","int","float","int","float","float","float","float","float","int","float","float","int","float","float","int","float","float","float","float"],"gradient_booster":{"model":{"cats":{"enc":[],"feature_segments":[],"sorted_idx":[]},"gbtree_model_param":{"num_parallel_tree":"1","num_trees":"196"},"iteration_indptr":[0,1,2,3,4,5,6,7,8,9,10,11,12,13,14,15,16,17,18,19,20,21,22,23,24,25,26,27,28,29,30,31,32,33,34,35,36,37,38,39,40,41,42,43,44,45,46,47,48,49,50,51,52,53,54,55,56,57,58,59,60,61,62,63,64,65,66,67,68,69,70,71,72,73,74,75,76,77,78,79,80,81,82,83,84,85,86,87,88,89,90,91,92,93,94,95,96,97,98,99,100,101,102,103,104,105,106,107,108,109,110,111,112,113,114,115,116,117,118,119,120,121,122,123,124,125,126,127,128,129,130,131,132,133,134,135,136,137,138,139,140,141,142,143,144,145,146,147,148,149,150,151,152,153,154,155,156,157,158,159,160,161,162,163,164,165,166,167,168,169,170,171,172,173,174,175,176,177,178,179,180,181,182,183,184,185,186,187,188,189,190,191,192,193,194,195,196],"tree_info":[0,0,0,0,0,0,0,0,0,0,0,0,0,0,0,0,0,0,0,0,0,0,0,0,0,0,0,0,0,0,0,0,0,0,0,0,0,0,0,0,0,0,0,0,0,0,0,0,0,0,0,0,0,0,0,0,0,0,0,0,0,0,0,0,0,0,0,0,0,0,0,0,0,0,0,0,0,0,0,0,0,0,0,0,0,0,0,0,0,0,0,0,0,0,0,0,0,0,0,0,0,0,0,0,0,0,0,0,0,0,0,0,0,0,0,0,0,0,0,0,0,0,0,0,0,0,0,0,0,0,0,0,0,0,0,0,0,0,0,0,0,0,0,0,0,0,0,0,0,0,0,0,0,0,0,0,0,0,0,0,0,0,0,0,0,0,0,0,0,0,0,0,0,0,0,0,0,0,0,0,0,0,0,0,0,0,0,0,0,0,0,0,0,0,0,0],"trees":[{"base_weights":[2.5757898E-2,1.7814898E1,-1.7469122E1,1.0266696E1,2.5012787E1,-2.4085617E1,-9.7057495E0,5.991902E0,1.559288E1,2.133983E1,2.725483E1,-2.6168238E1,-2.1074327E1,-3.3390462E0,-1.2856568E1,4.4168425E0,1.256228E1,1.435959E1,2.2197283E1,2.329874E1,1.6659935E1,8.978737E-1,2.5760887E1,-7.874907E-1,-9.876923E0,1.22068174E-1,-2.1167501E1,4.6709948E0,-4.0521297E0,-1.03980465E1,-1.6646217E1,2.6999989E0,1.1652543E1,1.6216759E1,5.0847416E0,1.5977111E1,9.972378E0,7.872406E-1,1.5616664E1,2.3375309E1,5.32446E-2,2.1664095E1,1.3278971E1,5.0682497E0,7.7723986E-1,3.142809E-2,-3.7338293E-1,-2.1464624E1,-1.2122049E1,-5.336162E0,7.8492246E0,-1.118922E1,-3.1601114E0,-1.7091476E1,-8.060734E0,-1.8983288E1,-1.4158155E1,4.9974985E0,-1.6640902E-1,1.2735452E1,-5.6357455E0,-5.745629E0,1.75725E1,7.5155196E0,-3.257626E0,-1.9862388E-1,1.6188364E1,1.2113059E1,3.2877617E0,4.7428946E0,1.8170118E1,7.062939E-1,7.195707E0,6.722296E-1,5.0245876E0,3.7785858E-1,1.4205519E1,2.8092298E-1,-8.2574174E-2,-2.1505556E1,-5.7806432E-2,-1.4471905E1,1.4206526E0,-3.4967932E-1,3.1288908E0,-3.0084078E0,1.1218101E1,-1.3138341E1,2.5794485E-1,-4.287824E0,2.5474367E0,-1.7775463E1,1.3512703E0,-2.2377417E0,-9.422168E0,-1.9513939E1,-3.4971318E0,1.3046453E0,-1.5022375E1,-6.5345483E0,5.3316474E0,-3.9863315E0,2.084727E0,1.329768E1,-2.0959753E-1,-3.2966295E-1,1.2558076E-1,-2.6923755E-1,6.1531782E-2,-6.436733E-1,1.8567469E1,1.1817743E1,3.6899242E0,2.2304087E0,-8.389709E0,1.6437008E1,-3.289757E0,1.7455883E-1,1.2939971E1,7.381108E0,-7.3511987E0,-1.6135585E-1,2.609899E-1,4.3773375E-2,1.8865105E1,-7.52515E-2,3.1802323E-1,-1.055663E-1,2.9054454E-1,6.387713E0,-5.7494965E0,-2.2286403E0,1.482825E1,-6.4710796E-1,-4.5125775E0,-1.5301285E1,-2.2745356E-2,-1.15529865E-1,1.6199753E-1,1.4086665E-1,-2.0539913E-2,4.693146E0,-3.296056E-1,-4.3875035E-3,1.2467605E1,2.6306279E0,-1.5135221E1,-4.8208036E0,8.491217E0,5.859795E0,-1.0315325E1,-1.8406525E1,-3.1788383E-2,-2.6377738E-1,3.217839E-1,-7.774987E0,4.2859354E0,3.4365565E-1,-1.0292976E1,-2.0307043E1,-9.067451E0,1.9683978E-1,-8.637443E0,8.238601E0,-3.423452E-1,-1.5701404E1,-4.0991635E0,-3.2527462E-1,7.8722775E-2,1.0857859E-1,2.5749713E-1,-2.300986E-1,8.676358E-2,-2.681289E-1,8.356443E-2,4.220546E-1,-7.1977034E-2,2.2271961E-1,-2.5177896E-1,5.8957124E-1,2.0560369E-2,-1.7849099E-2,4.1326332E-1,2.3138094E-1,-2.2746624E-2,-6.618165E-2,1.2641582E-1,-1.249518E-2,-3.0170146E-1,3.7718847E-1,5.4067874E-1,4.4003893E-2,-1.6833971E-1,2.5793925E-1,-2.6741645E-1,2.0574014E-1,4.6196815E-1,-6.0371052E-2,3.2370898E-1,1.2031942E-1,-3.107646E-1,5.869983E-1,5.5246543E-2,3.0225334E-3,2.3841946E-1,-2.7085567E-1,2.397893E-2,-1.8682745E-1,9.691048E-2,-5.622135E-2,4.5543408E-1,1.9852133E-2,-1.9884264E-1,-5.197625E-1,-1.0517942E-1,2.2014767E-1,-4.2050295E-2,4.1684553E-1,9.3823345E-4,2.186953E-1,-9.56445E-2,-4.9918956E-1,-3.7905958E-2,-2.0913725E-1,-4.354617E-2,3.1075683E-1,-3.8221825E-2,3.118727E-1,-1.3274436E-1,-4.073419E-1,1.19502865E-1,-5.635403E-1,8.092116E-2,-1.6553637E-1,1.9421317E-1,1.7034063E-1,-2.8794575E-1,3.3337498E-1,-1.4788803E-1,-2.1301238E-1,2.2506753E-1,-3.3204508E-1,7.5362594E-4,-6.390352E-1,-2.6717332E-1,1.4274567E-1,-3.680341E-1,-4.0182672E-2,-2.8791854E-1,-6.2791936E-2,4.2633057E-1,-9.5787965E-2,-4.8387834E-1,-2.2552127E-1,1.06586486E-1],"categories":[],"categories_nodes":[],"categories_segments":[],"categories_sizes":[],"default_left":[0,0,0,0,0,0,0,0,0,0,0,0,0,0,0,0,0,0,0,0,0,0,0,0,0,0,0,0,0,0,0,0,0,0,0,0,0,0,0,0,0,0,0,0,0,0,0,0,0,0,0,0,0,0,0,0,0,0,0,0,0,0,0,0,0,0,0,0,0,0,0,0,0,0,0,0,0,0,0,0,0,0,0,0,0,0,0,0,0,0,0,0,0,0,0,0,0,0,0,0,0,0,0,0,0,0,0,0,0,0,0,0,0,0,0,0,0,0,0,0,0,0,0,0,0,0,0,0,0,0,0,0,0,0,0,0,0,0,0,0,0,0,0,0,0,0,0,0,0,0,0,0,0,0,0,0,0,0,0,0,0,0,0,0,0,0,0,0,0,0,0,0,0,0,0,0,0,0,0,0,0,0,0,0,0,0,0,0,0,0,0,0,0,0,0,0,0,0,0,0,0,0,0,0,0,0,0,0,0,0,0,0,0,0,0,0,0,0,0,0,0,0,0,0,0,0,0,0,0,0,0,0,0,0,0,0,0,0,0,0,0,0,0,0,0,0,0,0,0,0,0,0,0,0,0],"id":0,"left_children":[1,3,5,7,9,11,13,15,17,19,21,23,25,27,29,31,33,35,37,39,41,-1,43,-1,45,-1,47,49,51,53,55,57,59,61,63,65,67,-1,69,71,-1,73,75,77,-1,-1,-1,79,81,83,85,87,89,91,93,95,97,99,101,103,105,107,109,111,113,-1,115,117,119,121,123,-1,125,-1,127,129,131,-1,-1,133,-1,135,137,-1,139,141,143,145,-1,147,149,151,153,155,157,159,161,163,165,167,169,171,173,175,-1,-1,-1,-1,-1,177,179,181,183,185,187,189,191,193,195,197,199,-1,-1,-1,201,-1,-1,-1,-1,203,205,207,209,-1,211,213,-1,-1,-1,-1,-1,215,-1,-1,217,219,221,223,225,227,229,231,233,-1,-1,235,237,239,241,243,245,-1,247,249,-1,251,253,-1,-1,-1,-1,-1,-1,-1,-1,-1,-1,-1,-1,-1,-1,-1,-1,-1,-1,-1,-1,-1,-1,-1,-1,-1,-1,-1,-1,-1,-1,-1,-1,-1,-1,-1,-1,-1,-1,-1,-1,-1,-1,-1,-1,-1,-1,-1,-1,-1,-1,-1,-1,-1,-1,-1,-1,-1,-1,-1,-1,-1,-1,-1,-1,-1,-1,-1,-1,-1,-1,-1,-1,-1,-1,-1,-1,-1,-1,-1,-1,-1,-1,-1,-1,-1,-1,-1,-1],"loss_changes":[3.0617712E6,2.6319438E5,2.5310675E5,5.3809047E4,1.64015E4,1.2855875E4,4.570172E4,1.3451582E4,6.3742188E3,6.199625E3,6.28125E2,2.0725E2,3.2649062E3,4.5242695E3,1.3034891E4,1.3318432E4,6.369754E3,5.344875E3,1.1878516E3,7.903125E2,3.2469297E3,0E0,2.1760625E3,0E0,6.3594165E2,0E0,1.1712812E3,2.3948389E3,4.258292E3,1.3841578E4,1.5220156E3,5.8783965E3,4.3848984E3,5.720832E3,2.0818115E3,3.8914844E3,3.4978809E3,0E0,1.4840273E3,5.9715625E2,0E0,6.0727344E2,2.3983125E3,7.24579E2,0E0,0E0,0E0,5.5103125E2,1.8117842E3,1.3337705E3,2.183085E3,3.7264658E3,4.2039824E3,3.1994453E3,5.516926E3,1.8331328E3,4.3469727E3,2.150121E3,3.5255378E3,2.841041E3,1.2225917E3,5.1340295E2,3.001504E3,9.136382E2,8.69438E2,0E0,3.549375E3,1.9257461E3,3.6024712E3,1.2920164E3,4.722129E2,0E0,7.559606E2,0E0,8.021269E2,1.0310359E3,2.1986367E3,0E0,0E0,4.7790625E2,0E0,4.1455762E2,4.4079633E2,0E0,1.1015886E2,1.4732699E3,6.2147705E2,2.5583994E3,0E0,3.947169E3,5.105332E3,2.5640547E3,2.088564E3,5.474615E3,4.950117E3,9.435469E2,1.3294524E3,2.6829155E3,1.7399844E3,8.7811304E2,2.4707695E3,4.0113728E3,2.1608992E3,2.5952031E3,0E0,0E0,0E0,0E0,0E0,1.3748558E3,2.834246E3,8.4816504E2,9.42584E2,2.2547107E2,1.5957666E2,2.3350781E3,2.1635641E2,2.067288E3,2.0052402E3,1.9861536E3,1.1172988E3,0E0,0E0,0E0,3.951211E2,0E0,0E0,0E0,0E0,1.2361926E2,3.593759E2,4.276104E2,1.3028516E3,0E0,1.7897095E2,5.567324E2,0E0,0E0,0E0,0E0,0E0,3.0363824E2,0E0,0E0,6.575215E2,5.463427E2,1.1914102E3,3.6955957E3,5.3911E2,4.61982E3,1.554533E3,2.1504219E3,7.8444604E2,0E0,0E0,2.372147E3,4.8562856E3,3.2508955E3,4.260199E3,1.4527812E3,1.8320186E3,0E0,4.1538086E0,1.3927257E3,0E0,1.1080469E3,8.971438E2,0E0,0E0,0E0,0E0,0E0,0E0,0E0,0E0,0E0,0E0,0E0,0E0,0E0,0E0,0E0,0E0,0E0,0E0,0E0,0E0,0E0,0E0,0E0,0E0,0E0,0E0,0E0,0E0,0E0,0E0,0E0,0E0,0E0,0E0,0E0,0E0,0E0,0E0,0E0,0E0,0E0,0E0,0E0,0E0,0E0,0E0,0E0,0E0,0E0,0E0,0E0,0E0,0E0,0E0,0E0,0E0,0E0,0E0,0E0,0E0,0E0,0E0,0E0,0E0,0E0,0E0,0E0,0E0,0E0,0E0,0E0,0E0,0E0,0E0,0E0,0E0,0E0,0E0,0E0,0E0,0E0,0E0,0E0,0E0,0E0,0E0,0E0,0E0],"parents":[2147483647,0,0,1,1,2,2,3,3,4,4,5,5,6,6,7,7,8,8,9,9,10,10,11,11,12,12,13,13,14,14,15,15,16,16,17,17,18,18,19,19,20,20,22,22,24,24,26,26,27,27,28,28,29,29,30,30,31,31,32,32,33,33,34,34,35,35,36,36,38,38,39,39,41,41,42,42,43,43,47,47,48,48,49,49,50,50,51,51,52,52,53,53,54,54,55,55,56,56,57,57,58,58,59,59,60,60,61,61,62,62,63,63,64,64,66,66,67,67,68,68,69,69,70,70,72,72,74,74,75,75,76,76,79,79,81,81,82,82,84,84,85,85,86,86,87,87,89,89,90,90,91,91,92,92,93,93,94,94,95,95,96,96,97,97,98,98,99,99,100,100,101,101,102,102,103,103,109,109,110,110,111,111,112,112,113,113,114,114,115,115,116,116,117,117,118,118,119,119,120,120,124,124,129,129,130,130,131,131,132,132,134,134,135,135,141,141,144,144,145,145,146,146,147,147,148,148,149,149,150,150,151,151,152,152,155,155,156,156,157,157,158,158,159,159,160,160,162,162,163,163,165,165,166,166],"right_children":[2,4,6,8,10,12,14,16,18,20,22,24,26,28,30,32,34,36,38,40,42,-1,44,-1,46,-1,48,50,52,54,56,58,60,62,64,66,68,-1,70,72,-1,74,76,78,-1,-1,-1,80,82,84,86,88,90,92,94,96,98,100,102,104,106,108,110,112,114,-1,116,118,120,122,124,-1,126,-1,128,130,132,-1,-1,134,-1,136,138,-1,140,142,144,146,-1,148,150,152,154,156,158,160,162,164,166,168,170,172,174,176,-1,-1,-1,-1,-1,178,180,182,184,186,188,190,192,194,196,198,200,-1,-1,-1,202,-1,-1,-1,-1,204,206,208,210,-1,212,214,-1,-1,-1,-1,-1,216,-1,-1,218,220,222,224,226,228,230,232,234,-1,-1,236,238,240,242,244,246,-1,248,250,-1,252,254,-1,-1,-1,-1,-1,-1,-1,-1,-1,-1,-1,-1,-1,-1,-1,-1,-1,-1,-1,-1,-1,-1,-1,-1,-1,-1,-1,-1,-1,-1,-1,-1,-1,-1,-1,-1,-1,-1,-1,-1,-1,-1,-1,-1,-1,-1,-1,-1,-1,-1,-1,-1,-1,-1,-1,-1,-1,-1,-1,-1,-1,-1,-1,-1,-1,-1,-1,-1,-1,-1,-1,-1,-1,-1,-1,-1,-1,-1,-1,-1,-1,-1,-1,-1,-1,-1,-1,-1],"split_conditions":[1.0870732E-2,5.3380135E1,1.5362288E1,1.1599304E1,6.030131E1,7.493328E0,7.645104E0,1.1341924E1,1.9425968E1,2.523E0,1.2E0,2.9E1,1.344E-1,3.7591967E-1,1.5320128E1,8.156894E1,6.80421E0,2.699E0,1.8170143E1,2.9105208E0,4.01415E-1,8.978737E-1,5.9764587E1,-7.874907E-1,9.34818E-1,1.22068174E-1,7.5E-1,2.777562E1,1.2749835E1,3.4362194E1,5.3532253E1,-1.2080697E-1,8.5714287E-1,2.2222222E-1,4.639176E-2,1.1339408E1,5.140963E-2,7.872406E-1,2.3076923E-1,5.2E1,5.32446E-2,6.7E0,8.728681E0,1.5948008E0,7.7723986E-1,3.142809E-2,-3.7338293E-1,2.094241E0,2.39E1,2.0277075E1,2.5021868E1,3.4552475E1,3.4E0,1.6866E1,-3.86652E0,1.1778563E0,5.514831E1,2.0913605E1,-7.550448E0,2.4141724E0,3.5E1,2E0,3.448276E-1,4.998419E0,-6.587165E-2,-1.9862388E-1,4.2934E0,2.242695E0,9E0,2.772326E1,2.977861E-1,7.062939E-1,6.846735E1,6.722296E-1,5.20758E0,1.921637E1,9.4815E-1,2.8092298E-1,-8.2574174E-2,3.93859E1,-5.7806432E-2,5.766E0,3.4521294E1,-3.4967932E-1,1.1206624E1,9.339267E0,2.8078764E1,4.3517503E-1,2.5794485E-1,4.2123486E1,2.5664E0,1.6E1,3E1,1.17504E0,2.7783E0,6.395552E-2,-4.68762E0,4.998419E0,6.3523335E0,4.8508068E1,6.36258E0,1.805811E1,2.4294224E1,3.08E0,-2.0959753E-1,-3.2966295E-1,1.2558076E-1,-2.6923755E-1,6.1531782E-2,2.6086956E-1,9.261598E-1,3.6363637E-1,4.9513245E1,3.9071894E0,4.2424244E-1,-5.964824E0,9.453023E1,2.9633E1,3.1294547E-2,4.8044926E1,8.2607746E-1,-1.6135585E-1,2.609899E-1,4.3773375E-2,2.7147572E1,-7.52515E-2,3.1802323E-1,-1.055663E-1,2.9054454E-1,1.7E1,3.6842105E-1,1.8269463E1,2.542E0,-6.4710796E-1,4.347826E-1,3.4138332E1,-2.2745356E-2,-1.15529865E-1,1.6199753E-1,1.4086665E-1,-2.0539913E-2,2.1E1,-3.296056E-1,-4.3875035E-3,1.1943384E1,-4.0005104E1,3.5655453E1,3.245844E0,5.3838E-2,6.125351E1,3.2E1,2.2522816E1,2.5E1,-2.6377738E-1,3.217839E-1,7.467E0,5.5019226E1,2.1274447E-1,2.9500237E1,2.165079E1,4.7619048E-1,1.9683978E-1,1E0,3.723487E-2,-3.423452E-1,-3.1662855E1,1.9070885E1,-3.2527462E-1,7.8722775E-2,1.0857859E-1,2.5749713E-1,-2.300986E-1,8.676358E-2,-2.681289E-1,8.356443E-2,4.220546E-1,-7.1977034E-2,2.2271961E-1,-2.5177896E-1,5.8957124E-1,2.0560369E-2,-1.7849099E-2,4.1326332E-1,2.3138094E-1,-2.2746624E-2,-6.618165E-2,1.2641582E-1,-1.249518E-2,-3.0170146E-1,3.7718847E-1,5.4067874E-1,4.4003893E-2,-1.6833971E-1,2.5793925E-1,-2.6741645E-1,2.0574014E-1,4.6196815E-1,-6.0371052E-2,3.2370898E-1,1.2031942E-1,-3.107646E-1,5.869983E-1,5.5246543E-2,3.0225334E-3,2.3841946E-1,-2.7085567E-1,2.397893E-2,-1.8682745E-1,9.691048E-2,-5.622135E-2,4.5543408E-1,1.9852133E-2,-1.9884264E-1,-5.197625E-1,-1.0517942E-1,2.2014767E-1,-4.2050295E-2,4.1684553E-1,9.3823345E-4,2.186953E-1,-9.56445E-2,-4.9918956E-1,-3.7905958E-2,-2.0913725E-1,-4.354617E-2,3.1075683E-1,-3.8221825E-2,3.118727E-1,-1.3274436E-1,-4.073419E-1,1.19502865E-1,-5.635403E-1,8.092116E-2,-1.6553637E-1,1.9421317E-1,1.7034063E-1,-2.8794575E-1,3.3337498E-1,-1.4788803E-1,-2.1301238E-1,2.2506753E-1,-3.3204508E-1,7.5362594E-4,-6.390352E-1,-2.6717332E-1,1.4274567E-1,-3.680341E-1,-4.0182672E-2,-2.8791854E-1,-6.2791936E-2,4.2633057E-1,-9.5787965E-2,-4.8387834E-1,-2.2552127E-1,1.06586486E-1],"split_indices":[39,14,14,28,14,14,28,20,28,66,66,62,27,61,28,38,19,66,14,29,19,0,1,0,29,0,35,1,0,13,13,39,37,36,32,14,32,0,23,46,0,66,8,30,0,0,0,61,51,27,6,8,66,66,19,61,13,14,20,30,46,4,24,53,39,0,49,27,33,14,61,0,13,0,27,12,19,0,0,18,0,66,6,0,18,0,14,61,0,14,49,33,46,20,27,32,19,53,17,6,19,27,14,49,0,0,0,0,0,23,61,37,6,17,23,20,63,51,32,1,29,0,0,0,20,0,0,0,0,46,36,8,66,0,24,18,0,0,0,0,0,46,0,0,53,10,53,20,32,64,46,10,46,0,0,51,6,39,14,10,37,0,3,32,0,10,9,0,0,0,0,0,0,0,0,0,0,0,0,0,0,0,0,0,0,0,0,0,0,0,0,0,0,0,0,0,0,0,0,0,0,0,0,0,0,0,0,0,0,0,0,0,0,0,0,0,0,0,0,0,0,0,0,0,0,0,0,0,0,0,0,0,0,0,0,0,0,0,0,0,0,0,0,0,0,0,0,0,0,0,0,0,0,0,0],"split_type":[0,0,0,0,0,0,0,0,0,0,0,0,0,0,0,0,0,0,0,0,0,0,0,0,0,0,0,0,0,0,0,0,0,0,0,0,0,0,0,0,0,0,0,0,0,0,0,0,0,0,0,0,0,0,0,0,0,0,0,0,0,0,0,0,0,0,0,0,0,0,0,0,0,0,0,0,0,0,0,0,0,0,0,0,0,0,0,0,0,0,0,0,0,0,0,0,0,0,0,0,0,0,0,0,0,0,0,0,0,0,0,0,0,0,0,0,0,0,0,0,0,0,0,0,0,0,0,0,0,0,0,0,0,0,0,0,0,0,0,0,0,0,0,0,0,0,0,0,0,0,0,0,0,0,0,0,0,0,0,0,0,0,0,0,0,0,0,0,0,0,0,0,0,0,0,0,0,0,0,0,0,0,0,0,0,0,0,0,0,0,0,0,0,0,0,0,0,0,0,0,0,0,0,0,0,0,0,0,0,0,0,0,0,0,0,0,0,0,0,0,0,0,0,0,0,0,0,0,0,0,0,0,0,0,0,0,0,0,0,0,0,0,0,0,0,0,0,0,0,0,0,0,0,0,0],"sum_hessian":[9.824E3,4.871E3,4.953E3,2.386E3,2.485E3,2.666E3,2.287E3,1.332E3,1.054E3,9.7E2,1.515E3,1.544E3,1.122E3,7.62E2,1.525E3,1.084E3,2.48E2,9.07E2,1.47E2,6.64E2,3.06E2,4.95E2,1.02E3,1.532E3,1.2E1,3E0,1.119E3,5.9E1,7.03E2,9.41E2,5.84E2,8.84E2,2E2,1.61E2,8.7E1,6.49E2,2.58E2,7.8E1,6.9E1,6.61E2,3E0,1.08E2,1.98E2,9E0,1.011E3,3E0,9E0,1.074E3,4.5E1,1.3E1,4.6E1,6.9E1,6.34E2,2.32E2,7.09E2,2.77E2,3.07E2,4.88E2,3.96E2,1.9E2,1E1,8E0,1.53E2,6.8E1,1.9E1,4E0,6.45E2,1.91E2,6.7E1,1.7E1,5.2E1,6.51E2,1E1,1.01E2,7E0,1.4E1,1.84E2,5E0,4E0,1.071E3,3E0,3.8E1,7E0,6E0,7E0,1.1E1,3.5E1,6.5E1,4E0,5.31E2,1.03E2,2.24E2,8E0,1.38E2,5.71E2,2.66E2,1.1E1,1.6E1,2.91E2,1E1,4.78E2,1.45E2,2.51E2,1.87E2,3E0,6E0,4E0,5E0,3E0,8E0,1.45E2,2.5E1,4.3E1,1.1E1,8E0,6.38E2,7E0,1.3E1,1.78E2,5E1,1.7E1,4E0,1.3E1,3E0,4.9E1,3E0,7E0,3E0,4E0,7E0,7E0,6E0,1.78E2,1.065E3,6E0,3.5E1,3E0,3E0,4E0,4E0,3E0,7E0,4E0,4E0,3.1E1,7E0,5.8E1,5.14E2,1.7E1,8.5E1,1.8E1,2.16E2,8E0,4E0,4E0,7.4E1,6.4E1,4.7E1,5.24E2,2.41E2,2.5E1,3E0,8E0,1.2E1,4E0,2.71E2,2E1,6E0,4E0,3.23E2,1.55E2,9.4E1,5.1E1,1E1,2.41E2,1.79E2,8E0,4E0,4E0,1.36E2,9E0,4E0,2.1E1,2E1,2.3E1,3E0,8E0,3E0,5E0,2.04E2,4.34E2,3E0,4E0,7E0,6E0,5.9E1,1.19E2,1.4E1,3.6E1,3E0,1.4E1,4.6E1,3E0,3E0,4E0,3E0,4E0,3E0,3E0,3E0,1.75E2,3E0,3E0,2.7E1,8E0,4E0,3E0,2.7E1,4E0,3E0,4E0,5.1E1,7E0,3.09E2,2.05E2,1.4E1,3E0,5.9E1,2.6E1,1.5E1,3E0,2.13E2,3E0,5E0,3E0,7E0,6.7E1,3.6E1,2.8E1,2.3E1,2.4E1,4.87E2,3.7E1,2.16E2,2.5E1,4E0,2.1E1,3E0,5E0,6E0,6E0,1.1E1,2.6E2,1.4E1,6E0],"tree_param":{"num_deleted":"0","num_feature":"67","num_nodes":"255","size_leaf_vector":"1"}},{"base_weights":[7.5184695E-2,1.707778E1,-1.6834965E1,2.4172878E1,9.160792E0,-8.044347E0,-2.2371614E1,2.1394352E1,2.615359E1,4.790314E0,1.2681788E1,-1.8283647E0,-1.0727087E1,-1.8079836E1,-2.4194714E1,2.2904804E1,1.7586576E1,7.855887E-1,8.669741E-2,3.5651603E-1,6.68836E0,1.873234E1,1.0907372E1,-3.8831522E0,7.293077E0,-9.036125E0,-1.5311377E1,-2.0486736E1,-1.543986E1,-7.817331E-1,-2.2511814E1,1.6598022E1,2.354752E1,-7.4632265E-2,1.781385E1,-7.3936872E0,5.029365E0,5.4585824E0,1.1966459E1,1.8961E1,-2.116951E-2,1.1808328E1,3.2465208E0,-7.2591966E-1,-6.46184E0,-6.574516E0,8.977684E0,-1.2713657E1,-7.1129413E0,-1.6009916E1,2.8139625E0,-2.0814554E1,-4.1411905E0,-1.6125242E1,-4.248665E0,-2.2652782E1,-3.614256E0,1.6914553E1,5.8070388E-2,2.3899374E1,1.2470867E1,1.8051432E1,-2.4537746E-2,-1.1160165E1,1.2928101E0,1.2958434E0,1.160352E1,4.7069964E0,1.442347E1,1.4803285E1,3.2614388E0,1.9132044E1,2.4999028E-2,9.584536E0,1.5967985E1,-3.918186E0,7.1933265E0,-5.218861E0,1.86456E0,-7.9092903E0,2.109669E0,4.900915E-2,-3.1040567E-1,-6.382503E0,1.0413504E1,-5.7016973E0,-1.3974439E1,-1.1148583E1,-5.010288E0,-1.6738937E1,2.4594295E0,-1.9399892E-1,7.445725E0,-2.0917337E1,-4.4340294E-2,-1.960803E-1,6.749618E-2,-1.666626E1,-2.8810098E0,1.108827E1,-1.1190505E1,-2.2686405E1,-8.477344E-2,-2.1299493E-1,1.10865854E-1,5.221669E-1,1.0090957E-1,7.1940964E-1,1.12729505E-1,-1.5203549E-1,1.5170597E1,-1.8238986E-2,1.8287804E1,-1.4518914E1,1.9895154E0,-5.4585705E0,6.551099E0,-8.772755E0,2.9098883E0,-5.839799E0,1.4983392E1,3.2143016E0,9.466427E0,1.5707151E1,-2.5081683E-2,1.5831077E1,-1.0207391E-1,8.4112015E0,-6.018716E0,5.783577E-1,9.64751E-2,2.8220468E0,1.2411681E1,1.881438E1,1.203264E1,3.8632436E0,-9.003038E0,-1.7589612E-1,1.0509856E1,-7.2018137E0,3.2885474E-1,7.3799953E0,-1.4327303E0,-3.2957487E0,-1.14614525E1,6.7933846E0,-4.1908402E0,3.43579E-2,-2.8627554E-1,-1.0976641E0,1.2005344E1,7.141644E-1,-7.0254292E0,-1.4519114E1,-1.1192083E0,-1.4746548E1,-3.6030383E0,5.9095116E0,-5.87874E0,-1.8622501E1,-8.044329E0,-4.043302E0,2.3144327E-1,3.0238026E-1,-3.2699525E-2,-2.1097578E1,-4.6323943E0,-1.7049997E1,5.639001E-1,4.00681E0,-2.9605767E-1,4.8195712E-2,3.73147E-1,-4.0072396E-1,6.5308355E-2,-2.3717081E1,-1.9794394E1,4.9042436E-1,2.7616058E-2,-3.8805638E-2,5.5479515E-1,1.618505E-1,-4.7902632E-1,2.0734413E-1,-2.0642395E-1,-3.6915433E-1,8.573418E-2,2.7938184E-1,-7.440496E-2,-3.5330322E-1,4.084725E-2,-2.2862272E-1,1.3169205E-1,-4.4212428E-1,2.4902892E-1,5.2220696E-1,-1.6767493E-1,1.2295752E-1,-1.9625552E-1,3.8615465E-1,7.033209E-2,5.014805E-1,2.3353804E-2,5.065606E-1,-8.622274E-2,-1.3151918E-1,3.4795353E-1,-3.7314057E-1,1.9422191E-1,3.2014656E-1,-5.0629005E-2,4.171772E-1,1.7656754E-1,-6.133431E-2,5.788551E-1,3.7192494E-1,-4.741917E-2,-2.081839E-1,2.8854695E-1,5.6749307E-2,-4.3051064E-1,1.4763199E-1,-2.6691076E-1,3.53548E-1,-2.2323722E-2,-2.6217437E-1,8.125172E-2,2.833329E-1,-1.7362659E-1,2.7454573E-1,-9.2345E-2,1.9690174E-1,-1.5303098E-1,-3.6342826E-1,1.3669747E-1,-1.5000713E-1,3.731687E-1,-1.7250705E-1,3.235948E-2,-1.2866017E-1,1.307164E-1,4.4484305E-1,4.707644E-2,-5.7935655E-2,7.934739E-2,-2.5325534E-1,-1.47324735E-2,-4.4274625E-1,5.569106E-2,-1.5007272E-1,1.1942244E-1,-5.0003684E-1,-1.7094707E-1,2.2589743E-1,-2.3439376E-1,3.3541656E-1,-1.4509939E-1,3.6424482E-3,-2.3393486E-1,9.366075E-2,-5.6876147E-1,2.9372567E-1,-3.228131E-1,-2.0822152E-1,4.7532737E-2,-6.810034E-2,-6.356025E-1,-2.3772204E-1,6.393368E-2,5.855289E-2,-5.194857E-1,-2.2060601E-1,2.2727819E-1,2.521293E-1,-1.21466614E-1,-7.134534E-1,-1.6327082E-1,-3.1424455E-2,-5.996959E-1],"categories":[],"categories_nodes":[],"categories_segments":[],"categories_sizes":[],"default_left":[0,0,0,0,0,0,0,0,0,0,0,0,0,0,0,0,0,0,0,0,0,0,0,0,0,0,0,0,0,0,0,0,0,0,0,0,0,0,0,0,0,0,0,0,0,0,0,0,0,0,0,0,0,0,0,0,0,0,0,0,0,0,0,0,0,0,0,0,0,0,0,0,0,0,0,0,0,0,0,0,0,0,0,0,0,0,0,0,0,0,0,0,0,0,0,0,0,0,0,0,0,0,0,0,0,0,0,0,0,0,0,0,0,0,0,0,0,0,0,0,0,0,0,0,0,0,0,0,0,0,0,0,0,0,0,0,0,0,0,0,0,0,0,0,0,0,0,0,0,0,0,0,0,0,0,0,0,0,0,0,0,0,0,0,0,0,0,0,0,0,0,0,0,0,0,0,0,0,0,0,0,0,0,0,0,0,0,0,0,0,0,0,0,0,0,0,0,0,0,0,0,0,0,0,0,0,0,0,0,0,0,0,0,0,0,0,0,0,0,0,0,0,0,0,0,0,0,0,0,0,0,0,0,0,0,0,0,0,0,0,0,0,0,0,0,0,0,0,0,0,0,0,0,0,0,0,0,0,0,0,0,0,0,0,0,0,0,0,0,0,0,0,0,0,0,0,0,0,0],"id":1,"left_children":[1,3,5,7,9,11,13,15,17,19,21,23,25,27,29,31,33,-1,-1,35,37,39,41,43,45,47,49,51,53,-1,55,57,59,-1,61,63,65,67,69,71,-1,73,75,77,79,81,83,85,87,89,91,93,95,97,99,101,103,105,-1,107,109,111,-1,113,115,117,119,121,123,125,127,129,-1,131,133,135,137,139,141,143,145,-1,-1,147,149,151,153,155,157,159,161,-1,163,165,-1,-1,-1,167,169,171,173,175,-1,-1,-1,-1,-1,-1,-1,-1,177,-1,179,181,183,185,187,189,191,193,195,197,199,201,-1,203,-1,205,207,-1,-1,209,211,213,215,217,219,221,223,225,-1,227,229,231,233,235,237,-1,-1,239,241,243,245,247,249,251,253,255,257,259,261,263,-1,-1,-1,265,267,269,271,273,-1,-1,-1,-1,-1,275,277,-1,-1,-1,-1,-1,-1,-1,-1,-1,-1,-1,-1,-1,-1,-1,-1,-1,-1,-1,-1,-1,-1,-1,-1,-1,-1,-1,-1,-1,-1,-1,-1,-1,-1,-1,-1,-1,-1,-1,-1,-1,-1,-1,-1,-1,-1,-1,-1,-1,-1,-1,-1,-1,-1,-1,-1,-1,-1,-1,-1,-1,-1,-1,-1,-1,-1,-1,-1,-1,-1,-1,-1,-1,-1,-1,-1,-1,-1,-1,-1,-1,-1,-1,-1,-1,-1,-1,-1,-1,-1,-1,-1,-1,-1,-1,-1,-1,-1,-1,-1,-1,-1],"loss_changes":[2.8507255E6,2.7613E5,2.4065125E5,1.0361125E4,3.568933E4,3.206793E4,2.0728625E4,3.5929062E3,5.7325E2,8.888334E3,1.2454234E4,1.1271722E4,9.456672E3,3.6974062E3,2.482625E3,3.856875E2,1.9178125E3,0E0,0E0,1.2027982E4,4.335086E3,1.3742109E3,6.7498125E3,3.9248965E3,3.0086914E3,6.433867E3,4.7979766E3,1.879375E3,3.1434219E3,0E0,2.5014375E3,1.975039E2,5.7040625E2,0E0,1.6521641E3,4.200551E3,4.96261E3,3.6426895E3,2.9530547E3,7.397031E2,0E0,7.3115703E3,3.5090605E3,2.7134949E3,3.4352256E3,6.2245764E2,2.718834E3,2.3841602E3,5.3121016E3,4.893875E3,1.154745E3,6.694531E2,3.8272043E2,2.8329297E3,4.807948E3,2.950625E2,6.202074E2,1.8819336E2,0E0,4.208125E2,2.2528716E3,1.6039141E3,0E0,4.101379E3,1.8134412E3,2.447995E3,4.9844014E3,3.8735488E3,9.686846E2,2.2419395E3,2.3639697E3,1.9195312E2,0E0,1.1401895E4,1.8121172E3,2.0687078E3,1.929614E3,3.2761248E3,2.789675E3,3.4900752E3,1.5003234E3,0E0,0E0,3.941402E2,1.862252E3,5.764839E2,1.8241484E3,5.71816E3,4.567547E3,4.3126875E3,8.713318E2,0E0,4.455702E2,6.227344E2,0E0,0E0,0E0,2.9004375E3,1.5340117E3,3.8079224E1,1.0547656E3,1.010625E2,0E0,0E0,0E0,0E0,0E0,0E0,0E0,0E0,4.3082422E2,0E0,1.5438906E3,2.661794E3,1.380749E3,1.565197E3,8.6686035E2,7.619784E2,2.1944924E3,3.0017227E3,3.8837422E3,4.0674824E3,3.0234893E3,5.0891797E2,0E0,2.227168E3,0E0,1.5865884E3,2.0933398E3,0E0,0E0,6.825417E3,3.5809219E3,1.9481328E3,8.8308984E2,1.8997936E3,1.9501987E3,1.6884454E3,8.473096E2,1.3905361E3,0E0,1.93574E3,1.9152723E3,2.1907385E3,1.7219902E3,2.3071118E3,2.3708496E2,0E0,0E0,4.4405618E2,2.32471E3,1.2329621E2,4.5258105E2,1.2500586E3,5.166958E2,1.9205332E3,4.255506E3,2.480686E3,4.919623E3,2.3675234E3,4.17785E3,2.9431177E2,0E0,0E0,0E0,3.9035938E2,4.356891E2,2.3611719E3,1.2784696E3,8.802009E2,0E0,0E0,0E0,0E0,0E0,2.6E1,1.0966094E3,0E0,0E0,0E0,0E0,0E0,0E0,0E0,0E0,0E0,0E0,0E0,0E0,0E0,0E0,0E0,0E0,0E0,0E0,0E0,0E0,0E0,0E0,0E0,0E0,0E0,0E0,0E0,0E0,0E0,0E0,0E0,0E0,0E0,0E0,0E0,0E0,0E0,0E0,0E0,0E0,0E0,0E0,0E0,0E0,0E0,0E0,0E0,0E0,0E0,0E0,0E0,0E0,0E0,0E0,0E0,0E0,0E0,0E0,0E0,0E0,0E0,0E0,0E0,0E0,0E0,0E0,0E0,0E0,0E0,0E0,0E0,0E0,0E0,0E0,0E0,0E0,0E0,0E0,0E0,0E0,0E0,0E0,0E0,0E0,0E0,0E0,0E0,0E0,0E0,0E0,0E0,0E0,0E0,0E0,0E0,0E0,0E0,0E0,0E0,0E0,0E0,0E0],"parents":[2147483647,0,0,1,1,2,2,3,3,4,4,5,5,6,6,7,7,8,8,9,9,10,10,11,11,12,12,13,13,14,14,15,15,16,16,19,19,20,20,21,21,22,22,23,23,24,24,25,25,26,26,27,27,28,28,30,30,31,31,32,32,34,34,35,35,36,36,37,37,38,38,39,39,41,41,42,42,43,43,44,44,45,45,46,46,47,47,48,48,49,49,50,50,51,51,52,52,53,53,54,54,55,55,56,56,57,57,59,59,60,60,61,61,63,63,64,64,65,65,66,66,67,67,68,68,69,69,70,70,71,71,73,73,74,74,75,75,76,76,77,77,78,78,79,79,80,80,83,83,84,84,85,85,86,86,87,87,88,88,89,89,90,90,92,92,93,93,97,97,98,98,99,99,100,100,101,101,110,110,112,112,113,113,114,114,115,115,116,116,117,117,118,118,119,119,120,120,121,121,122,122,123,123,125,125,127,127,128,128,131,131,132,132,133,133,134,134,135,135,136,136,137,137,138,138,139,139,141,141,142,142,143,143,144,144,145,145,146,146,149,149,150,150,151,151,152,152,153,153,154,154,155,155,156,156,157,157,158,158,159,159,160,160,161,161,165,165,166,166,167,167,168,168,169,169,175,175,176,176],"right_children":[2,4,6,8,10,12,14,16,18,20,22,24,26,28,30,32,34,-1,-1,36,38,40,42,44,46,48,50,52,54,-1,56,58,60,-1,62,64,66,68,70,72,-1,74,76,78,80,82,84,86,88,90,92,94,96,98,100,102,104,106,-1,108,110,112,-1,114,116,118,120,122,124,126,128,130,-1,132,134,136,138,140,142,144,146,-1,-1,148,150,152,154,156,158,160,162,-1,164,166,-1,-1,-1,168,170,172,174,176,-1,-1,-1,-1,-1,-1,-1,-1,178,-1,180,182,184,186,188,190,192,194,196,198,200,202,-1,204,-1,206,208,-1,-1,210,212,214,216,218,220,222,224,226,-1,228,230,232,234,236,238,-1,-1,240,242,244,246,248,250,252,254,256,258,260,262,264,-1,-1,-1,266,268,270,272,274,-1,-1,-1,-1,-1,276,278,-1,-1,-1,-1,-1,-1,-1,-1,-1,-1,-1,-1,-1,-1,-1,-1,-1,-1,-1,-1,-1,-1,-1,-1,-1,-1,-1,-1,-1,-1,-1,-1,-1,-1,-1,-1,-1,-1,-1,-1,-1,-1,-1,-1,-1,-1,-1,-1,-1,-1,-1,-1,-1,-1,-1,-1,-1,-1,-1,-1,-1,-1,-1,-1,-1,-1,-1,-1,-1,-1,-1,-1,-1,-1,-1,-1,-1,-1,-1,-1,-1,-1,-1,-1,-1,-1,-1,-1,-1,-1,-1,-1,-1,-1,-1,-1,-1,-1,-1,-1,-1,-1],"split_conditions":[1.8584661E-2,1.524832E1,1.634992E1,2.6525711E1,8.580172E0,6.207856E0,2.2892063E1,2.523E0,1.7611876E1,-6.669916E0,3.606183E1,3.367E0,7.315164E1,1.634E0,3.914284E0,3.0897148E1,2.533E0,7.855887E-1,8.669741E-2,1.7696722E1,8.068018E1,1.5463917E0,3.799E0,3.6977153E-2,-2.084363E0,1.175E0,1.2091899E0,1.4927156E1,2.3592192E1,-7.817331E-1,2.8847609E1,2.6023831E0,1.9E1,-7.4632265E-2,5.2E1,2.8783964E1,6.9894936E1,3.682166E1,6.2711865E-1,6.4466E0,-2.116951E-2,6.0171814E0,1.222746E1,-1.357756E1,1.02134E2,9.1554844E-1,9.339267E0,2.0873137E1,-7.550448E0,1.6E1,3.680565E1,9.9446655E1,7.037037E-1,7.5E-1,-2.52945E0,1.2040981E1,3.065E0,1.9E1,5.8070388E-2,-1.934534E-1,4.9920704E1,1.1111111E-1,-2.4537746E-2,5.22564E0,2E0,-3.130295E0,6.39765E0,1.3077624E1,8.42248E0,2.0813773E0,1.4404577E0,9.368495E0,2.4999028E-2,-2.49165E-1,6.6836174E1,4.266E0,1.0097456E0,6.136364E-1,1.63989E1,1.568816E0,2.0277075E1,4.900915E-2,-3.1040567E-1,2.806972E0,2.8782928E1,7.327E0,1.9164167E1,2.905E0,-5.49206E0,4.2E1,3.4E1,-1.9399892E-1,4.457445E1,4.108829E1,-4.4340294E-2,-1.960803E-1,6.749618E-2,3.1462903E0,2E0,-3.53066E0,5.82137E1,2.499E0,-8.477344E-2,-2.1299493E-1,1.10865854E-1,5.221669E-1,1.0090957E-1,7.1940964E-1,1.12729505E-1,-1.5203549E-1,-5.3295395E-3,-1.8238986E-2,-3.0681334E0,6E0,5.5026823E-1,-1.0412325E1,2.3002E0,6.347376E1,-2.515286E1,1.4445312E0,-8.109612E0,7.315164E1,6.416361E1,8.4210527E-1,-2.5081683E-2,6.6560196E1,-1.0207391E-1,-2.7450104E1,1.8659206E1,5.783577E-1,9.64751E-2,-4.5185056E-1,2.266E0,-2.5612335E1,2.8E1,-8.933077E-1,6.0171814E0,3.0897148E1,4.5454547E-1,2.523E0,3.2885474E-1,1.9445897E0,2E-1,4.390244E-1,2.8402216E0,4.805998E-1,1.0326208E1,3.43579E-2,-2.8627554E-1,6.598833E-1,6.900762E-1,6.502636E0,1.4441385E1,4.6954185E1,2.971497E1,4.5454547E-1,4.33846E1,2.899E0,-5.400881E-1,1.5547205E1,3.0272865E0,2E0,2.3144327E-1,3.0238026E-1,-3.2699525E-2,-1.517297E1,4.7645267E1,-1.510285E1,5.6873905E1,-2.2246962E1,-2.9605767E-1,4.8195712E-2,3.73147E-1,-4.0072396E-1,6.5308355E-2,1.2161496E-1,2.5E0,4.9042436E-1,2.7616058E-2,-3.8805638E-2,5.5479515E-1,1.618505E-1,-4.7902632E-1,2.0734413E-1,-2.0642395E-1,-3.6915433E-1,8.573418E-2,2.7938184E-1,-7.440496E-2,-3.5330322E-1,4.084725E-2,-2.2862272E-1,1.3169205E-1,-4.4212428E-1,2.4902892E-1,5.2220696E-1,-1.6767493E-1,1.2295752E-1,-1.9625552E-1,3.8615465E-1,7.033209E-2,5.014805E-1,2.3353804E-2,5.065606E-1,-8.622274E-2,-1.3151918E-1,3.4795353E-1,-3.7314057E-1,1.9422191E-1,3.2014656E-1,-5.0629005E-2,4.171772E-1,1.7656754E-1,-6.133431E-2,5.788551E-1,3.7192494E-1,-4.741917E-2,-2.081839E-1,2.8854695E-1,5.6749307E-2,-4.3051064E-1,1.4763199E-1,-2.6691076E-1,3.53548E-1,-2.2323722E-2,-2.6217437E-1,8.125172E-2,2.833329E-1,-1.7362659E-1,2.7454573E-1,-9.2345E-2,1.9690174E-1,-1.5303098E-1,-3.6342826E-1,1.3669747E-1,-1.5000713E-1,3.731687E-1,-1.7250705E-1,3.235948E-2,-1.2866017E-1,1.307164E-1,4.4484305E-1,4.707644E-2,-5.7935655E-2,7.934739E-2,-2.5325534E-1,-1.47324735E-2,-4.4274625E-1,5.569106E-2,-1.5007272E-1,1.1942244E-1,-5.0003684E-1,-1.7094707E-1,2.2589743E-1,-2.3439376E-1,3.3541656E-1,-1.4509939E-1,3.6424482E-3,-2.3393486E-1,9.366075E-2,-5.6876147E-1,2.9372567E-1,-3.228131E-1,-2.0822152E-1,4.7532737E-2,-6.810034E-2,-6.356025E-1,-2.3772204E-1,6.393368E-2,5.855289E-2,-5.194857E-1,-2.2060601E-1,2.2727819E-1,2.521293E-1,-1.21466614E-1,-7.134534E-1,-1.6327082E-1,-3.1424455E-2,-5.996959E-1],"split_indices":[39,40,28,28,28,28,28,66,57,20,0,66,38,66,42,38,66,0,0,8,38,61,66,32,57,66,61,11,9,0,16,29,62,0,46,27,38,11,37,49,0,20,27,11,51,29,0,38,20,33,27,13,37,35,19,58,66,22,0,39,64,24,0,16,4,16,0,20,28,30,29,57,0,19,0,66,20,23,27,30,27,0,0,28,38,28,11,66,16,46,46,0,8,8,0,0,0,55,49,16,6,66,0,0,0,0,0,0,0,0,55,0,58,46,58,19,49,0,11,54,20,38,0,36,0,64,0,11,11,0,0,39,66,11,22,57,20,38,35,66,0,58,24,37,29,61,20,0,0,61,61,28,19,7,12,35,6,66,58,7,13,4,0,0,0,58,6,16,6,11,0,0,0,0,0,32,66,0,0,0,0,0,0,0,0,0,0,0,0,0,0,0,0,0,0,0,0,0,0,0,0,0,0,0,0,0,0,0,0,0,0,0,0,0,0,0,0,0,0,0,0,0,0,0,0,0,0,0,0,0,0,0,0,0,0,0,0,0,0,0,0,0,0,0,0,0,0,0,0,0,0,0,0,0,0,0,0,0,0,0,0,0,0,0,0,0,0,0,0,0,0,0,0,0,0,0,0,0,0],"split_type":[0,0,0,0,0,0,0,0,0,0,0,0,0,0,0,0,0,0,0,0,0,0,0,0,0,0,0,0,0,0,0,0,0,0,0,0,0,0,0,0,0,0,0,0,0,0,0,0,0,0,0,0,0,0,0,0,0,0,0,0,0,0,0,0,0,0,0,0,0,0,0,0,0,0,0,0,0,0,0,0,0,0,0,0,0,0,0,0,0,0,0,0,0,0,0,0,0,0,0,0,0,0,0,0,0,0,0,0,0,0,0,0,0,0,0,0,0,0,0,0,0,0,0,0,0,0,0,0,0,0,0,0,0,0,0,0,0,0,0,0,0,0,0,0,0,0,0,0,0,0,0,0,0,0,0,0,0,0,0,0,0,0,0,0,0,0,0,0,0,0,0,0,0,0,0,0,0,0,0,0,0,0,0,0,0,0,0,0,0,0,0,0,0,0,0,0,0,0,0,0,0,0,0,0,0,0,0,0,0,0,0,0,0,0,0,0,0,0,0,0,0,0,0,0,0,0,0,0,0,0,0,0,0,0,0,0,0,0,0,0,0,0,0,0,0,0,0,0,0,0,0,0,0,0,0,0,0,0,0,0,0,0,0,0,0,0,0,0,0,0,0,0,0,0,0,0,0,0,0],"sum_hessian":[9.901E3,4.937E3,4.964E3,2.596E3,2.341E3,1.925E3,3.039E3,1.115E3,1.481E3,1.052E3,1.289E3,5.84E2,1.341E3,9.29E2,2.11E3,7.73E2,3.42E2,1.478E3,3E0,3.18E2,7.34E2,2.77E2,1.012E3,4.8E2,1.04E2,9.95E2,3.46E2,4.61E2,4.68E2,9.53E2,1.157E3,8.9E1,6.84E2,3E0,3.39E2,1.18E2,2E2,6.07E2,1.27E2,2.74E2,3E0,9.02E2,1.1E2,2.2E2,2.6E2,9E0,9.5E1,3.28E2,6.67E2,3.34E2,1.2E1,4.5E2,1.1E1,4.38E2,3E1,1.147E3,1E1,8.6E1,3E0,6.55E2,2.9E1,3.35E2,4E0,8.1E1,3.7E1,1.33E2,6.7E1,5.7E2,3.7E1,9.2E1,3.5E1,2.71E2,3E0,6.03E2,2.99E2,3.9E1,7.1E1,7.8E1,1.42E2,2.23E2,3.7E1,4E0,5E0,6E0,8.9E1,5.6E1,2.72E2,2.18E2,4.49E2,3.22E2,1.2E1,3E0,9E0,4.47E2,3E0,8E0,3E0,4.19E2,1.9E1,8E0,2.2E1,1.144E3,3E0,7E0,3E0,8.1E1,5E0,6.51E2,4E0,3E0,2.6E1,4E0,3.31E2,6.4E1,1.7E1,1.6E1,2.1E1,1.4E1,1.19E2,1E1,5.7E1,4.43E2,1.27E2,3.4E1,3E0,8.8E1,4E0,2.3E1,1.2E1,2.67E2,4E0,1.82E2,4.21E2,1.58E2,1.41E2,1.6E1,2.3E1,2.4E1,4.7E1,7.3E1,5E0,5E1,9.2E1,1.03E2,1.2E2,2.1E1,1.6E1,3E0,3E0,1.1E1,7.8E1,1E1,4.6E1,2.6E2,1.2E1,1.43E2,7.5E1,3E1,4.19E2,2.58E2,6.4E1,6E0,6E0,6E0,3E0,4.4E2,7E0,4.1E2,9E0,1.1E1,8E0,3E0,5E0,1.9E1,3E0,8.06E2,3.38E2,2.3E1,3E0,3E0,3.28E2,3E0,6.1E1,1.2E1,5E0,7E0,9E0,1.6E1,5E0,1E1,4E0,1.1E1,1.08E2,6E0,4E0,5.2E1,5E0,4.1E2,3.3E1,8.2E1,4.5E1,3.1E1,3E0,8.4E1,4E0,4E0,1.9E1,8E0,4E0,6.3E1,1.19E2,3.36E2,8.5E1,3E0,1.55E2,1.38E2,3E0,5E0,1.1E1,9E0,1.4E1,1.7E1,7E0,4.2E1,5E0,6.4E1,9E0,4.5E1,5E0,8E0,8.4E1,1.3E1,9E1,1.17E2,3E0,7E0,1.4E1,1.2E1,4E0,8E0,3E0,5.9E1,1.9E1,4E0,6E0,3.6E1,1E1,2.57E2,3E0,7E0,5E0,1.13E2,3E1,1.9E1,5.6E1,2E1,1E1,1.03E2,3.16E2,3E0,2.55E2,6E0,5.8E1,3E0,3E0,3E0,4.37E2,4E0,3E0,5E0,4.05E2,4E0,5E0,7E0,4E0,8.01E2,5E0,4E0,3.34E2],"tree_param":{"num_deleted":"0","num_feature":"67","num_nodes":"279","size_leaf_vector":"1"}},{"base_weights":[-1.3187109E-1,1.6621756E1,-1.647574E1,9.076205E0,2.3298988E1,-2.2563667E1,-9.02685E0,1.2500047E1,3.4457867E0,1.9751238E1,2.5721592E1,-2.4546354E1,-1.9791998E1,-1.276548E1,-2.764342E0,1.6695173E1,1.0061961E1,-4.2979607E-1,3.8931682E0,2.1035128E1,1.4175432E1,8.526773E-1,2.422509E1,-2.677047E1,-2.3180817E1,-1.9945494E1,-3.01971E0,-1.69318E1,-1.12877E1,-4.101801E0,2.3469696E0,1.4660322E1,2.1473778E1,1.607151E1,8.586415E0,1.1927469E1,3.0875452E0,8.1247404E-2,2.111896E1,2.7559304E0,1.5644999E1,8.960036E-2,7.279884E-1,-8.0517006E-1,-1.252673E-1,-6.966598E-1,-1.3560379E-1,-1.0121298E0,-2.0052776E1,1.7584893E-1,-8.190163E0,-1.9092657E1,-7.8207536E0,-1.4573905E1,-8.225905E0,1.2625751E0,-5.261369E0,4.193054E0,-1.2283884E1,8.782797E-1,1.5126497E1,2.8022978E0,2.2616625E1,1.6726603E1,-7.174458E-2,-7.26368E0,8.783131E0,-3.2325244E-1,1.4275461E1,1.3503605E0,6.45161E0,6.353291E-1,3.7088163E-2,-3.0220777E-1,7.4339566E0,1.6424545E1,6.149579E-1,2.6953003E-1,-2.863995E-1,-2.0134693E1,-3.208573E0,-1.7962521E-2,-2.8966233E-1,-1.8056265E0,-1.9944818E1,-1.06255E1,2.320509E0,-1.4959882E1,-6.805711E-1,2.0633766E-1,-9.846492E0,3.9988956E0,-8.393393E0,-5.15162E-1,-6.56202E0,5.817675E-1,1.1796885E1,1.5339994E-1,-5.0901914E-1,-2.681681E-1,6.3502913E0,1.5571666E1,-1.4451535E0,-9.2949614E-2,1.7727685E-1,6.971252E-1,8.77342E-2,1.7053978E1,-8.511343E-3,-2.8177905E-1,-0E0,9.496864E0,3.3679132E0,4.897853E0,-1.6341665E-1,1.6046257E1,-8.024914E-2,3.023796E0,-2.7751489E0,1.075555E1,3.1645331E0,-5.7048675E-2,9.061576E0,3.0516768E-1,1.7226456E1,1.4971314E-1,-1.4569478E-1,-2.1156723E1,-1.7263767E1,-2.2207771E-1,7.665241E-2,2.8167307E-1,-8.364605E0,-2.0561104E1,-3.3337576E0,-1.1834846E1,1.22680746E-1,9.63692E0,-2.9773214E-1,-6.345565E0,-1.57306595E1,3.0316633E-1,-6.463747E0,6.6027837E0,-6.077805E0,3.9204764E0,-1.0609951E1,5.874623E0,-8.708018E0,1.7883062E-1,-1.2973361E1,-8.564789E0,9.074351E-1,-1.29459095E1,-5.2039123E0,-2.8433318E0,1.3153529E1,1.533045E1,-9.802238E-1,-1.0684702E-2,2.4110684E-1,4.7904116E-1,7.566685E-2,2.3001517E-1,-2.3260194E-1,5.207577E-1,4.9564403E-2,3.160021E-1,1.507386E-1,-9.4508745E-2,2.7317795E-1,-0E0,1.9056584E-1,5.3262746E-1,-2.7500773E-2,-8.2829304E-2,1.1808152E-1,-3.059278E-1,4.4582775E-4,2.201732E-2,3.6332273E-1,-2.4128167E-1,1.3835505E-1,3.1289056E-1,-9.845426E-3,-1.6436313E-1,1.9534892E-1,5.4114354E-1,1.13357686E-1,-2.2711183E-1,-6.4392024E-1,-5.3300613E-1,-1.4571114E-1,-3.6278048E-1,7.829782E-2,-6.264986E-1,-5.153887E-2,-2.5004655E-1,1.5185663E-1,-4.1896713E-1,-9.22053E-2,-8.484726E-2,4.4051832E-1,-2.6535928E-1,1.16448455E-1,-3.9974782E-1,-5.958291E-1,-2.2753301E-1,-4.742809E-3,3.0246297E-1,-1.6722284E-1,-2.964204E-1,1.5310816E-1,2.8038678E-1,-1.2054745E-1,-3.301159E-1,2.5621268E-1,6.708552E-2,3.3821884E-1,-3.2517704E-1,1.7452755E-3,9.753972E-2,-4.8797354E-1,-2.0807613E-2,-2.8828216E-1,-8.3917014E-2,1.3939176E-1,-8.908522E-2,-4.9092045E-1,-1.8518175E-1,2.002657E-2,-1.7014769E-1,2.1568461E-1,4.4954348E-1,-1.046854E-2,-1.3884115E-2,4.996207E-1,1.4169346E-1,-2.6847225E-1],"categories":[],"categories_nodes":[],"categories_segments":[],"categories_sizes":[],"default_left":[0,0,0,0,0,0,0,0,0,0,0,0,0,0,0,0,0,0,0,0,0,0,0,0,0,0,0,0,0,0,0,0,0,0,0,0,0,0,0,0,0,0,0,0,0,0,0,0,0,0,0,0,0,0,0,0,0,0,0,0,0,0,0,0,0,0,0,0,0,0,0,0,0,0,0,0,0,0,0,0,0,0,0,0,0,0,0,0,0,0,0,0,0,0,0,0,0,0,0,0,0,0,0,0,0,0,0,0,0,0,0,0,0,0,0,0,0,0,0,0,0,0,0,0,0,0,0,0,0,0,0,0,0,0,0,0,0,0,0,0,0,0,0,0,0,0,0,0,0,0,0,0,0,0,0,0,0,0,0,0,0,0,0,0,0,0,0,0,0,0,0,0,0,0,0,0,0,0,0,0,0,0,0,0,0,0,0,0,0,0,0,0,0,0,0,0,0,0,0,0,0,0,0,0,0,0,0,0,0,0,0,0,0,0,0,0,0,0,0,0,0,0,0,0,0,0,0,0,0,0,0,0,0,0,0,0,0,0,0],"id":2,"left_children":[1,3,5,7,9,11,13,15,17,19,21,23,25,27,29,31,33,-1,35,37,39,-1,41,43,45,47,49,51,53,55,57,59,61,63,65,67,69,-1,71,73,75,-1,-1,-1,-1,-1,-1,77,79,-1,81,83,85,87,89,91,93,95,97,99,101,103,105,107,-1,109,111,113,115,117,119,-1,-1,-1,121,123,125,-1,-1,127,129,-1,-1,131,133,135,137,139,141,143,145,147,149,151,153,155,157,-1,-1,-1,159,161,163,-1,-1,-1,-1,165,-1,-1,-1,167,169,171,-1,173,-1,175,177,179,181,-1,183,185,187,-1,-1,189,191,-1,-1,-1,193,195,197,199,-1,201,-1,203,205,-1,207,209,211,213,215,217,219,-1,221,223,225,227,229,231,233,235,237,-1,-1,-1,-1,-1,-1,-1,-1,-1,-1,-1,-1,-1,-1,-1,-1,-1,-1,-1,-1,-1,-1,-1,-1,-1,-1,-1,-1,-1,-1,-1,-1,-1,-1,-1,-1,-1,-1,-1,-1,-1,-1,-1,-1,-1,-1,-1,-1,-1,-1,-1,-1,-1,-1,-1,-1,-1,-1,-1,-1,-1,-1,-1,-1,-1,-1,-1,-1,-1,-1,-1,-1,-1,-1,-1,-1,-1,-1,-1,-1],"loss_changes":[2.6982132E6,2.4365288E5,2.2474012E5,4.3944047E4,1.8547125E4,1.1612125E4,5.2534203E4,1.3372344E4,7.3609824E3,5.5803125E3,1.2229375E3,3.683125E2,2.5907188E3,7.3151875E3,5.8935586E3,2.7484531E3,7.1584766E3,0E0,5.3065967E3,8.970625E2,3.4221016E3,0E0,3.559375E2,3.775E1,2.4375E1,2.2073125E3,1.210873E3,5.9169688E3,9.823516E3,4.2679033E3,5.2412305E3,2.3452969E3,2.475664E3,2.3867695E3,2.7959297E3,2.2323633E3,4.565508E3,0E0,7.9184375E2,2.5621394E3,2.2087148E3,0E0,0E0,0E0,0E0,0E0,0E0,1.7953651E3,1.125E3,0E0,1.161272E2,3.8803906E3,2.4563945E3,2.6104297E3,7.7583555E3,3.559705E3,3.4200557E3,4.497875E3,2.411696E3,1.4691637E3,2.8938281E3,4.2429666E2,1.0753594E3,9.861914E2,0E0,1.9632239E2,2.650414E3,6.956101E2,2.2348418E3,3.7317969E3,3.5393242E3,0E0,0E0,0E0,5.6843005E2,2.3499648E3,5.7677E2,0E0,0E0,7.8796875E2,4.7566714E2,0E0,0E0,2.0906743E3,2.2398438E3,1.4854268E3,2.7297402E3,2.5260156E3,1.7635343E3,4.2206636E3,5.2903594E3,2.8102356E3,2.5206367E3,1.5278373E3,3.3077285E3,5.4392534E3,2.5124248E3,0E0,0E0,0E0,2.2000647E2,1.5616719E3,1.3359373E3,0E0,0E0,0E0,0E0,5.5434375E2,0E0,0E0,0E0,2.6549492E3,3.8721152E3,9.164731E1,0E0,1.8401465E3,0E0,2.093131E3,3.2625088E3,1.4596367E3,2.8838962E3,0E0,3.6806323E2,8.2512787E2,1.4330508E3,0E0,0E0,2.2527812E3,1.5017891E3,0E0,0E0,0E0,9.2594653E2,1.2864922E3,1.0543833E3,8.212461E2,0E0,1.4349795E3,0E0,1.5746997E3,2.5260625E3,0E0,1.11064026E2,2.6009927E3,2.6114072E3,1.5604224E3,4.070004E3,1.6566602E3,3.1411768E2,0E0,1.7186753E3,1.07490234E2,1.6857622E3,2.0957432E3,2.1561045E3,3.1214526E3,7.18853E2,9.480928E2,1.1181818E3,0E0,0E0,0E0,0E0,0E0,0E0,0E0,0E0,0E0,0E0,0E0,0E0,0E0,0E0,0E0,0E0,0E0,0E0,0E0,0E0,0E0,0E0,0E0,0E0,0E0,0E0,0E0,0E0,0E0,0E0,0E0,0E0,0E0,0E0,0E0,0E0,0E0,0E0,0E0,0E0,0E0,0E0,0E0,0E0,0E0,0E0,0E0,0E0,0E0,0E0,0E0,0E0,0E0,0E0,0E0,0E0,0E0,0E0,0E0,0E0,0E0,0E0,0E0,0E0,0E0,0E0,0E0,0E0,0E0,0E0,0E0,0E0,0E0,0E0,0E0,0E0,0E0,0E0,0E0,0E0],"parents":[2147483647,0,0,1,1,2,2,3,3,4,4,5,5,6,6,7,7,8,8,9,9,10,10,11,11,12,12,13,13,14,14,15,15,16,16,18,18,19,19,20,20,22,22,23,23,24,24,25,25,26,26,27,27,28,28,29,29,30,30,31,31,32,32,33,33,34,34,35,35,36,36,38,38,39,39,40,40,47,47,48,48,50,50,51,51,52,52,53,53,54,54,55,55,56,56,57,57,58,58,59,59,60,60,61,61,62,62,63,63,65,65,66,66,67,67,68,68,69,69,70,70,74,74,75,75,76,76,79,79,80,80,83,83,84,84,85,85,86,86,87,87,88,88,89,89,90,90,91,91,92,92,93,93,94,94,95,95,96,96,100,100,101,101,102,102,107,107,111,111,112,112,113,113,115,115,117,117,118,118,119,119,120,120,122,122,123,123,124,124,127,127,128,128,132,132,133,133,134,134,135,135,137,137,139,139,140,140,142,142,143,143,144,144,145,145,146,146,147,147,148,148,150,150,151,151,152,152,153,153,154,154,155,155,156,156,157,157,158,158],"right_children":[2,4,6,8,10,12,14,16,18,20,22,24,26,28,30,32,34,-1,36,38,40,-1,42,44,46,48,50,52,54,56,58,60,62,64,66,68,70,-1,72,74,76,-1,-1,-1,-1,-1,-1,78,80,-1,82,84,86,88,90,92,94,96,98,100,102,104,106,108,-1,110,112,114,116,118,120,-1,-1,-1,122,124,126,-1,-1,128,130,-1,-1,132,134,136,138,140,142,144,146,148,150,152,154,156,158,-1,-1,-1,160,162,164,-1,-1,-1,-1,166,-1,-1,-1,168,170,172,-1,174,-1,176,178,180,182,-1,184,186,188,-1,-1,190,192,-1,-1,-1,194,196,198,200,-1,202,-1,204,206,-1,208,210,212,214,216,218,220,-1,222,224,226,228,230,232,234,236,238,-1,-1,-1,-1,-1,-1,-1,-1,-1,-1,-1,-1,-1,-1,-1,-1,-1,-1,-1,-1,-1,-1,-1,-1,-1,-1,-1,-1,-1,-1,-1,-1,-1,-1,-1,-1,-1,-1,-1,-1,-1,-1,-1,-1,-1,-1,-1,-1,-1,-1,-1,-1,-1,-1,-1,-1,-1,-1,-1,-1,-1,-1,-1,-1,-1,-1,-1,-1,-1,-1,-1,-1,-1,-1,-1,-1,-1,-1,-1,-1],"split_conditions":[1.0870732E-2,5.2886593E1,1.5612596E1,2.5999731E1,6.055475E1,7.493328E0,2.5419828E1,1.8421812E1,2.2706287E1,3.067E0,1.2E0,2.112284E0,2.6932547E1,3.4362194E1,3.2E0,5.2974583E1,3.108399E1,-4.2979607E-1,2.581745E1,-1.867076E1,-5.100204E0,8.526773E-1,5.9764587E1,2.6766818E0,6.9243125E3,2.7258E-1,2.5087502E1,2.4731E3,1.9444736E1,7.669515E0,4.190277E1,-1.4822096E1,-1.5647286E0,3.845E0,-4.3700066E1,1.1071544E1,4.684851E3,8.1247404E-2,2.9672043E0,-3.4081006E-1,3.2112244E1,8.960036E-2,7.279884E-1,-8.0517006E-1,-1.252673E-1,-6.966598E-1,-1.3560379E-1,1.3E1,1.8237082E0,1.7584893E-1,2.5202751E1,-1.510285E1,9.862623E1,2.363418E0,-5.19267E0,2.1608956E0,5.9807533E-1,2.234933E3,3.6903775E-1,5.280282E1,2.8079686E0,3.7480785E1,2.0918888E1,9.368495E0,-7.174458E-2,4.648684E1,3.752E0,8.989E2,7.407407E-1,3.1854193E1,4.253928E1,6.353291E-1,3.7088163E-2,-3.0220777E-1,5.3934402E1,5.2974583E1,3.567E0,2.6953003E-1,-2.863995E-1,2.467E0,2.6363794E1,-1.7962521E-2,-2.8966233E-1,5.5E-1,6.6869E1,4.483634E1,8.376376E0,1.88E-1,5.93481E0,5.0473473E1,1.883147E1,5.3846157E-1,2.3529412E-1,2.5900928E1,1.664607E1,3.8660683E1,6.398915E-1,1.5339994E-1,-5.0901914E-1,-2.681681E-1,2.1428572E-1,1.4059841E1,1.799E0,-9.2949614E-2,1.7727685E-1,6.971252E-1,8.77342E-2,1.4069644E0,-8.511343E-3,-2.8177905E-1,-0E0,1.9822766E0,5.570962E-1,1.4434667E1,-1.6341665E-1,4.126712E0,-8.024914E-2,-1.175796E0,-1.160046E1,2.0864687E1,4.7250317E1,-5.7048675E-2,1.705086E0,5.4901963E-1,2.843353E3,1.4971314E-1,-1.4569478E-1,-1.1169795E1,3.151153E1,-2.2207771E-1,7.665241E-2,2.8167307E-1,2.938841E1,1.9459826E1,1.5888E0,1.1E1,1.22680746E-1,-3.5487976E1,-2.9773214E-1,3.0158E1,5.4297104E1,3.0316633E-1,3.167508E0,2.1483698E0,3.448276E-1,2.539782E1,4.91334E1,1.1233555E-2,4.191137E3,1.7883062E-1,6E-1,3.8735026E-1,6.9974634E2,3.0587938E1,9.7033E1,4.1666666E-1,4.208585E-1,-1.1112764E1,7E0,-1.0684702E-2,2.4110684E-1,4.7904116E-1,7.566685E-2,2.3001517E-1,-2.3260194E-1,5.207577E-1,4.9564403E-2,3.160021E-1,1.507386E-1,-9.4508745E-2,2.7317795E-1,-0E0,1.9056584E-1,5.3262746E-1,-2.7500773E-2,-8.2829304E-2,1.1808152E-1,-3.059278E-1,4.4582775E-4,2.201732E-2,3.6332273E-1,-2.4128167E-1,1.3835505E-1,3.1289056E-1,-9.845426E-3,-1.6436313E-1,1.9534892E-1,5.4114354E-1,1.13357686E-1,-2.2711183E-1,-6.4392024E-1,-5.3300613E-1,-1.4571114E-1,-3.6278048E-1,7.829782E-2,-6.264986E-1,-5.153887E-2,-2.5004655E-1,1.5185663E-1,-4.1896713E-1,-9.22053E-2,-8.484726E-2,4.4051832E-1,-2.6535928E-1,1.16448455E-1,-3.9974782E-1,-5.958291E-1,-2.2753301E-1,-4.742809E-3,3.0246297E-1,-1.6722284E-1,-2.964204E-1,1.5310816E-1,2.8038678E-1,-1.2054745E-1,-3.301159E-1,2.5621268E-1,6.708552E-2,3.3821884E-1,-3.2517704E-1,1.7452755E-3,9.753972E-2,-4.8797354E-1,-2.0807613E-2,-2.8828216E-1,-8.3917014E-2,1.3939176E-1,-8.908522E-2,-4.9092045E-1,-1.8518175E-1,2.002657E-2,-1.7014769E-1,2.1568461E-1,4.4954348E-1,-1.046854E-2,-1.3884115E-2,4.996207E-1,1.4169346E-1,-2.6847225E-1],"split_indices":[39,14,14,42,14,14,42,42,14,66,66,14,52,13,66,1,0,0,7,17,11,0,1,30,65,27,7,2,42,27,27,11,58,49,11,18,65,0,29,57,18,0,0,0,0,0,0,5,61,0,9,16,63,31,19,29,52,2,61,0,29,14,16,57,0,1,66,2,24,42,13,0,0,0,1,1,66,0,0,66,9,0,0,36,64,53,11,66,27,6,7,35,34,14,13,7,57,0,0,0,34,52,66,0,0,0,0,61,0,0,0,29,61,8,0,57,0,57,11,8,13,0,29,24,2,0,0,19,18,0,0,0,8,16,31,21,0,11,0,14,38,0,17,29,34,27,14,60,65,0,66,61,65,7,51,35,58,17,21,0,0,0,0,0,0,0,0,0,0,0,0,0,0,0,0,0,0,0,0,0,0,0,0,0,0,0,0,0,0,0,0,0,0,0,0,0,0,0,0,0,0,0,0,0,0,0,0,0,0,0,0,0,0,0,0,0,0,0,0,0,0,0,0,0,0,0,0,0,0,0,0,0,0,0,0,0,0,0,0],"split_type":[0,0,0,0,0,0,0,0,0,0,0,0,0,0,0,0,0,0,0,0,0,0,0,0,0,0,0,0,0,0,0,0,0,0,0,0,0,0,0,0,0,0,0,0,0,0,0,0,0,0,0,0,0,0,0,0,0,0,0,0,0,0,0,0,0,0,0,0,0,0,0,0,0,0,0,0,0,0,0,0,0,0,0,0,0,0,0,0,0,0,0,0,0,0,0,0,0,0,0,0,0,0,0,0,0,0,0,0,0,0,0,0,0,0,0,0,0,0,0,0,0,0,0,0,0,0,0,0,0,0,0,0,0,0,0,0,0,0,0,0,0,0,0,0,0,0,0,0,0,0,0,0,0,0,0,0,0,0,0,0,0,0,0,0,0,0,0,0,0,0,0,0,0,0,0,0,0,0,0,0,0,0,0,0,0,0,0,0,0,0,0,0,0,0,0,0,0,0,0,0,0,0,0,0,0,0,0,0,0,0,0,0,0,0,0,0,0,0,0,0,0,0,0,0,0,0,0,0,0,0,0,0,0,0,0,0,0,0,0],"sum_hessian":[9.84E3,4.859E3,4.981E3,2.289E3,2.57E3,2.733E3,2.248E3,1.418E3,8.71E2,1.069E3,1.501E3,1.561E3,1.172E3,1.403E3,8.45E2,5.06E2,9.12E2,1.6E1,8.55E2,8.53E2,2.16E2,4.9E2,1.011E3,5.44E2,1.017E3,1.16E3,1.2E1,3.48E2,1.055E3,6.71E2,1.74E2,3.75E2,1.31E2,1.66E2,7.46E2,6.9E1,7.86E2,5E0,8.48E2,2.7E1,1.89E2,3E0,1.008E3,5.41E2,3E0,1.013E3,4E0,7E0,1.153E3,4E0,8E0,2.75E2,7.3E1,4.96E2,5.59E2,1.19E2,5.52E2,1.59E2,1.5E1,1.3E1,3.62E2,9E0,1.22E2,1.61E2,5E0,6E0,7.4E2,1.2E1,5.7E1,5.25E2,2.61E2,8.45E2,3E0,5E0,2.2E1,1.79E2,1E1,3E0,4E0,1.146E3,7E0,3E0,5E0,1.4E1,2.61E2,5.7E1,1.6E1,4.82E2,1.4E1,9.1E1,4.68E2,9.6E1,2.3E1,1.21E2,4.31E2,1.13E2,4.6E1,3E0,1.2E1,3E0,1E1,3.53E2,9E0,3E0,6E0,1.17E2,5E0,1.58E2,3E0,3E0,3E0,6.49E2,9.1E1,6E0,6E0,5.2E1,5E0,3.75E2,1.5E2,1.06E2,1.55E2,3E0,1.9E1,9E0,1.7E2,6E0,4E0,8.12E2,3.34E2,3E0,4E0,4E0,1E1,2.5E2,1.1E1,5.4E1,3E0,1.1E1,5E0,4.5E1,4.37E2,3E0,1.1E1,4.5E1,4.6E1,2.3E1,4.45E2,8.7E1,9E0,5E0,1.8E1,1.3E1,1.08E2,6.5E1,3.66E2,9.3E1,2E1,3.5E1,1.1E1,3E0,7E0,3.41E2,1.2E1,3E0,6E0,1.54E2,4E0,5.19E2,1.3E2,4.4E1,4.7E1,3E0,3E0,4.7E1,5E0,4.9E1,3.26E2,3.6E1,1.14E2,1.4E1,9.2E1,1.4E1,1.41E2,1.6E1,3E0,5E0,4E0,1.58E2,1.2E1,2.2E1,7.9E2,3.18E2,1.6E1,7E0,3E0,2.45E2,5E0,7E0,4E0,4E1,1.4E1,4E0,7E0,3.7E1,8E0,2.95E2,1.42E2,8E0,3E0,3.6E1,9E0,3.5E1,1.1E1,1.3E1,1E1,4.39E2,6E0,5.8E1,2.9E1,6E0,3E0,3E0,1.5E1,3E0,1E1,5.5E1,5.3E1,2E1,4.5E1,3.14E2,5.2E1,7.5E1,1.8E1,1.7E1,3E0,3E0,3.2E1,8E0,3E0],"tree_param":{"num_deleted":"0","num_feature":"67","num_nodes":"239","size_leaf_vector":"1"}},{"base_weights":[-2.022387E-2,1.6153086E1,-1.5953477E1,8.794389E0,2.2592295E1,-7.6020207E0,-2.0689497E1,5.2936254E0,1.239788E1,1.9836565E1,7.3900044E-1,-4.232136E0,-1.0843382E1,-1.662942E1,-2.2782282E1,3.8196988E0,1.1670595E1,1.7430206E1,1.0742984E1,1.7613874E1,2.1308475E1,-1.1134084E1,-3.2817225E0,3.1057608E0,-1.1322916E1,-1.6863342E1,-5.058235E0,-2.159017E1,-7.610072E-1,2.320767E0,9.718806E0,1.5792927E1,5.269814E0,1.7699488E1,-5.42066E-2,3.6454728E0,1.1601532E1,1.833228E1,1.0838569E1,2.1575281E1,6.6971445E0,-1.2957631E1,5.908997E0,-7.947397E-1,-5.232233E0,8.531825E0,-2.2040975E-1,-1.5000769E1,-9.286289E0,-1.9366165E1,-1.5488792E1,5.349946E0,-8.938954E0,-2.1681675E1,-3.737852E0,3.191054E-1,5.7055383E0,7.482847E-1,1.2790252E1,-5.499971E-1,1.7207037E1,-4.6962657E0,8.168897E0,5.36578E-1,5.7642233E-2,7.0504436E0,-3.8271265E0,8.64905E0,1.3253666E1,7.0396416E-2,1.8475964E1,-1.1262675E-1,1.25092945E1,2.1714176E1,4.6001386E-2,-2.2027438E0,3.5835117E-1,5.846675E0,-1.4864849E1,-1.7350273E-1,3.68673E-1,-2.60264E0,6.096976E0,-8.507359E0,-2.869692E0,-5.874364E-1,1.1380759E1,-1.7713852E1,-8.440062E0,-4.178998E0,-1.1012932E1,-1.9554277E1,2.135068E-2,-1.1334387E1,-1.6419872E1,-2.979226E-2,2.4144015E-1,-2.9087725E-1,-2.5220765E-2,-6.5152955E-1,-3.4994155E-2,-2.1139438E-1,9.239581E-2,3.6676886E0,-4.1823893E0,-5.52832E0,6.3332524E0,-1.1927156E1,6.413531E0,1.4151656E1,-4.2298374E0,-3.213956E-1,2.9552072E-1,-1.8598707E-1,1.8314653E1,1.7463725E0,-8.294361E0,-2.4354293E0,1.1025557E1,1.1913696E1,-1.0944377E0,-1.0852122E1,2.543466E0,9.41527E0,-4.512071E0,1.4137331E1,5.238955E0,1.0666654E-2,1.8593723E1,1.4302948E1,2.024134E0,9.086527E-2,2.1767574E1,4.0054552E-2,-1.3957524E-1,-3.1075984E-2,2.5421485E-1,-2.6812196E-1,-1.6431845E1,-6.9027343E0,1.936954E-1,1.0383026E1,2.9035005E-1,-1.0314294E1,-1.862707E0,-4.7412887E0,6.7351317E0,-8.0700986E-2,5.479097E-2,1.2587453E1,6.547976E-2,1.6257565E-1,-1.825011E1,-1.1662789E1,4.20569E0,-8.1068945E0,3.9657297E0,-1.3078231E1,-7.5691237E0,-2.022894E1,-1.1179336E1,-6.867356E0,-1.6602465E1,1.2691987E-2,-1.6543074E1,-2.8571336E-2,1.6032857E-1,-2.2836883E-1,5.15649E-2,4.7788084E-2,-2.6818565E-1,-1.950192E-1,2.0657265E-1,-5.9724115E-2,-4.2730692E-1,-2.1047099E-1,3.3895415E-1,4.6575245E-1,-1.6229352E-1,1.8274604E-1,-2.9906017E-1,-1.7229694E-1,1.4680497E-1,5.843355E-1,1.0858027E-2,-3.1381678E-2,1.0555146E-1,-0E0,-3.0048734E-1,-1.9293185E-1,7.091084E-2,4.4201738E-1,2.444809E-2,4.9308923E-1,1.1391589E-1,-3.7720436E-1,1.9555773E-1,9.016321E-3,-4.209926E-1,2.2264935E-1,-1.2316263E-1,-2.2000143E-1,2.9714262E-1,-3.9865643E-1,1.5399523E-1,4.5948455E-1,2.263477E-1,-4.1498367E-2,2.9299727E-1,5.620963E-1,7.7460155E-2,4.5445427E-1,4.7229674E-2,-1.3307887E-1,2.2160457E-1,6.5496814E-1,1.235743E-1,-1.5445554E-1,1.8492234E-1,-5.2573824E-1,2.458763E-3,-3.210906E-1,8.229411E-2,-1.4785497E-1,9.9482596E-2,-9.844346E-2,4.0848115E-1,-1.4126517E-1,1.286534E-1,-8.392473E-3,-3.6638787E-1,7.955668E-2,-2.0395993E-1,9.325684E-2,-2.1106502E-1,-1.7420875E-1,3.3751577E-1,4.158347E-1,5.6791496E-2,-2.4384384E-1,2.531843E-1,-5.579695E-1,4.3119628E-2,-3.953614E-1,2.0078951E-1,3.502632E-1,-1.9961996E-1,1.6421132E-1,-2.90719E-1,-1.4161205E-1,2.8743035E-1,-4.204932E-1,-1.3930227E-1,-3.0345043E-2,-2.759386E-1,-1.3291936E-1,-6.1138517E-1,-4.160764E-1,3.1907905E-2,2.3993574E-2,-3.6409843E-1,-7.567311E-2,-5.3802556E-1,-4.994295E-1,-1.3748864E-2],"categories":[],"categories_nodes":[],"categories_segments":[],"categories_sizes":[],"default_left":[0,0,0,0,0,0,0,0,0,0,0,0,0,0,0,0,0,0,0,0,0,0,0,0,0,0,0,0,0,0,0,0,0,0,0,0,0,0,0,0,0,0,0,0,0,0,0,0,0,0,0,0,0,0,0,0,0,0,0,0,0,0,0,0,0,0,0,0,0,0,0,0,0,0,0,0,0,0,0,0,0,0,0,0,0,0,0,0,0,0,0,0,0,0,0,0,0,0,0,0,0,0,0,0,0,0,0,0,0,0,0,0,0,0,0,0,0,0,0,0,0,0,0,0,0,0,0,0,0,0,0,0,0,0,0,0,0,0,0,0,0,0,0,0,0,0,0,0,0,0,0,0,0,0,0,0,0,0,0,0,0,0,0,0,0,0,0,0,0,0,0,0,0,0,0,0,0,0,0,0,0,0,0,0,0,0,0,0,0,0,0,0,0,0,0,0,0,0,0,0,0,0,0,0,0,0,0,0,0,0,0,0,0,0,0,0,0,0,0,0,0,0,0,0,0,0,0,0,0,0,0,0,0,0,0,0,0,0,0,0,0,0,0,0,0,0,0,0,0,0,0,0,0,0,0,0,0,0,0,0,0,0,0,0,0],"id":3,"left_children":[1,3,5,7,9,11,13,15,17,19,-1,21,23,25,27,29,31,33,35,37,39,41,43,45,47,49,51,53,-1,55,57,59,61,63,-1,65,67,69,71,73,75,77,79,81,83,85,-1,87,89,91,93,95,97,99,101,103,105,107,109,111,113,115,117,-1,-1,119,121,123,125,-1,127,-1,129,131,-1,133,-1,135,137,-1,-1,139,141,143,145,147,149,151,153,155,157,159,-1,161,163,-1,-1,-1,-1,-1,-1,-1,-1,165,167,169,171,173,175,177,179,-1,-1,181,183,185,187,189,191,193,195,197,199,201,203,205,207,-1,209,211,213,-1,215,-1,-1,-1,-1,217,219,221,223,225,227,229,231,233,235,-1,-1,237,-1,239,241,243,245,247,249,251,253,255,257,259,261,-1,263,-1,-1,-1,-1,-1,-1,-1,-1,-1,-1,-1,-1,-1,-1,-1,-1,-1,-1,-1,-1,-1,-1,-1,-1,-1,-1,-1,-1,-1,-1,-1,-1,-1,-1,-1,-1,-1,-1,-1,-1,-1,-1,-1,-1,-1,-1,-1,-1,-1,-1,-1,-1,-1,-1,-1,-1,-1,-1,-1,-1,-1,-1,-1,-1,-1,-1,-1,-1,-1,-1,-1,-1,-1,-1,-1,-1,-1,-1,-1,-1,-1,-1,-1,-1,-1,-1,-1,-1,-1,-1,-1,-1,-1,-1,-1,-1,-1,-1,-1,-1],"loss_changes":[2.548588E6,2.3113925E5,1.9592225E5,2.8562547E4,1.1232125E4,1.947804E4,2.4286E4,1.07635E4,8.0633438E3,1.0895938E3,0E0,5.6401045E3,6.4083594E3,2.3746875E3,2.51575E3,8.398323E3,5.148535E3,1.6280469E3,4.9778984E3,1.0039219E3,1.5215312E3,3.837373E3,3.8552764E3,2.4817905E3,5.6745547E3,1.584375E3,1.630869E3,1.805375E3,0E0,5.2794116E3,5.2646445E3,3.0641836E3,3.045695E3,5.191953E2,0E0,2.8382783E3,2.9365312E3,6.863281E2,1.9222305E3,1.5308438E3,1.2214504E3,4.1320527E3,1.623E3,4.6054746E3,3.2841807E3,7.590563E2,0E0,4.3740234E3,4.8831797E3,1.4570469E3,1.5047969E3,2.8548093E2,9.178467E1,8.76625E2,5.1679816E2,7.6286045E3,2.29087E3,4.6230938E3,3.7655918E3,2.5365598E3,2.3344844E3,7.106551E2,2.5291108E3,0E0,0E0,3.0332766E3,1.8573981E3,3.2973223E3,2.8687734E3,0E0,8.630156E2,0E0,9.094199E2,1.4928125E2,0E0,1.6813815E2,0E0,3.22023E2,2.0339043E3,0E0,0E0,3.5151992E3,1.8845603E3,2.0625244E3,5.093132E3,1.01232834E2,2.5996338E1,2.0519922E3,4.5484507E3,5.3798447E3,2.4016914E3,3.7445312E2,0E0,2.8730547E3,1.2748594E3,0E0,0E0,0E0,0E0,0E0,0E0,0E0,0E0,2.2863574E3,4.469458E3,5.6857605E2,2.2849482E3,2.4560571E2,3.4455938E3,4.224963E3,1.3766711E3,0E0,0E0,5.927725E2,2.2696523E3,1.02458435E2,2.6654175E2,5.323366E2,2.2480063E3,1.2681489E3,3.5510532E3,7.173042E2,1.0274606E3,2.8311152E3,2.2633188E3,2.502086E3,1.8719474E3,0E0,6.279375E2,3.5445703E2,8.2126337E2,0E0,6.846875E1,0E0,0E0,0E0,0E0,7.2340247E2,1.5072402E3,4.429041E3,3.0396006E3,2.2669028E3,9.4042456E2,2.6880205E3,1.1999769E3,4.317149E3,3.12449E3,0E0,0E0,3.2132324E1,0E0,1.3725687E3,1.6054453E3,2.9613018E3,2.6579385E3,2.7629258E3,3.1016235E3,1.6149492E3,1.8579707E3,9.717969E1,1.499208E3,3.9980986E3,9.191699E2,0E0,9.0340625E2,0E0,0E0,0E0,0E0,0E0,0E0,0E0,0E0,0E0,0E0,0E0,0E0,0E0,0E0,0E0,0E0,0E0,0E0,0E0,0E0,0E0,0E0,0E0,0E0,0E0,0E0,0E0,0E0,0E0,0E0,0E0,0E0,0E0,0E0,0E0,0E0,0E0,0E0,0E0,0E0,0E0,0E0,0E0,0E0,0E0,0E0,0E0,0E0,0E0,0E0,0E0,0E0,0E0,0E0,0E0,0E0,0E0,0E0,0E0,0E0,0E0,0E0,0E0,0E0,0E0,0E0,0E0,0E0,0E0,0E0,0E0,0E0,0E0,0E0,0E0,0E0,0E0,0E0,0E0,0E0,0E0,0E0,0E0,0E0,0E0,0E0,0E0,0E0,0E0,0E0,0E0,0E0,0E0,0E0,0E0,0E0,0E0,0E0,0E0,0E0],"parents":[2147483647,0,0,1,1,2,2,3,3,4,4,5,5,6,6,7,7,8,8,9,9,11,11,12,12,13,13,14,14,15,15,16,16,17,17,18,18,19,19,20,20,21,21,22,22,23,23,24,24,25,25,26,26,27,27,29,29,30,30,31,31,32,32,33,33,35,35,36,36,37,37,38,38,39,39,40,40,41,41,42,42,43,43,44,44,45,45,47,47,48,48,49,49,50,50,51,51,52,52,53,53,54,54,55,55,56,56,57,57,58,58,59,59,60,60,61,61,62,62,65,65,66,66,67,67,68,68,70,70,72,72,73,73,75,75,77,77,78,78,81,81,82,82,83,83,84,84,85,85,86,86,87,87,88,88,89,89,90,90,91,91,93,93,94,94,103,103,104,104,105,105,106,106,107,107,108,108,109,109,110,110,113,113,114,114,115,115,116,116,117,117,118,118,119,119,120,120,121,121,122,122,123,123,124,124,125,125,126,126,128,128,129,129,130,130,132,132,137,137,138,138,139,139,140,140,141,141,142,142,143,143,144,144,145,145,146,146,149,149,151,151,152,152,153,153,154,154,155,155,156,156,157,157,158,158,159,159,160,160,161,161,162,162,164,164],"right_children":[2,4,6,8,10,12,14,16,18,20,-1,22,24,26,28,30,32,34,36,38,40,42,44,46,48,50,52,54,-1,56,58,60,62,64,-1,66,68,70,72,74,76,78,80,82,84,86,-1,88,90,92,94,96,98,100,102,104,106,108,110,112,114,116,118,-1,-1,120,122,124,126,-1,128,-1,130,132,-1,134,-1,136,138,-1,-1,140,142,144,146,148,150,152,154,156,158,160,-1,162,164,-1,-1,-1,-1,-1,-1,-1,-1,166,168,170,172,174,176,178,180,-1,-1,182,184,186,188,190,192,194,196,198,200,202,204,206,208,-1,210,212,214,-1,216,-1,-1,-1,-1,218,220,222,224,226,228,230,232,234,236,-1,-1,238,-1,240,242,244,246,248,250,252,254,256,258,260,262,-1,264,-1,-1,-1,-1,-1,-1,-1,-1,-1,-1,-1,-1,-1,-1,-1,-1,-1,-1,-1,-1,-1,-1,-1,-1,-1,-1,-1,-1,-1,-1,-1,-1,-1,-1,-1,-1,-1,-1,-1,-1,-1,-1,-1,-1,-1,-1,-1,-1,-1,-1,-1,-1,-1,-1,-1,-1,-1,-1,-1,-1,-1,-1,-1,-1,-1,-1,-1,-1,-1,-1,-1,-1,-1,-1,-1,-1,-1,-1,-1,-1,-1,-1,-1,-1,-1,-1,-1,-1,-1,-1,-1,-1,-1,-1,-1,-1,-1,-1,-1,-1],"split_conditions":[1.0870732E-2,1.8800436E1,1.5320128E1,9.986888E0,2.6525711E1,8.580172E0,2.2892063E1,1.1341924E1,3.606183E1,4.873944E1,7.3900044E-1,1.2749835E1,1.6435362E1,1.5377724E1,3.143287E1,8.156894E1,4.707528E0,2.7901225E0,-6.16077E0,2.6002E0,3.034E3,2.9066E0,3.708191E-2,3.3114166E1,4.147983E1,3.0189365E-1,1.4066472E1,2.8847609E1,-7.610072E-1,5.22564E0,-1.4432796E1,2.634555E0,1.6702238E1,4.6598E0,-5.42066E-2,2.177167E3,1.3522004E1,-4.231844E1,-3.130295E0,4.191914E1,5.273069E1,3.022658E0,-1.1636091E-1,6.122449E-1,4E0,6.1511426E0,-2.2040975E-1,2.211333E3,-1.014615E0,2.6932547E1,-2.399565E0,-5.867924E0,3.1282213E0,5.747272E1,6.541326E0,1.129664E1,-1.1339015E1,1.2453E1,8.5714287E-1,5.9378414E1,1.0168151E1,1.4303324E1,3.5714287E-1,5.36578E-1,5.7642233E-2,1.254575E0,1.3849288E1,2.6023831E0,4.7394363E1,7.0396416E-2,-3.5939297E1,-1.1262675E-1,1.2E1,-2.0260815E1,4.6001386E-2,1E0,3.5835117E-1,3.1044212E1,-9.096759E0,-1.7350273E-1,3.68673E-1,-1.0107248E1,2.643417E1,4.862521E0,2.2698213E-1,5.885208E1,6.1521767E1,-2.957555E1,6.34E1,5.3927264E0,-4.6359E0,6.425821E-2,2.135068E-2,2.9032257E-1,-2.3886564E1,-2.979226E-2,2.4144015E-1,-2.9087725E-1,-2.5220765E-2,-6.5152955E-1,-3.4994155E-2,-2.1139438E-1,9.239581E-2,5.262747E1,-4.607884E0,-2.0377386E-1,-3.494838E0,-1.1544053E1,3.4799477E1,2.6798E0,2E0,-3.213956E-1,2.9552072E-1,1.5E1,4.776744E1,1.373396E0,2.8034342E1,-1.654611E1,7.709079E1,1.3277775E1,2.716175E0,-1.0892308E1,2.4848492E1,-3.365993E1,1.629867E3,2.1491855E-1,6.551724E-1,1.0666654E-2,4.0565807E1,-4.7390616E-1,3.25414E-2,9.086527E-2,2.9672043E0,4.0054552E-2,-1.3957524E-1,-3.1075984E-2,2.5421485E-1,2.5E1,2.1685797E1,1.6733997E0,2.847364E1,-8.785781E0,8.333333E-1,3.910946E-2,9.242832E0,-5.0341606E-1,5.62133E2,-8.0700986E-2,5.479097E-2,2.1179E3,6.547976E-2,3E0,4.02E0,6.3945976E1,3.3037117E1,3.125E-1,3.5191452E1,6.414737E-1,4.516129E-1,-1.510285E1,6.496613E1,4.4209504E-1,-7.14862E-1,1.2691987E-2,4.9842705E1,-2.8571336E-2,1.6032857E-1,-2.2836883E-1,5.15649E-2,4.7788084E-2,-2.6818565E-1,-1.950192E-1,2.0657265E-1,-5.9724115E-2,-4.2730692E-1,-2.1047099E-1,3.3895415E-1,4.6575245E-1,-1.6229352E-1,1.8274604E-1,-2.9906017E-1,-1.7229694E-1,1.4680497E-1,5.843355E-1,1.0858027E-2,-3.1381678E-2,1.0555146E-1,-0E0,-3.0048734E-1,-1.9293185E-1,7.091084E-2,4.4201738E-1,2.444809E-2,4.9308923E-1,1.1391589E-1,-3.7720436E-1,1.9555773E-1,9.016321E-3,-4.209926E-1,2.2264935E-1,-1.2316263E-1,-2.2000143E-1,2.9714262E-1,-3.9865643E-1,1.5399523E-1,4.5948455E-1,2.263477E-1,-4.1498367E-2,2.9299727E-1,5.620963E-1,7.7460155E-2,4.5445427E-1,4.7229674E-2,-1.3307887E-1,2.2160457E-1,6.5496814E-1,1.235743E-1,-1.5445554E-1,1.8492234E-1,-5.2573824E-1,2.458763E-3,-3.210906E-1,8.229411E-2,-1.4785497E-1,9.9482596E-2,-9.844346E-2,4.0848115E-1,-1.4126517E-1,1.286534E-1,-8.392473E-3,-3.6638787E-1,7.955668E-2,-2.0395993E-1,9.325684E-2,-2.1106502E-1,-1.7420875E-1,3.3751577E-1,4.158347E-1,5.6791496E-2,-2.4384384E-1,2.531843E-1,-5.579695E-1,4.3119628E-2,-3.953614E-1,2.0078951E-1,3.502632E-1,-1.9961996E-1,1.6421132E-1,-2.90719E-1,-1.4161205E-1,2.8743035E-1,-4.204932E-1,-1.3930227E-1,-3.0345043E-2,-2.759386E-1,-1.3291936E-1,-6.1138517E-1,-4.160764E-1,3.1907905E-2,2.3993574E-2,-3.6409843E-1,-7.567311E-2,-5.3802556E-1,-4.994295E-1,-1.3748864E-2],"split_indices":[39,28,28,28,28,28,28,20,0,38,0,0,7,11,28,38,16,29,19,49,2,49,32,27,0,39,8,16,0,16,11,27,18,49,0,2,28,11,16,8,6,9,55,24,62,20,0,2,19,52,19,17,52,11,52,18,17,51,37,64,18,20,24,0,0,16,11,29,7,0,10,0,62,17,0,3,0,7,17,0,0,11,27,17,55,6,6,19,51,20,11,32,0,35,17,0,0,0,0,0,0,0,0,13,20,58,58,16,1,49,4,0,0,5,10,11,7,10,13,27,16,11,11,11,2,55,24,0,20,39,32,0,29,0,0,0,0,5,9,29,1,17,24,39,17,58,2,0,0,2,0,33,49,64,7,24,38,39,37,16,64,39,55,0,7,0,0,0,0,0,0,0,0,0,0,0,0,0,0,0,0,0,0,0,0,0,0,0,0,0,0,0,0,0,0,0,0,0,0,0,0,0,0,0,0,0,0,0,0,0,0,0,0,0,0,0,0,0,0,0,0,0,0,0,0,0,0,0,0,0,0,0,0,0,0,0,0,0,0,0,0,0,0,0,0,0,0,0,0,0,0,0,0,0,0,0,0,0,0,0,0,0,0,0,0],"split_type":[0,0,0,0,0,0,0,0,0,0,0,0,0,0,0,0,0,0,0,0,0,0,0,0,0,0,0,0,0,0,0,0,0,0,0,0,0,0,0,0,0,0,0,0,0,0,0,0,0,0,0,0,0,0,0,0,0,0,0,0,0,0,0,0,0,0,0,0,0,0,0,0,0,0,0,0,0,0,0,0,0,0,0,0,0,0,0,0,0,0,0,0,0,0,0,0,0,0,0,0,0,0,0,0,0,0,0,0,0,0,0,0,0,0,0,0,0,0,0,0,0,0,0,0,0,0,0,0,0,0,0,0,0,0,0,0,0,0,0,0,0,0,0,0,0,0,0,0,0,0,0,0,0,0,0,0,0,0,0,0,0,0,0,0,0,0,0,0,0,0,0,0,0,0,0,0,0,0,0,0,0,0,0,0,0,0,0,0,0,0,0,0,0,0,0,0,0,0,0,0,0,0,0,0,0,0,0,0,0,0,0,0,0,0,0,0,0,0,0,0,0,0,0,0,0,0,0,0,0,0,0,0,0,0,0,0,0,0,0,0,0,0,0,0,0,0,0,0,0,0,0,0,0,0,0,0,0,0,0,0,0,0,0,0,0],"sum_hessian":[9.876E3,4.901E3,4.975E3,2.295E3,2.606E3,1.807E3,3.168E3,1.173E3,1.122E3,1.141E3,1.465E3,8.94E2,9.13E2,1.099E3,2.069E3,9.62E2,2.11E2,2.61E2,8.61E2,4.91E2,6.5E2,9.9E1,7.95E2,2.9E1,8.84E2,1.074E3,2.5E1,1.461E3,6.08E2,7.75E2,1.87E2,1.22E2,8.9E1,2.58E2,3E0,9.7E1,7.64E2,4.33E2,5.8E1,6.35E2,1.5E1,9.1E1,8E0,3.54E2,4.41E2,2E1,9E0,2.99E2,5.85E2,3.48E2,7.26E2,6E0,1.9E1,1.452E3,9E0,4.92E2,2.83E2,5E1,1.37E2,1E1,1.12E2,1.9E1,7E1,2.54E2,4E0,6.7E1,3E1,2.9E2,4.74E2,5E0,4.28E2,5E0,5.3E1,6.3E2,5E0,7E0,8E0,7E0,8.4E1,3E0,5E0,2.84E2,7E1,1.77E2,2.64E2,6E0,1.4E1,2.03E2,9.6E1,1.54E2,4.31E2,3.45E2,3E0,1.5E2,5.76E2,3E0,3E0,1.6E1,3E0,1.449E3,3E0,6E0,3E0,2.83E2,2.09E2,1.2E1,2.71E2,1.3E1,3.7E1,1.28E2,9E0,5E0,5E0,7E0,1.05E2,8E0,1.1E1,1.5E1,5.5E1,4E1,2.7E1,1.2E1,1.8E1,2.76E2,1.4E1,4.22E2,5.2E1,3E0,4.25E2,4.3E1,1E1,3E0,6.27E2,4E0,3E0,3E0,4E0,9E0,7.5E1,1.08E2,1.76E2,3.7E1,3.3E1,1.36E2,4.1E1,2.24E2,4E1,3E0,3E0,1E1,4E0,6E0,1.97E2,7.7E1,1.9E1,1.04E2,5E1,2.57E2,1.74E2,3.1E2,3.5E1,9E1,6E1,4E0,5.72E2,7.6E1,2.07E2,1.31E2,7.8E1,5E0,7E0,8E0,2.63E2,5E0,8E0,9E0,2.8E1,1.21E2,7E0,3E0,6E0,3E0,4E0,9.8E1,7E0,4E0,4E0,3E0,8E0,7E0,8E0,3.8E1,1.7E1,2.1E1,1.9E1,9E0,1.8E1,4E0,8E0,1E1,8E0,5E0,2.71E2,6E0,8E0,3.5E2,7.2E1,2.3E1,2.9E1,4.2E2,5E0,3.9E1,4E0,5E0,5E0,6.23E2,4E0,6E0,3E0,7E1,5E0,7.7E1,3.1E1,6.5E1,1.11E2,7E0,3E1,1.4E1,1.9E1,2.3E1,1.13E2,2.3E1,1.8E1,5E1,1.74E2,1E1,3E1,7E0,3E0,3E0,3E0,1.94E2,3E0,7.3E1,4E0,1.1E1,8E0,9E0,9.5E1,2E1,3E1,2.27E2,3E1,3.7E1,1.37E2,5E0,3.05E2,2.8E1,7E0,3.9E1,5.1E1,7E0,5.3E1,5.68E2,4E0],"tree_param":{"num_deleted":"0","num_feature":"67","num_nodes":"265","size_leaf_vector":"1"}},{"base_weights":[-9.5819635E-3,1.5824344E1,-1.534928E1,9.267661E0,2.2596142E1,-2.1390205E1,-8.271177E0,5.174465E0,1.3869086E1,1.9287941E1,2.429395E1,-2.3504347E1,-1.8621376E1,-1.3720357E0,-1.0815289E1,1.1354176E1,3.9250085E0,1.4989496E1,7.823771E0,2.0537605E1,1.4316343E1,8.037559E-1,2.2904533E1,-7.0731527E-1,-9.092268E0,-2.1539078E1,-1.7130745E1,-3.02805E0,5.1653447E0,-1.3585692E1,-8.168505E0,-1.0487658E0,1.2512147E1,2.0154011E0,8.479207E0,1.7375454E1,1.2634194E1,-4.0057554E0,9.564345E0,6.295884E-1,1.1168803E1,7.314537E0,1.6164846E1,4.5672037E-2,2.295515E1,2.652919E-2,-3.423678E-1,-2.16784E1,-9.013548E-2,1.1074903E-1,-1.7289864E1,-7.664996E0,-7.9826224E-1,-7.8234506E0,6.2435455E0,-1.6434103E1,-1.1035777E1,-1.5363404E1,-6.674388E0,-3.6035517E-1,6.7860403E0,7.19651E0,1.6652136E1,-1.4451472E0,4.737171E0,4.959985E0,1.2201994E1,1.7582453E1,-6.6845775E-2,8.965761E0,1.418586E1,3.323974E0,-9.526537E0,-5.2231984E0,1.0604897E1,9.9155366E-1,1.4628988E1,1.0383971E1,-5.2405505E0,1.688694E1,8.416322E-1,9.1774024E-2,6.8973595E-1,-6.531719E-1,-8.748799E-2,-1.7483574E1,1.2370542E0,7.225389E0,-9.398617E0,-6.1563797E0,1.1825284E0,-2.436632E-2,-2.7774826E-1,8.809291E0,-1.713417E0,-1.7188087E1,-5.0931245E-1,8.377132E0,-1.1520976E1,-1.6512363E1,5.2056875E0,-1.1016433E1,-4.608836E0,3.5668397E-1,-9.12944E-2,-3.4602375E0,1.000762E1,-3.1629171E0,1.8270594E1,8.4867585E-1,-5.8452606E0,7.552743E0,1.6523665E0,6.788387E0,-5.671702E0,1.6292616E1,4.146496E0,1.7890451E1,1.1651267E0,-5.528659E0,1.0009628E1,-7.3138796E-2,1.4382211E1,2.3588873E-1,-1.7133851E-1,-3.8308793E-1,2.6017569E-2,-3.3510774E-1,9.575417E-2,1.7373745E1,8.174436E0,-1.5028262E-1,4.370858E0,4.655771E-1,4.853856E-2,-1.1417273E0,1.3515177E1,8.172207E-3,-2.4863142E-1,1.7609648E1,2.628045E0,-1.8206078E-1,2.0037211E-1,-1.433754E1,-1.8727299E1,-1.3233423E-1,1.5916806E-1,-2.4346404E-2,1.0154483E1,7.1283054E-1,-1.2301758E1,1.5320888E-1,-1.0700237E1,6.690545E0,-1.0241399E0,1.0112387E1,-1.8058024E-1,4.4246287E0,-1.0454315E1,-1.7754099E1,-1.5000664E0,3.035142E-1,-7.085747E0,-5.046065E-2,3.58693E-1,2.8004851E0,-1.203637E1,1.95974E-1,-1.735807E1,-7.448592E-2,2.8050774E-1,-1.2456518E1,-2.3332863E0,2.9516344E0,-6.217695E0,-3.19376E-1,2.8142574E-1,-9.967789E-2,3.7346736E-1,1.16065286E-1,-2.635143E-1,1.7253716E-1,5.900119E-1,-3.8625515E-1,5.7454355E-2,-3.2339266E-1,6.687656E-2,1.8605301E-1,4.143206E-1,-1.7311695E-1,1.254384E-1,2.3873554E-1,-1.7974941E-1,2.4125536E-1,-2.7952167E-1,-1.5033032E-1,5.4164904E-1,2.260123E-1,-9.6935615E-2,5.403557E-1,8.606949E-2,1.9389743E-1,-1.9314058E-1,-3.1862527E-1,1.4583722E-1,3.360473E-1,-3.575816E-3,5.8113337E-1,3.779234E-1,5.770369E-1,6.5806255E-2,-7.9500444E-2,2.849689E-1,1.4735213E-1,1.5243405E-2,1.354936E-1,-2.003593E-1,5.2081144E-1,-7.6765575E-2,4.092993E-2,5.372392E-1,1.8232459E-1,-7.208639E-2,-1.4976113E-1,-4.7162253E-1,-5.665666E-1,-1.1619053E-2,3.6434677E-1,1.0764381E-2,-1.8892738E-1,2.549355E-1,-4.539833E-2,-4.2059612E-1,-1.6415432E-1,1.6121559E-1,-3.8680026E-1,6.76296E-2,4.427186E-1,7.7952474E-2,-7.135326E-2,1.532652E-1,3.5244012E-1,-5.0692126E-2,-1.2396163E-1,2.2021765E-1,8.36677E-3,-3.8895488E-1,-5.37443E-1,-4.372238E-2,-2.3091167E-1,2.9954582E-1,5.197343E-2,-2.867881E-1,-2.399866E-1,2.9213408E-1,-1.01049215E-1,-3.8160774E-1,-5.700456E-1,-3.1300828E-2,-4.0543538E-1,-5.219409E-2,3.816894E-1,-2.2033064E-1,-2.5225298E-2,3.3010173E-1,-1.9955002E-1,2.9516688E-1],"categories":[],"categories_nodes":[],"categories_segments":[],"categories_sizes":[],"default_left":[0,0,0,0,0,0,0,0,0,0,0,0,0,0,0,0,0,0,0,0,0,0,0,0,0,0,0,0,0,0,0,0,0,0,0,0,0,0,0,0,0,0,0,0,0,0,0,0,0,0,0,0,0,0,0,0,0,0,0,0,0,0,0,0,0,0,0,0,0,0,0,0,0,0,0,0,0,0,0,0,0,0,0,0,0,0,0,0,0,0,0,0,0,0,0,0,0,0,0,0,0,0,0,0,0,0,0,0,0,0,0,0,0,0,0,0,0,0,0,0,0,0,0,0,0,0,0,0,0,0,0,0,0,0,0,0,0,0,0,0,0,0,0,0,0,0,0,0,0,0,0,0,0,0,0,0,0,0,0,0,0,0,0,0,0,0,0,0,0,0,0,0,0,0,0,0,0,0,0,0,0,0,0,0,0,0,0,0,0,0,0,0,0,0,0,0,0,0,0,0,0,0,0,0,0,0,0,0,0,0,0,0,0,0,0,0,0,0,0,0,0,0,0,0,0,0,0,0,0,0,0,0,0,0,0,0,0,0,0,0,0,0,0,0,0,0,0,0,0,0,0,0,0,0,0,0,0,0,0,0,0,0,0,0,0,0,0],"id":4,"left_children":[1,3,5,7,9,11,13,15,17,19,21,23,25,27,29,31,33,35,37,39,41,-1,43,-1,45,47,49,51,53,55,57,59,61,63,65,67,69,71,73,-1,75,77,79,-1,81,-1,-1,83,-1,-1,85,87,89,91,93,95,97,99,101,-1,103,105,107,109,111,113,115,117,-1,119,121,123,125,127,129,131,133,135,137,139,141,-1,-1,-1,-1,143,145,147,149,151,153,-1,-1,155,157,159,161,163,165,167,169,171,173,-1,-1,175,177,179,181,183,185,187,189,191,193,195,197,199,201,203,205,-1,207,-1,-1,-1,-1,-1,-1,209,211,-1,213,-1,-1,215,217,-1,-1,219,221,-1,-1,223,225,-1,-1,-1,227,229,231,233,235,237,239,241,-1,243,245,247,249,-1,251,-1,-1,253,255,-1,257,-1,-1,259,261,263,265,-1,-1,-1,-1,-1,-1,-1,-1,-1,-1,-1,-1,-1,-1,-1,-1,-1,-1,-1,-1,-1,-1,-1,-1,-1,-1,-1,-1,-1,-1,-1,-1,-1,-1,-1,-1,-1,-1,-1,-1,-1,-1,-1,-1,-1,-1,-1,-1,-1,-1,-1,-1,-1,-1,-1,-1,-1,-1,-1,-1,-1,-1,-1,-1,-1,-1,-1,-1,-1,-1,-1,-1,-1,-1,-1,-1,-1,-1,-1,-1,-1,-1,-1,-1,-1,-1,-1,-1,-1,-1,-1,-1],"loss_changes":[2.3890425E6,2.1340075E5,2.1235238E5,4.6018734E4,1.00215E4,1.2646375E4,4.0464594E4,9.857129E3,7.006453E3,3.12575E3,1.009875E3,4.0125E1,2.5931562E3,6.938552E3,1.1578953E4,3.234291E3,9.505861E3,3.884375E3,4.30942E3,1.0804688E3,1.633875E3,0E0,8.565E2,0E0,5.209374E2,4.955E2,3.2037031E3,5.2011235E3,2.1609321E3,4.6152344E3,8.730945E3,2.7231545E3,3.538625E3,7.4920786E3,3.8171133E3,2.1684062E3,2.0123203E3,1.4418392E3,3.0551055E3,0E0,1.4675239E3,2.4285295E3,1.4982461E3,0E0,2.254375E2,0E0,0E0,1.9042188E2,0E0,0E0,3.1212969E3,4.711076E3,3.781206E3,6.807056E1,2.6442812E3,4.363625E3,4.926758E3,4.0634414E3,6.283754E3,0E0,1.2152043E3,3.2446768E3,3.8510918E3,3.6025798E3,3.759792E3,3.750209E3,4.5483164E3,2.1559844E3,0E0,2.9942656E3,1.3965547E3,1.0547008E3,7.2987E2,1.058264E3,1.6783418E3,5.379329E2,1.893374E2,1.7444072E3,2.7580188E2,1.0882109E3,8.490833E2,0E0,0E0,0E0,0E0,1.2763594E3,5.0942014E2,5.6138855E2,4.476217E3,2.7743298E3,3.2380742E3,0E0,0E0,2.2658784E3,2.261298E3,2.9288281E3,2.1760012E3,6.9112244E2,3.5150586E3,3.533043E3,5.8363007E2,2.7078066E3,6.3960557E3,0E0,0E0,3.0993916E3,2.934646E3,7.961441E2,9.3110547E2,3.645027E3,5.037668E3,1.3249297E3,4.3159106E3,2.6672754E3,2.0256378E3,4.3632656E3,1.6990958E3,4.3801562E2,9.3581696E2,1.2136893E3,1.988333E3,0E0,1.3406328E3,0E0,0E0,0E0,0E0,0E0,0E0,7.283906E2,2.104253E3,0E0,1.0538605E1,0E0,0E0,7.145707E2,2.5508457E3,0E0,0E0,4.4457422E2,3.662071E2,0E0,0E0,2.803832E3,1.5577344E3,0E0,0E0,0E0,2.6895044E2,2.559859E3,2.0046465E3,1.5859478E3,1.8050981E3,2.2229966E3,1.6853674E3,1.8863555E3,0E0,8.64255E2,4.9613818E2,6.881094E2,1.95913E3,0E0,5.38242E2,0E0,0E0,2.1204138E3,2.2270977E3,0E0,3.5144766E3,0E0,0E0,2.076463E3,3.817531E3,2.975858E3,3.4303145E3,0E0,0E0,0E0,0E0,0E0,0E0,0E0,0E0,0E0,0E0,0E0,0E0,0E0,0E0,0E0,0E0,0E0,0E0,0E0,0E0,0E0,0E0,0E0,0E0,0E0,0E0,0E0,0E0,0E0,0E0,0E0,0E0,0E0,0E0,0E0,0E0,0E0,0E0,0E0,0E0,0E0,0E0,0E0,0E0,0E0,0E0,0E0,0E0,0E0,0E0,0E0,0E0,0E0,0E0,0E0,0E0,0E0,0E0,0E0,0E0,0E0,0E0,0E0,0E0,0E0,0E0,0E0,0E0,0E0,0E0,0E0,0E0,0E0,0E0,0E0,0E0,0E0,0E0,0E0,0E0,0E0,0E0,0E0,0E0,0E0,0E0,0E0,0E0,0E0,0E0,0E0,0E0],"parents":[2147483647,0,0,1,1,2,2,3,3,4,4,5,5,6,6,7,7,8,8,9,9,10,10,11,11,12,12,13,13,14,14,15,15,16,16,17,17,18,18,19,19,20,20,22,22,24,24,25,25,26,26,27,27,28,28,29,29,30,30,31,31,32,32,33,33,34,34,35,35,36,36,37,37,38,38,40,40,41,41,42,42,44,44,47,47,50,50,51,51,52,52,53,53,54,54,55,55,56,56,57,57,58,58,60,60,61,61,62,62,63,63,64,64,65,65,66,66,67,67,69,69,70,70,71,71,72,72,73,73,74,74,75,75,76,76,77,77,78,78,79,79,80,80,85,85,86,86,87,87,88,88,89,89,90,90,93,93,94,94,95,95,96,96,97,97,98,98,99,99,100,100,101,101,102,102,105,105,106,106,107,107,108,108,109,109,110,110,111,111,112,112,113,113,114,114,115,115,116,116,117,117,118,118,119,119,120,120,122,122,129,129,130,130,132,132,135,135,136,136,139,139,140,140,143,143,144,144,148,148,149,149,150,150,151,151,152,152,153,153,154,154,155,155,157,157,158,158,159,159,160,160,162,162,165,165,166,166,168,168,171,171,172,172,173,173,174,174],"right_children":[2,4,6,8,10,12,14,16,18,20,22,24,26,28,30,32,34,36,38,40,42,-1,44,-1,46,48,50,52,54,56,58,60,62,64,66,68,70,72,74,-1,76,78,80,-1,82,-1,-1,84,-1,-1,86,88,90,92,94,96,98,100,102,-1,104,106,108,110,112,114,116,118,-1,120,122,124,126,128,130,132,134,136,138,140,142,-1,-1,-1,-1,144,146,148,150,152,154,-1,-1,156,158,160,162,164,166,168,170,172,174,-1,-1,176,178,180,182,184,186,188,190,192,194,196,198,200,202,204,206,-1,208,-1,-1,-1,-1,-1,-1,210,212,-1,214,-1,-1,216,218,-1,-1,220,222,-1,-1,224,226,-1,-1,-1,228,230,232,234,236,238,240,242,-1,244,246,248,250,-1,252,-1,-1,254,256,-1,258,-1,-1,260,262,264,266,-1,-1,-1,-1,-1,-1,-1,-1,-1,-1,-1,-1,-1,-1,-1,-1,-1,-1,-1,-1,-1,-1,-1,-1,-1,-1,-1,-1,-1,-1,-1,-1,-1,-1,-1,-1,-1,-1,-1,-1,-1,-1,-1,-1,-1,-1,-1,-1,-1,-1,-1,-1,-1,-1,-1,-1,-1,-1,-1,-1,-1,-1,-1,-1,-1,-1,-1,-1,-1,-1,-1,-1,-1,-1,-1,-1,-1,-1,-1,-1,-1,-1,-1,-1,-1,-1,-1,-1,-1,-1,-1,-1],"split_conditions":[3.426921E1,5.4095837E1,1.5362288E1,1.1599304E1,6.030131E1,7.232956E0,6.207856E0,2.237214E1,3.365E0,2.905E0,1.2E0,2.9E1,1.199E0,3.4E0,2.0477997E1,-2.503641E1,6.844336E0,5.721114E1,4.7224777E1,5.5904205E1,1.166109E1,8.037559E-1,5.9266556E1,-7.0731527E-1,-4.4361597E-1,1.8237082E0,2.7258E-1,-6.669916E0,-1.2602272E0,5.3532253E1,1.725528E1,1.752E0,3.3078146E0,3.8936188E1,6E0,1.0668114E-1,-5.673172E0,1.4402E0,2.4729474E-1,6.295884E-1,2.301565E0,2.2523844E1,2.341254E1,4.5672037E-2,-5.256128E0,2.652919E-2,-3.423678E-1,1.0274702E2,-9.013548E-2,1.1074903E-1,2.6932547E1,2.634555E0,3.152289E1,-2.2246962E1,2.8295077E-2,1.2091899E0,1.659E0,1.2091899E0,-5.83542E0,-3.6035517E-1,1.3E1,-9.9009905E0,4E0,1.7534E0,5.609756E-1,3.499E0,1.9255844E1,4.2934E0,-6.6845775E-2,5.9431156E1,1.2075E0,2.3596996E1,8E0,4.8380844E1,5.3269565E-1,7.043736E1,9.5734695E1,-1.854496E0,4.6666667E-1,8E-1,3.6446865E1,9.1774024E-2,6.8973595E-1,-6.531719E-1,-8.748799E-2,5.5525196E1,6.7741936E-1,3.0156693E1,-2.8925295E1,1.4914842E0,-1.32384E0,-2.436632E-2,-2.7774826E-1,1.9199125E0,1.8331451E1,2.3363752E0,1.8037235E3,-4.0572E-1,-3.1662855E1,2.0707428E1,1E0,3.632E0,-5.19267E0,3.5668397E-1,-9.12944E-2,1.3751325E1,3.4747116E1,-4.6461883E0,7.33E-1,1.2070476E1,3.635481E0,2.489E0,1.0824135E1,1.0306622E0,2E0,-1.9673667E0,1.143303E1,1.96413E1,1.6147446E1,2.434E0,6.8292627E0,-7.3138796E-2,6.2589134E1,2.3588873E-1,-1.7133851E-1,-3.8308793E-1,2.6017569E-2,-3.3510774E-1,9.575417E-2,7.556787E1,9E0,-1.5028262E-1,1.3117834E0,4.655771E-1,4.853856E-2,3.80415E0,7.4740845E-1,8.172207E-3,-2.4863142E-1,5.3934402E1,3.261321E1,-1.8206078E-1,2.0037211E-1,1.2874916E1,4.1968484E0,-1.3233423E-1,1.5916806E-1,-2.4346404E-2,1.0070025E1,-8.076527E-1,8.33E-1,1.15384616E-1,3.3370388E1,-1.1476815E1,2.1E1,7.252969E1,-1.8058024E-1,1.4587335E1,-5.72656E0,2.7E1,1E0,3.035142E-1,1.333773E1,-5.046065E-2,3.58693E-1,1.3900925E0,3.73867E2,1.95974E-1,5.8E1,-7.448592E-2,2.8050774E-1,3.4281136E1,3.894E0,8E0,5.0326595E1,-3.19376E-1,2.8142574E-1,-9.967789E-2,3.7346736E-1,1.16065286E-1,-2.635143E-1,1.7253716E-1,5.900119E-1,-3.8625515E-1,5.7454355E-2,-3.2339266E-1,6.687656E-2,1.8605301E-1,4.143206E-1,-1.7311695E-1,1.254384E-1,2.3873554E-1,-1.7974941E-1,2.4125536E-1,-2.7952167E-1,-1.5033032E-1,5.4164904E-1,2.260123E-1,-9.6935615E-2,5.403557E-1,8.606949E-2,1.9389743E-1,-1.9314058E-1,-3.1862527E-1,1.4583722E-1,3.360473E-1,-3.575816E-3,5.8113337E-1,3.779234E-1,5.770369E-1,6.5806255E-2,-7.9500444E-2,2.849689E-1,1.4735213E-1,1.5243405E-2,1.354936E-1,-2.003593E-1,5.2081144E-1,-7.6765575E-2,4.092993E-2,5.372392E-1,1.8232459E-1,-7.208639E-2,-1.4976113E-1,-4.7162253E-1,-5.665666E-1,-1.1619053E-2,3.6434677E-1,1.0764381E-2,-1.8892738E-1,2.549355E-1,-4.539833E-2,-4.2059612E-1,-1.6415432E-1,1.6121559E-1,-3.8680026E-1,6.76296E-2,4.427186E-1,7.7952474E-2,-7.135326E-2,1.532652E-1,3.5244012E-1,-5.0692126E-2,-1.2396163E-1,2.2021765E-1,8.36677E-3,-3.8895488E-1,-5.37443E-1,-4.372238E-2,-2.3091167E-1,2.9954582E-1,5.197343E-2,-2.867881E-1,-2.399866E-1,2.9213408E-1,-1.01049215E-1,-3.8160774E-1,-5.700456E-1,-3.1300828E-2,-4.0543538E-1,-5.219409E-2,3.816894E-1,-2.2033064E-1,-2.5225298E-2,3.3010173E-1,-1.9955002E-1,2.9516688E-1],"split_indices":[40,14,14,28,14,14,28,13,66,66,66,62,66,66,42,19,20,13,1,10,27,0,1,0,55,61,27,20,55,13,13,66,53,14,62,32,20,49,61,0,16,20,9,0,11,0,0,13,0,0,52,27,0,11,55,61,27,61,20,0,5,20,21,49,36,66,27,49,0,13,27,53,62,1,52,0,13,11,24,35,0,0,0,0,0,40,36,63,10,30,19,0,0,57,9,31,65,16,10,1,3,66,19,0,0,0,14,17,66,14,16,49,27,61,15,57,19,52,9,66,17,0,0,0,0,0,0,0,0,13,5,0,17,0,0,27,61,0,0,1,11,0,0,14,55,0,0,0,19,57,66,35,14,10,21,0,0,27,16,22,3,0,0,0,0,31,2,0,5,0,0,27,66,62,14,0,0,0,0,0,0,0,0,0,0,0,0,0,0,0,0,0,0,0,0,0,0,0,0,0,0,0,0,0,0,0,0,0,0,0,0,0,0,0,0,0,0,0,0,0,0,0,0,0,0,0,0,0,0,0,0,0,0,0,0,0,0,0,0,0,0,0,0,0,0,0,0,0,0,0,0,0,0,0,0,0,0,0,0,0,0,0,0,0,0,0,0],"split_type":[0,0,0,0,0,0,0,0,0,0,0,0,0,0,0,0,0,0,0,0,0,0,0,0,0,0,0,0,0,0,0,0,0,0,0,0,0,0,0,0,0,0,0,0,0,0,0,0,0,0,0,0,0,0,0,0,0,0,0,0,0,0,0,0,0,0,0,0,0,0,0,0,0,0,0,0,0,0,0,0,0,0,0,0,0,0,0,0,0,0,0,0,0,0,0,0,0,0,0,0,0,0,0,0,0,0,0,0,0,0,0,0,0,0,0,0,0,0,0,0,0,0,0,0,0,0,0,0,0,0,0,0,0,0,0,0,0,0,0,0,0,0,0,0,0,0,0,0,0,0,0,0,0,0,0,0,0,0,0,0,0,0,0,0,0,0,0,0,0,0,0,0,0,0,0,0,0,0,0,0,0,0,0,0,0,0,0,0,0,0,0,0,0,0,0,0,0,0,0,0,0,0,0,0,0,0,0,0,0,0,0,0,0,0,0,0,0,0,0,0,0,0,0,0,0,0,0,0,0,0,0,0,0,0,0,0,0,0,0,0,0,0,0,0,0,0,0,0,0,0,0,0,0,0,0,0,0,0,0,0,0,0,0,0,0,0,0],"sum_hessian":[9.822E3,4.833E3,4.989E3,2.464E3,2.369E3,2.684E3,2.305E3,1.312E3,1.152E3,8.33E2,1.536E3,1.492E3,1.192E3,6.24E2,1.681E3,2.11E2,1.101E3,9.63E2,1.89E2,6.48E2,1.85E2,5.03E2,1.033E3,1.48E3,1.2E1,3.71E2,8.21E2,5.01E2,1.23E2,8.07E2,8.74E2,1.8E1,1.93E2,7.83E2,3.18E2,4.56E2,5.07E2,2.3E1,1.66E2,6.1E2,3.8E1,4.6E1,1.39E2,3E0,1.03E3,3E0,9E0,3.67E2,4E0,5E0,8.16E2,1.57E2,3.44E2,6E0,1.17E2,3.63E2,4.44E2,1.39E2,7.35E2,6E0,1.2E1,9.3E1,1E2,3.46E2,4.37E2,1.72E2,1.46E2,4.52E2,4E0,1.65E2,3.42E2,1.1E1,1.2E1,9E0,1.57E2,1.2E1,2.6E1,3.8E1,8E0,1.32E2,7E0,3E0,1.027E3,3.64E2,3E0,8.08E2,8E0,1.4E1,1.43E2,8.9E1,2.55E2,3E0,3E0,8.8E1,2.9E1,3.46E2,1.7E1,8E0,4.36E2,1.33E2,6E0,2.27E2,5.08E2,7E0,5E0,1.9E1,7.4E1,7E0,9.3E1,2.31E2,1.15E2,2.23E2,2.14E2,1.49E2,2.3E1,9.2E1,5.4E1,4.43E2,9E0,9E0,1.56E2,3E0,3.39E2,8E0,3E0,8E0,4E0,4E0,5E0,3E1,1.27E2,3E0,9E0,2.3E1,3E0,9E0,2.9E1,5E0,3E0,1.24E2,8E0,3E0,4E0,2.54E2,5.54E2,3E0,5E0,5E0,9E0,3.3E1,1.1E2,4E1,4.9E1,6.9E1,1.86E2,8.3E1,5E0,1.9E1,1E1,3.33E2,1.3E1,5E0,1.2E1,3E0,5E0,1.4E1,4.22E2,3E0,1.3E2,3E0,3E0,1.92E2,3.5E1,8.8E1,4.2E2,1.3E1,6E0,1.1E1,6.3E1,4E0,3E0,1.3E1,8E1,1.1E1,2.2E2,7E1,4.5E1,1.95E2,2.8E1,5.2E1,1.62E2,1.39E2,1E1,3E0,2E1,6E0,8.6E1,3.7E1,1.7E1,4.38E2,5E0,6E0,3E0,6E0,3E0,1.39E2,1.7E1,7.1E1,2.68E2,2.5E1,5E0,1.3E1,1.14E2,6E0,3E0,5E0,4E0,2.3E1,6E0,3E0,1.21E2,4E0,4E0,3.7E1,2.17E2,5.49E2,5E0,6E0,3E0,1.8E1,1.5E1,1.7E1,9.3E1,1.9E1,2.1E1,4.2E1,7E0,1.7E1,5.2E1,1.56E2,3E1,7.3E1,1E1,4E0,1.5E1,3E0,7E0,3.29E2,4E0,1E1,3E0,3E0,9E0,5E0,9E0,3.4E1,3.88E2,1.17E2,1.3E1,1.73E2,1.9E1,6E0,2.9E1,6.4E1,2.4E1,4.13E2,7E0],"tree_param":{"num_deleted":"0","num_feature":"67","num_nodes":"267","size_leaf_vector":"1"}},{"base_weights":[-1.1070762E-1,1.5016894E1,-1.49304285E1,7.5296474E0,2.056737E1,-7.2797875E0,-1.978727E1,3.8029397E0,1.043182E1,2.3070656E1,1.734903E1,-3.1316907E0,-1.064785E1,-1.5933308E1,-2.149733E1,2.3503613E0,7.6899533E0,1.6590557E1,8.861316E0,6.941864E-1,2.3253436E0,1.5971205E1,2.1059797E1,5.0176373E0,-3.6616666E0,-9.112864E0,-1.5175421E1,-2.003223E1,-1.4771049E1,-2.0416634E1,-7.1452516E-1,4.15288E0,-3.675534E0,-5.118882E0,8.321122E0,1.6993092E1,-6.549024E-2,5.0553703E0,1.150183E1,2.3759998E-1,-1.4391159E-1,1.1514459E1,1.7002398E1,2.1177965E1,7.451522E-2,-5.478859E0,9.013239E0,-4.176438E0,6.25762E0,1.2639662E0,-9.898912E0,-1.8237574E1,-8.834068E0,-2.040225E1,-7.3068604E-2,-2.7495744E0,-1.5141803E1,-2.0463348E1,-3.169107E-2,-2.9672005E0,5.4029164E0,1.6910506E0,-7.6943116E0,3.5102185E-2,-2.1831426E-1,1.0698597E1,4.5189624E0,5.141585E-1,9.4145454E-2,1.5074208E0,8.5634985E0,1.1645125E1,-1.3163945E-1,1.3127308E1,3.6850123E0,1.25148115E1,1.811672E1,5.0305486E0,2.1373678E1,2.6731884E-1,-1.1746086E1,-6.6140366E-1,1.2024304E1,-7.177379E0,-2.2733896E0,-2.2984586E0,1.3443808E1,-4.536041E0,1.1622068E1,-1.1484053E1,-6.02405E0,-1.869746E1,6.5203286E-3,-1.2269993E1,3.47247E0,-2.0612698E1,-1.1366207E-1,-7.2882147E0,2.6948854E-1,-4.1117268E0,-1.5431829E1,-6.148177E-1,-4.5875385E-2,-1.3074509E1,1.5838519E-1,1.0530733E1,4.044175E0,-3.0047412E0,1.0855169E1,-1.3090914E1,-2.5660543E0,-5.430923E0,1.1815679E1,2.6464835E-1,8.484101E0,-2.9843621E0,8.057858E0,9.977909E-1,9.948813E0,8.319519E0,1.2880003E1,-9.948428E-2,1.3693263E1,8.607523E0,-6.717095E0,1.4964572E1,5.8342175E0,1.8235283E1,2.967525E0,-1.0166192E-2,2.0935757E-1,6.441486E-1,9.9158004E-2,-4.0956038E-1,-2.2665853E-2,1.6520561E-1,-4.8080287E0,1.3559294E1,-3.1535204E-2,-2.5666323E0,-9.092487E0,-3.1955674E0,7.2926474E0,4.7361197E0,-3.2302755E-1,4.691371E-1,-2.0816104E-2,-7.534437E0,7.0553546E0,-8.821948E-2,1.5423756E1,-1.2460951E1,-6.0307674E0,3.0313432E-1,-6.7534986E0,-3.920968E-2,-1.9064205E1,-1.6229317E1,-3.278051E0,-1.9078162E-1,7.161302E0,-1.2517457E-1,-2.0901552E1,2.1207938E0,-3.4120935E-1,5.3917804E0,-3.621535E-1,-1.0308163E0,-1.5579202E1,-4.2995355E-1,-5.0549526E-2,1.16154194E-1,-1.6425441E-1,3.8797715E-1,-2.2821365E-1,9.977019E-2,4.1673076E-1,2.9312527E-1,-1.5228991E-1,-3.9584525E-2,4.025268E-1,-4.6798605E-1,7.845416E-2,7.753323E-2,-2.459178E-1,-2.1583027E-1,6.3145235E-3,3.830711E-1,-8.415734E-2,1.5842192E-1,-1.300174E-1,3.2945913E-1,-6.571358E-2,-2.890953E-1,4.9166664E-2,3.5647902E-1,4.3778557E-2,1.0664352E-1,-1.786016E-1,-7.2640054E-2,3.1542823E-1,-8.684115E-2,2.936222E-1,4.0164092E-1,1.08285815E-1,4.256378E-1,-1.0526359E-1,3.1756952E-1,-9.756384E-2,-3.755304E-1,1.454722E-1,-1.030388E-2,4.6537012E-1,2.8693104E-1,-1.5880474E-1,5.5132234E-1,1.5288113E-1,-2.0896213E-2,1.3962968E-1,-0E0,-1.8534738E-1,1.7587664E-2,4.5876586E-1,1.6091302E-1,-1.9548112E-1,-4.31091E-1,-2.072889E-1,1.5610926E-1,-1.2994885E-1,3.7415576E-1,-6.8408005E-2,2.4899589E-1,-9.139543E-2,1.2818667E-1,-3.0313042E-1,2.0127606E-2,2.5203124E-1,5.348166E-1,6.0266075E-3,-2.7029407E-1,-4.358084E-1,-8.161216E-2,-2.1750826E-1,3.2880876E-2,-2.4040608E-1,-8.269715E-2,-5.8683956E-1,-1.2906192E-1,-5.2103794E-1,-2.18237E-1,2.0131756E-1,3.21102E-1,-1.1880954E-2,-6.3349074E-1,-1.2218257E-1,-2.010707E-2,1.14191115E-1,-4.755226E-2,2.4747401E-1,-9.1545425E-2,4.6648394E-2,-4.7172365E-1,-6.6196434E-2],"categories":[],"categories_nodes":[],"categories_segments":[],"categories_sizes":[],"default_left":[0,0,0,0,0,0,0,0,0,0,0,0,0,0,0,0,0,0,0,0,0,0,0,0,0,0,0,0,0,0,0,0,0,0,0,0,0,0,0,0,0,0,0,0,0,0,0,0,0,0,0,0,0,0,0,0,0,0,0,0,0,0,0,0,0,0,0,0,0,0,0,0,0,0,0,0,0,0,0,0,0,0,0,0,0,0,0,0,0,0,0,0,0,0,0,0,0,0,0,0,0,0,0,0,0,0,0,0,0,0,0,0,0,0,0,0,0,0,0,0,0,0,0,0,0,0,0,0,0,0,0,0,0,0,0,0,0,0,0,0,0,0,0,0,0,0,0,0,0,0,0,0,0,0,0,0,0,0,0,0,0,0,0,0,0,0,0,0,0,0,0,0,0,0,0,0,0,0,0,0,0,0,0,0,0,0,0,0,0,0,0,0,0,0,0,0,0,0,0,0,0,0,0,0,0,0,0,0,0,0,0,0,0,0,0,0,0,0,0,0,0,0,0,0,0,0,0,0,0,0,0,0,0,0,0,0,0,0,0,0,0,0,0,0,0,0,0,0,0,0,0,0,0,0,0,0,0,0,0,0,0,0,0],"id":5,"left_children":[1,3,5,7,9,11,13,15,17,19,21,23,25,27,29,31,33,35,37,-1,39,41,43,45,47,49,51,53,55,57,-1,59,61,63,65,67,-1,69,71,-1,-1,73,75,77,-1,79,81,83,85,87,89,91,93,95,-1,97,99,101,-1,103,105,107,109,-1,-1,111,113,-1,-1,115,117,119,-1,121,123,125,127,129,131,-1,133,135,137,139,141,143,145,147,149,151,153,155,-1,157,159,161,-1,163,-1,165,167,-1,-1,169,171,173,175,177,179,181,183,185,187,189,191,193,195,197,199,201,203,-1,205,207,209,211,213,215,217,-1,-1,-1,-1,-1,-1,-1,219,221,-1,223,225,227,229,231,-1,-1,-1,233,235,-1,237,239,241,-1,243,-1,245,247,249,-1,251,-1,253,255,-1,257,-1,259,261,-1,-1,-1,-1,-1,-1,-1,-1,-1,-1,-1,-1,-1,-1,-1,-1,-1,-1,-1,-1,-1,-1,-1,-1,-1,-1,-1,-1,-1,-1,-1,-1,-1,-1,-1,-1,-1,-1,-1,-1,-1,-1,-1,-1,-1,-1,-1,-1,-1,-1,-1,-1,-1,-1,-1,-1,-1,-1,-1,-1,-1,-1,-1,-1,-1,-1,-1,-1,-1,-1,-1,-1,-1,-1,-1,-1,-1,-1,-1,-1,-1,-1,-1,-1,-1,-1,-1,-1,-1,-1,-1,-1,-1,-1],"loss_changes":[2.2239335E6,2.0289488E5,1.85163E5,2.2431531E4,1.9836625E4,2.709414E4,1.77385E4,5.120043E3,1.0329781E4,1.83025E3,4.050625E3,3.9581602E3,6.4925703E3,2.5054844E3,1.8174375E3,7.5802363E3,2.322501E3,2.0201523E3,9.153742E3,0E0,7.870872E2,2.9578438E3,3.0834375E2,2.7397803E3,4.4547197E3,6.8010234E3,3.932707E3,8.9246875E2,3.1715938E3,1.1675E3,0E0,4.858549E3,3.5909558E3,2.8288184E2,1.8248867E3,6.0921875E1,0E0,4.915573E3,1.6331953E3,0E0,0E0,2.1701133E3,2.1577344E3,2.1957812E2,0E0,2.5391343E3,1.3487966E3,4.445079E3,2.9328115E3,4.2210454E3,4.197008E3,1.4897422E3,4.493198E3,8.971875E1,0E0,2.160584E3,1.95475E3,6.141875E2,0E0,2.6810776E3,2.8644307E3,3.463629E3,2.3506646E3,0E0,0E0,3.0321494E3,1.7467734E3,0E0,0E0,6.3228433E3,2.0262217E3,1.5038359E3,0E0,1.8451562E3,2.6596106E3,2.1993477E3,6.579375E2,1.5917157E2,2.7046875E1,0E0,2.6949365E2,6.194577E2,7.946846E2,2.5358135E3,4.569825E3,1.9120027E3,8.663843E2,1.9713435E3,1.7140466E3,2.3055703E3,3.26262E3,8.639414E2,0E0,2.4206475E3,1.2988303E3,2.4297656E2,0E0,1.2159769E3,0E0,2.6561047E3,1.42875E3,0E0,0E0,1.0133667E2,1.6320848E3,4.658327E3,2.2912979E3,1.7981227E3,9.783259E2,2.0321729E3,1.8071096E3,1.5685825E2,2.1564062E3,1.4990227E3,1.6170173E3,4.0858872E3,2.0609883E3,8.389329E2,1.3684336E3,3.003622E3,1.4862031E3,0E0,1.712123E3,1.02249194E3,1.6401923E3,1.075459E3,2.7661392E3,4.096875E2,1.0699822E2,0E0,0E0,0E0,0E0,0E0,0E0,0E0,9.6237946E1,6.1827686E2,0E0,3.3778418E3,1.7488477E3,4.55578E3,2.4899531E3,7.0922375E2,0E0,0E0,0E0,1.5218057E3,6.3161865E1,0E0,7.2524365E2,2.2474062E3,2.3547974E2,0E0,2.3531504E3,0E0,9.1352344E2,1.7507324E2,1.6596316E3,0E0,6.5566235E2,0E0,2.3492188E1,8.685722E1,0E0,4.570287E2,0E0,1.1308684E2,1.1461562E3,0E0,0E0,0E0,0E0,0E0,0E0,0E0,0E0,0E0,0E0,0E0,0E0,0E0,0E0,0E0,0E0,0E0,0E0,0E0,0E0,0E0,0E0,0E0,0E0,0E0,0E0,0E0,0E0,0E0,0E0,0E0,0E0,0E0,0E0,0E0,0E0,0E0,0E0,0E0,0E0,0E0,0E0,0E0,0E0,0E0,0E0,0E0,0E0,0E0,0E0,0E0,0E0,0E0,0E0,0E0,0E0,0E0,0E0,0E0,0E0,0E0,0E0,0E0,0E0,0E0,0E0,0E0,0E0,0E0,0E0,0E0,0E0,0E0,0E0,0E0,0E0,0E0,0E0,0E0,0E0,0E0,0E0,0E0,0E0,0E0,0E0,0E0,0E0,0E0,0E0,0E0,0E0,0E0,0E0],"parents":[2147483647,0,0,1,1,2,2,3,3,4,4,5,5,6,6,7,7,8,8,9,9,10,10,11,11,12,12,13,13,14,14,15,15,16,16,17,17,18,18,20,20,21,21,22,22,23,23,24,24,25,25,26,26,27,27,28,28,29,29,31,31,32,32,33,33,34,34,35,35,37,37,38,38,41,41,42,42,43,43,45,45,46,46,47,47,48,48,49,49,50,50,51,51,52,52,53,53,55,55,56,56,57,57,59,59,60,60,61,61,62,62,65,65,66,66,69,69,70,70,71,71,73,73,74,74,75,75,76,76,77,77,78,78,80,80,81,81,82,82,83,83,84,84,85,85,86,86,87,87,88,88,89,89,90,90,91,91,93,93,94,94,95,95,97,97,99,99,100,100,103,103,104,104,105,105,106,106,107,107,108,108,109,109,110,110,111,111,112,112,113,113,114,114,115,115,116,116,117,117,118,118,119,119,120,120,122,122,123,123,124,124,125,125,126,126,127,127,128,128,136,136,137,137,139,139,140,140,141,141,142,142,143,143,147,147,148,148,150,150,151,151,152,152,154,154,156,156,157,157,158,158,160,160,162,162,163,163,165,165,167,167,168,168],"right_children":[2,4,6,8,10,12,14,16,18,20,22,24,26,28,30,32,34,36,38,-1,40,42,44,46,48,50,52,54,56,58,-1,60,62,64,66,68,-1,70,72,-1,-1,74,76,78,-1,80,82,84,86,88,90,92,94,96,-1,98,100,102,-1,104,106,108,110,-1,-1,112,114,-1,-1,116,118,120,-1,122,124,126,128,130,132,-1,134,136,138,140,142,144,146,148,150,152,154,156,-1,158,160,162,-1,164,-1,166,168,-1,-1,170,172,174,176,178,180,182,184,186,188,190,192,194,196,198,200,202,204,-1,206,208,210,212,214,216,218,-1,-1,-1,-1,-1,-1,-1,220,222,-1,224,226,228,230,232,-1,-1,-1,234,236,-1,238,240,242,-1,244,-1,246,248,250,-1,252,-1,254,256,-1,258,-1,260,262,-1,-1,-1,-1,-1,-1,-1,-1,-1,-1,-1,-1,-1,-1,-1,-1,-1,-1,-1,-1,-1,-1,-1,-1,-1,-1,-1,-1,-1,-1,-1,-1,-1,-1,-1,-1,-1,-1,-1,-1,-1,-1,-1,-1,-1,-1,-1,-1,-1,-1,-1,-1,-1,-1,-1,-1,-1,-1,-1,-1,-1,-1,-1,-1,-1,-1,-1,-1,-1,-1,-1,-1,-1,-1,-1,-1,-1,-1,-1,-1,-1,-1,-1,-1,-1,-1,-1,-1,-1,-1,-1,-1,-1,-1],"split_conditions":[1.0870732E-2,1.716456E1,1.634992E1,7.836932E0,8.235412E0,8.580172E0,5.71489E1,6.844336E0,3.152289E1,3.93859E1,6.952437E1,2.634555E0,7.3883255E1,3.188787E1,3.143287E1,5.9375E-1,8.023763E0,4.6598E0,-1.955E-1,6.941864E-1,1.6E1,5.2974583E1,4.3048832E1,-1.6827318E-1,7.5E1,-8.614095E0,3.5E1,2.7458968E0,-3.6927001E0,3.63573E1,-7.1452516E-1,-2.1307352E1,1.3990338E0,-1.839831E1,2.214917E1,1.5463917E0,-6.549024E-2,1.769733E1,6.4466E0,2.3759998E-1,-1.4391159E-1,8.7234E1,-3.339548E0,-1.4822096E1,7.451522E-2,9.5463915E0,2E0,-1.1269844E1,1.3857918E0,2.493358E0,2.134656E0,1.821309E1,6.34E1,1.4239084E1,-7.3068604E-2,3.8E1,1E0,6.010562E1,-3.169107E-2,2E0,2.373189E1,8.3333336E-2,1.6882141E0,3.5102185E-2,-2.1831426E-1,3.1707317E-1,4.102032E0,5.141585E-1,9.4145454E-2,6.36258E0,-1.309153E-1,1.0563188E1,-1.3163945E-1,-2.084363E0,-2.22819E-2,4.468908E1,4.0565807E1,1.2992748E1,2.5606895E1,2.6731884E-1,3.3662144E1,-9.782807E-2,8.238929E-1,5.51944E-2,3.5297474E1,1.1916474E0,5.4701744E1,2.0458607E1,-3.6978256E1,3.204705E1,2.870552E0,-3.5704362E0,6.5203286E-3,7.157556E-1,-7.349042E-1,1.6775805E1,-1.1366207E-1,1.6E1,2.6948854E-1,3.9986426E-1,-3.473502E1,-6.148177E-1,-4.5875385E-2,1E1,2.3322105E1,8.5714287E-1,3.682166E1,7.1112456E0,1.4E1,8.380691E1,2.266061E0,5.9841705E1,1.3132212E1,5.806719E-1,1.7713124E0,4.2396475E-2,1.8637232E1,3.3E1,-9.76983E0,4.267083E1,4.784695E1,-9.948428E-2,2.8740413E0,5.546323E1,6.2400503E3,-1.245531E1,4.78873E1,2.6285324E0,1.9708122E1,-1.0166192E-2,2.0935757E-1,6.441486E-1,9.9158004E-2,-4.0956038E-1,-2.2665853E-2,1.6520561E-1,3.528E-2,-7.987647E-2,-3.1535204E-2,2.0689656E-1,3.2239723E1,1E0,7.3280655E1,5.2358925E1,-3.2302755E-1,4.691371E-1,-2.0816104E-2,4.203868E1,3.4072964E1,-8.821948E-2,6.82627E1,5.405405E-1,1.533665E0,3.0313432E-1,5E0,-3.920968E-2,1E0,-2.1395657E1,-2.6117386E1,-1.9078162E-1,3.448276E-1,-1.2517457E-1,6.7062E1,3E0,-3.4120935E-1,3.6363637E-1,-3.621535E-1,2.2871536E1,1.5463917E0,-4.2995355E-1,-5.0549526E-2,1.16154194E-1,-1.6425441E-1,3.8797715E-1,-2.2821365E-1,9.977019E-2,4.1673076E-1,2.9312527E-1,-1.5228991E-1,-3.9584525E-2,4.025268E-1,-4.6798605E-1,7.845416E-2,7.753323E-2,-2.459178E-1,-2.1583027E-1,6.3145235E-3,3.830711E-1,-8.415734E-2,1.5842192E-1,-1.300174E-1,3.2945913E-1,-6.571358E-2,-2.890953E-1,4.9166664E-2,3.5647902E-1,4.3778557E-2,1.0664352E-1,-1.786016E-1,-7.2640054E-2,3.1542823E-1,-8.684115E-2,2.936222E-1,4.0164092E-1,1.08285815E-1,4.256378E-1,-1.0526359E-1,3.1756952E-1,-9.756384E-2,-3.755304E-1,1.454722E-1,-1.030388E-2,4.6537012E-1,2.8693104E-1,-1.5880474E-1,5.5132234E-1,1.5288113E-1,-2.0896213E-2,1.3962968E-1,-0E0,-1.8534738E-1,1.7587664E-2,4.5876586E-1,1.6091302E-1,-1.9548112E-1,-4.31091E-1,-2.072889E-1,1.5610926E-1,-1.2994885E-1,3.7415576E-1,-6.8408005E-2,2.4899589E-1,-9.139543E-2,1.2818667E-1,-3.0313042E-1,2.0127606E-2,2.5203124E-1,5.348166E-1,6.0266075E-3,-2.7029407E-1,-4.358084E-1,-8.161216E-2,-2.1750826E-1,3.2880876E-2,-2.4040608E-1,-8.269715E-2,-5.8683956E-1,-1.2906192E-1,-5.2103794E-1,-2.18237E-1,2.0131756E-1,3.21102E-1,-1.1880954E-2,-6.3349074E-1,-1.2218257E-1,-2.010707E-2,1.14191115E-1,-4.755226E-2,2.4747401E-1,-9.1545425E-2,4.6648394E-2,-4.7172365E-1,-6.6196434E-2],"split_indices":[39,28,28,28,40,28,40,20,0,18,38,27,38,0,28,24,9,49,20,0,46,1,8,55,5,19,46,29,57,16,0,11,31,10,8,61,0,27,49,0,0,51,11,11,0,18,4,11,29,54,11,10,51,11,0,46,46,11,0,22,0,35,31,0,0,24,28,0,0,19,57,28,0,57,55,7,20,8,28,0,7,55,61,39,8,29,6,9,11,27,11,55,0,61,57,28,0,46,0,57,20,0,0,5,53,37,11,6,46,0,29,0,54,61,31,32,9,5,19,6,7,0,29,6,65,19,64,30,9,0,0,0,0,0,0,0,16,55,0,35,0,22,0,6,0,0,0,6,7,0,0,37,16,0,5,0,46,20,10,0,35,0,64,15,0,37,0,8,61,0,0,0,0,0,0,0,0,0,0,0,0,0,0,0,0,0,0,0,0,0,0,0,0,0,0,0,0,0,0,0,0,0,0,0,0,0,0,0,0,0,0,0,0,0,0,0,0,0,0,0,0,0,0,0,0,0,0,0,0,0,0,0,0,0,0,0,0,0,0,0,0,0,0,0,0,0,0,0,0,0,0,0,0,0,0,0,0,0,0,0,0,0,0],"split_type":[0,0,0,0,0,0,0,0,0,0,0,0,0,0,0,0,0,0,0,0,0,0,0,0,0,0,0,0,0,0,0,0,0,0,0,0,0,0,0,0,0,0,0,0,0,0,0,0,0,0,0,0,0,0,0,0,0,0,0,0,0,0,0,0,0,0,0,0,0,0,0,0,0,0,0,0,0,0,0,0,0,0,0,0,0,0,0,0,0,0,0,0,0,0,0,0,0,0,0,0,0,0,0,0,0,0,0,0,0,0,0,0,0,0,0,0,0,0,0,0,0,0,0,0,0,0,0,0,0,0,0,0,0,0,0,0,0,0,0,0,0,0,0,0,0,0,0,0,0,0,0,0,0,0,0,0,0,0,0,0,0,0,0,0,0,0,0,0,0,0,0,0,0,0,0,0,0,0,0,0,0,0,0,0,0,0,0,0,0,0,0,0,0,0,0,0,0,0,0,0,0,0,0,0,0,0,0,0,0,0,0,0,0,0,0,0,0,0,0,0,0,0,0,0,0,0,0,0,0,0,0,0,0,0,0,0,0,0,0,0,0,0,0,0,0,0,0,0,0,0,0,0,0,0,0,0,0,0,0,0,0,0,0],"sum_hessian":[9.906E3,4.902E3,5.004E3,2.094E3,2.808E3,1.95E3,3.054E3,9.24E2,1.17E3,1.555E3,1.253E3,8.8E2,1.07E3,9.61E2,2.093E3,6.81E2,2.43E2,2.24E2,9.46E2,1.549E3,6E0,9.41E2,3.12E2,5E1,8.3E2,8.15E2,2.55E2,1.87E2,7.74E2,1.475E3,6.18E2,5.26E2,1.55E2,9E0,2.34E2,2.2E2,4E0,3.96E2,5.5E2,3E0,3E0,1.93E2,7.48E2,3.09E2,3E0,1.3E1,3.7E1,7.93E2,3.7E1,5.7E1,7.58E2,1.63E2,9.2E1,1.82E2,5E0,2.5E1,7.49E2,1.471E3,4E0,7.7E1,4.49E2,6.8E1,8.7E1,3E0,6E0,1.36E2,9.8E1,2.16E2,4E0,2.02E2,1.94E2,5.47E2,3E0,1.56E2,3.7E1,1.66E2,5.82E2,6E0,3.03E2,3E0,1E1,1E1,2.7E1,3E2,4.93E2,1.9E1,1.8E1,3.9E1,1.8E1,5.28E2,2.3E2,1.59E2,4E0,7.2E1,2E1,1.78E2,4E0,2E1,5E0,2.2E1,7.27E2,1.468E3,3E0,1.3E1,6.4E1,8.4E1,3.65E2,4.8E1,2E1,3.7E1,5E1,7E0,1.29E2,5.1E1,4.7E1,1.22E2,8E1,3.2E1,1.62E2,1.63E2,3.84E2,4E0,1.52E2,2.6E1,1.1E1,1.15E2,5.1E1,5.76E2,6E0,3E0,3E0,3E2,3E0,7E0,3E0,3E0,7E0,2.4E1,3E0,9.3E1,2.07E2,4.54E2,3.9E1,1.2E1,7E0,1.5E1,3E0,3.3E1,6E0,4E0,1.4E1,4.4E2,8.8E1,6E0,2.24E2,4E0,1.55E2,4.6E1,2.6E1,4E0,1.6E1,5E0,1.73E2,7E0,1.3E1,1.1E1,1.1E1,8E0,7.19E2,1E1,3E0,4E1,2.4E1,7.6E1,8E0,3.49E2,1.6E1,3E0,4.5E1,4E0,1.6E1,3.2E1,5E0,2.8E1,2.2E1,4E0,3E0,1.22E2,7E0,2.4E1,2.7E1,3.8E1,9E0,4.7E1,7.5E1,4.7E1,3.3E1,2.6E1,6E0,6E0,1.56E2,1.8E1,1.45E2,3.61E2,2.3E1,1.49E2,3E0,2.3E1,3E0,7E0,4E0,4E0,1.11E2,3.9E1,1.2E1,5.67E2,9E0,3E0,3E0,3E0,4E0,4E0,2E1,3E1,6.3E1,4.9E1,1.58E2,5.1E1,4.03E2,2.4E1,1.5E1,8E0,4E0,5E0,2.8E1,3E0,3E0,1.1E1,3E0,1.79E2,2.61E2,3E1,5.8E1,3.1E1,1.93E2,6E0,1.49E2,7E0,3.9E1,2E1,6E0,9E0,7E0,1.69E2,4E0,4E0,3E0,4E0,7E0,4E0,4E0,7.1E2,9E0],"tree_param":{"num_deleted":"0","num_feature":"67","num_nodes":"263","size_leaf_vector":"1"}},{"base_weights":[-8.884375E-2,1.470353E1,-1.4472206E1,2.0614223E1,8.010821E0,-1.8781355E1,-6.7081857E0,1.7010937E1,2.213276E1,1.1372027E1,4.8059397E0,-2.0663826E1,-1.5087139E1,-3.0771945E0,-9.741322E0,1.8421555E1,1.2018629E1,2.0747923E1,2.3682453E1,1.6239952E1,9.971003E0,2.5103788E0,8.129287E0,-6.82975E-1,-1.942059E1,-1.7169985E1,-1.2785539E1,-4.283653E0,1.6101402E0,-8.049365E0,-1.3827285E1,1.8822796E1,9.663997E0,-3.2069602E0,1.2626048E1,2.0828224E1,5.7099413E-2,7.130219E-1,7.284084E-2,1.6444386E1,-0E0,6.5688543E0,1.2104147E1,-1.7699866E0,5.1204185E0,9.640845E0,3.2885723E0,-6.671393E-1,-1.8172709E1,-8.437833E-3,-1.7285938E1,-1.4647283E1,-8.342078E0,-8.18141E0,-2.458334E0,-2.8546426E0,8.074874E0,-1.1926777E1,-5.7332325E0,-1.6496124E1,-6.721366E0,1.8893217E1,9.371701E-2,4.1270292E-1,1.4851708E1,-2.032202E-1,7.514875E-2,1.3600388E1,2.502547E-1,6.2572306E-1,9.752382E-2,1.665343E1,1.3112067E-4,1.3631708E1,3.693788E0,1.328471E1,2.9528112E0,5.4315E0,-5.747544E0,5.8015037E0,-2.325433E0,9.997358E0,-5.2364197E0,-7.20677E0,4.8584085E0,-1.8285975E1,4.869495E-2,-1.74996E1,-4.0269876E0,-1.4869979E1,6.645708E-2,-1.0100529E1,1.6032525E0,2.014216E0,-1.0272454E1,-3.2872803E0,6.7751536E0,-5.5356145E0,9.341396E0,-7.227607E0,1.0215294E1,-1.342718E1,-5.917901E0,-1.1100116E1,-2.2246487E0,-1.7343805E1,-5.3561325E0,-8.2901535E0,2.7906516E-1,5.694911E-1,1.074679E-1,-2.1228966E-1,6.3794785E0,4.9031484E-1,2.7709046E-2,1.488588E1,2.657644E0,-6.975738E0,6.4626627E0,1.6864624E1,4.8199046E-2,-3.437661E-2,1.4181749E1,4.2822677E-1,8.944021E0,1.3806456E1,6.1931807E-1,-7.187248E0,7.736573E0,1.0328817E1,8.633045E-1,2.1457858E0,-8.906674E0,6.785618E0,7.853806E-1,-8.877022E0,3.5787513E0,5.1776543E0,1.1865189E1,-2.634029E-1,5.6182537E-2,-2.5823188E-1,-0E0,-3.7977786E0,5.966625E0,-1.8366331E1,6.867412E-2,-1.7628021E1,-4.2556126E-2,-1.9633311E-1,7.404233E-2,-0E0,-1.5151102E1,-1.1119752E1,2.6331115E0,7.6259193E0,-2.4209012E-1,8.181793E0,-3.7083309E0,-1.1953774E1,-2.5651555E0,-4.735745E0,2.0267148E0,-6.395451E-1,1.1946487E1,-7.8337255E0,7.030741E0,-1.4929286E-1,1.4513968E1,-2.5837275E-1,-2.0503888E-2,1.2722648E1,-7.53734E-1,-2.3394105E0,-1.4105068E1,-7.464071E0,4.413689E-1,-4.398569E0,-1.3540973E1,7.240716E-1,-5.917701E0,-1.765829E1,-7.8282386E-2,1.14042774E-1,-8.568143E0,-1.1260487E1,2.2545567E0,-2.1263346E-2,2.5421408E-1,4.9084166E-1,1.681226E-1,2.4038754E-1,-2.2041899E-1,1.8486237E-2,-2.9354E-1,-5.5092853E-2,2.9076055E-1,6.748399E-2,5.0956804E-1,4.898653E-2,4.5058978E-1,1.5241195E-1,-1.2118132E-1,3.2972673E-1,9.420738E-2,4.1858622E-1,-6.952935E-2,-1.6925776E-1,2.1190313E-1,2.2638172E-1,-3.4347263E-1,2.9168567E-1,-1.2921529E-1,3.8656032E-1,-1.02464385E-1,8.016775E-2,-2.1116234E-1,2.1042703E-1,-1.0467092E-1,-1.3368729E-1,-4.4294897E-1,1.5167536E-1,3.4192765E-1,-2.3546925E-1,1.6274934E-1,-0E0,-3.261617E-1,2.9462886E-1,-7.845497E-2,2.4934012E-1,-5.6773808E-2,1.550198E-1,4.2306197E-1,-2.2867854E-1,4.219976E-2,2.45929E-1,4.4875067E-2,-7.8711525E-2,-5.52816E-1,-5.309488E-1,-4.223025E-2,-1.652387E-1,1.8153991E-1,-4.7920248E-1,-2.1853372E-1,-3.556988E-1,7.839279E-2,3.2484984E-1,-1.6926625E-1,-1.4396204E-1,3.552122E-1,-3.0658026E-3,3.6486033E-1,-2.6585096E-1,2.660203E-1,-3.785062E-1,1.1281756E-1,9.128202E-2,-2.0465563E-1,2.3549523E-2,-1.9104594E-1,-1.0434038E-1,2.0332624E-1,-1.7350034E-1,1.4208126E-1,2.5524594E-2,4.1453502E-1,-4.898235E-1,5.958672E-3,3.3112147E-1,-3.98316E-2,4.8595396E-1,5.18233E-2,4.2297295E-1,-9.7222425E-2,-2.2756809E-1,2.2719376E-1,-2.1019474E-1,2.139664E-1,-4.3567273E-1,-7.4267484E-2,3.4632806E-2,-2.453118E-1,-4.9917355E-2,1.080258E-1,2.0063914E-1,-2.5991762E-1,-1.9622736E-1,-4.7086474E-1,-1.3448414E-1,1.6095164E-1,-2.0282522E-1,1.0398411E-1,-1.5282114E-1,-5.461262E-1,-3.404156E-1,-3.8765906E-4,1.1485041E-1,-4.0565538E-1,-2.3576346E-1,2.1233395E-1],"categories":[],"categories_nodes":[],"categories_segments":[],"categories_sizes":[],"default_left":[0,0,0,0,0,0,0,0,0,0,0,0,0,0,0,0,0,0,0,0,0,0,0,0,0,0,0,0,0,0,0,0,0,0,0,0,0,0,0,0,0,0,0,0,0,0,0,0,0,0,0,0,0,0,0,0,0,0,0,0,0,0,0,0,0,0,0,0,0,0,0,0,0,0,0,0,0,0,0,0,0,0,0,0,0,0,0,0,0,0,0,0,0,0,0,0,0,0,0,0,0,0,0,0,0,0,0,0,0,0,0,0,0,0,0,0,0,0,0,0,0,0,0,0,0,0,0,0,0,0,0,0,0,0,0,0,0,0,0,0,0,0,0,0,0,0,0,0,0,0,0,0,0,0,0,0,0,0,0,0,0,0,0,0,0,0,0,0,0,0,0,0,0,0,0,0,0,0,0,0,0,0,0,0,0,0,0,0,0,0,0,0,0,0,0,0,0,0,0,0,0,0,0,0,0,0,0,0,0,0,0,0,0,0,0,0,0,0,0,0,0,0,0,0,0,0,0,0,0,0,0,0,0,0,0,0,0,0,0,0,0,0,0,0,0,0,0,0,0,0,0,0,0,0,0,0,0,0,0,0,0,0,0,0,0,0,0,0,0,0,0,0,0,0,0,0,0,0,0,0,0,0,0,0,0,0,0,0,0,0,0,0,0,0,0,0,0,0,0,0,0],"id":6,"left_children":[1,3,5,7,9,11,13,15,17,19,21,23,25,27,29,31,33,35,37,39,41,43,45,-1,47,49,51,53,55,57,59,61,63,65,67,69,-1,-1,-1,71,-1,73,75,77,79,81,83,-1,85,-1,87,89,91,93,95,97,99,101,103,105,107,109,-1,111,113,-1,-1,115,117,-1,-1,119,-1,121,123,125,127,129,131,133,135,137,139,141,143,145,-1,147,149,151,-1,153,155,157,159,161,163,165,167,169,171,173,175,177,179,181,183,185,-1,-1,-1,-1,187,-1,-1,189,191,193,195,197,-1,-1,199,201,203,205,207,209,211,213,215,217,219,221,223,225,227,229,231,-1,-1,-1,-1,233,235,237,-1,239,-1,-1,-1,241,243,245,247,249,-1,251,253,255,257,259,261,263,265,267,269,-1,271,-1,-1,273,275,277,279,281,283,285,287,289,291,293,-1,-1,295,297,299,-1,-1,-1,-1,-1,-1,-1,-1,-1,-1,-1,-1,-1,-1,-1,-1,-1,-1,-1,-1,-1,-1,-1,-1,-1,-1,-1,-1,-1,-1,-1,-1,-1,-1,-1,-1,-1,-1,-1,-1,-1,-1,-1,-1,-1,-1,-1,-1,-1,-1,-1,-1,-1,-1,-1,-1,-1,-1,-1,-1,-1,-1,-1,-1,-1,-1,-1,-1,-1,-1,-1,-1,-1,-1,-1,-1,-1,-1,-1,-1,-1,-1,-1,-1,-1,-1,-1,-1,-1,-1,-1,-1,-1,-1,-1,-1,-1,-1,-1,-1,-1,-1,-1,-1,-1,-1,-1,-1,-1,-1,-1,-1,-1,-1],"loss_changes":[2.0940241E6,1.907535E5,1.6603944E5,1.1398625E4,2.4237422E4,2.0070375E4,1.9513172E4,4.0042344E3,3.48875E2,6.4173906E3,8.871549E3,2.3613125E3,3.7449688E3,4.722044E3,5.925625E3,8.241094E2,2.0962773E3,1.213E3,1.00159375E3,7.7233203E2,5.818414E3,7.9988574E3,3.2773125E3,0E0,1.947375E3,1.0470156E3,3.7047031E3,4.537126E3,5.1888486E3,5.8350117E3,4.4159023E3,1.9607812E2,1.9095449E3,3.879201E2,2.24133E3,1.215625E1,0E0,0E0,0E0,7.8702344E2,0E0,6.8388984E3,5.4675547E3,8.067385E3,2.3444805E3,2.2912383E3,2.3022417E3,0E0,2.4397188E3,0E0,1.063125E3,1.6739766E3,3.2697607E3,4.5662334E3,3.6656316E3,3.8894683E3,2.910835E3,1.7414727E3,8.381541E3,1.1684453E3,2.7257678E3,2.811875E2,0E0,1.2983832E3,4.174043E2,0E0,0E0,2.1672168E3,1.2577668E3,0E0,0E0,5.259258E2,0E0,9.3961914E2,4.455797E3,3.0315234E3,3.7853157E3,2.185952E3,4.629034E3,1.9691904E3,1.8523137E3,2.7577695E3,4.4951175E2,1.9867505E2,1.2447896E3,1.9356562E3,0E0,9.3346875E2,4.114595E2,1.5748516E3,0E0,2.212121E3,2.352801E3,1.6639232E3,2.0126465E3,3.348874E3,1.5985442E3,3.072077E3,2.1444512E3,6.731207E1,1.921812E3,1.2558281E3,6.593645E2,2.4767715E3,3.1278843E3,4.819961E2,9.38705E2,2.7863848E3,0E0,0E0,0E0,0E0,2.8732916E2,0E0,0E0,1.4589844E3,1.8594177E3,3.2860236E2,5.3445734E2,1.14671875E2,0E0,0E0,8.3160547E2,3.6571985E3,9.3222656E2,1.3027578E3,1.3294344E3,2.2412368E3,1.5185984E3,2.004145E3,9.849657E2,1.738506E3,2.9095547E3,2.29258E3,3.3001343E3,3.9399622E2,1.2309108E3,2.5979373E3,3.2311992E3,0E0,0E0,0E0,0E0,4.196773E2,9.318303E2,5.795625E2,0E0,4.2317188E2,0E0,0E0,0E0,6.998994E2,1.5557109E3,1.6833125E3,1.5857625E3,1.6614998E3,0E0,7.461455E2,2.2350369E3,1.7998125E3,1.1039227E3,3.0777314E3,2.678899E3,8.287502E2,4.0136816E2,5.6332417E3,7.151E2,0E0,1.7390063E2,0E0,0E0,1.5392051E3,1.4830118E3,1.2337736E3,6.3897266E2,3.9263574E2,1.7025822E2,3.150288E3,1.1745078E3,4.1323003E3,1.1721426E3,5.141797E2,0E0,0E0,4.6312012E2,2.6240635E3,1.5592771E3,0E0,0E0,0E0,0E0,0E0,0E0,0E0,0E0,0E0,0E0,0E0,0E0,0E0,0E0,0E0,0E0,0E0,0E0,0E0,0E0,0E0,0E0,0E0,0E0,0E0,0E0,0E0,0E0,0E0,0E0,0E0,0E0,0E0,0E0,0E0,0E0,0E0,0E0,0E0,0E0,0E0,0E0,0E0,0E0,0E0,0E0,0E0,0E0,0E0,0E0,0E0,0E0,0E0,0E0,0E0,0E0,0E0,0E0,0E0,0E0,0E0,0E0,0E0,0E0,0E0,0E0,0E0,0E0,0E0,0E0,0E0,0E0,0E0,0E0,0E0,0E0,0E0,0E0,0E0,0E0,0E0,0E0,0E0,0E0,0E0,0E0,0E0,0E0,0E0,0E0,0E0,0E0,0E0,0E0,0E0,0E0,0E0,0E0,0E0,0E0,0E0,0E0,0E0,0E0,0E0,0E0,0E0,0E0,0E0,0E0,0E0,0E0,0E0,0E0],"parents":[2147483647,0,0,1,1,2,2,3,3,4,4,5,5,6,6,7,7,8,8,9,9,10,10,11,11,12,12,13,13,14,14,15,15,16,16,17,17,18,18,19,19,20,20,21,21,22,22,24,24,25,25,26,26,27,27,28,28,29,29,30,30,31,31,32,32,33,33,34,34,35,35,39,39,41,41,42,42,43,43,44,44,45,45,46,46,48,48,50,50,51,51,52,52,53,53,54,54,55,55,56,56,57,57,58,58,59,59,60,60,61,61,63,63,64,64,67,67,68,68,71,71,73,73,74,74,75,75,76,76,77,77,78,78,79,79,80,80,81,81,82,82,83,83,84,84,85,85,87,87,88,88,89,89,91,91,92,92,93,93,94,94,95,95,96,96,97,97,98,98,99,99,100,100,101,101,102,102,103,103,104,104,105,105,106,106,107,107,112,112,115,115,116,116,117,117,118,118,119,119,122,122,123,123,124,124,125,125,126,126,127,127,128,128,129,129,130,130,131,131,132,132,133,133,134,134,135,135,136,136,137,137,138,138,143,143,144,144,145,145,147,147,151,151,152,152,153,153,154,154,155,155,157,157,158,158,159,159,160,160,161,161,162,162,163,163,164,164,165,165,166,166,168,168,171,171,172,172,173,173,174,174,175,175,176,176,177,177,178,178,179,179,180,180,181,181,184,184,185,185,186,186],"right_children":[2,4,6,8,10,12,14,16,18,20,22,24,26,28,30,32,34,36,38,40,42,44,46,-1,48,50,52,54,56,58,60,62,64,66,68,70,-1,-1,-1,72,-1,74,76,78,80,82,84,-1,86,-1,88,90,92,94,96,98,100,102,104,106,108,110,-1,112,114,-1,-1,116,118,-1,-1,120,-1,122,124,126,128,130,132,134,136,138,140,142,144,146,-1,148,150,152,-1,154,156,158,160,162,164,166,168,170,172,174,176,178,180,182,184,186,-1,-1,-1,-1,188,-1,-1,190,192,194,196,198,-1,-1,200,202,204,206,208,210,212,214,216,218,220,222,224,226,228,230,232,-1,-1,-1,-1,234,236,238,-1,240,-1,-1,-1,242,244,246,248,